{"HiddenLayer":[0.00001304812463872788,0.00045740216429363597,0.9985071156217233,0.9512032333327223,0.9527287339512853,0.000004136941938719652,0.9829612910650345,0.953595915323294,0.13426263159412852,0.052855936563777704,0.08238303054954675,2.0371771144965978e-7,0.022437673061898693,0.0006698003860730843,0.00004743719341117842,0.000020240420643795613,0.0000611085265395684,0.42344042846778013,1.640065838933231e-8,0.9483150550512452,0.8930122755572907,0.7080399558128565,0.9999900825395359,0.9999603219330742,0.9104565084661086,0.9914562912070498,0.00007638518072510407,0.9681881003450454,0.0000036046047062465456,0.9999958041375993,0.4472700438300913,0.00015862984518201314,0.8216537734204357,0.9999794242155063,0.00011844049300692131,0.00000214537468950377,0.9997888937835854,0.08905251468959453,0.015065887444479557,0.0003199750169858927,0.04179879433445341,0.0005074067382829787,0.021138774530774215,0.9942912277855591,0.520822803325478,1.3297115606842474e-7,0.3851855610144604,0.0002514507511232706,0.28095752300898547,0.9801762358905813,0.9234299768099222,0.000016492782254225968,0.15246405941194927,0.9133401659692963,0.737494856674538,0.9967867520206221,0.00010038879744796507,0.9882274795982161,0.2273667684304204,0.02315086193423297,0.0000068932634730145085,0.08614559937289856,0.000010012151586261017,0.9985836216839559,0.8929315358314979,0.9922123919044527,0.9950029319122722,0.9994552707058556,0.0001565780784424119,0.4689975120609128,0.016834709885824167,0.0025781388832835563,0.12275790153054482,0.9996016927196,0.9940325205329876,0.02699967748405171,0.9999998195263172,0.9189400785550603,0.9998025864085652,0.9995349681630097,0.9980476199415093,0.9843968488836742,1],"InputLayer":[0,0,0,0,0,0,0,0,0,0,0,0,0,0,0,0,0,0,0,0,0,0,0,0,0,0,0,0,0,0,0,0,0,0,0,0,0,0,0,0,0,0,0,0,0,0,0,0,0,0,0,0,0,0,0,0,0,0,0,0,0,0,0,0,0,0,0,0,0,0,0,0,0,0,0,0,0,0,0,0,0,0,0,0,0,0,0,0,0,0,0,0,0,0,0,0,0,0,0,0,0,0,0,0,0,0,0,0,0,0,0,0,0,0,0,0,0,0,0,0,0,0,0,0,0,0,0,0,0,0,0,0,0,0,0,0,0,0,0,0,0,0,0,0,0,0,0,0,0,0,0,0,0,0,0,0,0,0,0,0,0,0,0,0,0,0,0,0,0,0,0,0,0,0,0,0,0,0,0,0,0,0,0,0,0,0,0,0,0,0,0,0,0,0,0,0,0,0,0,1,0,0,0,0,0,0,0,0,0,0,0,0,0,0,0,0,0,0,1,1,0,0,0,0,1,0,0,0,0,0,0,0,0,0,0,0,0,1,1,1,1,0,0,1,1,0,0,0,0,0,0,0,0,0,0,0,0,1,1,1,1,1,0,1,1,1,0,0,0,0,0,0,0,0,0,0,1,1,1,0,1,1,1,1,1,1,0,0,0,0,0,0,0,0,0,0,1,1,1,0,1,1,1,1,1,1,0,0,0,0,0,0,0,0,0,0,1,1,1,0,0,1,1,1,1,1,0,0,0,0,0,0,0,0,0,0,1,1,1,0,0,1,1,1,1,1,0,0,0,0,0,1,1,0,0,0,1,1,1,0,0,1,1,1,1,1,1,1,1,1,1,1,1,0,0,0,1,1,1,0,1,1,1,1,1,1,1,1,1,1,1,1,0,0,0,0,0,1,1,1,1,1,1,1,1,1,1,0,0,0,0,0,0,0,0,0,0,1,1,1,0,1,1,1,1,1,1,0,0,0,0,0,0,0,0,0,0,0,1,1,0,1,1,1,0,1,1,0,0,0,0,0,0,0,0,0,0,0,0,1,1,1,1,0,0,1,1,0,0,0,0,0,0,0,0,0,0,0,0,0,1,1,1,0,0,1,1,0,0,0,0,0,0,0,0,0,0,0,0,0,1,1,0,0,0,1,1,0,0,0,0,0,0,0,0,0,0,0,0,0,0,0,0,0,0,1,1,1,0,0,0,0,0,0,0,0,0,0,0,0,1],"OutputLayer":[0.29595484134903144],"WeightHidden":[[-0.46908440805141965,-0.8335507063159342,-0.5749559329346585,-0.26595404894152186,-0.06997059859360465,-0.7062422563898954,0.19205597293038731,-0.1343923142598298,-0.9630133854353223,-0.44598837535481295,-0.11643097602222406,-0.06154682231505697,-0.207797703638408,-0.04324886517831623,0.7737967950327967,-0.7559515371822859,-0.3988954268937046,0.5047995309569722,0.7752385788375984,-0.6250313319246212,0.4638195059104477,0.9084762191896367,-0.6766647765858403,0.6990855647226019,0.045306023798155945,-0.15774306336197316,0.2963295527110171,0.12801384178840816,-0.4759350243366263,-0.09676796375580686,0.37168109910249264,0.0055692357474077135,-0.8265596409591195,0.01026695248774923,-0.7133842232452986,0.6233154835663354,-0.17209878818688157,-0.30221197672960004,0.17216537129519024,0.43145113742968144,0.11061115527298616,0.313000248447065,0.5719625755218584,-0.38078733312648544,0.8912967375016726,0.4761418956300145,-0.6585573869995149,-1.0851383657742188,-0.7223074253283455,0.12309581911785746,-0.9132038209277649,0.9361786840941205,0.8162505406487021,0.4966031673287162,-0.4110728808050529,0.47275183821049804,0.996188090503072,-0.21991223632484738,-0.7244007136433047,-0.3685059379475564,0.40136235445689566,-0.2969562995415245,-0.458838892765059,0.7297101624205808,-0.164740939870098,0.571546861939659,-0.36391914163677386,-0.515958154447176,0.09308947487306614,0.5603500320054939,0.4696237650497098,0.6468852681166617,0.15078438195245047,0.02439997831919357,0.8257457887836447,0.800803049837018,0.7116719836352314,-0.6726576342459142,0.6944994282723568,-0.0008952331752734572,-0.07915826088277902,0.8053802419035241,-0.1083504456144787,-0.11211699130848198,0.8504287003487154,-0.8704119765322321,-0.6270379667940478,-0.5547593737099479,-0.9674406580865368,0.07107048878308805,-0.4553633526271231,0.1857921308294015,-0.4564887446073517,0.3732184379030351,0.5598560351092466,0.6371526912838956,0.719694607617219,-0.24968559875570906,0.09795114212992474,-0.5012273409895303,0.1455753114506828,0.4362056515038584,0.5930606789640243,0.8885382160567136,0.9892939277176995,0.09011235698991697,0.5719100564822248,-0.559105378251441,0.8697214998484225,0.748858582521185,-0.4193148507244464,0.4696048138070774,-0.38587594252553936,0.5630519408761769,-0.07567561844424653,-0.37453543023985436,0.03997364754597962,0.21170210301360268,-0.5157840060706743,0.29567124462915123,0.25689504888045167,-0.029325531336575606,0.23799879763207307,0.5604650433299769,-0.7797653686215557,-0.4550345890179364,0.2915269406644964,-0.4768867521762052,0.9167569493712056,0.3324292380545361,-0.47188978300854906,-0.16470681025998601,-0.1531755610232152,-0.2643457307716479,0.8915302932317588,0.11983338254215578,-0.3942660435929471,-0.5826134510555159,0.8541588305475105,0.7421571038793537,0.3045537553077079,-0.5890987879593859,0.8278312948905692,0.4298551928716818,0.7913754644359723,-0.6757801672744254,0.5172446404015736,-0.3808087023369432,0.0335571730565571,0.7263884545794467,-0.3604833237680068,0.294111881982719,0.3358937095866371,0.5067464137728901,0.8215665128826789,0.5137906848647058,-0.1251991629711553,-0.4260298592763833,-0.47319922025169053,-0.9577817739668874,-0.8915129338801248,-0.1826932701920356,-0.3258096059364971,-1.0306457465285965,-0.6383799144901257,-0.9729147712312081,0.7085748511093203,0.2772211203573037,-0.8565673631698778,-0.8440777199536872,-0.15656771211409737,-0.6491475168844505,-0.20472219670213662,-0.5311310963860323,0.6021819477962925,-0.894485911942426,0.7142889794464927,0.5837107083180194,-0.3601663823848217,-0.7848092843601536,-0.18353836505364676,-0.3866709171464216,-0.8840956289242159,-0.18490046578357228,-0.5054256905525905,0.9916926128675289,0.8092427262026889,0.6972241956666967,0.7318922060371376,0.15194270931231937,-0.5909631155774567,0.0033353760128678623,-0.3246345798026624,0.12812709505144962,-0.45363239846552517,-0.22694740467003705,-0.28092083916916993,-0.7504303800693708,0.7018527241532595,0.9114181577469759,0.36032809781998926,0.3212969064746791,0.8291316631675688,-0.24264727423602567,-0.3139811735133061,0.16659028884663227,-0.16429059232760593,0.4377955402204837,-0.20956017001177202,-0.3283554452823521,-0.07243546356513299,0.3068377279095871,-0.5199527551165303,0.20416902896527642,-0.5095963909366551,0.4411736877066676,-0.18638486527170864,-0.2593759636803081,0.21793533421532124,0.5359457709402028,-0.32464293201924144,0.04516080370092089,0.6988054334408604,-1.0633327925482787,-0.9668842378487447,0.28190387866661926,-0.7985803293204656,-1.067230611444204,-0.5901573058500921,-0.8429109255506771,-0.2955231573796182,-0.2822330339415114,-0.18704460622439703,-1.0100035007248975,-1.0358895814900322,0.7651815543635865,-0.5398740868480548,-0.9451357453476571,0.9498069997813585,0.8897838578711498,0.5426501290776852,0.10474278034123685,-0.6521956575691569,-0.028751520720468923,-0.30515832152727096,0.535629880593573,-0.2489932921437391,-1.0023924964151842,-0.8012634036032942,0.5015637647986018,-0.12087573788052462,1.038901127114337,-0.8311905279689089,-0.8034794112104353,-1.0659481150065246,-1.0897549631959356,0.7360562547043551,-0.2666874956294075,0.2590364676787496,-0.07672346323753249,-0.5606898427381495,0.2005733130527332,-0.9896380754013512,-0.9005934110284842,0.8425266824045797,0.3153246331582066,0.17083583118769255,-0.17316105655184047,-1.04706077286231,0.6173101050650319,-0.005847988466200902,0.7192512625091764,0.07348367316056172,0.3908792931601396,-0.776659896153149,-0.0485576288790185,0.15782104555541238,0.14261419012134585,-0.703505544338782,0.2834360122801826,0.20496490269700762,-0.6602569324385243,-1.0892585428832622,-0.9143969459699601,-0.738603404821689,-0.17108029988780665,-0.6484003460552025,0.4092276717460056,-0.4887159513340795,-0.7745158057105593,0.060566959229172185,-0.18284418485804527,-0.8344182023201301,0.17282497916936138,0.7498871224005056,-0.3772709537210097,0.6128554756328143,-0.060732050838193996,0.7589392378497211,-0.6288806945825546,-0.04628051547794673,-0.9392328201889678,0.5970727443006296,0.7697321666836269,0.03561504475073325,-0.9499761941620722,-0.34792834044827353,-0.11660283049659592,-0.00773928769857445,-0.13666443123161917,-0.7712849510738156,-0.13168528424373785,-0.16078895551214353,0.23025652983249836,-0.33038309595942067,0.4033129454275256,-0.7877421885736406,0.5435693705065681,0.4238268526313823,-0.9752343513735918,0.6987734287421921,0.4964447193474831,0.8187617710151641,0.12315802068375438,0.45060126266965944,-0.8345889289336306,0.8598175513262496,-0.8162997416994934,0.7127541534706954,0.33886650052511075,-0.6081518406902524,0.19639268223490172,0.4178833010062466,0.46458657536734677,-0.3967410995980536,0.5209313804378001,-0.5826265106743185,0.6248446593867948,-0.8591473330116068,-0.5832949180021963,0.5585350575791438,0.6870559747193051,-0.04143763324941617,0.29699253698247313,-0.8362294463371411,-0.836355928286864,0.23692330858175653,0.4576877018991107,-0.2265640187587331,-0.7574477969503651,-0.5199707105019974,-0.8836581589796656,0.06449584630901847,0.5105692834125647,0.2890861441072286,-0.9738511761964669,-0.4957079497832282,0.08304351287696557,-0.1543134613417952,-0.6584915193053218,0.7374809247869308,-0.890806141513715,-0.3437214205728546,-0.19630420247985386,0.413069399230855,-0.573197616469204,-0.0446043978622776,0.9213870883886756,-0.8699695585504661,-0.1567991281821742,-0.5155174834287211,0.3278890327096169,0.08741444078911118,-0.7405355440693207,0.21411156237915047,0.7472485904322506,-0.941155395587617,0.22497397265145538,-0.9056322109814633,-0.17327315433827686,-0.8882757730881163,0.3782871896475717,0.10028562269571262,0.33473214009644947,0.5562112657310042,-0.6809444100566286,0.8678248749069937,-0.6415713168602468,0.1261853674437788,-0.20406408235346807,0.7111864417752791,-0.03426290547651604,0.09293850503757332,-0.27276865984097753,0.18062672842061467,0.7939095582583802,0.7341801321076119,-0.5040722749264858,0.9315432434064989,0.011675792679247395,-0.7479533258787631,0.844131941734342,-0.48902589844060307,-0.9273007974418747,-0.30657699981169745,-0.426604577622113,-0.7842999516397609,-0.7912870258739473,-0.7321728731636137,0.5173793371358284,0.8839102074109542,0.8906766038025645,-0.6877466363582526,-0.5065997430293329,-0.16862406347277425,-0.26390331740421313,-0.3187861185673297,-0.30660786564335907,-0.41861974016297454,-0.9961712911182238,0.01252459981576317,0.0015387677977098026,0.9631950163987338,0.20521450257559526,0.2251166042630667,0.574312748356095,0.6920623694127224,-0.13686485190564296,0.6800559406729869,-0.9118579631523153,-0.2814995094045428,0.5301358482173635,0.17850090756917358,0.06862965204537225,-0.30862707479995455,0.09904756292135104,0.7580440691599634,-0.2773374527904987,0.8270230912203638,0.8412717792302223,-0.3917291335613694,0.07188285035732915,-0.547618261655421,0.019384020557931265,-0.43010409052957566,-0.3299426823573302,-0.1539579596268024,-0.7915794872495204,0.9329252684394014,-0.13640159047145664,0.5023322437404398,-0.13137661012081514,-0.809727249553344,0.06274544795777985,-0.8320464207140037,0.2026287890076876,-0.9181127792047,0.6025764224081216,0.085218004404187,-0.17055466964406488,-0.9439003688869021,0.11900386851192814,0.2294068363648156,0.2755494263432258,0.362999761263293,-0.3024547850103808,-0.9403234925123437,0.4159234806759169,-0.7503160729993703,-1.0124421451455852,-0.16477466909721294,-0.333010919500134,0.6874179339470097,-0.3445836602429172,-0.3686854073684421,-0.849491967925878,0.6851403509006796,-0.5905375794827094,-0.8884721350044644,0.8957530832321756,0.3032289026895993,-1.009624907640387,0.4759302843258002,0.8801299365751235,0.41687207274414445,0.5755275984884971,-0.7190478694787045,-0.4395856546748228,0.4451275205462716,-0.2244206879156816,-0.734865369743596,0.35465722253423854,0.044310747442029313,-1.0204472989344309,-0.6041927752307275,-0.11051375855711597,-0.9584741913454509,-0.891000480745063,0.731577367531813,0.4008010084940169,-0.520747024160365,-0.23049998876080352,-0.722404245707924,0.4615700417179055,0.002184988465412472,0.16294635464124044,-0.7218117424565933,-0.1906694357960934,-0.20592381841711888,-0.9664520361323857,-0.4811377862100839,-0.32656529265268264,0.5273254349438016,-0.6071238850611709,-0.3821293275814876,0.22163747582532636,-0.7519765300525432,-0.34409881356753186,-0.4146614753849021,0.8144476514329112,0.25801685341590946,-0.591261534269587,0.5629592865424744,-0.31789243871279294,-0.47506467839762384,-0.9202839151384589,-0.5552371043352089,-0.008009911147077522,-0.8659818812996487,0.4783300868863694,-0.5294021245358209,0.30747854154574894,0.32865708424514223,-0.3569189330308672,-0.23190347042678391,-0.8942653853189506,0.8986094315333456,-0.5130834235306726,-0.5750136142327578,0.20554630535545246,0.5757512759576486],[-0.7158489278638914,0.03542505475582668,-0.6174611667887856,0.7483891334756231,-0.3844378362156278,-0.7849819540745208,-0.4126525095468285,-0.247952152849987,-0.14044263660081285,-0.633877169070794,-0.6100604033423789,-0.6277883867348019,0.4249331994895152,0.22567279856580116,0.31599641933639305,0.5687579863425496,-0.03924147962621212,0.43946671044383484,-0.18264394030795306,-0.03429727756425985,0.46507864706835617,0.6043817934587784,-0.5144767491269561,0.8331575330054528,-0.5643677316407649,0.23710353558776054,-0.49907164323316044,-0.6709742314734675,0.702405815325168,-0.9837151650778814,0.16122558627364422,-0.43766472656478284,0.3352423163070435,-0.5978330595958491,-0.7862092768667356,-0.7004321402885055,0.692549673448477,-0.12664644405729805,-0.6374744925432619,0.19754363245342094,-0.15683849893054855,0.2070827585437496,0.48241070039752726,-0.38349418698876386,0.7682396362102933,-0.36529863475073193,0.6936960687031593,-0.4567813063847498,-0.47048493592828616,0.4780919090848385,-0.6509263799693736,0.367884301567361,-0.1830029139548508,0.2234795000574337,-0.10554985971692413,0.8076504194375914,0.5102077175282126,-0.80093736147106,-0.05430778526736096,-0.034621702182150015,0.23161339856176874,-0.7075639207864108,-0.9886867389519832,0.4232559208532321,0.7080430924816649,-0.9051405597768595,0.21521726208798247,0.6788096674264523,-0.04845190555690858,-0.6029066327611128,0.16018066639324297,-0.20565979856381553,-0.1397618225637168,-0.3435505466089811,0.11552390764652289,-1.0212997796540009,0.18565573774931113,0.24384832535781334,-0.9370968564961564,-0.5126744083723761,-0.20934040759084166,-0.4913138751906668,0.0817791213711528,0.5529167036005903,-0.07440015592729919,0.9915389335253021,-0.1348496990279599,-0.9408169538880555,-0.10751768532151128,-0.18970701923807867,0.8272455386696227,0.2653869872097096,0.13661718731427286,0.35936978537782105,0.32259636520842505,0.7985133338921236,-0.09131509844266036,0.6433942742070025,0.23663477409764602,0.020066368135119618,-0.36964231079692683,-0.5512896806750457,0.30902585158903284,0.952413965951548,-0.5854235216343321,0.7084935364921037,-0.6142818207072501,0.1610834708898053,0.7826156623134938,0.8643838872372638,-0.9324350926633627,-0.5694109744898724,-0.41604914466344184,0.4223440069699036,0.5126195640151829,-0.41625706900212905,0.7915158180418418,-0.6083500611398243,0.7500773591396656,0.957293240807688,0.8649269565098341,-0.6998772469105984,0.7251565667854677,0.6557342032082392,0.4689478049401766,0.35481732498666085,-0.268788244025901,-0.24750065381442438,-0.5048423460323099,-0.6799297798324174,-0.13611591540157458,-0.20738989843100558,-0.0023269342695451025,-0.589132851452545,0.6616743274790957,0.6550136099053621,-0.7106252724893162,-0.7167901308608352,0.39196119610094216,0.3169700922333169,-0.7714961813905348,0.24838682187484104,0.5042795481878323,-0.8125037453843232,-0.8842496782385134,0.6137394549703141,0.9745208880438164,-0.21873405633494208,0.7430214533101158,0.6419538493116231,-0.5756294356925813,-0.7635050593886495,0.4538663006783506,0.453695767749021,-0.9083845312010488,-0.6638358502146467,0.9062818106526203,-0.181739575657608,-0.6557567450916097,-0.7128359284465414,0.3718522582102708,0.694474260121736,-0.6128035108113592,-0.7080585711280736,-0.5321532470323668,0.7026376557867724,0.9418547197136131,-0.2166074265699468,0.5222674507868317,-0.3283061761695647,0.8258144338920756,-0.019091954910521798,-0.7664184929959308,0.6322350387120989,-0.641366839704251,-0.1215448926892312,0.26805973987333487,-0.8172660828215418,0.4955095426354965,0.7943009477633428,-0.0473400966835802,0.48028250895780183,-0.3580902297911036,-0.8661473378773561,-0.149698471312512,-0.544082577227091,0.4915735008267079,-0.6705791205832097,0.47032248797385867,0.23702414655200763,0.3027148008917097,0.44791378436838564,0.4096714231851142,0.6725907674829177,0.19567490618441433,-0.330367621482299,0.9162086026074564,0.5844065545598475,-0.08393620404068149,-0.9036772832108432,-0.8040376593431169,0.12820367031359883,0.5169658604439485,0.12313150436225316,0.7209585933132394,-0.5685371372781612,0.9800599556362082,-0.302524914582969,0.6929776605796171,0.9825595277122293,0.9413370191341135,-0.7582870849153798,-0.15202074397668378,-0.3293092628992254,-0.49601380426131336,0.6319409934050844,-0.9394709798007732,-0.12539957877343544,0.5946286760148826,-0.9194534475990223,0.4365109392031201,-0.6646388092330817,0.188967206560013,0.866979547963178,0.6030888155259699,-0.9573971994839129,-0.4259597280938091,0.8396725605803655,-0.21013172258939236,-0.8200292370350734,-0.8427198447478071,0.5243032549890623,-0.7493365401578675,-0.9325789049188717,-0.634836551112339,0.6457456032009207,0.9038813117684374,0.5512871749716534,0.02208595795389873,0.2124712650281562,-0.5762367380108203,-0.8882571792006195,-0.7566994596212782,-0.836054294424077,-0.9291068816589761,-0.4687845823142611,0.40097058293741145,0.8838468624708585,-0.5544442276402385,0.6259824721798343,0.12959132973347604,0.8665480963202017,0.12682148958732298,-0.8499514733674062,0.3414475496245045,0.8540488964591392,-0.02952625163528648,0.09248100160394046,0.03540233613396731,-0.8957086362491627,-0.27814317175472814,-0.7239783446190953,0.172611328775508,0.45318624408122204,-0.03572936391433122,-0.5117088928054663,-0.9030776577884982,0.48662659706354366,0.7952137497510336,0.37543474539637633,0.12440834335845573,-0.6109256584952641,-0.4641580745345569,0.8102927921077263,0.8105676634520658,0.13544591837700537,-0.22410668017844343,-0.9818168553739369,-0.3664392592829225,0.8591270043101332,0.33440159750174714,-0.6521195475440316,0.2305982259521379,0.11767397068113374,0.5980810028002714,-0.1638953194646465,0.7748953172351691,-0.6521345875820921,0.3337025750315039,0.010800261670521664,0.46255515709791034,0.9793821690421465,0.07449071214551466,0.45635839541973844,-0.9795064957024339,-0.3028090088359671,-0.39920590186581256,0.13681802663932585,-1.0304257631654712,-0.4493100698656543,-0.6112676429536749,0.5094246894079694,-0.4997299403100258,0.20001157295849475,-0.5218433284939716,0.16598654282770273,0.8518166927180499,0.4062714731306373,-0.3640433590525135,-0.2103383283463865,0.6994897112049616,0.9519544311382844,0.8621211886574793,-0.12249987353630691,0.40142349806561844,0.010674845829703,0.565435021378824,0.7094823681042041,-0.2959770764976987,0.8250611358517159,-0.42309357540376547,-0.42365109212705404,0.2389141693064931,0.13701819752478678,-0.311012103961036,0.8150859001745246,0.6982081409211246,-0.8176995610768786,0.872227165181355,0.8070385271102198,-0.8212316373129058,-0.7323840945232829,-0.8968958578698443,-0.9388592218814152,-0.725975014698823,0.7504298831397825,-0.5268044291244528,0.40288956765304207,0.09856736436430982,-0.45587909684507916,-0.9585124066300175,-0.956234393400344,0.6109270106973327,-0.627544328747846,0.1465616570549797,-0.8313219010844751,0.8791134588782231,0.5977347272942026,-0.969128405583776,0.38980487366615557,0.6139802499573391,-0.027203772889498573,-0.1370628999519886,-0.7413389856904659,0.15486243593865634,0.4254878591446703,-0.3370822874183085,0.689316616262056,-0.9800509409236302,0.8641854904056865,0.8558088680640084,0.5652776185519004,-0.4753284399589542,-0.12280305279323545,0.13577824495601798,0.5788488768445845,-0.6492553782239109,0.4001694880484175,0.436170394394796,-0.2345877109114247,-0.2924269403715111,0.30259250019115835,0.6543143911135673,0.5339930125672789,0.5218952877315625,-0.8084771456239023,-0.8104662479495705,0.22174034326809228,-0.4864860291540161,0.47785960215273204,0.8502565564822978,0.1389573281757191,-0.8761870004205575,0.6096544848119487,0.8624554248201586,-0.35805020534290555,0.12456447468957027,-0.10180518494742855,-0.6368021543071899,-0.05718622189625083,0.8318693469608707,0.9235988274917474,0.7183739462338721,-1.006125787088508,-0.8486517641100253,0.06551402175278008,-0.8314997760858934,-0.23985138707020653,-0.16719303530503837,-0.8553222689965834,0.33916940978669036,-0.9930802897812618,-0.22122339515582998,-0.49181530881185437,-0.01921334912391203,0.4274619453755644,0.9336866528029893,0.3812800752359529,-0.32063852635984547,0.6618633492595841,-0.5181313667233937,0.6370877310138314,-0.40907987537674095,0.7134868015278991,-0.8125385522407964,0.8566512643603627,-0.19033571441349117,-0.7031628318642017,-0.21739540849677833,0.4716072563169296,-0.918300801884385,0.8104360681820673,-0.8609437384728607,0.5925841050842409,0.020657381303810004,0.7473616464630982,0.1528489511993383,-0.8109548980072515,0.06353328599409133,-0.16276226082352996,-0.6569283589878689,-0.07521578752357679,0.3083677229283658,0.25103212268329134,0.9092901864746883,0.27109981492133584,-0.11393402864934891,0.8270454741449432,-0.20183468999019552,-0.8031038116623012,-0.955961441736173,0.33648276924266807,-0.23854147800338704,0.10396762982955723,0.05162238660096837,0.047707097728005195,0.6366230104744142,0.6917722074971553,-0.95480747563074,-0.2588256209717058,0.9504477730124816,0.9473223925483061,0.7001830252830171,0.2186619323130013,-0.4140887252442596,0.48593306076670584,-0.9937686287980393,0.889844994088126,0.5905111223114049,-0.7505675463680482,0.5940607353694481,0.34988475080743286,0.02757229449552271,0.7777797662257444,0.4072652222365327,-0.5971387512306873,0.8480592996751112,-0.01343453923333476,0.2165101875793009,-0.9832024627762642,-0.6163467457898371,0.6108139046687618,-0.6059837821845084,-0.7062862104232347,0.3778663318271284,0.05955080529747074,0.08179622078518625,0.5958348856419605,-0.2609504727674381,-0.4882142086899294,0.6047760984318584,-0.5231394564696031,-0.39378365608445365,-0.39927938493266263,-0.21966242248589563,-0.15677122386354536,0.5982200761746626,0.49536201206227887,0.6242264240848976,0.25757231896639776,-0.792947872962389,0.31623287934420197,0.8414981276067734,-0.781848208236666,0.9549778790469803,0.3028662577918269,-0.3065281101975526,0.1878862124030471,0.25670968881616807,0.6545792740491655,-0.4045867416846214,0.9888017319107669,0.9604894869828887,-0.1375301103255106,0.31369404937509054,-0.9594996109053467,-0.40251058961892516,0.4153500554696008,-0.968072913983783,-0.12046750426034702,-0.7648884314795809,0.8502033391573951,-0.8551360321446918,-0.39200073303897787,-0.9529465301204008,0.10759594644687775,0.7526874223167923,0.06612451301582765,-0.1744928645706127,-0.5013964345332508,-0.9079640642087355,0.7347003190544062,0.7256675601013807,-0.2870911318300847,-0.07863446777098801,0.9473243269362942,-0.8724351844514708,-0.5993990936323649,0.10045795882512182,-0.7317363541958412,-0.41228558805157983,0.8583384429247889,-0.7002234974337883,-0.8505358681014861,-0.5179647557532198,0.13371364820921444,-0.6036442990397723,0.7658820662087823,-0.7173601628197657,-0.17682920279710562,-0.888365907705756],[-1.066266840496736,0.07332282450310175,0.6915791757955535,-0.39046543068984957,-0.4225046836004678,0.16398273091006998,0.8760289468528942,-0.36008264327127737,-0.2407654554307578,0.599926680526685,-0.7028863661336583,-0.7709300530469614,0.9432550630350743,0.846256750385541,-0.9376318064203342,0.4718023318413385,0.01565299483066507,0.9673498618931593,0.8369251052098046,-0.19063650478228805,-0.7727069834293618,0.02557772697465634,0.6566896628681161,0.7645880019393131,-0.40443331054445764,1.024922472743518,-0.1579785268747044,-0.07561107628224926,-0.8483494185709868,-0.7730587656239395,0.14018868574263443,-0.1834750173413428,0.17722083346016365,-0.6615322021412002,-0.35731619483211685,0.816127352514724,0.23348665328271104,-0.3053251634175094,-0.7128859562149781,-1.0387281364348235,0.8459233341549376,-0.0531334952341878,-0.5855873454817861,-0.47419516300054104,0.7052782659935406,-0.8966613131506616,0.8676737958333647,-0.4686738402838699,-0.6671088940601493,-0.6419989728910918,-0.26902429823078966,-0.7276167356219112,0.49841640044531266,-0.3841548957334763,-0.19940906648024095,0.6948613959271681,-0.9002116440973715,0.16970071356463937,-0.7255968914539819,-0.17023345354818809,0.946794213100164,0.6950394458143396,-0.2903865199170817,-0.3476360996269942,0.19915519447444838,0.7833682561837946,-0.43707680528519527,-0.2406049489293545,-0.12154170075477022,0.21081662478926572,0.7108359822610502,-0.2843701515785175,-0.3554966288765866,-0.1459299929955876,-0.3957458629641316,-0.19537654759233603,0.6189063604268562,-0.5464497744080394,0.1992776551054835,-0.26442776467627027,0.40704918101544824,0.01906779509022317,-0.4195376316876871,-0.6336338957853386,0.6468637508002593,0.18931790770745235,-0.3457466913478869,-0.05105353644338131,0.15624569977296124,0.6230235061258118,-0.49172096229938705,0.17736408735321665,-0.6234580089703678,0.8655642209063479,-0.7106276558981479,-0.08670448469037471,-0.6933492001554828,-0.9960201741357767,0.7052475586333812,0.8018268905943942,0.7474729557909834,0.12596411708220115,-0.5411395210936625,-0.8120842447561263,-0.9549499532246801,-0.2524649235428951,-0.5706171480390825,0.3840589621574454,0.7119462013382198,0.8638545764269474,-0.7257647134033293,-0.8584665035784792,0.473316400419414,0.7019298928217982,-0.3057846025164442,0.0983064191056466,-0.7569647137997658,-1.0392966789940399,0.9284706258111681,-0.7965581780759767,0.3595094589372768,-0.21511095873262243,0.38652944812543144,-0.8546032097644681,-0.2776052017478022,-0.020337628913270255,0.41274539564845103,0.36781109819559094,-0.766891046766519,-0.844969080012735,-0.5543420203482392,-0.7886135038577126,-0.48734968217041147,0.7700576940834061,0.7455899292620932,-0.14222046975229044,-0.8345941894612858,-0.7489415200018398,-0.0736090984117447,-0.8873483433140852,0.9031367914617482,0.7847239836089362,0.7931318537344738,-0.07827827075131263,-0.2520714775610529,-0.7829520228485017,0.02776938668718585,-0.5690723792755883,0.9237889255200082,0.8899366056725685,0.6578263617553561,0.4585941960728862,-0.10064247233559692,0.8884016309925598,0.10005532954739076,-0.5710876058221189,-0.08656447666559543,0.07338536223235065,-0.6259128726370047,0.5798779567653741,-0.5029110857814822,-0.1560429830570576,0.285458929026911,-0.42859833904224864,-0.35367337933263066,-0.6824220817646472,-0.4617961386394917,0.7337835207419267,-0.7857874992888151,0.7944194710350955,0.24296835210042284,0.9380361279345949,-0.5856187795460165,-0.5383110372863376,-0.37940095160793597,-0.031589550412288135,0.18225307644581695,0.44882327637124625,-0.7549992339952227,0.20899078974975246,0.5183486584444204,0.38944007685474985,0.746276171038771,-0.667716818856,0.42012806090638344,0.18861042942461956,-0.5893743750080828,0.8021169933049371,0.7125686396882136,0.5484668752267075,0.029418114531615074,0.6034873268094366,-0.7150747601002173,-0.9284189722723132,0.5367634500192455,-0.9763875709193991,-0.7069533313158376,0.22672852632138987,-0.17190495244657378,0.4220293660497391,-0.19529542802197136,0.6987852743056719,-0.2097890715523805,0.940861567205517,0.7017201722355086,0.6037050930539222,0.5551704833937439,-0.6696318104890965,-0.3146555362334509,0.8442855948499629,-0.12330438841186361,-0.9400584174711915,0.5093490055155381,0.27831796632965083,-0.629050610166225,-0.8131892054692097,0.2736542354463313,0.06520694159994406,0.10205201967338623,-0.039829989183391354,0.622493468207642,0.601698545207704,-0.7290312660977593,-0.7833493400782813,-0.8410353838196258,-0.5731520279439748,0.1503070650923319,0.013823685449741841,0.10017460950316094,0.5014782055778861,0.6820183662115651,0.2989387571823882,-0.47609390181732014,-0.21335670294003808,0.5149006202154235,0.5249574958252127,0.15097909599877246,0.036090047400475,-0.20922817630240306,-0.09949841226732845,-0.6388121045037619,0.7700539956029745,0.5755359813580926,-0.9016034698405195,0.653085843977316,-0.6314985120379819,-0.22934544497065174,-0.4226178875527723,-0.5273760190197399,0.2603599317530106,0.5724813854292431,-0.1886118148638943,0.5063190348996928,-0.9042948316311776,0.2579781352601677,0.9783112485381237,-0.6776814481910333,0.4664454544151755,0.5152852660850729,-0.9360485579408676,-0.7526580830913191,-0.07378264776144448,-0.39143683816166047,0.49907122683678956,0.2621063906159787,-0.7268989277698366,-0.435160626093393,-0.7679849849971185,0.9783018045225537,-0.031370039539963354,0.9466785074411351,0.18244985988500076,-0.9679801979201148,-0.2664467998569671,-0.16594054570931108,0.7248803287861467,-0.39027048212256565,-0.2252213330002219,0.9764505099611539,-0.4722182358184627,0.06934548169736325,-0.609767021573186,0.7682874992789835,0.22518043626063305,0.7811706464517705,-0.9518317423469297,0.34759473246141825,-0.5587428091404559,-0.33118180912796347,-0.1499985990906691,0.5587131033295029,0.7686319842348027,0.3526196638720596,-0.8382831135604147,0.9752101911211987,0.9025391202791125,1.0042014633700034,-0.8558878329575146,-0.6758152901015895,-0.11653393737935282,0.2838079856181479,0.7983747183491828,-0.8398617247570181,-0.20976572826190978,0.9239368350032793,-0.5745980406932081,-0.20508015109727226,-0.30605239763507175,-0.9405872268843142,0.3151306256225529,-0.21629202020006572,-0.26992189312839027,0.39261161971538333,0.7933176147643696,0.5185385714314257,1.0413720222598368,0.6468817704952013,0.6442020687994846,0.2582991118813247,0.9640434069203214,0.8067799176827092,-0.8123916874587145,0.2634375855540563,0.9387745720392885,0.3823163386965452,0.6365858672016717,0.3922165347207785,-0.030748408269791402,-0.20748040994096106,0.5025880524621615,-0.8803750584364296,-0.26515948259522293,-0.024701280485239636,0.43662777750854354,0.4431600411128427,-0.873190238052181,0.8987215571090839,0.8165421565986514,-0.5934848710335145,-0.5298360103991392,-0.4380572977528794,0.9744730125758497,0.9506782440905741,0.7999816059472293,0.4101360397683328,-0.579920028668691,-0.9602975101197244,-0.22761551069264652,0.9909615103971552,-0.2554004904751723,-0.8761650486462279,-0.9159542303824333,-0.46145934446764386,0.7295385865216487,-0.6651666924855963,0.5947781566168989,0.9698247172206634,0.6635329441379669,-0.6880264767552515,-0.8534742101368029,0.04209739230363284,0.8403527388165362,-0.8306220782209327,0.5820887570496918,0.11623402294486378,-0.10976226961333099,-0.8050283485725375,0.679186094089313,0.3590554516121084,0.6022035222182724,-0.35768145177557165,-0.12586109341297494,0.6397134675853902,0.05010353783300191,0.7583884566710797,0.08790662158310998,0.883288553844132,1.0244846638717664,-0.42062377643637194,0.28229706756672523,-0.18204075143578913,-0.3322193695471897,0.40926775897945966,-1.0115229984986918,-0.19229514846050447,0.37960980469204175,-0.8350141563224944,0.18530454857871934,-0.67803312515317,0.4140496196330756,-0.28018792607538073,0.7212507291504232,0.7642113165797477,0.47158069360590527,-0.3234564536768573,0.10491482407183077,-0.6173017006377175,-0.031079247745527915,0.08525009689853295,0.48711362514280043,0.6910649509611976,0.9104613117544622,-0.4687465093720375,0.8439214811240806,0.343098285984963,0.09280298357709564,0.668472583009656,0.5755509486773667,-0.6123334570535727,-0.5529459604388816,0.38517204859286286,-0.060579333070727756,0.8600943032597514,0.43145635548279154,0.8032408302197278,0.031861593373974297,-0.5675423426583395,0.6731803709324641,0.15753238589390992,0.2637926992360422,0.5580554611655669,0.2745492977422937,-0.58770197624133,0.2303685608167917,0.44641371817265496,-0.20107670576960013,0.5396590498781235,-0.5540564526878577,-0.14096132292875976,0.6960692838235307,-0.834211916155671,0.8390350423748592,0.9194538106252318,0.8029444777612437,-0.8578630110756104,-0.9679046543937875,0.21557724948232568,0.9880956161849721,-0.929841078407365,-0.913119995591265,0.28757526109298254,-0.6662304570148142,-1.0981874086859464,-0.6632486891450847,-0.5249622356926843,0.9687187370457839,-0.7014165765321045,0.6136359058850277,0.0776794423378893,-0.32211971271833306,0.3103173451466537,-0.15580328890190862,-0.6730702400701903,-0.547965074907912,0.7188715761687232,-0.31016529531332476,-0.7935739607875152,0.4278881699852521,0.019340463607576512,-0.4982920824480761,-0.9851310040181199,-0.13891839073493872,0.7650697578093283,0.7374205765409193,-0.6406695679498404,-0.4886283072121855,0.4338884813571414,0.5428386392750442,-0.14392656427065448,-0.30888733448709127,-0.8567116137271259,-0.7199095094570185,0.39889852799251513,-0.7116168292901034,-0.6246492128153619,-0.5373818485475985,-0.5587506515985495,0.47884651210674645,-0.6750345351688204,0.4411745077333961,-0.3622217370783496,-0.44900435914970277,-0.36012799022052105,0.17009953340921286,-0.21350629239122643,0.03489832628960225,0.3618655120199298,-0.7973110710670394,-0.6144366776155116,-0.24444025023941257,-0.9182820797253457,-0.1611423990620212,-0.8744226570937512,0.9696618313636013,-0.2704999128245968,0.06799558518399937,-0.5051715946442142,0.14427144988507865,0.8762243536799417,-0.31603087508788674,-0.05817037445398583,-0.6852521854721563,-0.6815662624883811,0.4382546697824289,-0.859473810350677,-0.23783239603970546,-0.1834016074120878,-0.11595951451143773,-0.7030828895384185,-0.7633280579649367,-0.8737356507203877,0.9143378425746972,-0.316172736149113,-0.7487925991886889,0.813204918065836,-0.6644968679477212,-1.0037293347512284,0.5399529627281094,-0.9133253406181974,-0.8304322507974511,0.11715417959701398,0.8671649774023495,0.25354635979182133,0.4954086133789077,-0.5020256464260946,0.8496664176645562,0.6410340642102309,-0.37861736925009376,-0.02876182167261061,0.9745352460549198,-0.205873947638416,0.9443563319585216,0.9433305344540367,0.3996846063596373,-0.8171595229814516,-0.38634601600879065,0.8271349740787517,-0.18755168899753225,-0.296207579941758,-0.019249938616692604,0.7161177717205733],[0.08939191112545669,1.0536695967086738,0.5982216870004852,1.070851124279466,-0.4195620906682053,-0.6237603664272712,0.27135741135459507,-0.7277134656439663,0.11280351935873585,0.6157934932364196,-0.10562223789499917,-0.9205224633620771,-0.38707384408368134,-0.8543909192360799,0.11217171158435213,0.5325473420797099,0.15188449037702817,0.9765344100699057,0.5761055242479926,-0.6404676529052611,0.9275174333955759,0.5944013430247292,-0.22579791065712096,0.19934806993823656,0.08028762317289011,-0.37000888248842756,0.721522009146646,0.7342213939769432,-0.28306182029234905,0.42299383103259114,-0.8058105063058182,0.5438380653407182,-0.31591523899675206,0.8085913334462039,0.12369365438688802,0.02580557262405539,0.708547563525613,-0.35416750027838073,0.3214062391515957,-0.21481286003137262,0.1454537553593154,0.03495372357459548,0.9104182697993812,0.6256456199735355,0.881647405856268,0.7738378260298467,0.08348470503845229,0.611016156873058,-0.7746215511607472,-0.4970648352440663,0.14745663766144584,-0.9897161454658494,-0.7498277515796925,0.32361649119592817,0.5862158167765408,-0.40356806835824843,0.09309660881596088,0.9213365080772963,0.5213119290006845,0.47943665710248184,0.9405429109816728,0.8100058763051412,0.8917033753231208,-0.030749839405993504,0.8489970511788678,0.5645955177387668,0.39740281647681114,0.05378348125424986,0.5543507121673181,-0.6135952592497246,-0.09887745589196074,0.47210788179387125,-0.5830954489282802,-0.5332484667720689,-0.3116455624629969,0.3587947701201414,0.6570379887803791,-0.44159246823961845,-1.1001728638561896,-0.32109280118765554,-1.1002841819190488,-0.9268918008523127,0.17590309156351278,-0.896662757978238,-0.5976067929543586,-0.37950270736246966,-0.2884054280208732,-0.21554196406667878,0.6544755113501326,0.2599714424461411,-0.17286673658283624,-0.8928614365246326,0.6632055036840762,-0.20545458961186958,-0.7339316961842335,0.707105059713586,-0.7088557351435262,0.7180223434256039,0.3012668999618399,-0.9852620696090055,-1.1838046116689687,0.31054978666787936,0.7974477912962858,0.5158389898338399,0.9620960118145493,0.1739565532537902,0.7559066769463059,-0.7960094958955165,-0.7162692526738712,-0.48758056729537635,-0.7123060872027981,0.30834636674470556,-0.4587003320408177,0.06639385453739964,0.6400387581932919,-0.8294820069024453,0.525258685884752,0.5337330946713126,0.7824215596329748,0.8045466723609226,0.0228226467114815,-0.06483418180685198,-0.18022539985298122,-0.029784563448574296,-0.8851682628730563,-0.5816858424977834,-0.3125214885318802,-0.10323480859863172,0.1279138335879231,0.7614007077143924,-0.6208799882164491,0.025628521752478574,-0.849330125360571,-0.3980329239312577,0.4224114990232244,0.10398747877586234,0.10170532389578256,0.8102137879725373,-0.586619742289204,-0.5753918248976749,-0.09452693194698705,0.12205218890385781,-0.07826952528017228,0.5525383701049064,0.09659791110256376,-0.6318238239265389,0.30790933069690046,-0.7855815233388769,0.1683172257398606,-0.8976299762602642,-0.22495169027235679,-0.5965448547037734,-0.734519209344617,-0.5994209080790448,0.6809445901521741,-0.043683285233007116,0.907511313776449,0.9625010214515024,1.0055769015351947,-0.5956390158795938,0.10740244034205244,-0.3511421980813035,-0.5967210087876489,-1.0520582239576002,0.6321352207452823,0.6332293781775741,0.8783485514112377,0.2337579994087753,0.6126417411048002,-0.8262910229518811,-0.9455146720083498,-0.20525381420666647,0.718712242126601,0.9185661721308258,0.723464877326287,-0.5710102374354875,-0.2580238614949129,-0.8595697203439783,0.8310676183320758,0.20941577619941734,0.7710825879475384,0.6765358637623071,0.610604020104503,-0.06904733545212405,-0.7044564341187391,-0.35385543486477916,0.12226318986277651,0.5341357641180476,0.5263903438852149,0.5803372516485905,0.6971001376013314,0.5728058748186294,0.44889984385033577,-0.6789548049907795,0.957305327685661,0.9324139320352962,-0.19795861446336865,-0.3135727399228758,0.8711927546508139,0.06569732712579567,-0.39417656518366884,0.5729666560142921,-0.7740499919880068,-0.467399552622711,-0.7196599199294703,-0.8029528325589345,-0.6707771140101522,-0.8227936025440841,-0.8049474030934649,-0.687841510104159,-0.025045709133866924,0.7453581391519079,0.6921576287586145,0.0535116189348048,-0.3907259426982597,-0.07346010387815206,-0.6189432984026041,-0.5414742391930555,-0.6344963848339347,0.9729405800078214,0.4906643454990621,0.1170891719685703,0.021983165640440186,0.8558006110210141,-0.4060235520602563,0.5857197951002253,0.31263284968851046,0.8843733405623626,0.9111022069010186,0.7857837792687438,-0.5278503321895345,0.12859732626533113,0.6590023417169222,-0.7680221995720211,-0.37857070665260156,0.2929026348175476,0.27799391729628486,-0.363819937267206,0.2615648213068608,0.3351153056961966,-0.20066929642184497,0.11818212411622875,0.3295962003205194,0.42124427649263374,0.05178670848735509,0.44150381059321286,0.6024593680515863,0.8687793563160939,0.8169265140335055,1.012389040977806,0.67636104170763,0.6112531199150218,0.7566261892665531,0.949936661322075,0.14343152671168294,0.08305440267143022,0.4634253364866883,0.5344319853889282,1.093802519448232,-0.2258909662900525,-0.48428765623240266,-0.8405281226798007,0.19522310761981185,0.3000806030199575,-0.057428820820535506,-0.19713826813220287,0.18245167632721696,-0.548926949725413,-0.4321840921220282,-0.21916437724651505,-0.3788666667119942,-0.31935856550296204,0.38655624863556665,0.49160650926855015,-0.28721703785687613,0.3945065560734006,-0.10944446270102048,-0.08139114744657931,0.9886115696328769,-0.36113220696204346,-0.394810399098426,0.4422250464630655,-0.19863738060399116,1.0614062613123472,0.3288366073769676,0.6950770936067115,0.8287049361172355,-0.5215453904195128,0.5162558575375181,0.2630193752659909,-0.8765065382126165,-0.8097454907720031,0.6799564496006223,0.007780875348998323,-0.3686742656829972,-0.7283627979314379,-0.12358203614736162,-0.5622173751928246,0.22595315962499501,-0.5228392725005683,0.2567652504274263,-0.7409268711324318,-0.4828894450557529,0.35505599114352976,-0.567152088095522,0.8257566403540598,-0.7090132783057131,-0.3020556404831205,-0.5323541234871711,0.69735744410425,-0.7801645716847031,0.8485202663074913,0.6188580718374928,0.627727524632047,0.51343571026696,0.1633748309238759,0.15857208764774022,-0.2030423050706214,0.3742296233573397,0.014816762346413095,-0.07378293438508483,-0.7262449014118609,-0.35733460785437066,-0.23788872767649197,0.84662605752559,-0.6054620452697121,0.5617144847384657,-0.5640546181655378,0.033932893076818606,-0.41077809288210765,0.31447069721323334,0.994041188271313,-0.9030774660979308,-0.7858477113982723,0.8005797937633531,-0.27184674495983185,-0.10588906552529713,-0.11475112097860489,0.6572061765833803,-0.9259178091094071,0.9793201424554429,0.010498226901351704,-0.2644185145524455,0.5717901893469055,0.6129192638669757,-0.0027444115041302996,0.7113089499148695,0.05772127973410408,0.04381780408701679,-0.1236448340933277,-0.6096718006180019,-0.9320208439665495,-1.0935001493717678,-0.6188007788326855,-0.23607586522013238,-1.001140858569016,0.6225451006803677,-0.7529120481944883,-0.8550547703253506,-0.1828820458602496,-0.3674843882359446,0.2819124981431309,0.201976550896642,-0.11123519340317335,-0.5063177179170525,-0.23020391344927094,-0.9255593099122918,-0.9449729483175647,0.933190247797867,0.02783346223510604,0.5518321517300944,0.8183293752540429,-0.13170981040292667,-0.2726668967370444,0.36632328021203203,0.20211078113128012,-0.5061558426325788,-0.17617985144898665,-0.4406741884757392,0.4483329712428868,0.7452328505209468,-0.8490388863254076,-0.9998893740854014,0.7230040933453743,-0.26621915668459184,-0.3309359018880146,-0.03214052896314823,0.8739200552824063,0.5196508101086046,0.4509272818944085,-0.13153854575190846,0.4181745646106959,0.23119586088411348,-0.9582441832140137,0.6650979795830988,-0.7793559271234513,0.12612215175912458,-0.06639194098966217,0.4240441003548755,-0.9302137434750959,-0.6396527357534696,0.040954741706255265,0.34630936178972654,-0.8971773697879445,0.6224368750463432,-0.29075493007053743,0.35274555052673345,0.5300011155509987,0.10462432024342758,-0.07857483962984461,0.21899190773301846,-0.2340300953004386,-0.4317262389937568,0.7548981027281553,0.147235130607135,0.7234754980793943,0.8552237342258454,0.2917472753019474,-0.11182938439945148,-0.062754705960764,-0.5216022613114641,-0.3551594928150978,0.8361435154855406,-0.658622654674889,-0.25887769706679725,-0.49706584571283946,0.5986919524129507,0.6623349291313722,0.1503425267364227,0.6405589531606937,0.12125272050528926,-0.25671763580688195,-0.3354992195600096,-0.10256929050773385,-1.0133896145751116,-0.850456006636418,-0.12362082066108446,-0.44767200159848086,0.2921125874345269,-0.04568180971463927,0.03375100343469573,-0.14255416862640824,0.9198020115514397,-0.9906538050138628,0.3165646267007085,0.034880632817744534,-0.31464072878322497,-0.540141067030113,0.8143772306151275,-0.23104862134292023,-0.1098682994286926,0.13184724686205812,0.4528678399983081,-0.06404315718708757,-0.8526629821795907,0.004607856450696902,0.6857282311271579,-0.8383267810442064,-0.47699008170860535,-0.34428702475697176,-0.6235047678562858,-0.21250874331243405,0.8770928866679434,-0.362947413064419,-0.47295591956549377,-0.12012619676753374,0.987582470845631,1.0210664498870368,-0.43167689891914873,-0.2116610044736829,-0.9409199415100422,0.060604589375654445,0.07238696883198405,-0.7161428147945889,-0.9093684270514455,-0.27818865982855134,1.0032034851502034,0.14970134068158242,-0.6981279471617243,0.7919239113306069,0.9504219791726012,0.21271903283856153,-0.23950510672304365,-0.5113311810477564,-0.2511859140955449,-0.09543269435648524,-0.4870679698419761,0.9122044281596366,0.5381552252243744,0.7113776724673141,0.880710005635935,0.08045238559002839,0.6015196859495534,0.8838953085749494,-0.9733986879215693,-0.2785285863941028,-0.8405906177969481,-0.6846391687814259,0.4371910301264572,-0.09393243621045858,0.9283492675385749,0.805901440937548,-0.0785500231372946,-0.5970292472302355,-0.11386935656732254,0.6836196174023931,0.49563959016472164,-0.07962286450664939,0.22897765235210638,0.6653124550480982,0.011747479538812734,0.028813285289285378,0.5657113687827907,-0.5749307144022305,-0.8087171209363436,0.889017460431494,-0.4330485420873497,0.698152397365184,0.6991712769051399,0.9007266662880952,0.4559203636613659,-0.47370355480180776,-0.855418371671584,0.03848219183298693,-0.5648107303341745,-0.8499190260862107,0.7645436893876133,0.8685196218384944,-0.1481087339533298,0.2345348335566388,0.7613271905081114,-0.6228479677175295,-0.9747472830879015,0.8757065178060192,-0.20119875616195837,0.7406023697185471,0.2996036928415751,0.035092677260727255,-0.9429416602504964,0.34692512753500215,-0.2409949004129614],[0.03716146742230961,0.2239356469322699,-1.03996591381888,-0.10272117718045506,-0.4200596516034144,-0.9925103808308735,0.20629352545398139,0.925279900949655,0.8944656479947451,0.5746897632724708,-0.00896620047896835,0.8149057365325004,-0.22076941870167577,0.7020002762219584,0.4151030827599037,0.9324204479428182,0.8895293018050042,0.7201363509002862,0.6526784932273384,0.37234446046156827,-0.18320582366055996,0.8197262566139288,0.23434838887911183,0.7494576744497304,-0.7711013899946454,0.870960531015367,-0.01272484663924338,-0.49667481004668385,-0.7478482413454975,-0.5112606188205032,0.9443710743747489,0.2957423386339031,-0.9636581655331725,-0.549879976660447,-0.24852461408025095,0.3354306779620357,-0.8220041942723769,-0.5477238783955353,-0.5312674657049566,-0.25636535859033227,0.08468513375153437,0.8414174040587308,0.7417651338909186,0.9148564829341292,0.7188549937751789,-0.27444615842275955,0.2679634110709043,-0.6666387677156401,-0.26405380495897074,0.3514380257060228,0.19341913278363482,-0.2390186467996965,0.4575868603014339,-0.035239247573486135,-0.46506059841384334,0.5354743873193686,0.6356833634959029,-0.6145563716373802,0.10304430893642144,-0.19973387414709842,0.7088940066715427,-0.5364736387971037,-0.9701276809798977,-0.4271428139969173,0.10382894578263639,0.8383307542657287,-0.10497053817701209,-0.21630844162791152,-0.39496533298037345,0.03834168321507437,-0.6976547192282403,-0.6640558494876788,0.03594552703474447,0.32953813198455295,0.8527247826346459,0.1012174263920347,-0.6689511097893144,0.03782528805565681,-0.6307500175783647,0.22291274963450064,-0.9439788355778291,-0.5222170139135572,0.5088550958982986,-0.9492072961557602,0.5018954626870165,-0.394551950488565,-0.24100839653353015,0.7412369990964635,-0.5915983119659372,0.39705284904286453,0.0020139851667190815,0.41618055786003255,-0.7489598032733684,0.044044139091221894,0.8850141499685575,-0.75878976229731,-0.48955335100031727,-0.7400462815204303,-0.17545865856977758,1.1288333296651996,0.022982990593043713,-0.7293655023286033,0.3169144649057568,-0.5589029289840461,-0.7024610742950286,0.459877287064338,-0.37557719267668727,-0.6140470156738099,-0.5924546681628762,-0.6107343794521799,-0.605794961498951,0.14189217754304007,-0.20887077730985587,0.8228829679933419,-0.5963234030363622,-0.6905656467279553,0.7411750480016367,-0.27296762147223924,0.35429934457005385,0.3159028762671945,0.08446411265029122,-0.6918095559680072,-0.7288139849964455,0.5574324000632958,-0.04817928364303651,0.6723134820119238,0.8209139317675358,-0.809475801222159,0.075425281889074,0.9559255865424986,0.170666254003831,0.6315823500258572,0.6538585513309046,-0.7633916270327866,-0.1243782045421683,-0.7392681507296004,-0.6633687733753005,-0.7483993449883026,0.8187125856302848,-0.7655728421727949,0.7836669840648051,-0.47419398585663053,0.1168900231665244,0.5058564522658644,-0.3397676441186604,-0.3148662050910272,0.3283337768252606,0.9056566985510147,-0.09348826228661854,0.27142133741137886,0.02005140676166134,0.5296982677548744,0.08967601956622084,0.14059831144029694,0.4030395296661348,0.6581257758932333,0.58988288712556,-0.460703527858936,0.3118941198252974,-0.5373427352234458,0.31297256925763556,0.41915732465654804,0.5096707410901004,-0.48713387734959696,-0.8716236091319514,-0.027666128763023837,-0.9356775146242523,0.534144151454562,-0.4629028612446745,-0.9949718026717285,0.03552672241437883,-1.0010811053921722,-0.47004148978038,-0.08513379776421598,-0.806074856057673,-0.4099420676874352,0.582310906911966,-0.5002949078870321,0.3450532493761086,0.633527481612443,0.46543738957543107,-0.019595898369528943,-0.4199655114601736,-0.11413827472204084,0.33509412863832544,-0.15002689303987654,0.28931427464396936,1.070694226784712,-0.46208298462652336,0.033992112543935256,-0.48342806766658564,-0.0006636551507107729,-0.06946623189542606,0.5369618817388266,-0.14596024014436956,-0.7212652430578826,-0.07239734704141786,-0.7756799948044134,-0.7999504857447849,-0.3405799287198151,1.0239143353946272,0.7483042977017905,0.12028141410587773,-0.016464977569350937,0.5811948284598911,-0.2757907778422173,0.03896765585448707,-0.8837937314024477,0.04201420212109874,-0.10653474103108308,0.43975457919185285,0.9860301116685184,0.1378345439792305,0.2311228145877258,0.7138348181251382,-0.4728168148984179,0.5294962042203245,0.40067346772060947,-0.16136310788030475,-0.5298690821556303,0.348253632714331,-0.4534662878547027,0.8374252621614957,0.03290548039905744,0.8186776874003987,-0.5256922034624055,0.24440001406418754,0.4285016072871785,-0.22356055033805539,-0.4516421979619156,0.02740530048644627,-0.6284861057342638,0.724051234750865,-0.1279103096574408,-0.38365243973509816,-0.5434590699182341,0.05760030971967212,-0.5968882275803988,0.29042568296965565,-0.17137710163797798,0.05176519282274307,0.751708721756195,0.808227342967479,0.13971976918055598,0.5057140082696491,0.7334859294328017,1.1214807887711677,0.6217036344492348,-0.7267743206277436,-0.274919651199894,0.9598323412099583,-0.4715361690692637,-0.37671735218933156,-0.8575709077830636,0.866735136870458,-0.4330319976897398,-0.9063422455252795,0.7683073987745553,0.3136760438140317,-0.8429646002939054,-0.09274820523958033,0.007332873418567091,-0.45410747646405136,0.048732438079494934,-0.8178301680694617,0.38431977152391045,0.41293491192914705,0.34702770312125186,0.5958472578042495,0.5937805146262198,-0.7519066561066104,0.6022580394566706,0.003151866687896413,0.2941469547249737,0.4435090681733855,-0.6006051892350182,0.9140109909585753,-0.5907963238279097,0.8642878709304378,-0.6608271260136885,-0.4681361505929068,-0.038898123609859565,0.8086074041391356,0.4096961541021154,-0.8025947108034647,-0.09138280615765666,0.10800349088064581,-0.4383212942173401,-0.22040971271709495,0.7960138004615122,-1.032383799767409,0.1028170208911645,-0.6385065109700502,-0.4023130705775594,0.6819766256735491,-0.026190411228587365,-0.7321207506051306,0.2194975981492521,0.5844452192658991,0.2910223834513854,0.19765230649786125,0.6548509632394999,0.7546386860675971,-0.46037019164337123,-0.5067366514786013,0.5029376783292129,0.26008759300630835,0.893335869427452,-0.4006627623608745,0.5444273585598292,0.2521891311163471,0.7681883016567204,0.9022682035032037,-0.23524467610472555,0.6521278064555379,0.7855219862258366,0.549176043267468,0.2958338361498427,-0.33038789312406647,0.29437018043124397,0.6229582820717303,0.978759983450525,-0.24948788604941866,-0.4772791991526673,-0.217665049782667,-0.8128073267920902,0.638393271090771,-0.14977054489292635,-0.4517858193207568,-0.1591302189157827,0.15569591194447996,0.7764100845683731,0.7891384155257121,-0.8862922302748487,0.13228641461510937,-0.09113056131898864,0.2909952169912968,0.8318803467524722,0.23850873888095572,-0.768401480488992,0.5634580934402728,0.8804681146258815,0.7651111435450137,0.01850631723059734,-0.6300516946724709,0.7374653875263799,1.0125481168373414,0.3805584546705918,0.6783674710849108,-0.7175242169699487,-0.7337981484759847,0.972648804077429,-0.08508649738312697,-0.1889656615834036,-0.6414403354762659,0.025924584601616115,-0.8349840655564823,0.6635771465331328,-0.5234376283393525,0.7725635622676673,-0.6935157985292394,-0.4938195083790277,-0.7319296193172354,0.5267669167542255,-0.23444047391633746,-0.1355596336940665,-0.6415706616860298,-0.8555313301591938,-0.26103263392765175,0.8274089419240809,-0.5115777031190994,-0.530396290898243,-0.6732909620326057,0.8834598543566229,-0.0690070108546259,0.24275596447798803,-0.321337320646728,-0.9364847470309885,0.10850923175457929,-0.9555395678897846,0.765367396202849,0.4844437580200105,0.5765560673927598,0.23688907906906526,-0.377219124610795,0.9155011617450663,-0.3265959566033099,-0.5678618856542368,-0.1269073135713098,-0.5643926769072943,-0.7178983285961225,0.5742108854695293,-0.16302497297822705,0.5670351798734042,0.2643755154696612,-0.07600276242410618,-0.4586653606564192,-0.28538477018280345,0.6849118997537949,0.8403616734520177,-1.034948929397776,0.8645260007908977,-0.07699696291995418,-0.6486993512701336,0.3745508277616584,0.8379413386074531,-0.7382697610472894,-0.9868458571869744,-0.00015594398776935337,0.9071743348362733,0.7029540784509607,-0.2133270199227324,0.8184591611545323,-0.04873673713873072,0.5356394635302205,-0.9161424929610735,0.8698777626145138,-0.4187622338825196,-0.41433734975280545,0.6009621615546226,-0.26182592294020773,0.045157112996972296,0.04421176385253266,0.6415404019399853,0.6584788712635982,0.9534836707293112,0.876428331267706,-0.12576512631001524,-0.13593030112995086,-0.5304176177069312,-0.18363643231668383,-0.8857571815952093,-0.5348281199415521,0.6483945086239931,0.5018818820731595,-0.2505620104192659,-0.853494707620558,0.930829823828773,0.7717729267916473,-0.2522082918223784,0.013818318932258787,0.8160303934661705,-0.35213065693715656,-0.9751600677779793,-0.3444432908753385,-1.0454047431016837,-0.36739090214224474,-0.6398884985645567,-0.48669588276586523,0.2790899554804878,0.08305464821570255,0.8888768373976058,-0.3885220249707981,0.4455760035372344,-0.35452780743281326,-0.7767738551846632,0.8804919904145438,-0.29659395258206667,-0.862083705002924,0.4199819738437803,0.8327815352947772,-0.3924638641664003,-0.8513223979764695,0.35838042693153516,-0.6572119446509319,0.03012706876424885,0.8879313842255321,-0.9529675732157353,0.7438724343227829,-0.04518364376809737,0.7696563379449765,-0.12321615798052733,-0.8170922627915106,0.500063808001573,0.10062803234336379,-0.7175315582817351,-0.6661285789735983,-0.9211664687597002,0.18703877034914418,-0.2580102865767014,0.2638607611824304,-0.3917893760028454,-0.5296915980379571,-0.49196769913778926,-0.28018874377292574,-0.7562154115296434,0.798713494597778,-0.5472980023782209,-0.45842697985405834,0.7547990619571056,-0.9394375914905744,0.22783996723610028,0.8711835845997045,-0.20675569436151595,0.7242550687665628,0.43360665254646014,-0.8211168733955785,-0.6628381213804376,-0.1903825663694763,-1.1535181568892443,0.3444990086621807,-0.32777415783506897,0.06809433591239324,0.5351848604548696,0.5376638229701214,-0.35825525524507584,0.7420753308488574,0.2496887684789447,-0.6812854645814526,-0.07678205640971719,0.7317175746839568,-0.632608180778075,0.49577540634854944,0.23872204957094878,0.5328435902776947,-0.5504796202676471,-0.9649711433995259,-0.48565582258644857,0.06796445650598273,-0.19378710567888194,0.8127183288571135,0.18694430443565366,-0.7173258286934355,-0.9506226303871429,-0.17606283402750667,-0.08421030753190893,-0.7668270452816476,-0.6417722787235902,-0.6831450494647627,-0.22682071062605094,-0.7747039581082059,-0.7564229776470549,-0.9398191322346511,-0.28115318919337073,0.4541632306921833,0.34484761519060614,0.24998709459899646,0.05404470390430464,-0.7570557972494015,0.6075003739581011,0.3190161656300929],[-0.5442929226168528,0.657957280825358,0.5314907182174213,0.8949835888941252,-0.22564456637761054,0.19636507355234667,-0.3316546300058174,0.05120024325284958,-0.4873741413727224,0.2126655491193822,-0.29449631375697854,-0.13353298375705194,-0.5688646313331499,-0.6102560216621067,0.6604446728022844,0.26881990651779947,0.006720754503610232,-0.701163437962503,-0.014822024068534244,-0.312443803887183,0.5329664738878721,0.8907465240454129,-0.5330124180168401,-0.4010563402025842,0.3318534532161962,-0.3451452019845886,0.5161587424343345,0.9079110695627454,-0.23128501478999433,-0.7493662910001018,0.23296661689312276,-0.2770159756241253,-0.9718809917860541,-0.17482993670214395,0.3652494982087241,0.7100968773719025,0.5477087489135601,-0.03481248282618964,0.7348386661237026,-0.8965864066265351,-0.5409048560971881,-0.7874199396066912,0.025029269201606957,0.5385509770516034,0.8165330489638353,-0.8019354360105798,-0.8580587612590823,0.9366693916819441,-0.41756930252964736,0.7441113652139959,-0.23816290966941286,0.07277009684063293,0.434174294418258,-0.18377169188986814,-0.837591056262023,-0.5591845254537818,0.26223696231115773,-0.7894048884302621,0.5017240308774904,0.6651385307594755,-0.6135700876370991,-0.7831445950712033,-0.6652566724599763,0.8032824358843753,-0.03961209990727982,-0.3367985114533167,-0.9343886980817221,-0.848462194517693,0.2774118498406732,-0.22856437526313966,-0.9949270063158101,-0.5561371783452377,-0.2701762849520447,0.9354214689965924,0.9131399260930247,-0.3793045325378904,0.2635341060320735,0.588328638243637,-0.2977279916072589,-0.08959120591322453,0.1254307572372515,-0.8510167046970336,-0.8162200806290159,0.6576278514023595,-0.5935256391317844,-1.0208799141299096,-0.02396969793842196,-0.3083111235184571,0.50820327409606,0.6045008252888315,-0.2600711323516043,0.6842189078916889,0.4222668968604392,0.18151580408605186,-0.42155541206404235,0.9364719382295451,-0.42481293785739305,-0.7852517799328136,-0.4982199452458546,-0.31251351672813515,0.45641802853168817,0.32301159593707035,-0.22433595830011038,0.01086383624444054,-0.4186311667517452,-0.6013626937580366,0.8485652462304668,-0.01597209770032624,-0.4999587286037302,-0.9526144693360556,0.06286520525465784,0.06662180456755963,0.31075657618186586,1.0088009409164151,-0.7265275746183052,-0.6088484224253305,0.7018318577882465,-0.21387126327208117,-0.7187271171845855,0.61414438792367,0.5216292706912454,0.9782838906333505,-0.9634222411007198,0.9226017270613285,0.6598990700404603,-0.8146186446114292,-0.03508076625864728,0.35767524217186025,-0.19806410395769175,0.537387286287234,0.0241332627741195,1.0126530114261967,0.013814159383998171,-0.2621616935934762,0.3144224724156926,0.21711863630735556,0.7074521157424966,-0.6119279315143487,0.5012719292119162,0.3148812498828435,-0.06767913094162527,0.05949903701892732,-0.8354011590756714,0.8668988012053792,-0.940383106594062,-1.0038082427894424,0.5935074949151707,-0.5538275727271127,0.40827686214039927,-0.2067407596645584,-0.8470671514058747,-0.5094262226003107,0.5735650031172321,-0.3291116161100593,0.33490849665498845,0.004405715842850472,-0.031455073839305375,0.5772501368635532,-0.8181269060390317,0.9592133177202595,-0.20494666229387926,-0.17508297055284283,0.6304674624678751,-0.5239712831168397,0.20313156422552586,0.5287484956293903,-0.6684688703049979,-0.1591365106134266,0.6082029485308856,-0.47674478543893006,-0.7899128176473321,-0.68414874607471,0.5489143415509589,-0.9884386719718949,-0.006477667895983616,-0.7171283670479061,0.19695697598577835,0.2917815489876068,0.2347355080719054,-0.746580791409984,-0.1545149196190961,0.6222192616846222,-0.029411029830589203,-0.3261697296040169,0.8289967087914887,-0.39808952709209566,0.47039988059783394,-0.7523084939869016,-0.8647788412040924,-0.6541829327542048,0.0918322799458742,-0.055406473650080966,0.5198947887138148,-0.18430867737365872,0.28560583220751584,0.2543417140663173,0.7260855195845828,-0.1408364145370095,0.49595081605703284,-0.545040943197432,-0.36584892235133887,0.2879317002879462,-0.8755163157829238,0.045865269152592474,0.8896770667294026,0.45982975515801405,-0.3332734764128902,-0.2919284547783036,0.3940479462822788,0.8457191334009266,0.8613206669946776,0.25716519951456496,-0.5202995439998747,-0.3970459565744679,0.5025617155342833,0.9640577330593779,-0.9524205065607412,0.8019005173046925,-0.070394285978068,0.6617054570260962,0.9561790219954203,0.4259507280324061,0.6309406375518525,0.6696967478509451,0.06302541855480887,-0.2154904392351783,-0.13651878048236643,-0.128733604149431,0.7422766873541844,0.11960700039613521,0.04263759619463954,-0.0822007266211283,0.3426349054756423,-0.9489416290867847,0.5816234526458168,0.7284018584002321,-0.10669579179685912,-0.10367429446279855,-0.6134325387271597,-0.623614450754224,-0.3664660624581293,0.5096034793778287,0.34239021342647796,-0.15793958247760775,-0.2849501080299274,-0.3195776550198227,-0.09693863478579287,0.5587730914926261,-0.30837794695955584,0.46714067292818223,-0.6859484266535076,0.6314865752281531,-0.005554345904469527,0.11880986664686236,-0.2979737147812514,0.22702018875092886,0.5476690494717281,0.9680074068268476,0.1932208562095533,-0.8211684779430346,0.33880376927795625,0.07815372772687594,0.13630083818742056,-0.5564737037757786,-0.7252716257921302,0.39148551054534153,0.46407215182840417,0.3657763892172117,-0.4875318450814677,-0.9289031033524505,0.5339313028799609,-0.7323775671703159,-0.6931025121856305,-0.4452429096710932,-0.33501734699489416,-0.7434966509582913,0.09972070468453706,-0.4828096012246562,-0.6800342983125445,0.8963717666016968,-0.2786360488747344,-0.0573359204619276,-0.43849716680164164,-1.101747603236768,0.5121874994088355,-0.3845895856050593,0.4610408700790945,-0.6266294243711245,0.15446659710419822,-0.8669396489938012,0.8806020956022135,0.1359955842421813,0.9179240976061481,-0.05685025499468352,-0.5284007197837931,-0.25039398059158036,0.6004164840954948,0.6710206713110022,-0.6391520202255309,-0.574333269585155,-0.6401575012493244,0.08300353640676297,0.09697704194348807,0.6750737908366964,0.9272058518307268,-0.1908781839308563,0.8062331563097068,0.3418954114291459,0.5006495353636807,-0.24560284840135682,-0.6366892179823893,0.23844671062013056,-0.8249000661022923,-0.8438515077475797,-0.5172535710387817,0.5489859414555861,0.4242729841334862,-0.7127048259901567,-0.22903879445023273,-0.6021031349585606,0.6380730175171141,-0.03187037607159062,0.7294231149461463,-0.6522283651996885,-0.7374150583221515,0.6379776495169245,0.5303775600319233,0.07968238315045856,0.07755905476465848,-0.774873839834691,-0.8689399339619555,-0.3769824763563136,0.10401839584296844,0.6874904458998566,0.8617297567992848,0.7120632513691055,-1.0639285896061923,-0.47861809320372234,0.7173715510910232,0.46986607166051647,0.5153987132960904,0.42698157561551864,-0.4111074887204838,-0.6313832488729714,-0.8903795193293392,-0.1462441903198057,-0.744858670814111,-0.26519243205402454,-0.491532558746699,-0.32663437438734466,0.575658566973488,0.305618441049735,0.8529236573518778,0.6239038986752978,-0.10472884435336124,0.7905559665539253,0.6020523465220233,0.5769931500176773,-0.5830426225403332,0.6995348563510818,-0.639354130149259,-0.6601131772664824,0.7482424413652257,-1.0341867291041802,0.17509915428542353,-0.4571431747757108,-0.8506064170513892,-0.7652209545238641,0.7264732202895614,0.25429527861944046,-0.35419770563107916,0.7351804270350655,0.8388573521843605,0.35316850567298325,0.8976184141211981,-0.7750090005035811,-0.8483582030407368,-0.5888575221626717,-0.5936185309620171,-0.2818132987486506,-0.34797049598931806,-0.8404380814875684,0.4671528438504035,-0.7731775826354346,0.6162215108437405,-0.5438997504889727,0.42230495074729507,-0.7568830116296561,0.2855630219612262,-0.5809577516120745,0.4541549358698325,-0.679722311858999,0.17507170644797104,-0.6266206370682038,-0.38030996835920533,-0.12800930718015538,0.09072923552667053,0.35276594563080915,0.8579872221283211,-0.09924636655045901,-0.48843090827202235,0.6646011232746325,-0.23563664621259464,-0.30142702527159965,0.2181086002147073,0.21745077196353618,-0.8846113033011662,0.22858405168898435,0.15452945698790668,-0.24965225740989486,-0.3578477170833922,0.2539377412581472,0.25317339413695156,-0.8016301963172174,-0.2568617231512406,-0.733983641589361,-0.9563355916779882,-1.0014224723084781,-0.3266940487688194,-0.8334135877825553,-0.31627541889306193,-0.7083699066182251,-0.06234428548527753,0.6330238512755084,-0.09688123042741376,0.2828677813541721,-0.13771873102869556,0.8705589446145517,0.27296851442782905,-0.7717094293172244,-0.766892699299234,0.027085114438748,-0.6055534822832519,-0.0658824956343564,0.597812363546481,0.30145527310837356,-0.08577499104912746,0.6452430412271658,0.5940527238545257,-1.02033776534832,0.6848915936840693,-0.21302340184602417,0.15266600105636943,-0.7564293113412244,0.5806083319778964,0.7476161354507378,0.917078498976872,-0.36829529428839025,1.0139139381909619,-0.6299059838311432,0.8371236072123932,0.22247045307073518,-0.01217223594501185,0.45906334934902515,-0.44703675069940313,0.3774009633394779,-0.03522626545948662,0.2992070105373908,0.19265997609181565,0.022910344086974344,0.516817932619686,0.15037571482884357,0.01733578828618812,1.0198243477216993,-0.02607870983704341,0.7274636453087026,-0.03865027602930221,0.23624737883687982,-0.6861617913978382,0.9757356567470441,-0.7525705913672147,0.3229968885453527,-0.48560872757470097,-0.31029227690993605,-0.6813279066396993,-0.9629045885139366,-0.26905205695552403,-0.27782447934292764,0.22853325033016492,0.6688499040305189,-0.8052801666245128,0.4823973457299272,0.6185331980608552,-0.2968856290868453,1.0028299780825436,-0.6213306149785702,0.4801863885364222,-0.46276726664392576,-0.03710004384241012,0.6489235023666712,0.6722582797350092,-0.06602982309811126,0.41805661628697316,-0.21932917681153738,-0.7426016061932261,-0.8808491374276677,-0.39572945682244925,0.26127612942496403,0.4500478223982151,-0.374752511562121,-0.7484331697332826,-0.6317002224642541,0.13059747925866386,0.01374835751797591,-0.06542062188586982,-0.7373622677852778,0.15097561751632788,0.45007205863495026,-0.6883755218806694,-0.09284995322926325,0.5949962822570215,-0.5780926748134676,-0.20637442329524094,0.06931280500421813,-0.8419865367501846,-0.21561322940346214,-0.9491077261523356,-0.3981741148216864,0.36094044309561696,-0.5954728720496177,-0.9313371480095171,-0.18332251917431597,0.36955997121584877,0.06774531470849783,0.8843838264650021,-0.625109279508597,-0.005426200919436991,0.35290523417889413,0.3295861548531342,-0.15632037722674078,-0.6500261780344538,-0.5940510043066429,0.9422074442896519,0.45562659099991343,-0.1564257524806313,-0.9303273692251224,-0.842558550883714,0.0882192522572711,0.5462602238441399,-0.03978143054613715,-0.5259845933871368],[-0.13320077929860413,-0.4943484531221292,0.9338327528947088,0.634075835176617,0.09151894099212893,0.890064977886188,0.3643633640971615,-0.042289877551215965,0.9252991407914968,0.38550620655550494,-0.48563038672965797,0.7078038853874805,0.09278014529656269,0.46640701042034055,-0.6944135454776275,-0.9817228257310109,-0.16957657856009972,-0.5179676297388317,-0.7489497413151852,0.9981263078361863,-0.40202206969703075,-0.6824075866745402,-0.6081545337039793,-0.7729147168274914,0.844202854880777,-0.7234488077506103,0.12942896547948862,0.9335667669829076,0.08282460207065334,0.30860034235619743,-0.023098296168972254,-0.7890277252024814,0.7049486078298577,0.5133869764710912,-0.8792956946499931,0.3695228444703795,-0.7534436593491413,-0.8612917787442275,-0.01159363742185792,-0.08361640338509506,0.9929116497652206,-0.06222984677601949,0.1132581394567282,-0.49526659525508837,0.09326672366049832,0.993459101858279,0.5781237360618663,0.9410366296354322,0.4884328071686115,0.11824421997161616,0.7028850052579098,-0.39263035450277484,-0.8366703881511918,0.5961389756001315,-0.4229674402752965,-0.36987995199365586,-0.5248839451089516,0.5173474141661244,-0.6808134431374401,-0.33269507645394647,-0.4845904151334897,0.6556807664999591,0.5284714521682179,0.07168909120638157,-0.15107484375709807,0.08177657176855739,-0.679223364079018,0.39962744313655624,0.5315491016531141,-0.589435430151127,-0.6970919231072654,-0.40585957911967363,-0.743080673294841,-0.2662228398157698,0.20586709510407852,0.7538055658114065,-0.28201597744213386,0.6344147375926978,-0.36524690893269046,0.13297883841729385,-0.8002119679171774,1.027432028278743,-0.16487193465672584,0.8087795426517574,-0.11748982879618436,-0.6905297124497697,-0.5151245042234968,0.7149652436827794,-0.8661974995276771,-0.8569936092843915,0.6074136700137347,-0.8074025212356756,1.0087392109071698,-0.6442213528236986,-0.4606250706419087,-0.7212801762246921,-0.5417681135149051,0.2053774648949323,-0.8507880727880872,-0.02916440796423687,0.11876537080902438,-0.13040713525396233,-0.6704952471259751,-0.23504410769503686,0.5125680439065602,0.46839807750675505,-0.8057336217574894,-0.5985819885758075,0.1606476034029832,0.9188902688600928,-0.8380841747993542,-0.06967523729670672,-0.013249017534360957,-0.8610722125950788,-0.8497530076869463,-0.8906799930642649,-0.59759718604273,0.46848323449764867,-0.202468915665821,-0.12855671702444105,0.2620453376346234,-0.3083201603398204,-0.3807484896687862,-0.35157435398025155,-0.3040164423297077,0.949564873939026,-0.11594398476732054,0.12873897775182172,0.22831408654999333,0.28153160661283755,-0.10459651279514111,0.7254685604959817,-0.2035989479320273,0.7892882984778037,-0.8430620929680382,0.6682870535189277,0.3356693085650861,0.5919400081634518,-0.1918084397645891,0.0710987862712034,-0.1343586272127428,0.27056372315748367,0.9452848529445148,-0.08138170303464566,-1.062090446417049,0.022704457083441678,0.8598901350818272,-0.6042362030238373,-0.8117469783202996,0.7142646217689407,0.3912473064757883,-0.6653923816082903,0.7893912207231887,0.1794427090682966,-0.6512677972741041,0.1997046983891473,0.6442822116444878,-0.06932892536106225,-0.8091027190720496,-0.0003170813494730437,0.8614239284231793,-0.7682234305079825,-0.06818358849691378,0.34193732745472466,-0.23004121354899545,0.5542092623224151,0.020894301986494546,-0.4620268353542846,0.6365328500798646,-0.33078869468324695,-0.567539362369789,-0.4124379545750258,0.6439624716866859,0.7726241080583621,0.5495224671950263,-0.8012246127630148,-0.4607875934693998,-0.2554017161337221,0.14455250363079297,-0.46069162004118897,-0.6432027316474881,-0.1444746210739976,0.6120224972472137,1.0217917024819656,0.22190464665556614,0.0424228146167926,-0.9459513537915675,0.3603854914179593,0.004810953783753425,0.4068101739878811,0.17044715537641422,0.4105843651319534,-0.5038329240493076,-0.545202622659378,0.6562238483250857,0.46540038753340196,0.9040520272377374,0.5462037426707637,0.8031994391215987,0.840837914345535,0.734456316598901,0.2369962820513405,0.9418138620378904,0.5430799514382275,-0.9999724622145407,-1.0063915211712762,0.3184421939358113,0.07488761292898492,-0.09835708881021611,-0.3188173735036825,0.45976059256890184,0.7844244202230188,0.7074485098206998,0.9241910437339925,-0.06235317026866603,0.35343699012316115,-0.9110323174339857,-0.22681028287262536,-0.12993963500702796,0.05771808910299131,-0.6716652151995323,-0.3914501448598501,-0.5927713910093754,-0.5967835887229377,0.559273258593117,-0.23374725433449617,0.08642385729288878,-0.07344042724649702,-0.9206848624208999,0.6802193520412769,-0.388897306602349,-0.9537303560810444,-0.3986394287297768,0.32325199552073974,-0.2982716848402535,0.4874667913292335,0.07629075284799379,-0.4974447359465467,-0.337454280774144,0.5497696026876704,0.2649491767420018,0.22704300192245316,-0.29490136241830417,0.6658963133648813,-0.9024324960447608,0.24988184129550756,0.03229001080913308,-0.6565332976123439,-0.009678664152778065,0.2830178744486271,0.14317772758780836,-0.010849263336542294,0.723852588182178,0.21144628537921534,0.6231525340410677,0.33351053569371886,-0.001412995518953143,0.5458697732422446,-0.35974109773820195,-0.7022137095869879,-0.41798248884576156,-0.7676444479531167,1.0117659465035227,0.16554260825796724,0.332137283374755,0.6335120719013233,0.44833112997435737,0.3904978879517529,-0.6795214656457039,-0.8588092326853634,0.49075224599337114,-0.542312425119383,0.2140761704636928,0.48212987851256706,0.9305403892597157,0.6530341946239716,0.5949475457926852,-0.5242711277267985,-0.5117789794391311,0.9839149602324558,-0.711650752162228,0.794084743410796,0.3185513097944114,-0.6200924257461395,-0.2702888327974908,-0.277071843387672,0.4686730807167171,0.8214484823661313,0.7667905215659855,-0.35173256279392595,0.65246500316331,0.26665693270817714,0.025726631268791364,0.443114161711325,-0.9234697440347374,0.3903089047832842,0.2825225950540705,-0.1984754975243747,0.6241678837917289,0.30251436854829256,0.563330717873561,-0.27438118443694703,-0.7859155588150121,0.88284154057478,-0.35263134085650905,-1.000203235257713,-0.8010893803609653,0.7251071011617684,-0.13874925154317164,0.2267083408584058,-0.10389453765498803,0.892916733248647,0.9159414590076113,0.5153160457079,0.6655830047107255,-0.43942558212286925,-0.2071664842025646,-0.2025195455939329,0.008787318864707063,-0.21431063049231378,-0.33685421321413367,-0.37700175584819134,-0.40044008314560936,0.7837168509428531,0.967628754560018,-0.8029619792520373,-0.0004173831368942459,0.7248217110083285,0.7735007187960793,-0.11816029511655865,0.9094258881572027,0.9367149478235126,-0.7774228072126268,0.8392589690761844,-0.8299983392499491,0.6320856788918024,-0.31310978746467377,0.21169875528876456,0.3662436716021642,-0.09994200938563695,-0.9638307675955466,0.8233852478535374,0.5829801745773675,-0.08367115302461654,-0.048293010770704935,-0.7874950340716291,0.47234141977871347,-0.7426967716606391,-0.6723305773375233,-0.20333112567316536,0.3042747596564955,0.47874688461282805,-0.27725783745107185,-0.5111012813948718,0.1487088926716026,-0.05434067711390864,0.6977669559574914,-0.8111814878264149,-0.9377332251047726,0.37242887898738747,-0.8900620363776175,-0.14208595901103546,0.6796516027990566,0.3378576344126076,-0.44166895034134224,-0.6131292328280423,-0.2817051301440093,0.6762194940214538,0.4307961615151798,-0.9077047984854943,0.21272515526778712,0.03245304150448527,-0.2064880188024734,-0.5814716767089183,-0.6539885745905596,0.1516561826583102,0.19145071346817338,-0.08477203400133022,0.5978537669673838,-0.6994269877228411,-0.2270317938663617,-0.2017831153927194,0.3413248446855326,-0.4638258031397133,0.7441929167293015,0.27037687171403496,0.7499893440485442,0.20157354227246668,0.942306776507704,-0.1874497109091886,0.7883707678026638,-0.5782482081803131,-0.4968570763142708,-0.6288887215877186,0.7472609558715478,0.018696141257754262,-0.0037899970014191636,0.6412107110442569,0.170204500295286,-0.4039029046161942,-0.010102834898467677,0.10850412403411426,0.3236583254646789,0.584230317779861,0.4366006638803301,-0.8383100989435971,0.3154781710224962,0.7525487801456986,-0.5535027618912498,0.879742715468798,0.7434043629902958,0.7453511389389149,0.4462315204790162,0.5927826305202317,0.7516563232077175,-0.30645418625811777,-0.3529476715157664,0.4746583607668483,0.013533118526015495,0.5420977877476478,0.342534435638098,-0.9441284746174956,0.42788198266473493,0.13047797763329472,-0.18018565618692015,0.498253809772482,0.6675099623818739,-0.22122645210572936,0.021106697372332985,0.7168467487797356,-0.8160769997158137,-0.22565112838639734,0.22719061318126874,-0.96515903885721,0.9567685980343892,-0.7973967650890855,-0.9495208603571471,-0.42535539306108233,0.4324688643736399,-0.6579502651892205,-0.6524112201662766,0.8697339274366577,-0.08679981793243828,-0.007038265137871236,0.04129218059597883,-0.5740167959036505,-0.48133959773083523,0.8256289111101124,0.7436923049489677,-0.07131338482444544,-0.6221120503426812,0.6718464825714444,-0.912600199124966,-0.45519333440961535,-0.9115791835772493,0.9188185766414168,0.4395997667723431,0.5986063606909898,-0.7668787153564853,-0.6632408923594467,0.9335226034292284,0.928046362182156,-0.49068280030240774,-0.2603801245585604,0.38851742584769344,0.4912651886198824,-0.010959936287239515,0.3535899290753098,-0.6705397697045036,-0.22118655604750448,-0.16348690734987403,0.13207635546854152,-0.8911912955938149,0.03969891950053233,-0.6625483401743053,-0.353582045748551,-0.7934862459225885,0.3378740122515098,0.3567768703671542,0.46093782102582814,0.7475205309356598,0.16948823608691962,-0.23717005738939417,0.5693230227418106,-0.3061321291883854,-0.955473020011267,-0.3630976220641572,0.3756985493364055,-0.6406603379807623,0.7917682807007408,0.6716687502609001,-0.8373771517739373,1.0344969237940103,-0.7292904550572428,0.8295111325245135,-0.35923478655135443,-0.3311631210860975,-0.3135599445474319,0.16958670722005517,0.938414747374478,-0.5371503013408478,0.4642011309656089,-0.36623724779364336,-0.5796315740346194,0.7972915323979042,-0.26882625271825383,0.0005995342560225688,0.4000966051595389,-0.4035453484139233,0.1928128857238928,0.9609483929918545,-0.7184672309716874,0.3589123556117412,0.7922321571852692,0.15566277768350045,-0.03825175435893214,0.4851017760375418,0.38734307127921075,-0.6887718714298265,-0.589713361189903,-0.17208344285397664,-0.5413829947016234,-0.7240456756362786,-0.39234326847229256,-0.6426244962448254,-0.11696442934567791,-0.3215780946826709,-0.41925161659670296,-0.8720542402222684,-0.1643784307246109,-0.7516812820654084,-0.9118409306515384,0.05384290567791604,0.7195392135711501,-0.5333640837128049,0.8282927866070484,0.36575064727754186,-0.33982175096138934,-0.8260915918591396,-0.9027902948999377,0.6844479087774847],[-0.6067044367744537,-0.06881713569119124,-0.7086170497463892,0.7825543526006907,-0.030034780938777574,0.6867857473633121,0.4110162922776831,0.2600674210841462,-0.7235505923160211,-0.6468926663446114,-0.26375797642087045,0.3079051756109445,-0.21007279146862645,-0.29681949633361854,-0.11778264704111004,0.8791441781187647,0.6241212959188652,-0.8181361166552146,-0.7386830590268016,-0.9384741274398941,-1.0346895220561485,0.3014907381122404,0.07293225739422443,-0.27904228368511286,0.7146843427924336,0.7728451657854534,-0.45391599480109834,-0.3489728941701543,-0.5946609498305391,0.6684447940105681,0.824656116710854,-0.5317502771014462,-0.009586518700380258,-0.06420793361954315,-0.00975242432652626,0.2734171983620104,0.08689240715611624,-0.06561770004546269,0.2558889822096313,0.8904058623118948,0.6805093927479768,0.26447402875529613,0.6105656834947621,0.2405930048056883,-0.5885302835887631,0.6617485204431066,-0.5049806199102885,-0.9608349324943563,0.9470668505055742,-0.2745307443480312,0.4285480497981619,0.8121295023961027,-0.8741399674208428,-1.0238748341552022,0.42640082335614093,-0.9049288030457939,-0.6146161957249321,-0.8178033553546937,-0.5336459039659914,-0.4119555185393447,0.915513142337173,0.09047900911082402,0.018975289968862656,0.5507846001145842,0.3029161504049996,-0.7558206509561788,0.019082589661258136,-0.8961497672214027,-0.35748685720176376,-0.21148839168929803,-0.5729356256357486,-0.3024490293095142,0.27387043867353056,-0.2514596106501051,0.4696648242309963,-0.7548295622586397,0.4498286486284515,0.9722749140086813,-0.3952023534200695,0.8137091984889845,-0.2495029226253494,-0.13074064824790563,-0.8894708298036484,0.9966011979205486,-0.03951356244582827,-0.5924630011605858,0.6776087050801674,0.3100434235412087,-0.9110157827925339,-0.7008527923792193,0.7869889750909411,0.540264212481707,0.24486042788487827,-0.1974067606997453,-0.2116421643389022,-0.4015815165714671,0.459934114977579,-0.3840284478657154,-0.6006432750959071,0.2967153097494849,0.626566520689876,0.5461906073204587,0.5484346945602562,0.15033297299443613,0.851963247183254,0.24253998336246907,-0.740161599957862,-0.9108631264156016,-0.8200667936485194,0.24583875747682987,-0.4451884086196303,-0.6950794252815823,-0.5044560575562931,-0.21684563687910216,-0.2212439854117972,0.6133871858498389,0.3722544613124608,0.8622136221247346,0.8886911395860916,-0.16021306299054638,-0.4116581056918097,0.5469503707741176,-0.686409447357477,-0.9270804987822963,-0.04395520471808713,0.04863435565071619,-0.8346249807421651,-0.4577253395426176,-0.5983993525190974,-0.40401575168099935,0.9337117082347033,0.7780428386808554,0.43581429925843407,-0.4872759124661018,-0.18012871135059058,0.8693079970442267,0.6730086116127579,-0.26845693981935703,0.5086326408189086,-0.5469496213984084,0.6552112754185864,0.6497057199440219,-0.4393993949608679,0.39708832692132046,-0.8005302243692345,-0.21722617970034946,0.929715119197686,-0.34792894141735836,0.37289711588756724,0.16033486319137683,0.8831692089858644,1.0135591304258997,0.9304455705055099,0.7236330381223193,0.4870071951297157,0.22046763634159683,-0.563614879239195,0.7122280391381255,0.6087393926747685,0.08094748135988984,0.5972321796303083,-1.0367734749895066,-0.3374126206898534,0.9425223969553358,0.4583265743016309,0.018611258757827803,0.029676903871785124,0.047744992169823655,-0.6792198244182305,0.2996335669896354,-0.023638547657696244,0.9179181915320496,-0.4270407959625624,-0.728833628950739,-0.9887271211792912,-0.1737815097751116,0.19195806147857278,0.31739953032513163,0.40760697500690013,0.9237851020227438,0.8686343186753246,0.011608788349700363,-0.2689632517711643,0.09314565463419688,-0.12657109622606777,0.3860690015128536,0.2832591767793623,-0.36812951620339823,-0.9303747466465395,-0.7229472164713325,0.039527448952710174,-0.639547278778716,-0.1755126576624109,0.005104734119130424,0.682600637555566,0.9282252694219872,-0.7575408717818136,0.23507072332800244,0.7485882901091376,0.04547173975384179,-0.5417219647208891,-0.5616362623265029,-0.8985027992960775,-0.3490067128228754,-0.09675718706671367,-0.9443599295838359,0.171394533416182,0.9222191091648221,-0.756008025802285,-0.6968206536988168,0.3414318283730553,-0.5027471513740686,0.5563522049736586,0.49758525165726475,-0.0951045691011248,0.23878301222147869,-0.9373789293244439,-0.5696420506935073,-0.5579317409228345,-0.5556235301739961,-0.31795085563828673,-0.004599312915735001,0.31528716193558504,0.07331749274518043,-0.7243978223065999,0.25588829894570847,0.6494526272588448,-0.14201748092853025,0.6242319506677093,1.021872026279971,1.0216560052993149,0.534890780790386,0.37267152409472626,-1.0013027717997134,-0.7220669824546284,0.07088292483571274,-0.696327154333048,0.3493639951413074,-0.28304554648762564,0.07369175388082787,-0.8916480505674458,0.2990004338338374,-0.46282579329669554,0.01925060508907805,-0.5060475624022972,-0.6400491292980587,0.4270375162458901,0.7463707102824861,0.08364630946088644,0.4302919125738386,0.5579875715988405,0.4649854616761514,-0.21597352736629052,0.791940381028092,0.2689961202128873,-1.0173505131312266,0.5249389523377104,-0.6815053719440529,0.16272073241401236,-0.06525486316688334,0.7705105297085592,-0.7206794255011015,-0.8990125131196034,0.5836587696855776,-0.16635692571103222,0.5735562983706051,-0.8908994251752321,0.06710684907586684,0.32598681886293723,-0.7409814686854355,-0.7793711242747495,-0.9190552314475293,-0.072804709939061,0.45777079916128466,0.8413648758804377,-0.07216577832011838,0.20215700253725136,-0.20832740219956827,0.3327741904002809,0.168874644022134,-0.8566628815156295,0.5400666963812762,-0.6711182746998947,0.4199313039548169,-0.8633963728067694,0.9280458928794029,0.0863700629614623,0.555948596130177,-0.6848962890863433,-0.8989588215208818,0.7320062340911496,0.07747598393812236,0.14057049553492731,-0.08644500254340018,0.4464208578799222,-0.26768424413170633,0.23953553932252317,0.7068913717253331,-0.643281877524589,0.7192857225244057,0.29889003488785176,0.8741310618366641,-0.2528032116661714,-0.6605563186590528,0.11115752765066042,-0.3693883743697935,-0.6576898851944967,-0.6106424611941905,-0.8891585772910864,-0.16163443478849035,0.01885548957018743,-0.40779296307998636,-0.07429695026655522,-0.9007301320084943,-0.7537091120895993,-0.1453652641031086,-0.6428012816041477,0.3654309694139097,0.454112400904766,0.7433198812071212,0.6095412640702322,0.26717120310470327,0.7104571761588331,-0.06910486340787578,-0.5861258398786172,-0.5909271590310844,-0.23642351626873628,0.8428790542867094,-0.8770789810810972,0.6383568840937166,0.5309998370179319,-0.8929565964782916,1.0161157252500308,0.28852494911151577,0.47447209687385195,0.1632922831252421,0.06025660660983298,0.7843336768823893,0.6197106436635115,-0.4010834359855289,-1.04198169288237,-0.7899513221183314,-0.6292511864257977,-0.11833361481222986,0.16857068272956907,0.26588975808846643,0.08355073812228243,0.35058254042236536,0.5782515215433554,0.8435480220590105,-0.31496916809989367,0.36631813495921284,0.2278340677277253,-0.3718130304641955,-0.27574634231808565,-0.1754456883974799,0.7130872772592536,-0.6787259086153641,0.656016992664737,0.27967893761395396,0.32047592131471553,0.39649704824860216,0.6215509950062981,-0.3421700578355751,0.20034811506803307,-0.541329554435868,-0.7082787082703165,0.4682727943737094,-0.2469677171940881,0.27609972735730803,0.1887808959717159,-0.602596635441361,0.49063392683158297,0.45911281643515595,-0.46858630103658,-0.24811850434333912,-0.9111944800298123,0.7335462886042835,0.29302608538559616,0.8744116787052189,0.7231517092758957,-0.20524419314256886,-0.8721202243608838,0.4469723251282063,0.27583193743544426,0.16044199638900253,0.39794633804359714,0.4122404054747419,-0.8402213093188995,0.11720570442778531,0.7733191833198193,-0.8785448164157436,0.8810198332322713,-0.6090388092810203,0.3317721821178473,0.17883649468444832,0.8631709800104855,-0.09718175248136506,0.38601800551869275,-0.8695834718139496,-0.19329866248480435,-0.911810581917087,0.3640470734676535,0.20335010389251398,0.08279354550394472,-0.7466287029838159,-0.4892899240663251,-0.3504981307003801,0.4876411050959641,-0.4687833771403761,0.5973451260391395,0.646741293690711,0.9063297416057274,0.9649573146554032,-1.0179967036938944,0.24680262142860238,-0.3797218666885892,0.6314276287064381,0.5228498842080189,-0.5266415529456986,0.7868788117897426,-0.664935736209866,-0.10192327291818147,-0.881706782396247,0.9979450904272259,0.1917754210577006,0.8470881841301076,-0.5807222260297472,-0.10613387102324007,0.6787174145145712,-0.8725945654559821,0.936920229674879,0.768477790314531,0.3404338382346245,0.4658513843148323,-0.28195658009455293,0.11382955842144794,-0.574884977630856,0.7847298757404838,0.42159825267542245,0.37968461951025145,0.5042126376581678,-0.47703128766920044,0.9007872997269251,0.4618131135427469,-0.13577604987539874,0.019197851255519077,-0.1067661518952991,-0.823488152628298,0.683008402961852,-0.09503917427023037,-0.41732729285639225,0.694656876024176,0.11505325945578769,0.04848362801414319,0.5736620318202902,-0.07538122854853686,0.3156115594237036,0.9426541054571985,0.6751174602506266,-0.6350215542985108,0.00022130370869724225,0.21551031122002678,-0.42911866991111147,0.492015624503609,0.406728325321891,-0.943944315756259,-0.13381329998601618,0.26757020321109776,0.7880426780960169,-0.4404457542500299,0.7911190395305701,-0.5695588690413519,-0.8145268383557606,-0.038408849765418425,-0.9102293021114831,-0.5145013748078572,-0.40992324298397265,0.5049027495814542,-0.23762089604494757,0.6608747878214903,-0.21013242443063998,-0.1766759995935745,-0.224626574453225,0.5087030485592411,0.22336947524650622,-0.04718069410152603,0.05594727321523352,-0.3093646761670803,0.07009745956473847,0.0878437696656853,0.8296314434847706,-0.8992341324991837,0.45810190015288166,-0.9666547711053387,0.09265531601580387,0.2467286763517701,-0.009521879341880844,-0.5489211677148893,0.6799999061385206,-0.21786348851439544,0.7721346199630809,-1.0103404588961624,-0.42732580154890504,0.007182277245401602,0.8248052166825972,-0.662638805484616,-0.8584590411625103,0.9511188342548988,0.17756940627805576,-0.7373637283780302,0.03746037307149196,0.5992653316584884,0.9254921058647695,0.07571472259193165,0.45662136624686606,0.40878754859738775,-0.8108137130952873,-0.4920216613856599,-1.0030218215061169,0.8230239726604789,0.023860685533854273,-0.13908548014272207,0.17777854082149117,0.6910334571888352,0.2063961568394345,0.7428609233040786,0.21593688980422399,-0.5329420625223855,-0.7832180976259212,0.6638297735409948,-0.33074127615350435,1.0117977719479896,0.04970567625341367,-0.4525073178189271,-0.16009239167302916,-0.6077143058493465,0.9693138649578539,0.7009420237312312,0.1789244890039413,0.27548161059592136],[0.9189882115847565,-0.5632558474037863,0.6047064585194285,0.48562799915052324,-0.5193352430978339,0.2131751480796889,0.01958726530806086,0.6820757545394915,-0.288938696249522,0.35219705753142416,0.3239933970459826,0.8915321438191173,0.38629824041088595,0.8147852385553871,-0.8425493767971126,0.06550680173444573,-0.7588020321713329,0.8988807951513785,0.31909181382824126,0.29992211732384494,-0.07909043503738457,-0.2613598466703223,-0.5596891312191905,-0.7771273727920673,0.06535508304016083,0.37443977710117443,-0.11265013195941381,0.3355690199084955,0.5909324161849459,0.4623686734796895,0.019059812955071222,-0.26278542250664905,-0.4084119336131053,-0.6005776485169113,0.9665650846447675,-0.5879446147233229,0.38052423296939347,0.9310337272942466,-0.8318275001123315,0.49447972479164015,0.051746706938628914,-0.6854421615478232,-0.5784702363292951,-0.16890201999272317,0.2912208280142071,-0.1926412947234254,-0.28175128152364726,0.08894458433181732,-0.058645031587424394,0.6012212040790723,-0.8383003784949902,-0.6756014835004273,-0.8836191141181193,0.3881477964950062,-0.40043518225772023,0.2645452130587751,-0.48522954778572663,0.4985108620629973,-0.5434947418731226,-0.7382901259280557,-1.061774447484551,-0.05368574736864343,-0.779868827979492,-0.7209418799028882,-0.9452794319369119,-0.10327544003718343,0.8666274135205193,-0.8451537319204939,0.3143229499805789,0.4445648916819445,-0.5296949183654549,-0.9175640007357465,0.3263729277990225,0.3560625125328811,-0.4544967953900454,0.31540870385922604,0.9445783502116056,-0.4711616298880179,0.8271663809533321,-0.9163340778870568,-0.5928564331794901,0.7014920927639082,-0.6011229716556716,0.5658198938308084,0.5649387517202138,-0.2825676951577132,-0.3656484501094807,-0.9043435459417893,-0.2151842396060957,-0.05680417081895896,0.20544212398262054,-0.10398265798351859,0.8112607345035769,0.9159029100115417,0.9444580942171247,-0.6350757142449942,0.1237865235727607,-0.042739821271160106,0.3953589877267335,-0.5458011432548074,0.7262177306642693,-0.3423987127898998,-0.6077811684639765,0.3718681812700573,-0.22388309615253707,0.3018840127387001,-0.8473105306453743,0.9910495299526804,0.6406628129271106,-0.0958306786347413,0.5686143425340882,0.45793732066807136,-0.7442484677711589,-0.22089513404869732,-1.0540229812522166,-0.9139378289098273,-0.2348105035808391,0.008443392260224182,0.5317324171825055,0.4674025140111211,0.5645370319530106,0.24770658287927053,-0.7732948830685159,-0.7003083011464514,-0.6807683917405379,-0.09041979213633741,0.21609344762712163,-0.6719994776300012,-0.02541220401683625,-0.5651957402430589,-0.34423264479304017,-0.538878765378614,0.9043520257403019,-0.7893758544294387,0.9044467694687253,0.9394110365615037,0.5464730996262361,0.023976884504694217,0.9153136274647367,0.32839695636553784,-0.07564265047611188,-0.21298060170419508,0.08430333574937009,0.6607113835883929,-0.4306518795399186,0.7655973112256251,-0.16582738918277218,-0.8285938195988976,-0.12255765125980295,0.7070254093601178,-0.43522559373466185,0.005182291792769596,0.5867618728900522,0.6497668924610694,-0.11686274906935962,-0.6524817540375949,0.8474771335604107,-0.22604246384923177,0.07046516631164049,0.1214460842368517,0.6495651720371384,-0.7076268612227611,0.5429334227250789,-0.49254183016558567,-0.7905965736632229,-0.3907736420912874,0.12790048734506762,-0.6820690965606984,-0.2903691054755022,0.6165158518154421,0.6547050765240258,-0.20567299191027,0.7208711765580383,0.48572464048493813,-0.36070806232136726,0.09297065297345086,-0.8986417509031753,0.1290004935340146,0.4104998952615351,0.5864857747111966,-0.06725708704657091,0.21819946174243948,-0.7465378844995243,-0.6198042146768488,0.5594679717930215,0.9757633128404432,0.6032643110466965,0.09729586832994874,0.19536023419457205,0.267042021981823,-0.23358433049540125,-0.26468265006367936,-0.403795176287698,0.6186410693799957,0.6599597477624841,0.12764877386917042,0.4289220682364543,0.14102894202354746,0.46533873005355986,0.4510407229990085,-0.9490141821977712,0.5977060280379154,-0.8126872695078892,-0.5144983638814887,0.8557045059837062,-0.4302169800118381,-0.41678812742840327,0.8038326458935929,0.003485829964427214,-0.9515518265050211,0.6785729240052496,0.4821614292488969,0.5906679598756437,0.4232333589798341,-0.701998076863288,0.9964140614494906,0.41045997638165543,0.16897811517898423,-0.11494572816831565,-0.21311099066523606,-0.8724918538884358,-0.7457266153169522,0.4693958923759427,0.4666570793508751,0.6914401009498313,-0.49523448097125816,0.5754640390595819,0.1309769514040307,0.9330252825889439,0.0001933308325678979,0.8971916590779212,-0.3121052007463799,0.8014560303149679,-0.2053279381175846,-0.6745957113476616,0.9279700062782745,-0.98041772477654,0.6980925971728975,-0.08570619547418284,-0.6116350122701156,-0.9526526998633609,-0.9608777806819387,0.4485206868030623,-0.699260099542424,-0.01481111481320405,0.8719263012901569,-0.12733836704709584,-0.3491468286985897,-0.8139671853233988,0.3315708040313089,0.29005586298306163,0.33207905200883864,0.09082418760281086,0.6089076880375311,-0.06492414733595077,0.494698409126627,-0.23459703364747103,0.5951161570212851,-0.4441577356644193,-0.7370560023720913,-0.6711902377460109,-0.7981166062715673,0.929005183199795,0.8211922288918667,0.6809044261264746,-0.8382967634914034,-0.046192260179834445,0.27957940718168334,-0.4686826104375474,-0.30313813655804495,-0.41222132846994514,0.25938280806025044,-0.5485689212584133,0.8316823862727218,-0.4277582595911441,0.7564141947969051,-0.25756128830973574,-0.11587588992643538,-0.2163074741707001,-0.3928123002791928,-0.292703388733029,-0.9604632538249643,0.5158644802373182,0.7190919924795791,-0.8286411105827082,0.8850912453204632,-0.48517190186403364,0.08376703884153008,-0.5937398858985437,0.29794900010829695,-0.8563663951156358,-0.44672684873900653,-0.03328944123639102,0.8111132788769425,-0.6304534968161033,-0.6409854364493102,-0.7450104244108334,-0.4105806514178781,-0.1843561135797545,-0.050889328632391595,0.5994929097655735,-0.17766059940244736,0.7945089823523401,-0.5475397627722185,0.48466554247887483,0.8048616745667906,-0.39931606557365595,0.24299583541147077,-0.07771678130320754,-0.557980005687407,-0.49440463704740945,-0.4269231436424463,0.044755250436247083,-0.1344637495762642,0.46351423404061676,0.841201284642409,-0.5940680664971361,-0.26611031956068265,0.6681587051056933,-0.42229232352694435,-0.5893254747870307,0.034162959475764004,0.26076901760546506,-0.45340317461992696,0.5203658653421682,0.23942586521002795,0.18423390627622002,-0.23505550940523082,0.35605224329161356,-0.9152775469104208,-0.5806839339223646,-0.863098899184365,-0.5433093988415817,0.03517425083873899,-0.6791106592064461,-0.5511523012645955,-0.5025352062432686,-0.8504380322881422,0.9070073367255985,0.3942847139411036,-0.9589076765178705,-0.6136683506339038,-0.2421532812433669,0.21584033466518113,0.40003938241599885,-0.4361571742935121,0.5209457272298043,-1.0049630443517295,0.583264351545844,0.29957939869563,-0.3199942394566163,0.7368582108379899,0.0720409227584022,0.9852957238600758,-0.9710997368782013,-0.5665433126520573,0.2756340808472465,-0.5024054230715859,0.7728038373837643,0.6317102699073767,0.6202961517547578,0.540103858368319,-0.7677786820090287,-0.13993361429372977,0.1685628550689018,0.6136165257140888,0.19488451825564548,0.7682654707996769,0.03414866112964579,0.4381899583343473,1.0117756106401272,0.8562012566231038,-0.3397208987817529,-0.8673923954879655,-0.23028804932237723,0.1501716409078771,-0.7059627419686502,0.24325984424618075,-0.8627007354989981,-0.7573266870880622,-0.6927790870474511,-0.4973452077760164,0.2749438540079232,-0.09910107765709288,-0.20857953856451375,0.9429146185324527,-0.6022605666902893,0.2677625772440599,0.8039557748172242,0.6796487263330818,0.29967740262740145,0.8788152310087624,-0.8838782919920505,0.397674561968551,0.39792835821392236,0.7839256771242588,0.8107346023281705,-0.7262556646795285,-0.17021313884500466,-0.5049906425906122,0.7907017464279945,-0.9001004297260953,0.47233112532975796,-0.7385792127878448,0.8811017677114553,-0.6644808022580803,-0.760140971455624,-0.8467878360002938,-0.6869743652499386,-0.5887645847184522,-0.8943567020722001,0.15400502966574772,-0.6748795720213923,-0.7997830787465381,-0.6170671631314149,-0.10707662281369561,-0.6470519375386184,0.9177043903529928,-0.0797425074943627,0.3268300656653439,-0.18273634211190948,0.6381409481078115,0.3161166505838107,-0.37667512415498755,-0.5393973363164689,-0.2601795656252712,-0.057296819817319,-0.694253747294617,-0.974704992621776,-0.531283937025059,0.9593627020483662,0.5064571276271174,0.40036587081906205,0.05206331500243105,-0.01902228157888484,-0.09822892598611087,0.832407264630655,-0.34368872798368516,-0.9045247083768067,-0.5073850936615572,-0.1931486064509566,0.4487968551959601,0.6969788161157288,0.24513948464165083,-1.0361270748673073,0.5215334980786753,0.22173440940229058,0.40491065391713515,0.2758056375405756,0.5378457203684488,-0.5540480309131297,-0.48234232065750465,-0.03306250635527676,-0.7001247039647817,0.3135335874672875,0.39865567813330544,-0.667452736633943,0.7665323871612106,0.8766201867182748,0.9251764224065168,-0.5164941254022306,-0.4786209104697108,0.2881385310085936,0.6768403803156274,-0.8907947993452506,-0.2806456249594336,-0.5807778544883998,0.815056170535193,-0.45360966559043875,-0.4171218109884759,-0.7861079549201543,0.6619270894336319,0.8819380360326589,-0.34664606917580665,0.07882574393599245,-0.2275357979143802,-0.7726702885297712,0.6545632705620245,-0.4114657706900462,-0.3851297831991731,0.7941419422827404,-0.6455022862364946,-0.2387869786732236,0.3821912432708946,0.05326529264786401,-0.9226178848284015,0.23884955729313606,-0.4339629367812571,-0.1683602895919067,0.4541262741971694,0.19754601573581804,-0.9683566753840672,-0.39305806315251435,-0.45702926266225224,0.177942374935835,0.18257470101370227,0.6511577528660591,0.6612366536105148,-0.6374874799626087,0.04967020616862556,-0.4715103451920339,-0.37547230665747255,-0.8882832073604674,-0.6175124134440184,-0.4847721200116881,0.27692209999831197,-0.8000623515659561,0.8556057528597587,-0.5275466449742076,0.9267520055641413,0.23620862809898419,0.7906366571738801,0.45400880236080104,-0.07165239756056258,-0.8440212281029666,0.13147069682873655,0.21949738730539772,0.5102750733977928,0.5442318343764015,-0.8801064176970514,0.5388121161400447,0.7690046818421503,-0.686798589616003,-0.34169058321095314,0.32309266865701586,-0.17309828594613533,-0.96726699624198,0.9582869126639882,-0.3134936298341223,0.2893085237882258,0.09481332606185108,0.9997172954626262,-0.6576745928320636,0.1805131725987333,0.457071365207041,0.6356985749996538,-0.6725372672786228,0.4950783873389123,-0.43759708286173843,0.1925896515501397,-0.7481836659086829],[-0.15985036947234374,0.35624496518439625,0.4161402790556655,-0.20440643357032434,0.3011042217199999,0.47445106660960285,0.28109821581831934,-0.46103396145173836,0.4148957409068214,-0.6871906760960232,-1.039868960224624,0.26122778734085805,0.4010983712937085,-0.3338670510026162,-0.3972689804834458,-0.17919987647872393,-1.0382007369384953,-1.17997324614766,0.8300694981390032,0.013476893373430941,0.5238268118322787,-0.16630261099955135,0.16709383086724233,-0.022304058842374103,-0.40266352380655535,-0.4202069370600495,-0.9264648805381716,-0.6897068738717268,-0.2529844217418122,0.5364935780223561,-0.44271717717584935,0.008859711927979616,0.6370185902379454,-0.4254810467640326,-0.10974271688237468,-0.23104919535143978,-0.526465703101625,0.251127656389814,-0.5371058018293369,-0.7214171562122237,-0.40403798105400623,0.9719540390049454,-0.16520651871083392,-0.04010730035782736,-0.010068656108196742,