{"HiddenLayer":[0.0003229868183940374,0.9999999999739375,0.9999997608229979,0.9968052664818221,1],"InputLayer":[0,0,0,0,0,0,0,0,0,1,1,0,0,0,0,0,0,0,0,0,0,0,0,0,0,1,1,1,1,1,1,1,1,1,0,0,0,0,0,0,0,0,0,1,1,1,1,1,0,0,0,1,1,1,1,0,0,0,0,0,0,0,1,1,1,0,0,0,0,0,0,0,0,1,1,1,0,0,0,0,0,1,1,1,1,0,0,0,0,0,0,0,0,0,1,1,0,0,0,0,1,1,1,1,1,0,0,0,0,0,0,0,0,0,1,1,1,0,0,0,1,1,1,1,1,0,0,0,0,0,0,0,0,0,1,1,1,0,0,0,0,0,0,0,0,0,0,0,0,0,0,0,0,0,1,1,1,0,0,0,0,0,0,0,0,0,0,0,0,0,0,0,0,1,1,1,0,0,0,0,0,0,0,0,0,0,0,0,0,0,0,0,1,1,1,1,1,1,1,1,0,0,0,0,0,0,0,0,0,0,0,0,1,1,1,1,1,1,1,1,0,0,0,0,0,0,0,0,0,0,0,1,1,1,1,0,0,0,0,0,0,0,0,0,0,0,0,0,0,1,1,1,1,0,0,0,0,0,0,0,0,0,0,0,0,0,0,0,1,1,1,1,0,0,0,0,0,0,0,0,0,0,0,0,0,0,0,1,1,1,1,0,0,0,0,0,0,0,0,0,0,0,0,0,0,0,1,1,1,1,0,0,0,0,0,1,1,1,1,1,0,0,0,0,0,1,1,1,1,0,0,0,0,1,1,1,1,1,1,1,0,0,0,0,0,1,1,1,0,0,0,0,0,1,1,0,0,0,0,0,0,0,0,0,1,1,1,0,0,0,0,0,0,0,0,0,0,0,0,0,0,0,0,1,1,1,0,0,0,0,0,0,0,0,0,0,0,0,0,0,0,0,1,1,1,1,0,0,0,0,0,0,0,0,0,0,0,0,0,0,0,0,0,1,1,1,0,0,0,0,0,0,0,0,0,0,0,0,0,0,0,0,0,1,1,1,0,0,0,0,0,1,1,1,1,1,1,1,0,0,0,0,0,1,1,1,1,1,1,1,1,1,1,1,1,1,1,1,0,0,0,0,0,1,1,1,1,1,1,1,1,1,1,1,1,1,1,1,0,0,0,0,0,1,1,1,0,0,0,0,0,0,0,0,0,0,0,0,0,0,0,0,0,0,0,0,0,0,0,0,0,0,0,0,0,0,0,0,0,0,1],"OutputLayer":[0.001457201806682692],"WeightHidden":[[-0.22938340751613986,-0.9047755619014309,-0.5501870182058277,-0.024143427756234393,-0.1750712830449889,-0.750028404401408,-0.6082191837424307,-0.5639030453444593,-0.2566550382747811,0.3215524814186273,-0.5512129982220001,-0.7599608510765636,-0.866426564020138,-0.7079840100355228,-0.946472803813484,-0.9836452378066283,0.2827515650910696,0.3115352846670315,-0.6581697020098405,0.4350414205798658,0.3405344581516239,0.8809790382490342,0.6445178837349774,0.5860464658994173,-0.1302505570056823,-0.18058858926776766,-0.21066238314664876,-0.5419593897992088,0.2600883034038835,-0.554840443332464,-0.7740546568525313,0.4124342415525716,0.5875976589162774,-0.23606985269819555,-0.3748583034530009,-0.48487276505865795,0.7000390029049779,0.42500123823866304,-0.9525219549891443,0.2099495837649106,-0.17066156728353854,-0.05617947442981319,0.35063704009568114,-0.8200001616263266,0.28588923830250473,-0.6757547461526302,-0.5366018828136793,0.5002143872797173,0.4929763470619143,-0.5052062942737278,0.051916954266441113,-0.4971834896622406,-0.5663614660819366,0.4894659005743833,0.6031080879823728,-0.30644798166891185,0.1953991018756307,0.16202162181476534,-0.8874938299782653,0.6608620855933692,-0.5635890083114995,-0.17242494320555696,0.11711381660822018,-0.7728360867908113,0.25318046549077705,0.2877254147443153,-0.9244127651310269,0.009205097339997843,-0.5418021992070952,0.3395009206588422,-0.6946787787925898,0.15609167155764753,-0.39503390044509124,0.6245236822001266,-0.3673844512339969,0.5785913483296986,0.07916017166172284,0.5058026704923648,-0.045825787244706824,0.47714604908927644,-0.9970153551529162,-0.046971089231670995,0.9309011180173521,0.3748391472919011,-0.7535795484560608,0.21426117607823084,0.9971621802405166,-0.877381267573571,0.676008958024384,0.40095161436633536,-0.0934808753362377,0.0328210904392881,0.8010694455895007,-0.4943981119777567,0.04427872301989771,-0.7438091886464543,-0.9033561457590049,-0.47434857753576687,0.9718873175097827,-0.6835274877316789,-0.26797950084430483,-0.2306522604224858,0.010821036946209298,-0.4978288248964366,-0.7090729550705467,-0.5363657057401164,0.5303576025003583,-0.7818390131043959,-0.1641831068027949,0.7104618951649181,-0.7028595720765212,-0.05254763797479989,-0.0028520234413933446,-0.6003941143243625,-0.47340404517564605,0.12785107170902207,0.5747903247313589,-0.08301951883368078,-0.8295075870216801,-0.6908630789220175,-0.8987084812711149,-0.8234198742865941,0.1061579398880022,-0.4767735256949187,0.9543152264011235,-0.04122950158847976,0.9349874023085201,0.9830785684716391,0.8327706366278312,0.7643962753281022,-0.581854048511825,-0.8755121125758459,0.4289247839123458,0.36430826803120964,-0.49822565016216686,0.9107334159559468,-0.5925039231651547,0.6936472267367815,-0.9161104547182499,-0.7577606442744215,0.1468500116080087,0.13521986466686894,0.44065588998928706,0.45585058782306803,-0.4207294283107534,0.21286206686142076,-0.2930715520574167,0.8912245158128927,-0.9252350781994306,-0.9640677625452688,0.36146341142699395,-0.841678129709907,0.9398030801465236,-0.21147667204434134,-0.7943169024757925,0.955098760809902,0.7943073745238033,-0.5388637246619483,-0.47833288667837154,-0.8540552903370027,-0.15379390980862762,-0.15366522028028104,-0.9858162641562876,0.20302950919850907,-0.9020916972440984,-0.0826909338080206,-0.46048197680517,-0.6175270309929592,0.37973571839210596,-0.7174522223367386,0.4161169833360496,0.3956589863395982,0.06242261506281354,0.6881352094613241,0.7150540317731553,-0.07541566384139904,0.5647574806737042,0.5332422251753786,-0.8706060642225589,-0.7454512930619472,-0.8770323891325097,0.22297663208004942,-0.9857838539552177,0.6710927214473488,0.15782715671159991,-0.024070207054952508,0.25657659029468693,-0.010397130274705988,0.2168127846990669,0.11042168269111505,0.07960002920206873,0.13028382323865212,0.3817755363525574,-0.8468837530251556,0.44883314018325937,0.8507272506776974,0.6474749855373901,0.8620990702857882,-0.48193293597134423,-0.4395242304067925,0.8194727882907168,0.33763328041924306,-0.7184549737800474,-0.18101971400581188,0.18850388268695903,0.05577778426409723,-0.07059894515716424,0.4338943502438055,0.5046142372741675,-0.10090919760508452,0.5401722349687123,-0.19576849970675445,0.5327163421635637,-0.12007936380902728,-0.7730381323344644,0.734948590323241,0.7656317220032213,0.8727149571682968,-0.5228340225906346,0.9688544944485187,0.17009812023489768,0.26603492313171556,-0.47004669456949466,-0.8722390609411519,-0.8598414113453348,0.188510754670279,-0.8322866203291178,-0.23127673009228117,-0.29110276635797616,-0.6302129518477325,0.11385431565799224,0.7580812132959538,0.6999218246115587,0.713399167708718,0.22469943085839492,-0.7256824001172324,-0.7085130472983181,0.5152780396645855,-0.3500605593873218,-0.26080085968268507,0.1705329436903165,-0.5481101690104926,-0.07810338795660847,-0.29342869620969686,-0.18969113879025673,0.5290930689616871,0.9158223761982525,-0.3051604732477766,-0.9497366981193354,-0.5255302997196744,-0.04274753639097882,0.6115214045586339,-0.7773859770182517,-0.28751644782882674,0.2133855149518624,0.06919294642109977,0.24922104406059495,0.7428755302564103,-0.5205873762435229,0.253721546972131,-0.19897174142622176,0.9305942369812482,-0.8205116665924453,0.5301160800908407,-0.4289327489165863,0.0989675155583885,-0.15703265118425824,0.5313439249289157,-0.6434828110607262,0.6580387259693229,-0.561462079917926,-0.20785594988874356,-0.9341980064696513,-0.8642015214760211,-0.45745702132928373,-0.36049294979884966,0.09368529371610342,0.9503486303591662,0.05961297183442559,-0.08417545559218141,0.5133999000853389,0.806633330227583,0.48318269759506677,0.3544830027748392,0.7773173153377732,-0.6568522999795566,0.12585510661932608,0.14308091714591542,0.2887662857380265,0.9366099091152135,-0.4680487213234989,-0.6986737338304994,-0.7032459539948595,-0.0017007242160646595,0.7382365298234997,-0.11896033445482276,0.897134046024765,-0.12410960099770375,0.023107249850146908,0.5871923792076016,-0.27780915468039147,0.18717271614993525,0.010319576261656313,-0.6779428224095555,0.8335174126064847,0.8919605020221494,-0.6659941756991158,-0.43569623218263054,-0.266201827585391,0.27629505002081756,-1.0066494959700276,-0.63377510939403,-0.9226751088967642,0.34407326754723216,-0.08527936833000392,-0.4546715437761382,0.5692743514111197,0.7365582949066497,-0.34947875558147584,-0.4633694866655809,0.31386067486749075,0.9325774871714779,0.5573313046710491,-0.002218922600409023,0.1641483731089432,0.20496137389629607,-0.9423692514252944,-1.012598320689546,0.47624127777598607,0.8304232861656423,-0.06680029107178666,0.7445759017864332,0.8200408146707232,0.9395513151530588,0.9566966463930668,-0.6902590235644257,-0.7113674843137314,0.7610086012182731,-0.6654645192209825,-0.8865230867327101,0.1215018902573845,0.47051898148946747,0.2751542781716707,0.08290913632199345,0.1714589018001948,-0.6188092781345385,-0.7089053875443402,0.35172266186928774,0.739965281180821,-0.7457396152312609,-0.48706387375564736,0.34017626373912824,0.3560792085794743,-0.7706929289356916,-0.45014109873848385,-0.8673969311496937,0.07109624659193434,-0.9539532403765629,-0.75015797366115,0.5835204248119747,-0.09068181887481962,0.6524149654393918,-0.37149751108297285,-0.10997268344974331,0.754489432531012,-0.3903426100726228,0.9981115509578086,0.028555350225054617,-0.570819283767642,0.29357011434508334,0.8378397634878211,-0.2135041877757364,-0.5459638552122196,0.5693970389000484,-0.997326054608291,0.15899381440294025,-0.5734860604717303,-0.8217830953762041,-0.9118195323508534,-0.7446513934471034,-0.9364883427148434,0.9146408527718517,-0.11775634641611982,-0.0623205642595244,0.7185138634984106,0.23206869715538073,0.536910895440346,0.2860202160412134,0.9936582195010817,-0.6340151600132948,-0.8528627399534374,-0.4872717933701198,0.6227915911897525,0.08734409185882759,0.3287550859709735,0.5554117147634209,-0.1478083091542435,0.5659141530914894,-0.7859764987363839,-0.8562375092209347,-0.15130046408192785,-0.8658779576459836,-0.737302849576725,-0.2668464421785463,0.7313321288275783,0.807973324142376,-0.5880055800865188,-0.5794862777624608,0.9008322606440237,-0.4337352688818072,0.37783669953074395,-0.1502088363497079,-0.8857537947318247,0.59793572685132,0.9981758384201337,-0.2106316764166098,-0.5997749033176729,0.6184475532245778,-0.8291285107261702,-0.14162131027534833,-0.33090395525955335,0.555319942682019,-0.19890154490802006,-0.667646711166754,-0.09102979986476643,0.9628362320327525,-0.8221267673354686,0.2133128731605426,-0.27173587264457527,0.1120942191051926,-0.6128740468103168,0.059370204688807576,0.5018340622560891,-0.5894699828328543,0.7341201631840162,0.9548645569306513,0.8808359716106458,-0.7331197370210322,-0.9072444736239718,0.24244230685601026,-0.6974025128321342,-0.8227738083393082,0.16383144387893825,-0.24456860044272136,0.7104669901512906,-0.730693953494444,-0.2808758504894779,-0.2068708947760026,0.5541470183398166,0.7733134197822621,-0.1478121568088113,-0.8088712765713577,0.5644091249357033,-0.3666955602876601,0.2707291495043385,-0.10778657494009132,-0.5708165276803228,0.5053628831532431,0.4777164971400795,-0.10527945464185154,-0.06612332623627527,-0.6754893206155731,0.037552486281456805,-0.025849801503704858,0.9098914450996339,0.8330220038300713,-0.8732842291265434,-0.5514744871919711,0.37461422057350685,-0.7440949937054967,-0.3393670779033913,0.501654249247256,-0.32449340885958167,-0.49028122071358593,-0.05409483043339707,-0.2621191593612819,-0.2609145727449579,0.6579578799135559,-0.20432264638674416,0.981952277937508,-0.32114393658570833,-0.4079294428443308,0.6971256477271182,-0.48551218488884856,-0.7605212307601675,-0.7071876933871201,-0.7315160591854953,-0.15955808431110624,-0.8846887830081541,-0.0397879218343315,-0.22919413836170538,-0.8986105381838172,0.535439220547877,-0.12799947195521846,-0.273116505707854,-0.11607677380767192,-0.3908830881298834,-0.6651182014846847,0.35637842392943636,0.7677468259773835,0.10513523455973987,-0.5972435395316132,-0.8538767315769403,-0.2547559980651987,-0.8422543018602758,0.273570826257553,0.32888753685226857,0.8401042968278477,-0.38842494164677926,0.48073381255138115,-0.392201461920894,0.33383097168217396,-0.19469408209554806,0.9078485167297753,0.6433083415580161,0.06355154599566952,-0.06560726657082698,0.046442120526689466,0.4115326371211801,-0.7317513528210521,-0.04948806449317231,-0.7789026493518889,-0.3003395109752642,-0.6019500039023994,0.0747176431171608,0.48098011729139667,-0.12170569944376776,0.5374758675273802,-0.17961998174048846,-0.027581596334344902,-0.8288742843535177,0.4355369428738342,0.4845679628287372,0.24779072943613795,-0.21873904266925573,0.49066995265753194,-0.5270278024592757,0.11578413414484262,-0.8968253407026068,-0.3014347021292503,-0.7640702897972133],[-0.540736827257205,0.8100922820373095,-0.19760664744225281,0.4944871321418991,0.03339824511039942,0.9261337132957276,-0.05052741815515105,0.5345989111850584,0.47828977545666,0.14755726147864234,-0.6132106381970214,0.8902106553762307,0.3634213031503496,0.35489016687436786,-0.32942089046481693,-0.24725534927313808,-0.7612709580606516,-0.9092625518346483,-0.42896391078396107,-0.14951165257105042,-0.13346085449497763,-0.5052549265191045,0.4955020542469776,-0.23689475887657838,0.5222431602877028,0.2659109163772364,0.9473037619492747,0.029022027651639276,0.046557274230384485,0.9139440385677908,0.7546898646419234,0.6886246480988822,0.056898199414567446,0.8665829177981247,0.05640229600827549,-0.3048439689702885,0.02031772631128057,0.6647049372833049,0.7842424246474374,0.08687883349832241,-0.09438254069743596,0.5472589976136712,0.49303302669471566,0.381019024539873,-0.39626138204554834,-0.4616958170796283,0.39192780660075777,-0.64525240282383,-0.5079854299811867,-0.2453910460652826,0.638726900491746,0.15993250757679073,0.7391514636482615,0.23182960982370462,0.7432464052805159,0.9232491701482495,0.8369488706576357,0.7773734319589726,-0.7522176230260832,-0.1929087058519834,0.5653328335162758,-0.618559506469194,0.9026918326374762,0.3368490430788629,0.588707914787564,-0.25731017590393523,-0.17407727890586824,-0.37597229785070424,-0.10092442951358954,-0.20985631779958513,0.16163678721638983,-0.5996759386401616,0.5567967800941249,0.9151492454558598,1.0100412143058395,-0.5899782599885632,0.6245418200442071,-0.3909904963211653,-0.5357903741044948,0.7210535944212878,0.8806953376755674,-0.6126348003342446,0.8989150622964981,-0.27719087845572965,0.7545303115745239,0.7296571026763922,0.9784629722604536,-0.7717930104051315,-0.13047054574151476,0.6875049415469924,0.1144948260737056,-0.5831618080524644,0.7110567152359398,-0.8988611623626965,0.8891197234589542,0.35520058437226065,0.9844734304025446,1.0096079031189849,0.634274146866102,0.8465520594047133,0.11322187919024523,0.8839048818668092,0.6174755722803917,-0.7207875929045118,-0.4485107490353899,-0.15269755367766266,-0.08583422085361622,-0.720291678132677,0.9258958296740465,-0.5732890627545727,0.3819538750929822,-0.38944067119541875,-0.4701539558577712,0.4503972575491385,-0.5721267440444923,0.5033896111120024,-0.16287064318566108,0.7974498493630569,1.0329515979155484,-0.14638327428319228,0.6458344208301303,0.12071134429430991,0.43152869260288257,0.7275033271026576,0.8079019061019277,-0.1552974202999278,0.8617871203630135,-0.4393148039137237,1.1576321066035857,0.9415722136421084,0.6055917475627406,0.5642613137383343,0.043425568679872927,0.27226309272009774,-0.14030743289062672,-0.768367213132342,-0.8240706610614909,0.017244974842353804,0.08803541988534767,-0.854716666695601,-0.3103509984650368,-0.6829228506939683,-0.3519016064276561,-0.45641093770015734,0.25175175654518445,0.26243195012256837,-0.7943073890910299,0.9257568233418075,-0.4773053844096959,0.13070383508132571,-0.4326948525447341,-0.7829528078827697,-0.1786700844122808,0.81295712913922,-0.3968474677605779,0.8409956159497628,0.8603360000543895,0.03380964294192425,1.0050131145949144,0.7825397989212682,0.9489409588054792,0.5467511924089747,-0.30397726048153595,0.7690606376870065,0.664633634958093,-0.14846440691997378,-0.42635472039049715,-0.10725937009068881,0.08695332433827789,-0.03834656938748827,-0.5513607720318595,0.7484845677882415,0.8861898946076768,-0.5933983961266652,1.010649613087052,-0.5099013766100998,-0.9318491548010907,0.2425509502112186,0.7324472675508747,0.23535212661625257,-0.806726007399724,0.033769247623136996,-0.438555444746093,0.20965869548702493,0.8310202780037026,0.03469243287032912,0.4554749957041974,0.14608647035370897,0.7166211144950273,-0.766993566078976,0.5224982846255305,0.8953723044868329,-0.10624098236378322,-0.6739095935479158,-0.1078323633937939,-0.20870418082207937,-0.6061704565615232,0.989388282977491,0.5677914757981606,0.8820775999335178,0.9953485717741988,-0.7127465857069757,0.1959481332944139,0.3016327321607878,-0.1424433422912732,-0.1703302099267923,-0.8327263570545702,0.9398622531195976,-0.6493350078846132,0.32462683772267487,0.4747450354283258,0.2751862884190439,0.4078406146190065,-0.48964688781826116,0.7941409937713231,-0.3873738482944465,0.6761923191324754,-0.49723471109754375,-0.7195893430291993,0.7167528666203594,-0.5549245797979009,0.04071358854577263,-0.30127456499295946,-0.30701114103165594,-0.8057536790417963,0.1056494429206204,0.6409151627057811,0.8106145103796499,-0.1767951879500417,0.7540984324636003,0.5716093375073674,-0.20340446059316872,0.6831350278412415,-0.1782566559721798,0.5825492017488939,0.09162211787373488,0.6525381800450835,-0.24160752932959884,-0.5188525059959703,0.6152585475464971,-0.5060634144515159,-0.46846318652161306,-0.6928347619591813,0.03364344777591964,0.06640768085772245,-0.7377484654844695,0.8600889740742926,-0.6107296124873036,0.14511666928114592,-0.013717956132305519,-0.2997524555558519,0.347955320510186,-0.7322424552637617,0.2705146683663723,0.9611712224684142,0.5545933661191342,-0.7706458110548969,-0.3011971827370531,-0.64303146836676,0.7704105832765695,-0.5779877001488504,-0.029488804619491316,0.9292823341175542,0.4345797412010469,-0.8652416795306542,0.9137583711124962,-0.3252363184736947,-0.09022778945537269,-0.06891439683112177,1.1579724018163424,0.4636022823725154,0.8370873594967037,0.19759364390855366,0.8614348736670251,0.285440918447582,0.7191058358875315,0.11024013572562512,0.9244857469886221,0.5462439287079357,0.7922268009606152,0.7433965611962807,0.20715655952890852,0.02046861203966537,-0.6511159296767582,-0.5498034555900845,0.4058566410401791,-0.43758343666255745,0.9288125009918774,0.3565877450683328,-0.48512966490107884,-0.6694463588461996,0.8009817340721163,0.043729807932253305,0.5622012517261863,0.14468103186836467,0.8528999682565103,0.9003988062871409,0.3344858346459936,0.019886100182755623,0.6377604076610508,-0.8021456919212974,0.28057321036404376,-0.7115757116808301,0.31638388618438,-0.600453104209362,0.8387049263394086,0.021560905730820083,0.48108455940113587,0.6029020377795248,0.7433972208696479,-0.4579387828986203,0.3394454632041678,0.022908114831954172,0.5122947819412933,0.5477010451503878,0.9288006209020433,-0.6295168577578166,-0.6961320311436499,-0.08813066488504517,-0.8553620636950471,0.4362850220976937,0.4828829214191052,1.0269890530808568,0.4046022777493099,0.6856526049087611,0.024856325464287756,1.0269898899143997,0.6383084551987909,-0.9033742969858216,0.3825482766944641,-0.6139998465059319,0.34922767164252105,0.6798599902692696,0.010169654161869466,-0.3282470522846823,0.5285502837279007,0.8314371188850834,-0.468492135443431,-0.022550782764854112,0.06525949486084304,0.037661808714365703,0.45421287131623767,0.8634861091863286,0.16573324324530103,0.5039186625453611,-0.4578955052050382,0.4304877864680302,0.8258100088670655,0.8629764420682685,0.0065886845001952585,-0.5661703292818081,-0.14601316660886304,-0.11232404768461518,0.011793490286903055,0.6235608800551001,0.8022975541860149,0.30084002663971193,-0.7887865208465212,1.2207778792996686,0.08062549945141825,0.8426891477188417,0.6938718169924217,0.5716017698958975,1.0400562618271794,0.46377452167661154,0.3633884563956472,-0.12993271438287043,0.11133932822244143,-0.6455969988010616,-0.6376206796631828,0.9268539091325002,0.5799013482176274,-0.7710479830442025,0.6726661012321197,-0.3920143437257539,-0.12095326248232652,-0.6634182150841256,-0.0076115921853059975,0.0351148694933045,-0.6420337029361453,0.13095338188794298,-0.5894563187312801,0.955007774485203,0.12932769649277323,0.2574812071882583,0.11660376721551233,-0.19247795338454712,-0.6297995543935107,0.023652683350510743,0.8514509533373283,-0.004686478572927812,0.30042152149445384,-0.1046407525416699,0.6683389941808676,-0.3810426787540373,0.2871714511563474,-0.2618791172648996,0.661474185151415,-0.21769606352641835,0.8514717057563495,-0.5406593392805107,-0.5971158105731916,-0.8702044926598269,0.2915663193931725,0.8272246842696612,0.13676042377299277,-0.5963266800430702,-0.7421826214462925,0.3960124437959035,0.16594145101674723,-0.7936793296002257,0.46738527601193613,-0.5655917361180236,0.9798607509769228,0.9721759458762858,-0.1893854040276939,-0.014385854030143993,-0.4499262219570267,-0.40577437094751256,-0.6194703826620309,-0.6453786581981948,-0.42129460562895105,-0.8972263427105412,-0.4571841254849073,-0.6065838812639179,-0.6091747382446313,-0.2874920841492056,-0.7964182292667,-0.630064436711642,-0.25236462998170717,-0.1969868418678415,-0.3578167857498085,0.7365064760025729,-0.1787965786896072,0.8268389043281336,0.8154328097553261,0.47241056188031927,-0.6762940413490339,0.29418538094354757,-0.8042575764091079,-0.23620344446145558,-0.8756114594641777,0.24692861380756786,-0.4000242665644436,0.7968406789573903,-0.8179184753025504,-0.48642323417521866,0.9290073114568839,0.35043506203323754,-0.03334581628854653,-0.035617452368797826,-0.01904924917055497,-0.24918316145952246,0.3827102796332204,-0.0711808171466263,-0.1616620605726961,0.31942447057419165,-0.6933590859183673,-0.367048440677667,-0.38001938413661945,-0.5309954531660566,0.15171404428433627,-0.05594266587621292,0.03346040297525824,-0.9103364864485893,0.06063509651965438,0.21087072956032984,0.026937738557171995,0.02704426560355801,0.08223198788754801,0.7035879936270868,0.386479944472191,-0.7508241227564546,-0.6510235660318957,-0.8671287743545616,0.6935644775407537,-0.3636649462485668,0.6588002445240785,-0.09301535635875192,0.7692757714078514,0.9369255093704,0.02197931351207466,0.5750114776271043,0.021601476972175175,0.405726504118198,-0.7063818030791778,0.23053005528035514,0.35277398440859825,0.3841971273731858,0.9420735698682129,0.3736854806451543,-0.8044120908965064,0.8391171756957283,0.5869423196537787,0.709277667288963,0.7369830079799439,-0.005327013137953803,0.1480389509003281,-0.42042980631729765,1.039270279374617,0.528595901756352,-0.36259493499367296,0.4557663690145274,0.7746326382450435,-0.18135282047400997,-0.07848434873016319,0.13764138836741333,0.7271122611445557,-0.7982491252105379,-0.6589373121216222,-0.5895801312983939,-0.3309314948843527,-0.7392559548938888,0.159121737668037,1.0033306558946842,0.9875023666264878,0.7585641592867659,0.1552724272984249,0.7898138600625506,-0.5408001022373262,0.5794540963394342,0.8574997691305364,0.18003991982746548,-0.8777658071558173,-0.2263474858528274,0.14910780779917523,-0.8022969496705651,-0.7057946431422822,-0.4453331128690506,0.1574570545716511,-0.45258981475616367,-0.8993489954496224,0.8021424754502746,-0.2537301854563715,-0.7834463452544356,-0.9029348182077584,0.9813392562385662,0.5320960368007239,-0.4847413496584271,0.15469086543786614,1.16559546407276],[0.38773946527977743,-0.34644772667155377,0.0765204636373545,-0.29702702515500623,0.29833586287513997,-0.30893090460949907,1.0587787264154795,0.6107614546487403,0.7761142868046574,-0.6824972681578603,0.9152615233784621,1.1874581648203442,-0.3454641985830338,0.3054185075308183,0.769705450349465,-0.2605570156133463,-0.9050403098408392,-0.5416279757842564,-0.02533844456327634,-0.7592944430371664,-0.9720053549149601,-0.05696775709115515,-0.3282596696389763,0.38046414734417955,0.11608977763000758,-0.015453210190728725,0.8274159419836848,1.3132168836367448,-0.06643678580409984,0.7392105140778056,-0.5360717776021342,0.13698231058043725,1.0381943694467382,0.7378374465667042,0.48774431450328953,0.5619707972750493,0.30660738194974696,-0.7316889620100608,-0.3824834321899169,-0.15766063200257055,-0.4032184421409783,-0.3393945776461312,0.6687953714169078,0.06746102898078443,0.6251956203631941,-0.24521231616907826,0.9982337274266428,-0.09565769511466393,-0.03353981450598558,0.5082747027554335,-0.6309907255427732,0.016012411667995476,-0.08011382459526954,-0.836688375431625,-0.22291544098583835,0.3141341515253508,-0.12373578690045807,-0.6564010298823221,0.1683664353537974,-0.7226290543031499,0.4715738523754877,0.8311138548308551,0.6314466424474031,0.6744354907545966,-0.37692204621402037,0.4199009545135942,0.21149354643986307,0.47249061242244333,-0.3019226801152613,0.9081951019002938,0.7805133753361861,-0.19771299123804484,0.8531652315284607,-0.21377803450921656,0.14233065850098703,-0.7999117533326291,0.7176954038803037,-0.6565919179770863,-0.24810647710653916,0.06916892904123238,-0.6103925980203306,0.6022813426966374,-0.33555527517485073,-0.0300084419004635,0.49641984182189547,0.9041840882619591,-0.5586508232791215,-0.6831116619558985,-0.20904015800939174,-0.21417270908413646,0.45214314287630825,-0.8685949728758142,0.6434938350637445,-0.4407565626261995,-0.530308195079031,0.8339284004061378,0.08466505083723032,-0.082821445086752,0.8111715287913671,-0.17758383576889322,0.10115247715498342,-0.18146530387333804,-0.19727013053718906,0.14783144140689258,0.9763729213765757,-0.212307646636865,0.38073055456648547,-0.6211667494943902,0.7355661407380888,-0.7741892752564142,0.403058540902157,-0.37909582985760254,-0.6599667023039621,-0.4507842148942463,-0.783563992900216,0.7033976288367589,-0.2538800561061648,-0.8757367333192657,-0.6027255300379026,0.4742461775545584,-0.5234986613293112,0.44745310071212235,-0.41889373948923864,-0.10024691854917944,0.07684747777242625,-0.5946834798811245,0.9441908886833547,0.4428047733011908,-0.5068416836202604,-0.23625682024609337,-0.9819798400340363,-0.7072863574997726,0.05191297200801947,-0.2971250377261043,-0.23532915172654065,0.8612552168979177,-0.19036969911211768,0.3433592340777763,0.7937304275409516,-0.9337424127703648,0.13206262882226602,0.27243746808413527,0.5558139269196769,0.8904446115956777,-0.2576198325308323,0.5567680575678866,0.6318041583084796,-0.03875897321875704,-0.2659574267316626,0.02178495042545031,-0.9764077828646255,0.8349070503449955,-0.7815735422494662,-0.42969364987257874,-0.22869155505384786,-0.911134966220688,0.3629661408708453,-0.3295255693847251,-0.6722189874213906,-0.765202204553579,-0.9983940824502171,0.7756136364147675,-0.452355374491354,-0.49841105459158164,0.24818719625444863,-0.38888385886552296,-0.20493233240657485,0.532882188649351,-0.0465484481372483,-0.5409787694849798,0.6139790672234835,-0.2016145233517123,0.5990285076826259,-0.745919863670212,0.004511914359096308,-0.11086730879978467,0.08777964055156923,-0.33606873541924975,-0.055450843084743184,0.28041784271086895,0.5037512989565113,-0.7949025576323412,0.5432810805702819,-0.351703124828759,-0.28775747346843045,-0.7871038470958002,-0.5358145892602016,0.7793858288916301,-0.436413375189317,0.897649301293036,-0.7333619136600377,0.18131694519553052,-0.8357708518228143,0.5056889693299478,-0.13705633363146377,-0.24846472482085197,0.44008615505844506,-0.6653746457973907,0.9514643825919233,-0.9205990445592762,0.5428296635745405,-0.00949139992877445,0.5391134971638574,-0.7378774665162715,0.18474071534289713,-0.5459529711926057,-0.31970904673968226,0.7715969898816617,0.017779924472459685,-0.975720644286276,0.8700824286770406,-0.2901941923424842,0.7917092041523982,-0.3220726148934243,0.836866043683267,0.9058142586410247,0.672971682717504,-0.8082165411343701,0.738440434462494,-0.07335706451052819,0.6328456885249575,0.44577416877070913,-0.07330425848475478,-0.022666229366327537,0.6999403786875265,0.34402918719007675,0.48279368007949963,0.016661617162361624,0.4351569007360502,-0.21619195805869684,-1.0058463563389963,-0.3710904497428564,0.8604374934684796,0.30256158341685974,-0.6562521037826018,-0.4109219832430382,0.1589366123864092,-0.45690170255468177,-0.10625656654425143,-0.884976217766352,-1.0546056738483969,-0.444968424356779,-0.8561001666979319,0.6741518230283442,0.8384534440317282,-0.5967571881049165,-0.8391689449259121,-0.1115066159679311,-0.7978627791163986,-0.6827117379793863,0.46875839026886296,0.24028438617998665,-0.12197862738441657,-0.060812778603806183,-0.19612640135700654,-0.7241752196952765,-0.6899512520978984,0.03859180544114414,0.06504137370425801,-0.37153268381716936,0.1336070462376505,0.6492614052035235,-0.36729750031723785,0.8883727807878226,0.3113452948035952,-0.33026832207076434,-0.7685344897306126,-0.7068858262138591,0.01948437109634657,-0.26592475970204804,0.20170382291721112,0.7402118371941615,0.8095419295886662,0.4174613495290761,0.0011969862191074127,-0.7739091546634905,1.0957559162366228,-0.48748168285509647,0.9872438052882879,-0.5406951645175238,-0.07543267673818838,-1.0629173047743803,0.5838887876942133,-0.8673404678563607,-0.7490450685022075,-0.7525330673339764,0.6309430362136428,-0.2179033299772186,0.5131112071440205,-0.07586012466777506,-0.13971401726353716,-0.7063269845228134,-0.8666746527527123,0.8570519741612513,0.7061901395878307,-0.7350048886725815,-0.20704869612633492,0.7009368957406179,-0.5655495683545774,-0.5722279710630356,0.3204987617694609,0.4395368553484455,-0.13262464851711533,-0.16130405413185164,0.32625669670363183,0.5790651168408374,-0.7428964055100623,-0.9216192635155859,-1.052192818260365,-0.5505598037816304,0.49366079744432245,-0.005704633326465696,-0.1467202980116722,-0.009063338423592983,0.6948106842631993,-0.5651782644755068,0.5238426942782674,-0.26003490765114823,-0.18880172262769665,0.11371625667234735,-0.634616849426086,-0.9557771930887918,0.3601085262681567,-0.17639191558784661,0.23521228817210924,-0.2918612059513778,-0.40877089399691713,0.7295773624033598,0.2525793301332212,-0.7175487646687609,-0.5657587839230851,-0.026144473921212306,-0.03978508179218173,-0.5804439123977541,-0.35019982315486053,0.4942781391424528,-0.12584318811631143,-0.7382824311253446,-0.49786081538296567,-0.03940817946464489,-0.6552225199093114,-0.9057033277857721,-0.1194064738951701,0.6625027852385048,-0.7058323194646974,0.6476478617985628,-0.6070689636133493,-0.843016323796425,-0.015801284367398333,0.886782215443927,-0.36806664272490813,-1.0057619056314608,0.5826746451855035,-0.6338552997409763,-0.10331769374355934,-0.06553562410150954,0.10096673366188703,0.1915889934458156,-0.11475107328095913,0.9498791372813472,0.12161510381601276,-0.5524701079202342,-0.3810661031708924,-0.20137548826837282,0.09007740165940899,0.20690571156108178,-0.43913927221285826,0.5538178690685532,0.9168606496064199,-0.7066416252207124,0.2031281171842229,0.5381283600223771,0.8012366290787489,-0.22778611274030483,-0.4987081398237989,-0.5325869498689185,0.6013150525425163,0.32306568687234627,0.8192048088158289,-0.0264080066130138,0.6612043140660185,0.5311070073639006,-0.4312922044388702,0.7068055718752659,0.3992511691665108,-0.6099004237216515,0.8868441279811501,0.6543248789379721,0.6803584653132556,-0.8609849921212983,0.7747408592635594,0.3588019830890982,0.4353427973324946,-0.6851337691311415,0.7228103804548556,1.0536898051458279,0.32353874748301903,-0.45611401840008986,-0.7895805946973186,0.1785484226840963,-1.0147355173650683,0.936015649023002,-0.415182539238554,-0.42829301802277064,0.19446298124720102,1.0288281796743606,0.7546415470171358,-0.7299178549348228,0.7552583244637814,1.0231011503072762,-0.11703056745028625,-0.6739735279996071,0.4387672060883307,0.11581846447968293,0.36433508085236266,-0.25963025223719766,-0.5621990546394141,0.7542897085526064,-0.4184478843159548,-0.09537570355548865,-0.46700143853114207,-0.47940343336611657,-0.6556025957338529,-0.7458663389653519,1.0040566064880316,0.19971613347767897,-0.5913017315217493,-0.5572867586173037,0.658464360109071,0.45334650024654166,-0.78797429714505,0.6913126087189922,0.027436519502711493,0.26463403424090853,-0.6411711017498178,0.03982315665687065,-0.5320198477069115,-0.1043798947155532,-0.134583094854715,-0.38494490994031133,-0.9643350073614047,0.751445651801644,-0.23947641097764186,-0.2978456366942588,0.8781472969842858,0.8940665838310115,0.3772695044454008,0.4382204539703582,-0.03093611507395697,-0.6216763645377194,1.065522493593989,1.0967155470208463,1.0529879916454972,0.964669606660768,0.35532631741516446,0.4750642537765639,0.5653980521505547,0.9148001907545216,0.026451484017087166,-0.8806598515162377,-0.7076440454644733,0.7467566283270717,-0.4064743787708883,0.9855039962334304,1.0152886335606488,1.1105133343874225,1.0706701975650608,0.43564599552274186,0.08259331765321375,-0.05156064179654398,-0.6508444907358573,0.23365861021940734,-0.4857317977516153,0.9339559895072584,-0.46498726376648847,-0.15467774898150957,-0.5491255745143983,-0.36269758706161154,-0.28756649727563105,-0.4767116727276994,0.6006232557416596,0.7268615623390743,-0.07543819091458799,-0.5149640017080996,0.39139537918229644,-0.6530303122065302,0.2518696006505483,-0.3680164757738418,1.2245242030000218,-0.5336563901265747,-0.17482322962281857,-0.7057160949932568,0.7027090214429303,0.9861202299410027,1.0208587503787125,0.8461553900340081,0.825757122721088,-0.6714840991623251,-0.048916577468112406,-0.8022708745144363,-0.2174290168741201,0.2092115485921662,-0.8290460967530341,-0.6405760000430171,0.9982074755785181,1.1361995190879481,-0.7864625199490319,-0.38308573137516405,0.9142997241674146,0.9062738840158661,-0.4649422912333219,0.18992487104917796,-0.37883492394588303,-0.8592640405464682,-0.8122224919967296,0.39631492740981494,-0.23310695992972105,-0.13769103634956276,0.0031714824818027307,0.3631669274446294,0.6790567820326723,-0.04852185750102121,0.532896672716576,0.7788017248193158,0.982892104919858,0.5184428216978163,0.43626345064201477,0.9174320128824922,0.15294830669748682,0.3409007338505518,0.1485145536367445,1.088156263903833,0.756745087572518,-0.5230547780386073,-0.018852807487131782,0.9715288541608258,0.686452778842907,-0.345530109113924,-0.260944717326437,-0.6454432551254632,-0.5513933655490802],[-0.3384131398870151,0.30717874387669863,-0.08911165396694377,-0.2213751471533994,0.6342660806012125,0.2971221927509303,0.9197333139951791,0.7239691357331272,0.0624521904055122,0.8025810004390312,-0.889200776871794,0.4686536254683712,-0.5416613118872894,0.4523516539294104,0.5705001653367208,0.3590335567519852,-0.7948808748910977,0.764271849021861,-0.0427586868166626,-0.655348285475999,0.2526773916493358,1.0001995301652724,-0.8676331626759125,0.050558870251865014,-0.6836036421091258,0.4229913536371568,-0.7261951468058279,0.6561578013849393,-0.5508006033263136,-0.6283461845460325,0.17185091924013407,0.4033210964163018,0.271365410340284,0.7952176691074678,0.2233510187350882,0.05163383582742821,0.7311613114615085,0.5577212134375351,0.14453979110184714,-1.0309547961913959,0.9955282107037019,-0.7063024255061445,-0.25217512541020937,-0.04239886619254761,0.4156276209851665,-0.40274591808851945,0.4746570262930752,0.49689379672750184,0.494365897892493,0.3587202404947578,0.8098595712015755,0.15598715966795274,-0.1932180886583418,-0.26525628431607706,-0.532164695790367,0.11551675047208515,0.06975216799035107,-0.7520273400393088,0.146149187619378,0.8991373441169039,0.4106663966228628,-0.6376393649825919,1.0480484006200097,0.6043494608602319,-0.7915604327410656,-0.7679829350435493,-0.9287831956913454,-0.8879014002179625,0.7249564608991358,-0.2981483582288643,0.5071892605154146,0.36551870952344356,-0.6365257245555089,0.5925379165961928,-0.6470222937754789,0.5774872287982823,0.7928374989484976,0.49447237567620683,-0.25386208155555584,0.3213964853389706,-0.10544777764339298,-0.015087103666557236,0.10079607652294999,-0.07964028685271429,0.0289757298823987,-0.0002046351538037241,-0.06221961722463545,0.808739024619806,0.5309250686445831,-0.7996914722576871,0.5633635620776808,-0.47087016905229184,-0.16851712016022224,-0.49385565881175675,0.13186523748148268,-0.9674388033691822,0.07937101645094245,0.9625240379989181,-0.6395795932465941,0.26160334955606557,0.5556566162158113,-0.8861621816728907,-0.18239835865304058,-0.8844870995197531,-0.2550061067921327,0.8758436048774833,0.07263616314391776,0.016129595671337163,-0.0019268881443252467,0.8999516362020856,-0.06626728045462076,0.25478667553709444,0.5456849197102085,-0.8254432222416863,0.13432618106947702,-0.2406470080137232,0.39847943405762887,0.15039543033791922,-0.35966401849525487,0.7573142110231486,-0.46667700852974364,0.5354656228991737,-0.282245071614229,0.7508844826654978,-0.30145660736287183,-0.34936548186725985,0.17961977808113708,0.7167180112478181,-0.3931754847796644,0.7425511283620161,-0.6669788958135648,-0.8581199085733306,0.09078976678937431,0.15331444122912413,-0.017933013458704232,-0.7657375379094097,-0.18617243096084837,-0.3267175148854479,0.41864745366423545,-0.1474131377956996,-0.28260872879617394,-1.0032678718687462,-0.5341538815413167,-0.47469578681028207,-0.8746652798393727,-0.8466560594247492,0.6791346280813422,-0.818288178291693,-0.19310136947945816,-0.6486306547901487,0.6958074985720353,-0.5334065970455842,-0.059801197702660534,-0.3415552517281902,-0.10580462550627825,-0.15420358211724447,0.32065822129102833,0.13935608059232324,0.8126783114792248,-0.32827757429635357,0.8071965998943754,0.005214911834630341,0.07251333443002606,-0.5586405004840908,-0.2744015505797468,-0.9618554705096962,0.47606449167702525,0.7398222091754789,0.09762942597915267,0.8144758890689874,-0.3815705440770695,0.14339964635790717,0.4734761812489827,-0.9206761076478754,-0.6642496348960129,-0.24690769705697935,0.12381738749568082,-0.6523256394090241,0.4532179112710475,0.5982530692751867,-0.17956135507915089,0.7769609219910388,-0.46494754773509095,-0.95942742793352,-0.6470411515504788,0.38185618142366196,0.9142538661476589,-0.08390059243293992,-0.8587062565984779,-0.22407119347595997,-0.9242317058241564,-0.5374827896899036,-0.6191561106539133,0.26646078649372285,-0.026973776478509577,-0.3915744554964475,0.9422699236257716,-0.7705066176288083,-0.17499673714937364,0.7691685265064903,0.4856680539353585,-0.5292027488016781,-0.17440866479165992,-0.6524788550445313,-0.8597948110144492,0.8994705871686965,0.7325996039936403,-0.8127596719093634,-0.8802730662136137,-0.36752252103712113,0.5721971326218174,-0.858520333518433,0.443018678395817,-0.18478859882200563,0.5762057385546184,0.3870923295364876,0.2965861042940709,-0.9887813977264095,0.1340362436016446,-0.22787263020279955,-0.4075664339138592,-0.8594790410301203,0.8419980137504076,-0.3091469399042347,0.8153630172671106,-0.9025930994816634,-0.8247636225611968,0.7587696131794632,-0.44863845491555165,-0.03738713886294726,-0.6525272136134461,-0.13504583500288037,0.7387624484049885,-0.16099165213445646,0.0944449334351952,-0.26165160499199597,0.5664455903023038,-0.16318078277157871,0.568428724674339,-0.45387569755715834,-0.4350738408816481,-0.5139769478409714,0.3489218254579601,0.607757224210465,0.3611691981156025,0.2985025285111688,0.7556980037883194,0.6886701716518528,-0.6026286487553923,0.5377200872994208,0.7961309213140377,0.5832193045040878,-0.7141426057866425,-0.13246923608724656,-0.8253238438421279,0.687506010700391,-0.6998160333599116,-0.2797481685928232,0.5033928213746625,0.29488354360939756,0.8031690867159338,0.883984749775197,-0.5787647686629004,-0.7464116836101161,0.6005581413932349,-0.5400470289276957,-0.3822824444372833,0.033188142575990176,0.3064468223361663,-0.0812499982186681,-1.0170822141783384,-0.23108466853151285,0.0048942562625054415,-0.43970590320099295,-0.5385802814402575,-0.07883170437288005,-0.25098185758904484,-0.5694055910236335,0.14548917193046293,-0.4289275594681888,0.3831267474982637,-0.1633014617982943,0.4527563072473569,-0.7234457995873236,0.2335601982519564,0.4043958034128844,0.2851665967397689,0.24817248176416315,-0.4789568083581978,0.3521026629680947,0.6132668214271231,-0.6692216827491612,0.9038177435954011,-0.6057555987671525,0.52155559216525,-0.11415941478772938,0.03979478482089594,-0.012544677245631691,0.28657803783781266,0.4832868752456308,0.7792975592876754,-0.20548923090179896,0.4021676271421239,0.6180113362801558,-0.7446986954726557,0.3026534916434799,0.9999688344289853,-0.9374610461113533,0.4566532299382003,0.5833286249591935,0.5501531188628135,0.5419242812438133,-0.8835564596762454,-0.11758880900921682,-0.5116534766775286,-0.004310847092026601,-0.6292328271648396,-0.2786330819318684,0.5054756768919224,-0.6452467155790825,-0.9621379233182139,0.5058609285476956,0.4944808284193454,-0.28767560719511015,-0.899759915891659,0.3134381715661543,-0.8447906626137256,-0.6047739298711947,-0.9958396804716797,0.09333567958446899,0.6048065642874904,0.7400320531153716,-0.9732911421178505,0.6805776215583207,0.3935621884968738,-0.2405009651556236,-0.17153145352232066,1.049058760217816,-0.8862998250348337,0.44430440259589293,-0.14285462134658142,0.7394367439944874,-0.34007151753462034,0.905887649972345,0.2465364123416019,-0.32326526675666667,-0.26572577732042924,-0.5450238668784718,0.2780255957226139,0.9157014643681162,0.6754415582000429,-0.138664837998328,-0.13063119192148942,0.6804776196563358,-0.4130215756344311,-0.8504732527813448,0.8702083135804182,0.46370058109154877,0.23161383569568186,-0.19264088862685666,0.27512515887470496,0.5587313007629572,-0.23320975399971777,0.10692964849567271,-0.17992134307139593,0.11482908063856238,1.0300874298605684,-0.23743434637934963,0.004484551421691091,0.8773776610180936,0.19312278789441314,0.8287277023110887,0.40901117535576814,0.7107894115903068,-0.811807847952153,0.3733857333846147,0.6852972406083025,0.8503934492703893,-0.21323844526886765,-0.9478357828704917,-0.491727954347731,0.1949214239380369,0.24064785592395113,0.5510990406335649,0.9917408557231465,-0.42414528504821397,-0.29243576625067075,0.3628798645271926,-0.8222290200882969,-0.8695166665602456,-0.7256946037100487,0.22952897190987537,-0.715447744915997,-0.6336673505364302,-0.028377221776157986,0.14699121411468585,-0.7172054121521739,0.8099215397575338,0.7378130634642897,0.6643359196823418,-0.7578852567331584,-0.998463040934801,-0.47048057936135584,-0.45232889899461737,-0.39045432270804187,1.0513509771712508,0.6811331798732759,0.22204687562574718,0.1009962392348276,-0.5934725915665836,-0.14044719711099862,0.004338070856345156,0.2304590884558413,-0.02807996613194726,0.17492349373640603,-0.42843406021395053,0.27643532806568666,-0.7313195892063473,0.8762933932818799,-0.8351128790912262,0.06404998287832554,0.7232242452580188,0.41731817667292526,-0.10743686110097694,0.3712700872302133,-0.05383351137108152,1.0148692257466936,0.4408152629906954,0.4506336377855591,-0.9327418228937556,-0.8218057891772855,0.014712228142995037,0.20980316666515467,0.4309949529941915,0.12247640140099768,0.5138643003946948,0.7336690233398582,-0.6228684251828688,0.9590931150775391,-0.6775408282464033,-0.7738301374596502,0.548584073547718,0.4038498036133787,0.9339364747788346,-0.02095236599183258,-0.5657128749792952,0.9835322327307905,0.9680766723371967,0.31588943061166536,-0.20277457516760705,0.7207276011781417,0.8565326740582443,0.4825286954554668,-0.49237905577857605,0.5866443423696378,-0.23340571989369813,0.8470489435996073,0.7506253338948939,-0.11860850346293828,-0.7540059070902998,-0.3732146809715221,-0.8612913544957468,-0.9477575197313768,-0.45208781151844873,-0.38680481413341616,0.48449831480187183,0.4959494541588818,0.037365099714293276,0.24628633669852792,-0.45601240567633927,0.4332492040361454,-0.11305988216138886,0.5193531683314313,0.7354168255987201,-0.7563465786408763,-0.17288793946358255,0.17661412322693246,-0.5804257395714092,0.32896002944482905,-0.1775700206161891,0.46536314395153433,-0.2516498501237468,-0.03969179694472966,0.23393801137922773,-0.33597893845747384,-0.6988329601469508,0.5894998745647012,-0.7673821394588292,0.7871619198716839,0.5813764448082827,1.038430712445497,-0.6627060038527333,0.1334364481207962,-0.01089180230455339,0.7304064833114475,0.22319591511853923,-0.21250572947978744,0.4000606804364809,0.04154117767254145,0.3568432633892083,-1.0094528005211683,0.436557498312733,0.29245165235383436,0.12085229827737894,0.6855688607776894,-0.667685084104049,0.10193019748711354,0.009428579929364836,0.5369860389996087,-0.7584089876494416,-0.32357133300887486,0.3892935820851,0.7767238615651397,0.8733315375841917,0.2952508045720664,0.5620151459492271,0.49320220213994387,0.3373664769333613,0.24398409201213603,0.6498690580602493,-0.06467680347694475,0.7058687196339256,-0.007673787949035817,0.6686799118281185,-0.34998703976919837,-0.5647911790789123,0.3334887151719056,1.0321183936897425,-0.7292745365657024,-0.819480407792455,-0.3942803620964584,0.4106178988547822,0.1007595613470947,0.052272282530008936,-0.19981510941753722,0.15566537926340532,-0.6110074254983332,-0.36823266493151263,-0.18314359889548495,-0.5951083846926712,0.4299260704846009],[-0.962124812939265,0.3096547672585108,-0.376132959907139,0.5697155718942242,0.5899780315251317,-0.7178372876525028,-0.7658617597225567,0.7813877130542803,0.07859187310983962,0.608939908442319,0.23030185966979455,0.49819506784786016,0.7877975539451652,-0.14571688695183638,0.6627841576330655,-0.16240757027255226,0.31358645897426385,-0.04289449067001894,0.1677917141894314,0.19423157013480763,-0.6796663109692956,0.23383205233585502,-0.9869504089432455,0.40464431768713816,-0.8084513968169909,0.2793288934484448,-0.2502530982011184,-0.019731161315336476,0.25273602324829847,-0.17665321230144104,0.24354470965302855,0.47395295405137183,-0.7471192974642854,-0.4344449730767289,0.1278180628191543,0.9477709008056916,0.23614530259184496,0.7809664754472716,0.9801698649537098,-0.8953199148114493,-0.21846319079135623,-0.67760986693959,-0.5684313566951552,-0.33973742825638575,0.5899340883180828,-0.3287383069554227,0.46424691999415435,-0.5268007377082271,-0.9560737134194786,-0.4084293748247456,-0.09359186777664419,0.6430608285406287,0.9106311449712345,-0.4076303527693551,-0.2752380361538883,0.7072917686527966,-0.9796421802702964,-0.09766370518386525,-0.5394887788598068,0.2594640463268234,0.8936282992927356,-0.25840330876981166,-0.7426789468963003,-0.46417048100155356,-0.5321011568847989,-0.936218881036966,-0.9039535661346905,-0.9559428223279447,0.6324074844678109,-0.27546844730815545,0.6519612985260876,-0.36477469279521113,-0.24323135797497852,0.41424649017034243,0.6246076749210563,0.630845287631604,0.26337513431370874,-0.932063039940762,0.12731109696334908,0.9016134510412843,-0.11946340730717553,0.3820580735928911,0.9887714827335023,-0.2256694642784154,0.9634227529081343,-0.8506227921502189,0.8546865440408968,-0.9226604133180459,0.8659539865251977,-0.6626167669507665,0.36699667114062073,-0.9265954472360591,0.5011552768188936,0.1281279221657916,0.11577130794899904,0.38145608832150346,0.8851431513804837,-0.5806478959546846,0.21852309555176408,-0.46813456147314525,-0.7083759711228234,0.027201731182973976,0.032978738586663336,0.4949787851628935,-0.3391681061590449,0.7652971092953351,-0.844630339910724,0.5848545190300571,-0.7173659801962196,-0.3879264876005285,-0.9483456379759136,-0.4684827195501142,0.9715753726768728,-0.3631575652699047,-0.3451572747837689,-0.16896877031952984,0.7095848180483428,0.6284085093499394,0.4310820788372296,-0.9652151432982092,-0.33010609059644824,0.31608172219839936,0.41064483508667493,0.5365563234836488,0.4878011564661131,-0.6937823359096325,-0.6396934408171571,0.405198819636285,-0.823579512828799,0.2500529785949037,0.7960752356497298,0.7937319455748741,-0.678038864927807,-0.9313829221138835,-0.7925441140395582,0.20212410614052878,-0.9255409480419116,0.3371683174030491,0.9677569172460105,-0.26093506638313646,0.4307625231174903,-0.9789262384250158,-0.2971033372396582,-0.48151208211866714,-0.9905727023896786,-0.6793471212775439,-0.9544406230807975,0.48135347077153523,-0.7369052155549142,0.06161312648146122,-0.17501568192278139,0.10738533054813804,-0.975952444298837,0.499461722471805,-0.09833196793019272,0.0274862061547545,-0.09752240206739005,0.4143994400246136,-0.22220864643605343,0.8793612361668655,-0.443264060867706,-0.8948973675117198,0.2815284524007575,-0.023785890454255165,0.5764880179472927,-0.29915533888851165,-0.3054247471853908,0.5695546304300325,-0.5313662885735507,-0.5846111889281004,-0.3481823601045765,-0.8438860389762396,0.3434697536564202,-0.44148434955198923,-0.6195248016391366,0.7808929358426608,0.8652627439049974,0.6386620125430322,0.47205624991374684,-0.9416512762330964,-0.6004071974980759,0.5404836599283371,0.1090804037804396,-0.019756037768019374,-0.8934382143765373,-0.7597821740346271,-0.8848697133667746,-0.7176508876583758,-0.47365882585190855,0.4658574226360295,0.5689670957771551,-0.08343751812027356,0.8761212535028318,0.8851922488536228,-0.3366651505706645,-0.7320981829408347,-0.09170568878525986,0.5605130640671079,-0.48362566693428777,-0.9232879264299922,-0.866307943135582,-0.3062112136667171,-0.7975355242975921,0.5125104335474138,-0.0976939148794409,-0.46253327582791204,-0.05658411564767751,-0.16096373425312926,0.6454785017721947,-0.05585716770686999,0.482502296867642,0.042246983222544054,0.2547419776455524,0.008270783831002104,0.8010371830144387,0.5748440169536033,-0.6832876588922308,-0.2954948933493775,-0.5573543404085521,-0.2339667287420858,-0.40681304733782797,-0.6423357666943904,0.3350207823812972,0.43906691788186625,-0.08305106869760748,0.6252563941273099,0.5680995090259291,-0.7139975858099157,0.8786722080001659,0.847355244741796,0.7979730177475437,0.4659500973345898,0.5617141888432977,0.24677770658220566,-0.5935075774112555,-0.05892651461236009,-0.704486385237627,0.4532513053025471,-0.4801880550651082,0.0016145634752053883,0.8153541100215691,-0.04190576540698121,0.792403998876466,0.7125585511315191,0.23159989031183859,0.46867836875184166,-0.8584989938016586,0.3798042083325206,-0.9413468658895293,0.38422464389296485,0.6212660831154095,0.07720627481494025,-0.0800110156997238,-0.30701797881368165,0.14841524893400182,-0.5554678203097174,-0.2867494837862985,-0.11089761763571582,0.6767847006472625,0.26789715627987465,0.22174751664873482,-0.21214945714869804,-0.43859730132558405,0.6224774027288684,0.9297220839399729,-0.19440940490876302,-0.7028051046375972,0.6332626556841103,0.24603583654379735,-0.014509817625742993,-0.0174086111056313,-0.6836661535946387,0.1628008696960319,-0.7585194518230609,0.41929927653680443,0.22534064585353586,0.1554415898766659,0.7518609517229589,0.7535766091605396,0.07658313907865288,0.39800896150169307,-0.4922428806215833,-0.04241145278113434,0.2730966041999152,-0.33805551470022543,-0.41195251138354216,0.49555270307336374,0.8449281444338639,-0.2793363759369477,-0.9732120469342149,-0.21342710189170444,0.2507270223905069,0.34691931428898126,-0.93274003102945,0.7343702961970962,-0.08448888164845503,0.7277028230868938,0.06361196317694406,0.03254716085096798,0.6100420969370706,-0.8946656593521742,-0.987496428019356,-0.5816025841771095,-0.904007949398553,0.053143715781178935,-0.20168539747980008,0.1797882628592804,0.654034540687529,0.3363572599153333,-0.1254389782448686,0.17530606924344072,0.2684137332672796,0.8354989176851049,-0.5796445040963201,-0.34603025577368507,0.9084142873163423,-0.5682933980378552,0.18856111066519277,-0.04323831991859384,-0.6744842453535926,-0.3666181592602652,0.7077428854457459,-0.13599209676262336,0.604079980114578,0.12338940194957426,0.17038478786294986,-0.5302282857002547,-0.3104722581698516,-0.8159409533770675,-0.6723176482819873,-0.46868387744279516,-0.07196520352263458,0.8257634090225137,-0.11712956317365797,-0.970124531443002,0.16924464915183424,-0.4603603009540066,0.27047220606011746,0.08065711536551778,-0.36115742878664503,-0.5373356340696969,-0.4865720819611459,0.4311700392075075,-0.9616446797689522,0.7484547618378103,0.27963653057204585,-0.11203516026937754,-0.46993082527920726,0.12612965856765634,0.5757049578492603,0.31653628315829385,-0.4690859269646883,0.15741946638134907,-0.891415384363816,0.9242786075283629,0.3948514333237598,-0.5543955549926302,-0.6566921620091508,-0.9306708044981822,-0.7617976798934751,0.5595591958344923,-0.31863984219528896,0.3067969565864177,-0.7149055448409034,0.32306832930340557,-0.045630794158435184,-0.0054229158591946325,0.9830361350444581,-0.16890632603255418,0.5329267792871144,-0.3361760568915919,-0.4885931246840035,-0.5213633144510842,-0.6728658740627933,-0.4819326001520876,-0.3360520319513298,0.08561856585266359,-0.7483655666204287,0.907840763276281,0.040842928149728897,-0.9509541893022432,0.21803171847371305,-0.07918070460618942,-0.2867675776444283,0.9998747258978196,-0.7005864644451403,-0.2483712442684144,-0.7792185276498956,-0.6492474100009209,-0.5801764490759962,0.7043847460841033,-0.29744140220994086,-0.8687405540433695,0.05819907196238172,0.3324886836478149,-0.4686648997121814,0.1649782641811588,0.2558328647078405,-0.6379871045342982,-0.9399589043311098,-0.21621353494807816,-0.11662665758305946,-0.9912039779103642,0.780405821266539,0.8553440643261687,0.7203659283968693,-0.006454185514124022,0.9995213469653801,0.8673993536009754,0.9661973915766453,-0.4598920918688818,-0.40535536662018334,0.431078768717871,0.8880547802109278,0.3099825571844703,-0.3428025654460106,-0.7883317114845839,-0.10849578951492922,0.20619493626576046,0.7401081534109826,-0.953828924191489,-0.6544156389199931,-0.14133081590068242,-0.7789743657973502,-0.7151097854642987,-0.20952338401378068,-0.15228026797787397,-0.501424357466323,0.8020307753662217,0.9891863746698923,-0.8042526769057197,0.8559359618588531,0.8762094788929922,0.2982137496813837,0.11967450768289378,0.17854680674768453,-0.8198415752592085,0.4067184997708566,-0.8882161592768846,-0.6044808264052985,0.726858156531285,0.7899671272293713,-0.9627159863394497,-0.5534279569046185,-0.09900379965750106,0.3614204918478119,0.11973012680025863,0.6106750379753783,0.009478835643761396,0.3842907514219356,0.5883222193262849,-0.9982171971326372,-0.26459863028961206,0.7217986280964044,0.7011532349650007,0.23396648037260315,0.2487639383782818,0.3224007112934777,-0.49024557006989256,-0.5410709231908598,0.21372038706525687,0.6131640338321624,0.6729434740615281,0.30691450215085303,-0.40643421894464693,0.4929564856818216,-0.8258094128505025,-0.325739705628204,-0.2207454237537929,0.41246729110449176,-0.8858825309102091,-0.4942773722739945,0.7180080873481021,0.310884756679773,0.7647108115533638,-0.39393272292586234,-0.6273874299937774,0.8989982968031283,0.7547611508590397,0.8981689085731306,0.9719590904384028,-0.8533177977569306,-0.8614111585292692,0.6714802712521732,-0.12574451426156386,0.3818325601837118,-0.897669854346351,0.5193028853509718,-0.03491037669836938,0.15443093711641942,-0.9768862154431991,0.32763609746921296,-0.2648026267368837,0.997656400219717,0.784858982142369,0.3896135851653886,0.6054272120556743,0.9125642463257604,-0.18864403019632647,-0.028553979707642507,0.35779485898661223,0.31527100002532116,0.5067075076058356,-0.8943653187366283,0.3940400015431429,0.8656516722463228,0.5128082927434461,0.960382639668464,-0.6803604913758223,-0.8374954334087028,-0.6503301950469049,-0.1301194884628163,-0.09067582870478319,0.7216378092502866,-0.7822597759412888,-0.45026426389150287,0.4014346407058498,0.04477272990478043,-0.09239913924816257,-0.3961918742299585,-0.09460641725076113,-0.25265778276017037,0.1665326525304316,0.32679674352165455,0.9478388294577955,0.1667714987427631,0.34782251810679,0.28436253855184956,-0.5350127236248587,0.19034195615257543,0.41605258849162796,0.05312264474710715,-0.34383957532091847,-0.8517924569275777,0.9352834324248374,0.009354725388269758,-0.015714576895653032,-0.25180776597068455,-0.743811247617784,0.9657166358057401,0.8058473262277048]],"WeightOutput":[[0.026193588979904675,-3.242541694244249,-0.6126045967537782,-0.11575004567580578,-2.559261414166031]],"ErrOutput":[0.0002572018066826921],"ErrHidden":[9.802918200635396e-9,-0.000001213517257034708,-2.2926649163667474e-7,-4.331928005866174e-8,0],"LastChangeHidden":[[-2.0507506018599445e-17,-2.0507506018599445e-17,-2.4858655404604284e-17,-4.351149446180058e-18,3.140654296601763e-16,3.2248421756573134e-16,3.224831376748154e-16,3.2248314076518787e-16,4.067213923291521e-18,7.913017460690561e-13,7.913017460690561e-13,9.134833282255875e-18,7.160453767015336e-19,7.153900215117646e-19,-7.683929104102e-14,-7.68554553791375e-14,-7.68554553791375e-14,-7.68554553791375e-14,-7.685544741322658e-14,-7.685544742892119e-14,-2.0646548233510236e-17,-2.0646548233510236e-17,-1.6439867498925104e-17,3.224842175657313e-16,3.2248421756596454e-16,7.916201630757893e-13,7.916201619958981e-13,7.91620161995898e-13,7.913068057224439e-13,7.913068057224438e-13,7.913068136884151e-13,7.144668072416789e-13,7.14466946283894e-13,7.144378802955507e-13,-7.685980652549329e-14,-7.68554553791375e-14,-7.68554553791375e-14,-7.685544741322658e-14,-7.683493989157369e-14,-7.683493990726828e-14,-1.20887181130444e-17,-1.2088718112920257e-17,4.0676540936755366e-18,7.916201630726988e-13,7.916201630757893e-13,7.916201630757893e-13,7.916116041657775e-13,7.916116048149513e-13,5.690340998676694e-19,-7.683943633274506e-14,-7.683087850262459e-14,7.144668083184797e-13,7.144669473606946e-13,7.144507903550087e-13,7.912822310057132e-13,-1.5447865114358478e-17,5.0596691426153896e-18,5.067635053544433e-18,-7.68349388116825e-14,-7.68349388273771e-14,8.418803539979023e-18,8.418803539979023e-18,7.913017465092267e-13,7.916116052456689e-13,7.916116052456689e-13,3.184165821970395e-16,3.1841549921533137e-16,3.1841615147966725e-16,-7.651666968408352e-14,-7.68350858355632e-14,-7.683508518329875e-14,-7.682638034499217e-14,-1.1949023573169063e-17,7.912857212133844e-13,7.912857212164748e-13,7.912976708923126e-13,1.8785123780503516e-23,1.5694599185537954e-23,1.5694599185537954e-23,-7.684000644673605e-14,-1.3902658048680963e-19,7.913062367008877e-13,7.91611744303518e-13,7.916117442878836e-13,7.916117442878838e-13,3.090655089966651e-24,2.9790797756243214e-16,2.979086298268577e-16,-7.651666968402322e-14,-7.68350858355632e-14,-7.683508518329875e-14,5.0682716234045215e-18,-1.1949023573374253e-17,-1.1957641748558102e-17,7.913062287193426e-13,7.912976708923126e-13,1.8785123780503516e-23,1.5694599185537954e-23,1.5694599190199077e-23,-7.684000644673605e-14,7.912976788707673e-13,7.912976788707674e-13,7.916117443035179e-13,7.916117442878233e-13,7.916160954373298e-13,1.5852444200085884e-28,2.979086298268921e-16,2.977695876119469e-16,3.2333784260401036e-16,-7.68350858355632e-14,5.05965338775123e-18,-2.0506853693895016e-17,-1.1949023573374253e-17,-1.1956989484303289e-17,7.913062287193426e-13,7.912976788582236e-13,7.912976788739182e-13,1.8785123780503516e-23,1.5694599190199077e-23,4.003105793294453e-51,7.913027385242152e-13,7.912983953406801e-13,7.916168119228769e-13,7.916117442878233e-13,7.912976788582234e-13,1.5852444200085884e-28,2.979086298268577e-16,2.977695876119469e-16,3.2333719033955034e-16,4.920611172841163e-18,5.059669082350421e-18,-2.0506853693860636e-17,-1.1949023573374253e-17,-1.1957005178902492e-17,7.913062287193426e-13,7.912976788582236e-13,7.912976788739182e-13,1.8724825144882316e-23,1.563430054991676e-23,-7.965910929048426e-21,5.05966908237024e-18,7.085227267958258e-19,3.19133067744082e-16,3.140654483851161e-16,1.8785129418544544e-23,-7.684000577877682e-14,-7.686051438032096e-14,-7.65422368434295e-14,3.2333720603411446e-16,3.2333720597379604e-16,5.059669082350421e-18,-2.0506853754159268e-17,-1.195700517890321e-17,-1.1957005239201848e-17,7.91306228719282e-13,7.912976788550728e-13,7.912976788738579e-13,-7.94718589942735e-21,-1.469894010434346e-19,-1.4635586137984126e-19,5.059669142668875e-18,3.191250987427256e-16,3.1913306774415113e-16,3.140654483851861e-16,1.5694578651677513e-23,6.6795916278764615e-22,-7.68606534225359e-14,-7.654223684342955e-14,3.233372060340603e-16,3.2347624818870675e-16,5.059669082350421e-18,-1.1956989544622481e-17,-1.1957005239256053e-17,7.912855828076787e-13,7.912975318469467e-13,7.912975318469469e-13,-1.469894008644163e-19,-1.469893405657807e-19,-1.4698934077097086e-19,-1.383899505049988e-19,-7.950216384774485e-21,3.191250987427256e-16,3.191251018332221e-16,-4.3590966320985915e-18,-7.950216349672508e-21,-7.298012098554544e-21,-7.686066138850713e-14,-7.654224546166525e-14,3.233372059737623e-16,3.234762481887075e-16,5.059669082350421e-18,-1.2096047454132453e-17,7.912855817278478e-13,7.912855817278478e-13,7.912975324992714e-13,7.912975318470072e-13,7.912975325180567e-13,7.912975325180567e-13,7.912975325180565e-13,7.144575340184462e-13,-7.950216384763791e-21,3.191251018332221e-16,3.191251018332565e-16,-4.359112326697782e-18,-4.358463153091705e-18,-4.3584631531260876e-18,-7.686501255364805e-14,-7.654659662680615e-14,-7.652102039014817e-14,3.1912509880270194e-16,9.265269865328572e-18,-1.6448276791620136e-17,7.912855817278478e-13,7.912770238977273e-13,7.912975314193802e-13,7.912820915170864e-13,7.913025990575246e-13,7.912983880301844e-13,7.144583815834483e-13,7.144583895305739e-13,-7.654210533949896e-14,2.986175801803228e-16,3.1912510183331074e-16,-4.35911232664357e-18,-2.48580188347091e-17,-2.4997061049654267e-17,-7.686500523994122e-14,-7.686500522424663e-14,-7.654138198356636e-14,3.07174327379085e-16,3.071743116241865e-16,7.912864445535616e-13,7.912862981977003e-13,7.91277879409855e-13,7.912822305593013e-13,-1.544032992062331e-17,-6.8831332792885006e-18,-7.683073320780874e-14,-7.683073320780874e-14,-7.683073214670288e-14,-7.654224438171388e-14,-7.65415279087706e-14,2.9847853796550064e-16,-2.499705795876668e-17,-2.064591160314561e-17,-2.0645911603350792e-17,-7.685558647113592e-14,-7.684702862532085e-14,-7.652847300399958e-14,7.916092043162636e-13,7.916092043162636e-13,7.912864456334528e-13,7.912778804896859e-13,-1.9798365386673076e-17,-1.1240535266207246e-17,-6.883152064617468e-18,-7.684688958001533e-14,-7.650796547925609e-14,-7.650796547925609e-14,-7.65079654980414e-14,-7.65371767624152e-14,-7.65371767593245e-14,3.0282968741180485e-16,-1.557828915346303e-17,-1.557829224414616e-17,-1.5579372135534827e-17,-7.684702862532085e-14,-7.684702862532085e-14,7.147692069310244e-13,7.147691989494188e-13,7.147691989494188e-13,7.144422325060426e-13,-7.685980481218299e-14,-7.654138823301637e-14,-7.651739050060201e-14,-7.651303203750923e-14,-7.651303309861508e-14,-7.651303309861508e-14,-7.650796547925609e-14,3.320409486948714e-16,-7.653703880009146e-14,-7.653703879700077e-14,-7.653703083108958e-14,-7.685544677356578e-14,-7.684000687436255e-14,-7.683158872302707e-14,-7.683158764313576e-14,7.144455836903442e-13,7.147692069153298e-13,7.147897064710717e-13,7.147811486409512e-13,-7.686051396844926e-14,-7.686051331618474e-14,-7.654645585237534e-14,-7.651739050060201e-14,-7.6525941017076e-14,-7.652158984884435e-14,-7.652159092873554e-14,3.1841551800050185e-16,3.2348311857440485e-16,-7.652159889779744e-14,-7.685545537610706e-14,-7.685544675793149e-14,-7.68554467735658e-14,-7.684000687436244e-14,-7.683158764313576e-14,7.144660912119971e-13,7.144455836746496e-13,7.14437164886744e-13,7.916160874683283e-13,3.1840861319553095e-16,3.184165790460372e-16,-2.0506869448703526e-17,-2.4865984805936772e-17,-7.654645585237542e-14,7.144533132930396e-13,7.144576724271822e-13,7.144576724271822e-13,7.912975394040163e-13,7.912975387329665e-13,-7.652159889779738e-14,-7.685544633339545e-14,-7.685544567798019e-14,-1.5439246938585906e-17,-1.208871805238769e-17,7.913060976587333e-13,7.913060976587331e-13,7.144371649024387e-13,7.144371649024387e-13,3.184086288900964e-16,3.184086288900964e-16,3.1840862882970807e-16,-2.050685375410433e-17,7.912728128860818e-13,7.147510839762371e-13,7.147715914978901e-13,7.144575340372315e-13,7.912975394040765e-13,7.912975394040163e-13,7.912975387517516e-13,-7.652158986768995e-14,-7.686051331612432e-14,-1.5439246938757422e-17,-6.881416818120794e-18,-1.2088714962015253e-17,7.913060976587332e-13,7.912975398286125e-13,7.144371649024387e-13,-7.686051330042975e-14,3.184092811545564e-16,3.184092811544323e-16,3.184092811544667e-16,2.9790972541255063e-16,7.147510919421481e-13,7.147510839762371e-13,-7.652608735724275e-14,-1.4633707601647897e-19,-1.3945105627163873e-19,-1.4010332076601498e-19,-1.401064715892456e-19,-7.652158986762965e-14,-7.686051331612432e-14,-6.881416818291589e-18,-6.881416818086409e-18,7.912855907767407e-13,7.913060982953031e-13,7.912975404651826e-13,-7.654209673701801e-14,-7.654209673701801e-14,-7.652158921536511e-14,3.184172313708164e-16,3.184172313708508e-16,-7.65420967370181e-14,-7.686500350778568e-14,-7.68650114736966e-14,-7.68650114736966e-14,-1.4698934047647282e-19,-1.3902342954815928e-19,1.8785362639052236e-23,-1.0798911841928544e-21,-7.684000644673601e-14,-7.686051331612432e-14,-6.881416818291589e-18,7.916092140174209e-13,7.91604007355847e-13,7.91615957044289e-13,3.1827818915611077e-16,-7.654209673701801e-14,-7.654209738928242e-14,-7.652158986762953e-14,3.1841657910639077e-16,3.1841657910639077e-16,-7.652594101707596e-14,-7.686486446557076e-14,-7.686486446557076e-14,-2.4865984745610104e-17,-7.947125565685174e-21,-7.947125565695826e-21,-7.950216062250687e-21,-1.0798911834732762e-21,-7.652158986762965e-14,2.979097097180749e-16,7.91604862864884e-13,7.916092133651564e-13,7.916090743229414e-13,7.916159563920246e-13,-1.3904221467122494e-19,-7.686051396838857e-14,-7.686051396838879e-14,-7.686051396838879e-14,3.1841657910651487e-16,3.1406542966008657e-16,-7.652594101707596e-14,-7.686486446557076e-14,-7.686486446557076e-14,-2.0506866297675114e-17,-2.0515468778499348e-17,3.1840863198075625e-16,3.1840754899887105e-16,3.184075333042438e-16,3.1841657910639077e-16,2.935579080073114e-16,3.071833574867767e-16,7.912864456366038e-13,7.912812389750298e-13,7.912931886665624e-13,-1.390422146431848e-19,-7.684000644673581e-14,-7.684000644673567e-14,-7.684435759618219e-14,3.1406542966021067e-16,3.1406542966008657e-16,-7.652594101707596e-14,-7.683579976606186e-14,-7.653789005634394e-14,3.064675429291127e-16,3.0646755862371187e-16,3.1841659480118874e-16,3.1840754899887736e-16,3.184075333043063e-16,3.438232892403889e-29,-1.6300840978579113e-17,-1.6300840978579113e-17,7.912813780141543e-13,7.913017464966827e-13,7.913017464966827e-13,4.067641550015014e-18,4.2066806744012075e-18,-7.683579976606156e-14,-7.683579976606156e-14,4.206680674490956e-18,7.916203021149136e-13,7.147802956681776e-13,7.147802956681776e-13,7.147846474729788e-13,7.91604146398062e-13,7.916041464137566e-13,7.147555804016537e-13,-7.654209845347914e-14,-7.65215909475208e-14,-2.0507521652864894e-17,-2.050752165274075e-17,-1.1949691532274913e-17,7.912813780141543e-13,7.913017464935921e-13,7.913017464966826e-13,7.913017454167914e-13,7.913018844590065e-13,7.913018855358074e-13,7.913018855358074e-13,7.913018855358074e-13,7.916203021149136e-13,7.14780295671268e-13,7.147846468207143e-13,7.144662308938725e-13,7.147846474729788e-13,7.144457223049323e-13,7.144371638225473e-13,-7.686051503258554e-14,-7.686051504828011e-14,-2.0507521652899274e-17,-2.0507521652899274e-17,-1.1949691532433445e-17,7.913062366852533e-13,7.913060976430384e-13,7.913060965631472e-13,7.913017454167914e-13,7.913017454167914e-13,7.913069520783654e-13,7.913069520783654e-13,7.91311303227812e-13,7.916211630566889e-13,7.147760889905937e-13,7.147760889905937e-13,7.144576713315962e-13,7.144576713285057e-13,7.144576713285056e-13,7.144371638068527e-13,-7.68554474289211e-14,-7.685544634902992e-14,-2.0507521652899274e-17,-2.0507521652899274e-17,8.557830120465835e-18,7.913062366852533e-13,7.912975398129179e-13,7.912975398129179e-13,-1.401221060942707e-19,-1.0798911834830518e-21,5.066539467843995e-18,5.066542558464703e-18,5.0665425583405596e-18,5.066539467843994e-18,-7.683493990726821e-14,-7.683493990726817e-14,-7.683493990726818e-14,-7.683493990726818e-14,-7.683493990726823e-14,5.066539467815965e-18,5.067619358999447e-18,5.067619358999447e-18,-2.0507521652899274e-17,5.861397528905236e-54,5.861397528905236e-54,9.570655112940847e-34,2.2826912859040426e-49,4.685879849950164e-45,-1.7679259079796426e-39,-4.0524207534272206e-35,-1.0798911834840087e-21,5.066539467815965e-18,5.066539467815965e-18,5.066539467815965e-18,5.066539467815965e-18,5.066539467850347e-18,5.066539467850347e-18,5.066539467850347e-18,5.066539467815965e-18,5.067619358999447e-18,5.067619358999447e-18,5.067619358999447e-18,7.14764708348856e-13],[1.702822978036648e-24,1.702822978036648e-24,8.71160746132852e-19,8.711590434939741e-19,-1.006173737237938e-16,-1.0061734371230765e-16,-1.0061024019990703e-16,-1.0061024019995801e-16,8.782925662475489e-19,-7.02852641334615e-18,-7.028526412934447e-18,8.782230352484448e-19,8.781930236982722e-19,8.781930248831815e-19,2.1296565690488852e-18,1.258500795889584e-18,1.258500795889584e-18,1.258500795889584e-18,1.2584992397493664e-18,1.2584992513132954e-18,3.191710364020619e-23,3.191710364020619e-23,8.711907576148084e-19,-1.0061734371230765e-16,-1.0061734371235519e-16,-1.0852416269235169e-16,-1.0851705917955586e-16,-1.0851705917955171e-16,-7.028594388492502e-18,-7.028594388492456e-18,-7.028595944345207e-18,-5.777132388615621e-18,-5.77716260296037e-18,-5.777160696448913e-18,2.1296598393325964e-18,1.258500795889584e-18,1.258500795889584e-18,1.2584992397493664e-18,1.2584975255507355e-18,1.2584975371146643e-18,3.1714309110020485e-23,3.171430493431954e-23,8.71189043540413e-19,-1.0852416269194889e-16,-1.0852416269200404e-16,-1.0852416269235169e-16,-1.0851705897671379e-16,-1.0851705897773671e-16,8.78224793998411e-19,2.1225848369322055e-18,2.1225846342017156e-18,-5.784235901356322e-18,-5.784266115701071e-18,-6.655423455537431e-18,-7.906885252332223e-18,-6.626112704901696e-23,-6.798683447128941e-23,-6.954297468875737e-23,1.2513940127548978e-18,1.2513940243188264e-18,3.0000106303381334e-23,3.0000106303381334e-23,-7.035629936100833e-18,-1.0852416248920952e-16,-1.0852416248920952e-16,-1.0148853276769475e-16,-1.0148142925484375e-16,-1.014814292559218e-16,-1.0023000346105792e-16,1.2514257945162801e-18,1.2514257934980958e-18,1.2513938205061121e-18,1.4987104001214816e-24,-7.906815923660856e-18,-7.906815923715993e-18,-7.906817423556166e-18,-1.1619066242850351e-26,-1.1563928792199267e-26,-1.1563928792199267e-26,1.2514635557295865e-18,3.020290083356705e-23,-7.906819193768057e-18,-1.0852419271492987e-16,-1.0852419270348598e-16,-1.0852419270383783e-16,-4.069743013374212e-28,-1.0148142754064513e-16,-1.0148142754137969e-16,-1.0023000346118216e-16,1.2514257945162801e-18,1.2514257934980958e-18,-6.953242894418937e-23,1.4987579474977464e-24,3.0559328420373935e-24,-7.906817626295559e-18,-7.906817423556166e-18,-1.1619066242850351e-26,-1.1563928792199267e-26,-1.1563928799491666e-26,1.2514635557295865e-18,-7.906818990973527e-18,-7.906818991016899e-18,-1.0852419271492569e-16,-1.0852419270336178e-16,-1.0939535174728427e-16,-3.5183734151685382e-28,-1.0148142754172735e-16,-1.0148139732709901e-16,-1.0148857052970758e-16,1.2514257945162801e-18,-6.797542992823257e-23,1.7016165642726098e-24,1.4987579474977464e-24,3.0548981649657046e-24,-7.906817626295559e-18,-7.906818979696383e-18,-7.906818991260312e-18,-1.1619066242850351e-26,-1.1563928799491717e-26,-4.3040855942667566e-55,-7.90688696623994e-18,-7.035729478929555e-18,-1.085242622463365e-16,-1.0852419270336178e-16,-7.906818979996498e-18,-3.5183734151685382e-28,-1.0148142754137969e-16,-1.0148139732709901e-16,-1.0148857052862534e-16,-3.7761213306294057e-23,-6.798699385703209e-23,1.701268902632043e-24,1.4987579474977464e-24,3.066462093765197e-24,-7.906817626295559e-18,-7.906818979696383e-18,-7.906818991260312e-18,-1.1494830561359576e-26,-1.143969311070855e-26,1.5561402174752845e-24,-6.798664624175691e-23,8.710910567492238e-19,-1.006174432667428e-16,-1.006173737356156e-16,-1.1902687590019793e-26,1.251463542795636e-18,1.2585687701377666e-18,-1.0022993378286932e-16,-1.0148857053977759e-16,-1.0148857054000095e-16,-6.798699385703209e-23,1.7013931383135006e-24,3.0665261339889414e-24,3.066650369670432e-24,-7.906817626059735e-18,-7.90681897945297e-18,-7.906818991072036e-18,1.5446618797540789e-24,3.175899008936954e-23,3.1769338655189585e-23,-6.798677047702447e-23,-1.0061744171048753e-16,-1.0061744326668288e-16,-1.0061737373561974e-16,-1.1847503850908527e-26,-1.2933903999811573e-26,1.258598984418475e-18,-1.002299337828693e-16,-1.0148857053977753e-16,-1.0148860075428162e-16,-6.798699385703202e-23,3.054738825595779e-24,3.0666504160358377e-24,-7.90678569866262e-18,-7.906787208984497e-18,-7.906787209032044e-18,3.1758942588281745e-23,3.1758818352600283e-23,3.175886589997655e-23,3.0213198484087034e-23,1.5446403756715025e-24,-1.0061744171048753e-16,-1.0061744171054268e-16,8.711605877441983e-19,1.5442286733933064e-24,1.5436141705664285e-24,1.258600540618888e-18,-1.0022993222558666e-16,-1.0148857053971734e-16,-1.0148860075434566e-16,-6.798699385703202e-23,3.3280583416557526e-23,-7.899682186055058e-18,-7.899682186055058e-18,-7.906787210254997e-18,-7.90678720922032e-18,-7.90678722192161e-18,-7.90678722192161e-18,-7.906787221874063e-18,-6.655325210665628e-18,1.5446403756715016e-24,-1.0061744171054268e-16,-1.0061744171089032e-16,8.711605993081273e-19,8.711605983327634e-19,8.711605986804251e-19,2.1297595956809667e-18,-9.935877317052458e-17,-9.936594794061803e-17,-1.0061744171097173e-16,8.781943665056006e-19,8.782958368774043e-19,-7.89968218640272e-18,-7.899681983260528e-18,-7.899683697459159e-18,-7.899751514671335e-18,-7.899753240536578e-18,-7.03572792411493e-18,-5.784264368385342e-18,-5.784265912858946e-18,-1.0023706595271917e-16,-1.0061743999634404e-16,-1.0061744171089038e-16,8.711605993080809e-19,8.711607562668949e-19,8.711909708952186e-19,2.1297580405627317e-18,2.1297580289347633e-18,-9.935887448404447e-17,-1.0061033668677181e-16,-1.0061033667501962e-16,-7.028624443465756e-18,-7.028592674191186e-18,-7.028622685453893e-18,-7.899781728952043e-18,7.035694501438024e-21,7.03548112251866e-21,2.1296563661516244e-18,2.1296563661516244e-18,2.1225528650223997e-18,-1.0023703573843851e-16,-9.936594622668145e-17,-1.0061740978241108e-16,8.711909705047365e-19,3.192741356149269e-23,3.192746110928284e-23,1.258529465653776e-18,1.258529251231277e-18,-1.0023003373033716e-16,-1.0938831469795207e-16,-1.0938831469823568e-16,-7.035727956261594e-18,-7.035726198473157e-18,8.71092781343968e-19,8.710925785494377e-19,7.035492789132286e-21,1.2584990368521052e-18,-1.002300354446343e-16,-1.002300354446343e-16,-1.0023003543296769e-16,-1.0023710526972507e-16,-1.0023710527013205e-16,-1.0148856882590923e-16,-3.760440421963005e-23,-3.760399724442399e-23,7.065908846140823e-21,1.2585292512953172e-18,1.2585292512312765e-18,-1.0814395622272668e-16,-1.0814395465501832e-16,-1.0814395465530195e-16,-6.6554232412356265e-18,2.122556336850128e-18,-9.93659764302142e-17,-9.936590881579657e-17,-1.0023706941435271e-16,-1.0022996591322349e-16,-1.0022996591322349e-16,-1.002300354446343e-16,-1.0148149898874481e-16,-1.002300319712099e-16,-1.002300319716169e-16,-1.002300335278047e-16,1.2584992498405429e-18,1.2585670674596933e-18,1.2585970685116678e-18,1.251493555647614e-18,-6.655323709747453e-18,-1.0814395621116275e-16,-1.0814395636921695e-16,-1.0814395616670603e-16,1.2514652697688782e-18,1.2514652686225672e-18,-9.936590689915106e-17,-9.936590881579657e-17,-9.936591016806002e-17,-1.0023706922322479e-16,-1.0022996571042896e-16,-1.0148142926615854e-16,-1.0148149878588624e-16,-1.0022996415400191e-16,1.2585007956708393e-18,1.25849923840085e-18,1.2584992501241644e-18,1.2585670673914769e-18,1.251493555647614e-18,-6.6553254239460844e-18,-6.655323698183525e-18,-6.655353709669657e-18,-1.0939535019074537e-16,-1.014885312114353e-16,-1.0148853276744711e-16,1.7128929805238742e-24,8.711623125313478e-19,-9.936590689880336e-17,-5.784194824225744e-18,-6.6553554355307256e-18,-6.6553554358783875e-18,-7.899685265425423e-18,-7.899685252676585e-18,-1.0022996415434958e-16,1.2513957267899211e-18,1.2513957255283238e-18,-6.781840125996162e-23,3.17140691109538e-23,-7.906788979723219e-18,-7.906788979675671e-18,-6.655353721233585e-18,-6.655353721233585e-18,-1.014885312227156e-16,-1.014885312227156e-16,-1.0148853122293486e-16,1.701329051724383e-24,-7.035656678750515e-18,-1.0727269567568037e-16,-1.0727269739022665e-16,-6.655325222632402e-18,-7.899685265549657e-18,-7.899685265425421e-18,-7.89968526429565e-18,-1.0023706921171758e-16,1.2514652685581963e-18,-6.781863733400216e-23,-6.802113175033746e-23,3.1714018149281073e-23,-7.906788979719043e-18,-7.906788776876965e-18,-6.655353721233585e-18,1.2514652572778884e-18,-1.0148853122379784e-16,-1.0148853122379366e-16,-1.014885312241413e-16,-1.0148853106608295e-16,-1.0727269723216826e-16,-1.0727269567568037e-16,-9.936587841063295e-17,3.175732438032921e-23,7.133714044040954e-21,7.133715473927044e-21,7.133715653300175e-21,-1.002370692118418e-16,1.2514652685581963e-18,-6.802143186418788e-23,-6.8021479411978e-23,-7.906787255093845e-18,-7.906788969237338e-18,-7.906788766442808e-18,-1.0023706749844596e-16,-1.0023706749844596e-16,-1.0023706921264459e-16,-1.0148853276837e-16,-1.0148853276871764e-16,-1.0023706749878944e-16,2.1226545262771433e-18,2.1226560824173614e-18,2.1226560824173614e-18,3.175840660477715e-23,3.0202330427119054e-23,-1.1950235043197013e-26,7.103512859878093e-21,1.2514635553819253e-18,1.2514652685581963e-18,-6.802143186418788e-23,-1.0939541976831331e-16,-1.093953200223816e-16,-1.0939532153373056e-16,-1.0148850255413686e-16,-1.0023706749844596e-16,-1.0023706749771138e-16,-1.0023706921191e-16,-1.0148853276763543e-16,-1.0148853276763543e-16,-9.936591016840769e-17,2.1226243119964814e-18,2.1226243119964814e-18,8.711623124071126e-19,1.5441259426149028e-24,1.544125942200986e-24,1.5441810795747235e-24,7.10351279583787e-21,-1.0023706921190583e-16,-1.0148853105445916e-16,-1.0852426072441238e-16,-1.0939541976688343e-16,-1.093953895530103e-16,-1.09395321532996e-16,3.021388545355931e-23,1.2514652695288332e-18,1.2514652695763806e-18,1.2514652695763802e-18,-1.0148853276763959e-16,-1.0061737372413728e-16,-9.936591016840769e-17,2.1226243119964814e-18,2.1226243119964814e-18,1.7126660604293537e-24,3.2586722351863412e-24,-1.0148853122281417e-16,-1.0148142770991564e-16,-1.014814276983517e-16,-1.0148853276763543e-16,-1.0061737200994283e-16,-1.0061744174414815e-16,-7.035727956509228e-18,-7.035628210813584e-18,-7.035629722265233e-18,3.021388545306848e-23,1.2514635553343776e-18,1.2514635553302018e-18,2.122622598875899e-18,-1.0061737372414145e-16,-1.0061737372413728e-16,-9.936591016840769e-17,2.1226223960855446e-18,-9.936590865808582e-17,-1.0148853125706856e-16,-1.0148853126863249e-16,-1.0148853277889924e-16,-1.0148142771026331e-16,-1.0148142769869938e-16,-3.476612266823224e-28,8.711605545504132e-19,8.711605545504136e-19,-7.035658425043285e-18,-7.035629925012216e-18,-7.035629925012216e-18,8.711890545339353e-19,8.711588403084106e-19,2.122622396381483e-18,2.122622396381483e-18,8.711588406518968e-19,-1.0852419290622539e-16,-1.0727272935084346e-16,-1.0727272935084346e-16,-1.0814388839547899e-16,-1.0939535023700993e-16,-1.0939535024857385e-16,-1.08136782976069e-16,-1.002299639964753e-16,-1.0022996569911002e-16,1.7138509697042223e-24,1.7138467935893876e-24,1.5110522634036738e-24,-7.035658425043285e-18,-7.035629924609416e-18,-7.035629924664554e-18,-7.028526411868716e-18,-7.028556626196926e-18,-7.035660138941801e-18,-7.035660138941801e-18,-7.035660138941801e-18,-1.0852419290622539e-16,-1.072727293508986e-16,-1.0814388839439675e-16,-6.655355628191213e-18,-1.0814388839547899e-16,-6.648250412310326e-18,-6.648250208433572e-18,1.2585687711601268e-18,1.2585687827240556e-18,1.7141986313447893e-24,1.7141986309309047e-24,1.511404100745191e-24,-7.906819182388228e-18,-7.906788968107566e-18,-7.899685455311727e-18,-7.028526411868716e-18,-7.028526411868716e-18,-7.02862615756436e-18,-7.02862615756436e-18,-7.899785201110057e-18,-1.0939542127839496e-16,-1.0814388819120701e-16,-1.0814388819155467e-16,-6.648251911471073e-18,-6.648251911415935e-18,-6.648251911068273e-18,-6.648250196869643e-18,1.258499251313249e-18,1.251395738517411e-18,1.7141986313447893e-24,1.7141986309309047e-24,-2.0279453018571384e-25,-7.906819182388228e-18,-7.906788765313036e-18,-7.906788765313036e-18,7.133727076500447e-21,7.103512795838284e-21,7.033981385031877e-21,7.033981325718803e-21,7.033981329894505e-21,7.033981385031877e-21,1.2584975371146186e-18,1.2584975367669567e-18,1.2584975367669565e-18,1.2584975367669565e-18,1.2584975371146179e-18,7.03398138503154e-21,-6.953141080633054e-23,-6.953141080633054e-23,1.7141986309309047e-24,-9.084474710892139e-52,-9.084474710892139e-52,-1.5152541975081522e-41,-9.089860869270343e-52,-4.2998701679816205e-49,1.3309000512746525e-40,4.138848407370459e-34,7.103512795838284e-21,7.033981385031953e-21,7.033981385031953e-21,7.033981385031953e-21,7.03398138503154e-21,7.033981037369899e-21,7.033981037369899e-21,7.033981037369899e-21,7.03398138503154e-21,-6.953141080633058e-23,-6.953141080633054e-23,-6.953141080633054e-23,-1.0726566189735607e-16],[3.887297896066172e-16,3.887297896066172e-16,3.8882935966972106e-16,9.957382722952351e-20,-4.2918909790926014e-17,-8.467655001743493e-15,-8.467233760536314e-15,-8.467233760250579e-15,-8.424215735229123e-15,-2.2133030493884352e-14,-2.2133030493854108e-14,-8.425800926343488e-15,-1.064834420521609e-18,-1.064375823760056e-18,1.3158943146474329e-11,1.3159331777367972e-11,1.3159331777367972e-11,1.3159331777367972e-11,1.3159331777278869e-11,1.3159331777871962e-11,3.88988897456428e-16,3.88988897456428e-16,-8.035906732568637e-15,-8.467655001743488e-15,-8.467655001743493e-15,-2.2176469760399414e-14,-2.2176048519191596e-14,-2.21760485189058e-14,-2.2134615591904932e-14,-2.2134615591904932e-14,-2.2134615684998707e-14,1.313680959575825e-11,1.3136809336650369e-11,1.3145623062094325e-11,1.3159331876942084e-11,1.3159331777367972e-11,1.3159331777367972e-11,1.3159331777278869e-11,1.3158943046900217e-11,1.315894304749331e-11,-8.036006302345945e-15,-8.03600630263174e-15,-8.424637107200456e-15,-2.2176469760398714e-14,-2.2176469760398777e-14,-2.2176469760399414e-14,-1.3751053319389219e-14,-1.3751053777700061e-14,-8.056334472705804e-19,1.3158942984568592e-11,1.3150517989368819e-11,1.3136809174517041e-11,1.3136808915409162e-11,1.3137197546079203e-11,-1.3321670075139487e-14,3.871452766111703e-16,-1.5856951363358654e-18,-1.5857842400322572e-18,1.3158942625659008e-11,1.3158942626252105e-11,-8.424736681283882e-15,-8.424736681283882e-15,-2.2133451865855683e-14,-1.3751474560596407e-14,-1.3751474560596403e-14,-4.3018483904645885e-17,-4.259724269676895e-17,-4.259770100767422e-17,1.315890028775207e-11,1.3158942885453076e-11,1.3158942884994511e-11,1.3150517630593733e-11,-8.036265872842382e-15,-2.1745080083797208e-14,-2.1745080083797265e-14,-1.3708814669551587e-14,-5.930954919318186e-22,-5.930954322064342e-22,-5.930954322064342e-22,1.315894421144325e-11,2.5851851849199806e-19,-2.213381054778891e-14,-1.3751734257521331e-14,-1.3751733668160416e-14,-1.3751733668446847e-14,-2.8649030323176127e-25,3.461331359553648e-16,3.461326773593014e-16,1.3158900287748051e-11,1.3158942885453076e-11,1.3158942884994511e-11,-1.5856497116978583e-18,-8.03626587284238e-15,-8.036265325141986e-15,-2.2133809869353907e-14,-1.3708814669551583e-14,-5.930954919318186e-22,-5.930954322064342e-22,-5.93095436551808e-22,1.315894421144325e-11,-1.3708815347986533e-14,-1.3708815347700744e-14,-1.3751734257235535e-14,-1.3751733664140097e-14,-1.3751833242274074e-14,-2.864306191658113e-25,3.461326773586651e-16,3.4639178520910786e-16,-4.43449364065854e-17,1.3158942885453076e-11,-1.5850979916198867e-18,3.887293269896004e-16,-8.03626587284238e-15,-8.036265783738685e-15,-2.2133809869353907e-14,-1.3708814758655279e-14,-1.3708815351750717e-14,-5.930954919318186e-22,-5.93095436551808e-22,-1.6840327171004016e-49,-1.3710400449741643e-14,-1.3710300964732318e-14,-1.3753319448380136e-14,-1.3751733664140097e-14,-1.3708814758655918e-14,-2.864306191658113e-25,3.461326773593014e-16,3.4639178520910786e-16,-4.434447780988576e-17,-1.325990171415276e-18,-1.5856910870564382e-18,3.887293269889643e-16,-8.03626587284238e-15,-8.036265190643248e-15,-2.21338098693539e-14,-1.3708814758655279e-14,-1.3708815351750717e-14,-5.890751737512954e-22,-5.8907511402591065e-22,8.910370073836116e-23,-1.5856910864213068e-18,-1.4861169734593171e-18,-4.4504689724913086e-17,-4.2919498551346323e-17,-5.930665306423036e-22,1.31589442103913e-11,1.3159333362011158e-11,1.3159290602635391e-11,-4.434507087508423e-17,-4.434506685540553e-17,-1.5856910870564382e-18,3.8872933100928243e-16,-8.036265190613645e-15,-8.036265186593326e-15,-2.213380986530398e-14,-1.37088147546053e-14,-1.3708815347700796e-14,-4.999418777062032e-22,2.5860790792742683e-19,2.5873835680400197e-19,-1.5856951067394865e-18,-4.450460087734844e-17,-4.4504689981104515e-17,-4.291949883713959e-17,-5.930664698457633e-22,-1.0519489638659388e-21,1.315933362111901e-11,1.3159290602635391e-11,-4.4345070875083115e-17,-4.460417470520762e-17,-1.5856910870564372e-18,-8.036265779689395e-15,-8.036265186593326e-15,-2.174482083739874e-14,-1.3708555557651797e-14,-1.3708555557651797e-14,2.5860790792985316e-19,2.5860388761167375e-19,2.586038876103185e-19,2.5864925310872244e-19,-5.039621372104779e-22,-4.450460087734844e-17,-4.450460087740812e-17,9.90738551105034e-20,-5.039923752907717e-22,-9.588539148875189e-22,1.3159333621212103e-11,1.3159290603187082e-11,-4.434506688436678e-17,-4.460417473481381e-17,-1.5856910870564367e-18,-8.036006078744156e-15,-2.1744399600240843e-14,-2.1744399600240843e-14,-1.3708556020298417e-14,-1.370855556170172e-14,-1.3708556613393917e-14,-1.3708556613393917e-14,-1.3708556613393913e-14,1.3145235655333845e-11,-5.03962137210837e-22,-4.450460087740812e-17,-4.450460087804436e-17,9.966695054705491e-20,9.920863970369513e-20,9.92086403399388e-20,1.3159333721379313e-11,1.3159290703354289e-11,1.315889996594617e-11,-4.450460464210809e-17,-8.426060075568592e-15,-8.035485263423314e-15,-2.174439960024148e-14,-1.331940440043847e-14,-1.37081347790906e-14,-1.3320989591583068e-14,-1.37097205633307e-14,-1.37103013382753e-14,1.3145233910104972e-11,1.3145233910608966e-11,1.315928992283432e-11,3.4422577777472574e-16,-4.450460087804548e-17,9.966695054594209e-20,3.888294941678217e-16,3.8908860201826437e-16,1.3159333721744812e-11,1.315933372115169e-11,1.3159288858369077e-11,-8.080348184584535e-15,-8.080347587439177e-15,-2.174614395157994e-14,-2.174588521325274e-14,-1.3321149125319852e-14,-1.3321248699432875e-14,3.875659701186502e-16,-8.037429364182523e-15,1.3150518151274525e-11,1.3150518151274525e-11,1.3150517730626413e-11,1.3159290181942171e-11,1.3159288696328872e-11,3.4448488562389474e-16,3.8908860176137364e-16,3.8898902793484026e-16,3.889890279348423e-16,1.3159332036979559e-11,1.315090704118663e-11,1.3150863763595163e-11,-2.1789261924256707e-14,-2.1789261924227744e-14,-2.174656519278776e-14,-1.3321570362507988e-14,3.872443921275532e-16,-8.03775080767482e-15,-8.037428771087025e-15,1.3150906782079065e-11,1.3150475033216795e-11,1.3150475033216795e-11,1.3150475033809892e-11,1.3159288596755044e-11,1.315928859675476e-11,3.4438531151087085e-16,3.874038365037486e-16,3.87403836790239e-16,3.878250779980584e-16,1.3150907041186658e-11,1.315090704118663e-11,1.3137154527595298e-11,1.3137154528277785e-11,1.3137154528277812e-11,1.314562254187615e-11,1.3159331455839396e-11,1.3159288437351757e-11,1.3150476296964447e-11,1.3150476197759828e-11,1.315047661840794e-11,1.315047661840794e-11,1.3150475033216795e-11,-8.469177633357315e-15,1.3159288758888402e-11,1.3159288758888118e-11,1.3159288758799012e-11,1.315933177741311e-11,1.3158944632225891e-11,1.3150519895999439e-11,1.3150519474757914e-11,1.3137199390377912e-11,1.3137154528188394e-11,1.3136765797899131e-11,1.3145190793098964e-11,1.315933294182595e-11,1.3159332941367323e-11,1.3159290022542901e-11,1.3150476296964447e-11,1.3158901292533742e-11,1.3158901192366535e-11,1.3158901613607744e-11,-4.259783550584033e-17,-4.4182433525343424e-17,1.3158901613700609e-11,1.3159331777371736e-11,1.3159331776824036e-11,1.3159331777413082e-11,1.3158944632225573e-11,1.3150519474757914e-11,1.3136810659999258e-11,1.3137199390971007e-11,1.3145624127062959e-11,-1.3751833153455478e-14,-4.3018394771286815e-17,-4.301847956887065e-17,3.88729924075116e-16,3.8882958729183625e-16,1.3159290022542901e-11,1.3145235496347809e-11,1.3145235396091498e-11,1.3145235396091494e-11,-1.3708135457240516e-14,-1.3708134405548318e-14,1.3158901613700609e-11,1.3159331356041425e-11,1.3159331355578806e-11,3.8714472862497674e-16,-8.036006306681669e-15,-2.2133551443989024e-14,-2.2133551443989024e-14,1.3145624126469864e-11,1.3145624126469864e-11,-4.301898789568896e-17,-4.301898789568896e-17,-4.301898359021265e-17,3.887293309796795e-16,-1.3319985768479144e-14,1.3145581466299001e-11,1.3145192735920347e-11,1.314523565474075e-11,-1.3708135461260835e-14,-1.3708135457240516e-14,-1.3708134998643811e-14,1.3158901192963677e-11,1.3159332941363046e-11,3.871447286539444e-16,-8.037850471147798e-15,-8.036006306395937e-15,-2.2133551443703232e-14,-1.3708556243900856e-14,1.3145624126469864e-11,1.3159332940769922e-11,-4.3019446492388596e-17,-4.301944620659423e-17,-4.301944620723047e-17,3.457108433412058e-16,1.3145581466209895e-11,1.3145581466299001e-11,1.3158901550679003e-11,2.5814526066849124e-19,6.792973943911446e-19,6.797559917270327e-19,6.797600121049376e-19,1.3158901192959658e-11,1.3159332941363046e-11,-8.03785047114843e-15,-8.037850471148435e-15,-2.1744820930552422e-14,-2.2133551309204496e-14,-1.3708556109402121e-14,1.31592899228794e-11,1.31592899228794e-11,1.3158901192500745e-11,-4.301894221485518e-17,-4.301894221549143e-17,1.3159289922879685e-11,1.3159333300045265e-11,1.315933330013437e-11,1.315933330013437e-11,2.586038573681356e-19,2.5851478327358097e-19,-5.9306653286632115e-22,4.212412374190461e-19,1.315894421144325e-11,1.3159332941363046e-11,-8.03785047114843e-15,-2.178968371342181e-14,-2.1787839414170575e-14,-1.3751574593020277e-14,-4.275983436505092e-17,1.31592899228794e-11,1.3159289923337995e-11,1.3158901192959344e-11,-4.301848361879178e-17,-4.301848361879178e-17,1.3158901292533742e-11,1.3159333040937415e-11,1.3159333040937415e-11,3.888295832715181e-16,-5.039924383113285e-22,-5.03992438312034e-22,-5.039923786275664e-22,4.212412078172092e-19,1.3158901192959629e-11,3.4571143618044967e-16,-2.1789584139308087e-14,-2.1789683254824474e-14,-2.178942414671911e-14,-1.3751574134424213e-14,2.591078491680199e-19,1.3159332941821614e-11,1.3159332941821614e-11,1.3159332941821614e-11,-4.301848390458615e-17,-4.2918909505767884e-17,1.3158901292533742e-11,1.3159333040937415e-11,1.3159333040937415e-11,3.8872992005473592e-16,3.8872987466033166e-16,-4.301898760995761e-17,-4.259774640207853e-17,-4.2597153306641934e-17,-4.301848361879178e-17,3.458114688605714e-16,-8.080768922086407e-15,-2.1746565197123534e-14,-2.1744720897843333e-14,-1.370845607669309e-14,2.591078491679782e-19,1.315894421144325e-11,1.3158944211442959e-11,1.3158944311017072e-11,-4.2918909791562255e-17,-4.2918909505767884e-17,1.3158901292533742e-11,1.3150519315817558e-11,1.3150865027253997e-11,-8.079283763365159e-15,-8.079284356460599e-15,-4.301907671359785e-17,-4.2597746402714736e-17,-4.2597153307278224e-17,-6.36243663740295e-28,-8.036165247323646e-15,-8.036165247323651e-15,-2.1744980005978875e-14,-2.2133451276495466e-14,-2.2133451276495466e-14,-8.424636517840243e-15,-8.424895625689988e-15,1.3150519315817274e-11,1.3150519315817274e-11,-8.42489562597515e-15,-2.2176728867962732e-14,1.3136767482575285e-11,1.3136767482575285e-11,1.3136767382542574e-11,-2.178809852202102e-14,-2.1788099115116455e-14,1.3145581529227737e-11,1.3159290343986392e-11,1.3158901614200837e-11,3.8873037865149754e-16,3.887303783657031e-16,-8.036264821436675e-15,-2.1744980005978875e-14,-2.213345127649477e-14,-2.213345127649483e-14,-2.213303003528701e-14,-2.213328914313682e-14,-2.2133710384630374e-14,-2.2133710384630374e-14,-2.2133710384630374e-14,-2.2176728867962732e-14,1.3136767482575285e-11,1.3136767383001173e-11,1.3136810401026193e-11,1.3136767382542574e-11,1.3137199552052957e-11,1.3145624547711358e-11,1.3159333362470014e-11,1.3159333363063107e-11,3.8873037865213376e-16,3.8873037865213376e-16,-8.036264821150244e-15,-2.21338099584576e-14,-2.2133550850607794e-14,-2.2133129609399976e-14,-2.213303003528701e-14,-2.213303003528701e-14,-2.2134874334567212e-14,-2.2134874334567212e-14,-2.213497390868024e-14,-1.3753418433418044e-14,1.3145192378200973e-11,1.3145192378200973e-11,1.3145235817925801e-11,1.3145235817925801e-11,1.3145235817925801e-11,1.3145624548304451e-11,1.3159331777871962e-11,1.3159331356630756e-11,3.8873037865213376e-16,3.8873037865213376e-16,-8.424995199802373e-15,-2.21338099584576e-14,-1.370855565080542e-14,-1.370855565080542e-14,6.803490576201163e-19,4.212412078136694e-19,-1.1639499367875355e-18,-1.1639502226415952e-18,-1.1639499368436803e-18,-1.1639499367839965e-18,1.315894304749331e-11,1.315894304749331e-11,1.315894304749331e-11,1.315894304749331e-11,1.315894304749331e-11,-1.1639499367839549e-18,-1.5851911446011626e-18,-1.5851911446011626e-18,3.8873037865213376e-16,-3.7807628471482575e-48,-3.7807628471482575e-48,-3.5390134906160825e-30,-3.7807186542999463e-48,-1.2060408304615895e-42,1.9516642871170152e-38,1.0036183586383018e-36,4.212412078172083e-19,-1.1639499367839549e-18,-1.1639499367839549e-18,-1.1639499367839549e-18,-1.163949936783954e-18,-1.1639499374201976e-18,-1.1639499374201983e-18,-1.1639499374201983e-18,-1.1639499367839549e-18,-1.5851911446011633e-18,-1.5851911446011626e-18,-1.5851911446011626e-18,1.3137155307153027e-11],[2.425388395222823e-14,2.425388395222823e-14,1.0392396062685216e-11,1.036814217873773e-11,9.924976757682666e-12,9.92496225098721e-12,9.924962250974774e-12,9.924962249999328e-12,1.0368127671052707e-11,-2.411972869263011e-11,-2.411972869261241e-11,1.036811634819945e-11,1.0368130854891246e-11,1.03681308558688e-11,1.0373972187545089e-11,3.0084259724993155e-14,3.0084259724993155e-14,3.0084259724993155e-14,3.0084003281367344e-14,3.008411380873653e-14,2.4253886643155114e-14,2.4253886643155114e-14,1.0392381555989336e-11,9.92496225098721e-12,9.92496225098721e-12,-2.4562894113685507e-11,-2.456289411368391e-11,-2.4562894113683487e-11,-2.411973975905593e-11,-2.411973975905593e-11,-2.4119740015483362e-11,-2.4113898573279704e-11,-2.4113898575974296e-11,-2.4089630182639163e-11,1.0398226437487277e-11,3.0084259724993155e-14,3.0084259724993155e-14,3.0084003281367344e-14,5.830008806935517e-15,5.830119334304705e-15,2.423937725677105e-14,2.4239377256347758e-14,1.0368127561516408e-11,-2.4562894112695604e-11,-2.4562894113671477e-11,-2.4562894113685507e-11,-2.4562879604297525e-11,-2.456287960332292e-11,1.0368131114989137e-11,1.0373972557191198e-11,1.0373958047808476e-11,-2.4113898572305434e-11,-2.4113898575000026e-11,-3.44577868707653e-11,-3.446361354713895e-11,2.424292707123516e-14,-1.1176954696002433e-17,-1.1433398321816554e-17,5.830008805336954e-15,5.830119332706141e-15,-1.4617218084071054e-17,-1.4617218084071054e-17,-2.4119728802166407e-11,-2.456287960428509e-11,-2.456287960428509e-11,-4.4316542204539153e-13,-4.431654210679232e-13,-4.431654210691853e-13,-4.3733504260042367e-13,5.830378454728464e-15,5.830378456705482e-15,5.81560994829909e-15,2.4239374558993002e-14,-3.4463616732678514e-11,-3.446361673365438e-11,-3.448785610821506e-11,-1.115032390307363e-19,-1.1052736918772688e-19,-1.1052736918772688e-19,5.84144220365877e-15,-1.078317000025004e-19,-3.4487870983591826e-11,-2.4562879717501883e-11,-2.4562879606975593e-11,-2.456287960699005e-11,-9.903266462083005e-22,-4.189114265934913e-13,-4.189114265811432e-13,-4.373350426019268e-13,5.830378454728464e-15,5.830378456705482e-15,-1.1322868975610293e-17,2.4239374558993125e-14,2.4239631004304255e-14,-3.4487870616625575e-11,-3.448785610821506e-11,-1.115032390307363e-19,-1.1052736918772688e-19,-1.105273691878314e-19,5.84144220365877e-15,-3.448785647420544e-11,-3.448785647420502e-11,-2.4562879717501463e-11,-2.4562879606974094e-11,-3.4931021785727785e-11,-1.4456811192962825e-23,-4.1891142659517676e-13,-4.1891142389021644e-13,-4.431764848071842e-13,5.830378454728464e-15,-1.1066436194735585e-17,2.4253883949039985e-14,2.4239374558993125e-14,2.4239631002618945e-14,-3.4487870616625575e-11,-3.448785636465869e-11,-3.448785647518606e-11,-1.115032390307363e-19,-1.105273691878314e-19,-3.035066870603313e-47,-3.448786754063235e-11,-2.411972561833782e-11,-2.4562891040372416e-11,-2.4562879606974094e-11,-3.448785636467272e-11,-1.4456811192962825e-23,-4.189114265811432e-13,-4.1891142389021644e-13,-4.431764848054987e-13,-1.1063748930305794e-17,-1.1176963563923411e-17,2.425388393500647e-14,2.4239374558993125e-14,2.4239741529988126e-14,-3.4487870616625575e-11,-3.448785636465869e-11,-3.448785647518606e-11,-1.115017358960991e-19,-1.1052586605308964e-19,2.5644362581423087e-19,-1.1176949530741719e-17,1.0368131000812754e-11,9.9249653233104e-12,9.924976646170983e-12,-1.1151361007836904e-19,5.841331663809788e-15,3.0095326153873695e-14,-4.130700922102643e-13,-4.431765953151719e-13,-4.4317659532770196e-13,-1.1176963563923411e-17,2.4253883936509602e-14,2.4239741533650587e-14,2.423974153515373e-14,-3.4487870616620405e-11,-3.448785636367765e-11,-3.448785647518089e-11,1.4494555225211492e-19,1.4763647927352316e-19,2.5913286726255407e-19,-1.117695103387635e-17,9.924965580733135e-12,9.92496532331364e-12,9.92497664617056e-12,-1.105377399106627e-19,-1.1053984864780436e-19,3.009532884480091e-14,-4.1307009221026395e-13,-4.431765953151715e-13,-4.431765980186288e-13,-1.1176963563923411e-17,2.4239630993751354e-14,2.4239741535154058e-14,-3.446361661945673e-11,-3.44878561045431e-11,-3.44878561045431e-11,1.476364794734518e-19,1.4763497633881457e-19,1.476349764635828e-19,2.6892417811124283e-21,1.45919919417846e-19,9.924965580733135e-12,9.924965579757265e-12,1.0368142323665588e-11,1.4590222344460355e-19,1.4591565135648043e-19,3.00955852862674e-14,-4.130698357671121e-13,-4.4317659531733085e-13,-4.4317659802229127e-13,-1.1176963563923411e-17,2.4239744212047435e-14,-3.44636166194603e-11,-3.44636166194603e-11,-3.448785610454995e-11,-3.448785610454826e-11,-3.4487856216053183e-11,-3.4487856216053183e-11,-3.4487856216053183e-11,-3.4482014918789915e-11,1.459199194178265e-19,9.924965579757265e-12,9.924965579743232e-12,1.0368142434192957e-11,1.0368142435167564e-11,1.0368142435181598e-11,1.0398237874551792e-11,9.955072453498413e-12,9.930807025622556e-12,9.92496558071436e-12,1.0368116492389805e-11,1.03923819229518e-11,-3.4463616619474336e-11,-3.4463602110073914e-11,-3.448785610454835e-11,-3.446361343294487e-11,-3.448786753892254e-11,-2.4119725362876912e-11,-2.411388392067325e-11,-2.411388406561364e-11,-4.130698384570549e-13,9.949219574231697e-12,9.924965579743232e-12,1.0368142434192957e-11,1.0392396173196868e-11,1.0392396175901827e-11,1.039823761811201e-11,1.0398237507580979e-11,9.955060760964032e-12,9.949205065804006e-12,9.949205176336542e-12,-2.4095486022734834e-11,-2.4095485763605628e-11,-2.409547125689764e-11,-3.4463613435635795e-11,2.4242671603391983e-14,2.4228050715454204e-14,1.0373957677182836e-11,1.0373957677182836e-11,1.0373957788684475e-11,-4.1306983576612794e-13,9.95506101911225e-12,9.949219576908591e-12,1.0392396174915163e-11,2.4253997167335602e-14,2.425399716733573e-14,3.008411650290225e-14,3.006949658548653e-14,-4.1309592716050523e-13,-3.490679336607556e-11,-3.4906793366085933e-11,-2.4095486022736434e-11,-2.4095471256911773e-11,1.0392385106783574e-11,1.039237059739719e-11,2.4228162218693357e-14,3.0069492919112975e-14,-4.373499226103837e-13,-4.373499226103837e-13,-4.373498111071446e-13,-4.1308115863557783e-13,-4.1308115962590447e-13,-4.189226018295637e-13,2.4242673306055988e-14,2.4242674296382648e-14,2.424267429798133e-14,3.006949658914899e-14,3.006949658548653e-14,-3.490095229084492e-11,-3.49009519238735e-11,-3.490095192388387e-11,-3.4457772249884545e-11,1.0398226548974701e-11,9.955061127932168e-12,9.930803946942305e-12,-4.373384882377902e-13,-4.3733859973943077e-13,-4.3733859973943077e-13,-4.373499226103837e-13,-4.431912533108035e-13,-4.1308116132490614e-13,-4.130811623152328e-13,-4.130814187588591e-13,3.008411282038643e-14,5.841442207234227e-15,5.826824986093425e-15,5.826824980409106e-15,-3.445777554422797e-11,-3.490095218031755e-11,-3.492520591834793e-11,-3.4925191408971917e-11,3.0095436669223006e-14,3.009543666387477e-14,9.955072450789086e-12,9.930803946942305e-12,9.930818199886748e-12,-4.373240903546453e-13,-4.373240903530467e-13,-4.4316553255670547e-13,-4.43176743920757e-13,-4.373238329288083e-13,3.008425873983176e-14,3.008400229452038e-14,3.008411283075749e-14,5.8414422031484726e-15,5.826824980409106e-15,-3.44820295387024e-11,-3.44577754337006e-11,-3.4457760927005146e-11,-3.4931021528294677e-11,-4.431651646222331e-13,-4.4316542106393255e-13,2.4253994460216004e-14,1.0392396429641996e-11,9.955072450803122e-12,-2.4113872486297376e-11,-3.448201503298239e-11,-3.448201503299643e-11,-3.448785647250408e-11,-3.4487856360999157e-11,-4.3732383294284187e-13,3.008400327047722e-14,3.008400229141881e-14,2.424267062550016e-14,2.423937725118203e-14,-3.448787098090607e-11,-3.448787098090606e-11,-3.4457761037532515e-11,-3.4457761037532515e-11,-4.4316527513923127e-13,-4.4316527513923127e-13,-4.431652751513383e-13,2.425388393284682e-14,-2.409546004456969e-11,-2.4532784020716137e-11,-2.45570380152046e-11,-3.448201503030719e-11,-3.4487856472505585e-11,