{"HiddenLayer":[0.6814472080539323,0.9999995614614356,1],"InputLayer":[0,0,0,0,0,0,0,0,0,0,0,0,0,0,0,1,1,1,1,1,0,0,0,0,0,0,1,1,1,0,0,0,0,1,1,1,1,1,1,1,0,0,0,0,0,0,1,1,1,0,0,0,1,1,1,1,0,0,1,1,0,0,0,0,0,0,0,1,1,0,0,0,0,1,0,0,0,0,1,1,0,0,0,0,0,0,0,1,1,0,0,0,0,0,0,0,0,0,1,1,0,0,0,0,0,0,0,1,1,0,0,0,0,0,0,0,0,0,1,1,0,0,0,0,0,0,0,1,1,0,0,0,0,0,0,0,0,0,1,1,0,0,0,0,0,0,0,1,1,0,0,0,0,0,0,0,0,0,1,1,1,0,0,0,0,0,1,1,1,1,1,1,1,1,1,1,1,0,1,1,1,1,1,1,1,1,1,1,1,1,1,1,1,1,1,1,1,0,1,1,1,1,1,1,1,1,1,1,1,1,1,1,0,0,0,0,0,0,1,1,1,1,0,0,0,0,0,1,1,0,0,0,0,0,0,0,0,0,1,1,1,1,0,0,0,0,0,1,1,1,0,0,0,0,0,0,0,0,1,1,1,1,0,0,0,0,0,1,1,1,0,0,0,0,0,0,0,0,0,1,1,1,0,0,0,0,0,0,1,1,0,0,0,0,0,0,0,0,0,1,1,1,0,0,0,0,0,1,1,1,0,0,0,0,0,0,0,0,0,1,1,1,0,0,0,0,0,0,1,1,0,0,0,0,0,0,0,0,0,0,1,0,0,0,0,0,0,0,1,1,0,0,0,0,0,0,0,0,0,0,0,0,0,0,0,0,0,0,0,0,0,0,0,0,0,0,0,0,0,0,0,0,0,0,0,0,0,0,0,0,0,0,0,0,0,0,0,0,0,0,0,0,0,0,0,0,0,0,0,0,0,0,0,0,0,0,0,0,0,0,0,0,0,0,0,0,0,0,0,0,0,0,0,0,0,0,0,0,0,0,0,0,0,0,0,0,0,0,0,0,0,0,0,0,0,0,0,0,0,0,0,0,0,0,0,0,0,0,0,0,0,0,0,0,0,0,0,0,0,0,0,0,0,0,0,0,0,0,0,0,0,0,0,0,0,0,0,0,0,0,0,0,0,0,0,0,0,0,0,0,0,0,0,0,0,0,0,0,0,0,0,0,0,0,0,0,0,0,0,0,0,0,0,0,0,0,0,0,0,0,1],"OutputLayer":[0.28376935132246417],"WeightHidden":[[-0.20100931596045996,0.2855770466836032,-0.011900124122749363,0.8042449953413169,0.5114953173012114,0.2723572677243956,1.1818512551786504,1.1451660102774028,-0.6281401666825227,-0.05042145461438873,0.4069260427682371,-0.6735168879221912,-0.5542391311911593,-0.8843769649604192,-0.30871144089382696,0.14368997469579453,0.48230918819024177,-0.7238896747373816,-0.4183342182885589,0.5895043970642627,-0.5274961272490719,0.11615351584002964,-0.16607205999526023,-0.21306923233382483,1.1269942922348333,-0.3414957646030197,0.2332517708942209,-0.03570506859387902,-0.508654016243038,-0.6551003025079001,1.0113918439833602,0.7351300984160084,-0.3469416765884013,0.10559047230732174,0.6034479414693891,-0.24036563410294998,0.3018696832399242,0.22932558837651926,-0.1642904605666793,0.3395979292296438,-0.49678359455891025,-0.6151890152193622,-0.3617846358073335,0.3328015413924999,-0.06383004737581818,0.4931623379434868,0.8447367673346692,1.088202931294061,-0.3705428406736066,-0.6457339389250311,-0.6279336932114351,0.49208269994618703,0.7322077810439153,-0.8991014463054954,-0.18944579226277086,-1.0033867940228711,0.736901115837687,-0.13194884773172644,0.45339479610779937,0.41674886190915716,-0.8372699404203732,-0.08788476341705401,0.06295125828772577,-0.7567365288456193,-0.1215089031904991,-0.5811452488777128,-0.846195621314025,0.8757885051669628,-0.30763238656056063,-0.7970433184067056,0.9627174353661986,0.7907692417358257,-0.5102642184486247,-0.35512607793879425,0.8230298188236569,-0.7494389149585639,-0.9440571359287435,0.3173155384866325,-0.23330284229889992,-1.0237343871780822,-0.4873820432443413,0.9044888153287867,-0.5739987368033211,0.314067201695319,0.8778689710091621,0.21137321775196571,0.9226168228255568,-0.06764430247532253,-0.6418254617088567,0.663721035625019,0.7303152452519438,-0.4623023507235224,-0.8667616002309778,-0.5492175573820557,-0.2786856451189961,0.8432566692171989,0.14527376691808097,-0.022122288967789373,0.29780129154054663,0.6297263551497533,0.0025058568717160816,-0.8266674454975498,-0.19948535204853157,0.6194260955372465,0.9441363201958549,-0.8396068602646813,-0.806569629705995,-0.7126250188477463,-0.7714521701906245,-0.24003844080147968,-0.05532148277720478,-0.6702607524136397,0.3517988681164898,-0.2619557207488964,-0.04005052460347407,-0.04108362665406732,0.6334485448545409,0.08762987590928023,-0.8558983434974122,0.6879046393610074,0.09169265530725193,-0.8800239394316031,0.10222251730936238,0.4103853756134747,0.5730113102479161,-1.0633083944629758,-0.03466173364631071,-0.5422972322566872,0.1416574821014044,0.16043020114227666,-0.7020927140202974,-0.30463640906416717,-0.37615887847198703,-0.7900361891959218,-0.7035211679586537,0.0459353355816088,-0.22790268754156587,-0.8075227412934507,0.5531180294555262,0.8937029602909526,-0.8737695709064413,0.6189576937525402,-0.8481167257620499,0.36450307164464524,-0.4226523659634351,-0.4692952215919075,-0.4709040994234285,-0.5858372810275558,-0.18148883459720166,0.747326768079894,-1.1274022473115004,0.43408854359377413,-0.32912465962724774,-0.40926132110610863,-0.04329040566663465,0.6497884435177217,0.31985331992697724,0.6793431922487897,0.5644516508811752,-0.8756876026819289,-0.2058451989443948,0.7404067747521907,0.696114178327384,0.5767047105495972,-0.8701565481022873,0.5835329360391476,0.6281222391729172,0.6818744090261006,-0.04557325968113455,-0.28237670271647947,-0.5465822800005283,0.6206640203426546,-0.3361411099688273,-0.6446517802979441,0.7626982841388378,0.6877688598088789,0.6898143892632975,-1.008258988095657,0.04817040427697586,-0.0024225593541030727,-1.063337433322238,-0.6126278501223006,0.47054956623145683,-0.5356550016026089,0.40124657229547317,0.1680015233403467,-0.15263226647813263,-0.6839836285553506,0.48787801073696,0.9045968074410171,-0.6944760400037568,0.22711516065029955,0.48692581181279165,-0.4053955242653435,0.8048602509562996,0.6982999293333122,0.3356138401573733,0.21715979982719374,-0.4068841518816613,-0.8536820235349696,0.8177810885327997,0.22417725159285878,0.9042539542330144,-0.5236576785416188,-0.8523493500111822,-0.9054855197337001,-0.7700598866386776,0.9820086697182682,-0.6393841931158971,-0.12567570385566296,0.5555325655172136,0.08358499902772168,0.23310111934262379,-0.075884861218524,-0.36372426198328545,0.06379384463447045,-0.49815606198541984,0.6364712780661179,-0.7219624311481051,-0.9547267549307606,0.018404258598939464,0.6739280824946049,-0.9378625546841863,-0.05620654141962301,-0.5339437897395198,0.6806716774535376,0.3582072095633259,0.6682965743356439,-0.2922669642553519,-0.5145581454495097,0.4193481545565165,-0.8731776728872988,-0.5433591312062027,-0.18596206684266348,0.12517051225884884,0.29406750274217675,0.12967398591360224,0.16550260406026301,0.054531030934727776,0.02851094693809147,0.18996632237799396,-0.8126565459404097,-0.992554228653029,0.7950576278113034,0.7173544731847684,-0.8141729270305769,-0.5959500198364663,-0.1817157433307112,-0.33963154661679035,-0.30430727346205255,0.7208213121030403,-0.5704665953670036,-0.9994348158543852,-0.48718551471692184,0.5284956289644882,-0.20125567714242615,-0.5510696819434293,0.11145657116496696,0.3848354205821267,-0.3366875925209689,-0.35948516979644046,-0.8474246032933918,-0.5086111132005102,-0.776074510137329,0.4364773621597676,0.748109696919188,-0.5187728201045797,0.6564535397816895,-0.8043638433960972,0.31143544289960445,0.3807490519079336,0.6311715541252255,-0.0013899358556802445,0.9016334730388541,0.800354517106609,-0.885298165946196,0.7303444698400177,0.7144523848960717,-0.21361093558884467,-0.6451378575388274,-0.6178722559771999,0.768834320064104,0.05043868562394946,-0.8553716364471197,0.18683460880366706,-0.5063670269032201,0.551407084325825,-0.036214273898694326,0.32238775026300825,0.5135544154809105,0.06858507681861298,-0.10469202954854999,0.48540878275740185,0.17361783328831928,-0.41830293357444986,-0.6356117595371737,-0.6623590093031053,-0.5137131320386913,0.4682474096421294,-0.438654637315371,0.7271593286596719,0.6284465661028789,0.38907799869916115,-0.7050923744895738,0.09772798328283536,0.3211819699210611,0.24669371347663924,0.36520089074057693,0.8947546384525903,-0.6077649654057689,-0.673034729305978,-0.3302598024822484,-0.5719004553965574,-0.5639726147734797,-0.1366972249723283,0.7106876777654156,0.12197123407970997,-0.3183256535270004,-0.84182157074039,-0.20829573083458688,0.35788256250283257,-0.6118841220872591,0.7273440429611676,-0.5272748899518322,-0.17548283152134372,0.36416343787360833,0.02412560824368196,-0.9590907019135231,0.8343281553862043,0.3768002977915227,-1.0238860551491964,-0.5338911561363987,0.5715122129021867,0.30779218359218613,-0.21684219036439514,-0.20050160275076204,0.6213030529248184,-0.5310469366256694,0.985394923295586,-0.4805869092389853,-0.3864388202852278,0.1754068755529889,-0.14884955733606373,-1.054665559871116,0.4958990561216337,-0.8021265332502615,0.9243129901393721,0.9021955763839062,0.3836334400074688,-0.345309267728242,0.49262255530032056,-0.42410138871820274,0.19392247129330772,0.009692790939712263,-0.5207966594444333,-0.6174652255948213,-0.4146872711771374,-0.6614629996598995,-0.018220310635030167,0.8624303876324014,0.3204991219516204,0.0818584831172531,-0.5002508392022432,0.5792652000846155,0.04620678180750428,0.7260944278092587,0.6212456641419234,0.10645592593205075,-0.7599583233837242,-0.8588034712924234,1.038160691043756,-0.6580190674740587,0.3294771508368427,-0.00827375530709015,0.8148900453689125,-0.33268672202547117,-0.4882265652383144,-0.6719069262550887,0.7047979669208368,-0.4698812091955041,-0.5115766385958658,-0.22991903997739507,-0.19047506019599322,0.5304759048831171,-0.5708050250519983,0.2829460633394113,0.7365949945333201,-0.193739383847474,-0.4497698260680437,-0.2137375293934004,1.1087599714844847,1.050502116253492,-0.7331029282382723,-0.09353180299211955,1.1314157389121822,0.3220271635353502,0.8126344601714637,-0.7701160765951207,0.027618320814748593,0.33874399499011937,-0.9437680906532014,0.3245209228646909,0.748970271087284,0.2896136826293485,0.72513379434447,1.0968861973456985,0.4989208143247339,-0.45787393449248487,0.38461750223643787,0.6024189407568841,0.25197036996646227,-0.1703575730992648,0.2745285699657015,0.405786765278792,-0.4366371960995071,1.1232648572149728,0.7415736306130761,0.5684912231332043,-0.8592173069808472,-0.057116193239429444,-0.797775714469618,0.4233317651211872,0.028415873577491826,-0.794690129797434,-0.18620874410552904,1.0589337068879243,0.20873300926524066,-0.7490056198537697,0.10064324914100889,0.2809876549786891,-0.0765148551729281,0.8779139097696996,-0.32886936760607693,0.46110207317054164,1.1361114750273633,-0.8537257191669728,-0.6919371274710393,0.6608368441153477,0.3957925116399352,-0.07947132029644999,0.4487607261321666,0.28219994837419426,0.9174272508791191,0.77127548758915,-0.30239133373886445,1.0369657082313148,0.4477361366038687,-0.5141678613641946,-0.07928241528788195,0.870310961016571,0.05084302283302915,0.050414104285850414,-0.49940726225490606,-0.16422711444832455,-0.08707713738489231,0.7560612802809971,0.9990337530561666,0.010044211592386155,-0.7719024997161036,0.4150977376686207,-0.010490218894531934,-0.5889172421752805,-0.9655761653849616,-0.48410235978538046,0.7804739689146845,-0.07598019168358865,0.736081255540096,0.9207699142321066,-0.040176267573646667,-0.4494324916504936,-0.661745801292694,0.8150076048476014,1.0616944548754013,1.0549815686101327,-0.2628629419923498,1.0715687818705415,0.43462043427349284,-0.6504807948246079,-0.9307512628068592,-0.6637690185072029,0.7092200124157796,0.8332125716964585,0.8046667890789538,0.37479660993758057,0.755757608024509,-0.2557025956525693,-0.3600323817698327,-0.7125354964793867,0.012495279709077314,-0.5728091670733001,-0.33111181629615755,0.6021152432787502,0.7961153341117484,-0.713401223438876,0.08405828044802412,-0.8023289449818894,-0.10354258845658558,0.8595158068792261,0.7046301672368847,-1.047245458224517,-0.5295053459076849,-0.9745859998364174,0.46089185117288517,-0.8558630464969309,0.3045353389381896,0.4984576252351165,0.8978604843439382,0.23405339210881573,0.9438507136643147,1.055078231364361,-0.22277856740667706,0.07263015275994913,0.9949055141115712,0.04555521484703356,0.13311410594987153,0.2765257681640972,-0.05602330974305383,0.17725167555723664,0.47202799971260856,0.27539710346886354,0.5634915519161542,-0.08067657992755126,0.3264119667848764,0.05601791190010774,-0.6403438964436616,0.029559520527358246,0.47193043512273375,-0.08439929977550939,0.3106730246198676,-0.4619084525617282,-0.773148056050375,0.5625792187292735,-0.7133847132999479,-0.19640447479726905,-0.829884067292564,0.9460356098304366,-0.09231276080580537,0.43356579931702804,-0.5535277258251484,-0.04761286354009035,0.5330156249187507],[1.4124604302739654,0.22131661858554671,0.03703765009834221,-0.14725079450816053,-0.3712201669020005,-0.582241859782334,-0.36550627557201115,-0.8698920115092318,-0.9782616963954194,-1.1693739532266259,-0.9546822342963971,-1.26902293226954,-1.0597993331747848,0.18993175379077384,0.14859862764218892,0.6424334606817883,0.6764711821590191,1.0246233595601717,0.32904572821954536,0.7727386049651301,0.35452402952208084,0.8907691849953531,-0.21733796092143787,0.3591648612140017,-0.9260643868390385,-0.809269300106701,-0.4596576302949852,-0.5878244594182016,-1.480287308051217,-0.48571716376422175,0.34094270134175475,0.027559725661565206,0.5522528709604071,-0.9162117707506021,0.9216905886189697,-0.6415179942799056,0.9258116270531439,0.8888536722659329,0.4165661407079319,0.46287646816532546,0.35822591195955034,0.10750670350796242,-0.8576075097578085,-0.3869877605897507,0.30527130641207667,-0.8000385027750172,-0.14156660937799925,0.24988368646316506,-0.43662300319505076,-0.10573678672192531,-0.507053785614405,-0.4606140104643007,0.3209364724698735,-0.18110275585175026,-0.6276733979574367,0.3091481577964177,-0.13691441466419954,0.2948972199096761,-0.169725746667814,-0.33862533330279293,-0.6240054377222284,0.34808589544374274,-1.2367240453456947,-0.6835146558946313,-0.4324538005439711,-0.43305587489317166,-0.008192294532655001,-1.3871243795143682,-0.6175472011642703,-0.962998408614196,0.06214027340753398,0.1901916018461432,-0.6483082652558327,-0.01618611773489617,-0.07886144647424187,-0.3793367546004579,-0.17827409150258625,-0.5412145413203542,-0.38334342665589255,-0.46378270471303923,-0.6479931068812618,0.5991136786985239,-0.49611902095197663,-0.14760869739951307,-0.8802584920296936,-0.03875637248054402,-0.31843435656477803,0.12197210795141991,0.13042881198678827,-0.08283680899846302,-0.4025600916120272,-1.1990271628135465,-0.6310161905222985,0.5912810601580178,-0.3759838351182723,0.6066651352832492,-0.17419641522969526,0.5186691947698329,-0.40286134438122523,-0.3665916961699241,1.0100631797990156,-0.4431118036441892,0.00067688031569881,0.5804945649811033,-0.44808765950590845,-0.3523005378511412,-0.9900066630231035,-0.45058085089734357,-0.1837072482540483,0.3303359727006977,-0.8705539953258653,0.7026752963134214,-0.5522941382719425,-0.26470589103088177,0.4864413367460937,0.5798961690219233,-0.324073620535614,-0.19361020309469357,0.5829771430997116,0.09073059865114516,0.21703621485352545,-0.5700881800214439,0.7716226990787581,-0.015771604819058226,1.199748074592911,-0.2631877030045653,-0.6904277209609345,0.8640207939350765,-0.5217957547421793,-0.6989893795448434,0.78472556626965,0.5538427837754688,-0.365441123797632,0.47536956998761465,-0.3174039646984825,0.3573456627764646,0.4632643105058807,0.7793000668372481,1.047362849340548,0.3843958541544525,0.050897676807342626,0.4077421974699331,0.28085770194515475,-0.5168963484435232,-0.4250055591230717,0.7732841171788337,0.1886270551894398,0.7600425032092637,0.7966520886445214,-0.25055892398249763,-0.8359927749442171,-0.5521602829012082,-0.3153837433220276,-0.3265123109347098,0.5110454498096484,0.6231363086549437,-0.525065445043447,-0.287957967353151,0.49335115811334923,-0.02065986702191723,0.7334839353750737,-0.005346164525787592,0.8901542645001955,-0.02841135533409075,1.2381113754444475,0.42553595433889246,0.4509995338175531,-0.8514983479466022,-0.13993186662638396,0.404403658602793,0.41543423647095373,0.2322628426587703,0.8621205381211774,0.6398051541388319,0.8425956941613588,-0.7757680581363148,0.5273472229329889,-0.3908544505656075,0.06298275003476606,0.6035339582207703,0.6775257988984453,-0.3548317551777929,-0.5026050171127825,0.9298014548491874,-0.2178916551294791,-0.38984731192717914,0.8534557176405063,0.5545667283617695,0.0292651633075263,-0.4753845729431414,1.0020059352216895,0.5710178780024697,-0.7412220903911485,-0.24348773216367564,-0.1318625357620178,0.37601377093362315,-1.032843682409302,0.7765891034111443,-0.23324756351358525,-0.3707745507289845,0.09921609688163407,0.08207430460417653,-0.27873305676709287,0.415400566977612,0.35793827966357794,0.5510990183307884,-0.5382909453061728,0.2651078391690559,0.5340562922263551,0.5915433959925097,0.00005562188478442726,0.2644570875265867,-0.31586757888206496,-0.9180963976453115,-0.678109368467715,-0.3657467484019802,0.3188836033336061,-0.6710516613532053,0.5310714712238598,0.015212112349456857,0.639422411668128,-1.305263820945593,0.5774596817922772,-0.1440759564777346,0.24567971024073745,-0.9197023185055586,0.4462429226747382,0.7496139934148581,-0.3621450795267027,0.5752300174751559,-0.7223114282954389,1.1706907589916193,-0.4462725180310312,0.6276329714152674,-0.7380028914062698,-0.45097697064904435,0.6516712609737108,0.13821549638530145,-0.29030778694862586,0.6525255883631786,0.6390131275087285,0.45423703420898837,-0.6424849600872877,-0.10375726300920513,-0.08962386222730544,0.7953718190564767,-0.0656323171176316,0.58646244702158,-0.4561662835670623,0.6332804886541716,0.34554607918660646,0.027954508362657154,-0.3258235454290061,-0.008232621648932957,-0.4252890903176713,-0.352356094008679,-0.27692602345114103,-0.4784747698672356,0.2244807531853543,0.4480565774948115,0.1588668367332853,-0.8507092023219156,0.5857065873316464,-0.2520505086156813,-0.15882773460848082,-0.10663464047126725,0.7738855708333409,0.17829812236852696,0.032999333733438656,1.0086345047457206,-0.1006854112624481,0.37110231801594806,0.7456341515073768,0.9329668034960884,0.21309580233136258,-0.6694656100638996,-0.1940452131959147,1.0230328990646265,-0.5913763708402793,-0.9540315874288783,-0.1040729720565486,0.31434061384413364,-0.027668209538515526,-0.5543659474755988,-0.28617323617086887,-0.3183770550299442,-0.26022124126273827,0.393234377892729,0.9933435482346679,-0.4258772066916253,1.0886405026379695,-0.4535861882631146,-0.5712638824664997,-0.03817282326759753,-0.5092256572247481,0.5929419029085095,0.40960094074904224,-0.17300798948139257,0.5384589141861678,-0.8207662397175217,-0.651974769103933,0.31719822925785507,-0.49992159745355985,0.05161530329150032,-0.1468020233086753,-0.011429220764097903,0.39223024257948047,-0.5336368410018058,-0.18719769983921403,0.8890296949125656,0.46172356927151226,0.3743884502869969,0.2679320511683037,1.0287640219913121,0.5360224611017834,0.08799509998122809,0.2227458095753135,-0.20016628235533307,0.5533602059983983,-0.6367650621054215,0.3255462058115303,0.8585117731780875,0.7818666344088104,-0.8672776854152612,-0.6014872012156403,-0.7449802766685953,0.7451901880924832,-0.29985461435131416,1.0786274795156987,0.4029136219702254,-0.19105072759755903,-0.4048859656079092,-0.3245930028080809,0.6372105988840555,0.454818311910559,0.5205808002412725,-0.2563003114345592,0.2551375072560132,-0.42361127567459433,0.887694164944327,0.7390464324959853,-0.18480967280590524,0.9412365827584648,-0.04175889248568533,-0.7677337752539811,-0.14525393154240468,0.6248627035040774,0.22457988244692617,-0.8848759825828588,0.36526329281708175,0.9000085338097423,0.2114408053929238,0.7358203896665807,0.11329092673769638,0.21914971341433953,-0.17157556840688248,-0.4056857436833115,0.607445952934948,-0.03389860565726989,-0.645486674791506,0.8092997781416255,0.44407406024863677,0.10623385091335917,-0.053163025947101816,0.2662733035196973,-0.3604858592476384,0.29799055640209243,-0.5855716052829131,0.3135585737476985,0.2796534296835362,-0.6337691211907392,0.4917763197397919,0.2843602153123794,-0.09871457338526352,-0.20728952489895192,-0.9713962503041972,-0.7918414623653165,0.2895301498225838,0.08958762503465745,-0.528340974365767,0.7040153324332794,-0.2673488818580217,-0.5467107673136036,0.06095975044379726,0.6951068140885637,-0.23573931026198303,-1.1385784464058153,0.4945674083834311,0.3957223771498156,-0.09454475383214637,0.16971088648046645,-0.5055705179124949,0.4656130579739311,-0.04042825742333487,-0.6240940549205435,0.11870256107479757,-0.19289229797091492,-0.6366444549165633,-0.9575910619484067,0.11241073939220028,-0.18804963608616243,0.6208251186779076,1.1152949711285727,-0.6393011618005524,0.394579698597013,-0.3762507116768452,0.7009214784223767,0.5902450371659465,-0.8633805101988261,0.22551085590008815,-0.06023387036332914,-0.9351119345325782,-0.09662927743956604,-0.10574346527880189,-0.09024393229176515,0.7005152062545064,0.48289817349925906,-0.19339066153105858,-0.36577785607855534,0.6612240431055708,-0.6074141917975632,-0.48848840053744264,0.38743210160348607,-0.5325117482964355,0.10924358516282101,-0.9432303365893411,0.673865851971336,-0.6832504368046345,-1.1053749210614943,-1.2424679074138043,-0.014483194274482834,-0.23436554710755658,-0.8129451761797317,-0.19698386488044325,0.08509870504016404,-1.2015221538955185,-0.5599968990398903,-0.9258805867937816,-0.7341061654085279,0.8172195676635183,1.1802552229389291,0.8398166938360022,0.8364387240999407,0.6066776052162854,-0.36833400583441905,-0.7534669736698788,-1.018186625699519,-0.4820113910070379,-0.3249403139708671,-0.3628033137845086,-0.7934375850003372,0.45906977480265154,-0.43066745821199653,-0.4588707693294949,0.06795463215642464,0.02696386239990224,0.8340296353881379,-0.5129560616953651,-0.21936368499018177,-0.06222592187030524,0.9226479264934793,-0.6256633596200898,-0.6989341002245099,-1.0693145336187417,-0.6616482828366238,0.1607302711014286,-0.2500323400754948,-1.1557602991260054,-0.21018751778499328,-0.2744633667531857,-0.41189072710603497,-1.19864361061717,0.07620476265459379,0.4782521005999581,-0.3362869169167497,-0.7427802314505675,-0.1267554160987828,-0.7358943603411575,0.42584081977281213,-0.460480102107499,1.1853664371876147,0.7341564001785589,0.5218762429003876,-0.8137650865468923,-0.009272750921529242,0.07134623145149532,-0.8765885675686186,-1.4436986802448537,-1.3399679831295757,0.2658212219075628,-0.6083055109792197,-0.0794636998996636,0.6466962618646176,-0.9197728251796784,-0.0015813043741129853,-0.0002843046361655355,0.9499451174701821,0.21480478427676528,0.2882519949919369,0.5618512891177592,1.2749089829547815,-0.12186286324007406,0.9019709615959564,0.5656286165959631,0.04346619175193695,-0.14464964829757113,0.02834827300637577,0.287420983972099,-0.6362946012070955,0.07434564269076202,0.2199159236426141,-0.7369875929030163,-0.17248304656234303,-0.9932456554795789,-0.693871191744063,-1.1660311090713078,0.48382878264467827,0.5809147435162103,-0.46464669065090924,0.9341055753120808,-0.14521751343031553,-0.696432177930759,0.6962018536381451,-0.9994034103342683,-0.3523130549815683,0.7631187069261632,-0.8838246761176837,-0.054651241123323924,-0.3343236158479513,-0.04179022014226795,-1.2001762965244511,0.621371057409566,-0.2021372231783976,-0.374081728180062,-0.1919078297621936,0.5714279305306172,-0.4019094425106556,-0.7762731295427677,-0.3102109824650143,0.9694239564141353,0.7982458312721505],[-0.2532298236187195,0.3185939575093948,0.05516536717790399,0.1949019653929398,-0.9562570296721009,0.6585562974930932,0.05007363533831266,0.9109029519027798,0.963253464287591,0.6245232736931328,-0.252492360304274,-0.5057596472120338,0.14226953659828645,-0.91038185262616,0.04851174727541152,-0.38589960561470604,0.8367034227230885,-0.9979716814871471,-0.26433000749086544,0.9936993846701379,0.7062193738124996,-0.02222917975793437,0.6626348416639898,0.818181785570472,-0.8315878967981652,0.17399557612198313,-0.6324089085220639,0.0022761263279889032,0.5110750744943457,0.9849321876345878,-0.2095687781069151,0.9341730054758561,0.4304335638330896,0.20702203488898352,-0.6704274299914655,0.6291729288542063,0.4831441674267962,-0.23555847555347909,-0.5829855045469396,0.16532610960339134,0.3533773012825685,-0.7729562262242888,-0.818298749780728,-0.5842004764661552,-0.6463093646404624,0.46010338476404367,-0.3690540881203608,-0.5258234047093041,-0.7923389580082707,-0.3052437636478521,0.9360710618156762,0.47485298947460985,-0.6174271777598859,0.08716233772253079,-0.7950076907676424,-0.7232691503903166,0.6414582079973483,-0.7620087979657233,-0.6720735928749708,-0.5085978321586438,0.7211234598885614,0.8581633247240614,0.9334232417514936,-0.31529859133536964,0.48397433766036957,0.1897819736722428,0.7796943391002691,-0.34428511815795604,0.7530724581737234,0.7675032027346573,-0.3016736394718915,-0.8051333628039228,-0.02051390655011409,0.017864313873327875,-0.9219750176549468,0.23612196899396865,-0.25869377693011,-0.12901304255393764,-0.9899429026751528,-0.4249122354343723,0.4043794574977231,-0.3245043097751089,-0.018851113848717183,-0.7667325835946834,-0.9501049927406957,0.8961826809881761,-0.6464821444589848,-0.37669842947605536,0.5942754303892273,0.14379452595724018,-0.09206950902022859,-0.11043905751369176,0.27642437443298973,-0.32892475079474526,0.15569459324316925,-0.6707647568064554,0.31517912495470446,-0.6725710569943528,0.6694138628580351,0.03842564547951621,0.3622479959187723,0.511091136216522,-0.8669631445097068,-0.17408303706071604,-0.9548399990747116,0.8785888580456476,-0.9973097457958787,0.21869722983947293,-0.2760723016902483,-0.45920757333440776,-0.25010402045254243,0.4728458454363875,0.26886108643657747,-0.48368679569478545,0.4501770107397187,-0.6732058589437199,0.003452533606267849,-0.949129324936237,0.8918072172249889,-0.061183061103625036,0.8859262376995798,-0.45252816962300146,-0.7692618451193585,0.8258711443840836,-0.9170745703433746,0.3727846451129353,-0.2877113736538094,0.009065527789540173,0.3633503949454031,0.25430448539496786,-0.03648216472847332,-0.5783377122133375,-0.7495930891051552,0.5183677923857599,-0.5574538745939482,-0.5409976206134353,-0.11122134406319029,-0.6283613466639775,-0.4825564051052369,0.026657103725552966,0.5011003890803296,-0.5520407522951555,-0.8984220913784109,-0.4694785643492039,0.1560899573584429,-0.04291568822537073,0.23678311636806137,0.9461404498250205,-0.11694669109942635,0.9479336624923898,-0.29763308181463033,-0.20379551774376325,0.10194160022399212,0.6532518351805432,-0.4685197545427202,0.24282080502592085,0.8882908590617469,-0.7474734875779566,-0.8381189984770245,-0.646738889443708,0.23715568980432256,0.8759328359286738,-0.5672018083587853,-0.757205258948642,-0.7508730041685577,-0.13800094396504636,0.04967392741437471,-0.0005753755215220924,-0.7097489086441414,0.9539828657585174,-0.33769909106462204,-0.6237228124212868,0.9696863848096529,-0.664784797489494,-0.4386916813033772,-0.022142074356748087,0.10833057102640464,0.9688558221130883,-0.5392983276421207,0.73944160252854,-0.31129291199596176,-0.12512429406424974,0.2772503347209565,-0.48012339462142417,-0.8664238387655416,0.14535113345347872,-0.6616090033118187,0.800376139151155,0.7043293865591271,0.31906545703825184,-0.66078941224585,-0.017140392159797346,0.9345537682874332,-0.8714705775517063,-0.13738478978821012,-0.7377950748240674,-0.8713511057290585,-0.2211088160364546,0.3152012549613594,0.6444714083301326,0.928077830057422,-0.19020761870487946,-0.16066904951219108,-0.9682206344058631,0.339374098079924,-0.41813626622861755,0.7138134227478039,-0.9266584513163139,-0.9184483745848651,-0.7667234545851325,0.10577580722782587,0.38016039297291204,-0.1379564134202248,0.2898137230392195,0.4581980520948372,0.0744296394845434,0.21031009623813435,0.32026216714467814,-0.17916780282287192,-0.5860783746895759,0.5151681636446588,0.5818314109231104,0.46873710475757857,0.8761320291922323,0.22054612162593834,-0.15902959752203716,-0.14273889864632738,-0.8919769818031069,0.8314598172617944,0.7123886092796985,-0.2440971150716168,-0.7419454851994469,-0.0003663949600377636,-0.1645173294017408,-0.13983610094704968,0.03081628122681246,-0.4318590973451061,-0.8452039053173708,0.07741535403982636,0.19843091319048867,-0.20642095459939347,0.9289278910550312,0.368515264018612,-0.10449908142786946,0.7558999538345617,0.27756735845446356,-0.6560616758698681,-0.23490448540890607,-0.7818410954033663,0.6964376773304737,-0.19616600559487662,-0.7385566077537773,-0.6012651705368015,0.9466451368273994,-0.229414598501969,-0.4395826706724444,-0.29862064825875434,0.2884746930896829,-0.6646368018731712,-0.9670606033557765,0.973552961935505,-0.18427228301430099,-0.8164299612032724,0.4863908154457919,0.45879104178462327,-0.004862524713527661,-0.7434180473511984,0.3742910185413111,0.6966943723220413,-0.8497213297915112,-0.9268705201968266,0.6714339922365389,-0.5544536655543983,-0.6744706371180493,-0.11441966764570954,-0.13970822886862888,0.9458133909502342,0.0966173203991676,-0.9771594958864495,0.25180275056257684,-0.5544174701595461,0.0609851719518264,0.2880231047099586,-0.010773281174387472,0.866408279871937,-0.9882953102502591,-0.9303694810500649,0.05295946081041336,-0.5611536068997518,-0.054637052994784496,0.20417903162467588,-0.048163118994910104,0.7932589614013337,0.6246936154247922,0.6110935335095877,0.24065060365879876,0.866364112055215,0.9782015255714411,0.39814882675335284,-0.9505763766353759,0.3140573263289148,-0.6463394020842547,0.7934923948680475,0.9965805942332782,-0.4355748688397234,0.07472683957518633,-0.058944781868555896,-0.9061507678268784,-0.9869369277909164,-0.5703030087266387,0.7137923071729015,-0.6475004748731312,-0.7677900953227116,-0.027605032372215677,-0.34820359849769955,0.8817000689631092,0.4518192848602871,-0.010510409505360752,0.9200086712320017,0.8003516915242799,0.2217902005874537,0.14791170391198127,0.44565036845252703,-0.6612766619215364,-0.4426524124848191,0.9124634421948379,-0.7265568161254,-0.5087142909403011,0.8538882912888408,-0.6745071451530433,0.06939037220462896,0.17162099616284188,-0.5900239870475663,-0.20091546725500575,-0.3301692079344235,0.8803066462336187,0.37504480612590596,-0.4231893634804835,-0.17173513902545923,0.6367733183175415,0.8383083621867107,0.8817916722401715,-0.5651085647551433,-0.322574609489234,-0.6597991750821999,-0.005113409576863126,-0.9727934115339939,0.28178233977364386,-0.9790844214689864,-0.08515963299333551,0.2776859865479415,-0.6217423571648205,0.15739341525132744,-0.5021054375570564,-0.6889340679399747,0.12863181849999883,-0.9995417812197671,-0.896423480422897,0.9974266239811922,-0.005799287412160625,-0.03759633192087852,0.16219039368792076,-0.4262712589940928,0.6548847789156478,-0.7297662592820425,0.40306607518087145,-0.037687215627076776,-0.5155383356562863,-0.3315700943230978,-0.6791873697676634,-0.1245058595065639,-0.434279219298215,-0.4647413280351229,0.5164342594698332,0.7212927333980637,0.522986137159281,0.8417750601851435,-0.06758182557528947,-0.09795205392589135,0.83301268595469,-0.10231970187206574,0.869626379115487,0.7251717798837964,0.13327882012268288,-0.5629579510979482,0.34677469700225383,-0.961321444465225,0.25509631085365814,-0.9715881620872164,0.1155596434778865,-0.7495862496282395,0.9665200238106786,-0.39235887689153703,-0.6506990033638105,-0.5370418805895465,0.24535989452904894,-0.6719851314845064,-0.7074317192475209,0.8914885851235383,-0.5851489045201217,-0.18701284911722493,0.0875777880370947,0.7103444234856247,0.7754825761668525,-0.5477630482930738,0.7208803395694034,0.43004847984834393,0.11756184316779184,-0.5944652313196155,0.8781585900795255,-0.42060488700891163,0.3038731808596278,-0.2534634777919502,-0.47389057623221675,-0.5486198470655598,0.20978995351465413,-0.7123635736140279,-0.9045563618956689,-0.4030094211148809,-0.6907413208826898,0.264813980872701,0.7946806368108583,-0.5590035729949798,0.9610486737369297,0.2605787907310335,0.16715956623326567,0.5997060662209963,-0.9042735328638147,-0.6161733410557324,0.047329130624279125,0.718079473525038,-0.020515136793046285,-0.8946542357255965,0.9538775734616154,0.2514546122889083,0.7659873062183113,-0.20284819212839822,0.7695883672802817,-0.8137566251868704,-0.734892527770036,0.93888675067368,-0.596871718563204,-0.8096792839573986,0.8731411561129137,0.3276537995368296,-0.44353730844928374,0.9992693968683588,0.12034369437951575,0.4305506798481262,-0.8210694418457458,0.8854923617712862,0.566998205378554,-0.9566820421383839,-0.3390538418047492,-0.48556606066958274,-0.5205269518530181,-0.9593844080579432,-0.07629594533228379,-0.14413306011191196,0.6679665745552001,-0.5660717615308468,0.042518948371391474,-0.6869751186161,-0.29579986179205797,-0.011130953294732238,0.41695382069595155,-0.2126118815843253,-0.7241080547664862,-0.872526508995488,-0.6758432377419683,-0.7450871831517114,-0.9213213391780186,0.5283989671698928,0.7506039808226195,0.18502764108581804,-0.5514731103437758,0.28486139135717736,0.4209473590169521,0.4546917571533369,-0.34054519479647705,0.19289728213985868,-0.9682134068010524,0.8718501671015544,0.8379663304430278,0.9510397219321554,-0.24067156566359793,0.4818487626772936,0.7109323187993188,-0.6608863961464784,0.5423061558670519,-0.6289826891363541,-0.09212980498277035,-0.8064464688527482,0.9902209486865217,0.8563205444815782,0.49464865790453527,0.3628200803834096,-0.8693681621603215,-0.008003504175214893,0.6179779437648873,0.3365095851565758,0.8420787570571797,-0.5359679710220362,-0.0350878928831625,-0.39288970985132254,-0.028486032755007273,-0.33681594096954726,-0.6505584017497003,-0.2853818055370676,-0.8119224104263083,-0.14101096974086513,0.28694666871913466,0.32960092398824026,0.7035188079800261,0.19409886755398698,-0.5630127171714234,0.5400380965907732,0.678644357528309,-0.9587420677770396,-0.24534102536238056,0.8154632957287482,0.2612473536332165,0.5718652369376231,0.23137451292463718,-0.14091987594506827,0.09377081342070137,0.7301947801554123,-0.02868261875256395,-0.20531644222774037,-0.27171950264223477,0.701650223362358,0.6013039676502623,0.058523130931944056,-0.568839061617129,-0.744090003122652,0.5524129526078174,-0.26243666418612976,0.7602259243150287,-0.5628892054013925,0.8102275527178766,-0.9830495120931801]],"WeightOutput":[[-0.09551718871951939,0.826082405824818,-1.6847619582304665]],"ErrOutput":[-0.01623064867753582],"ErrHidden":[0.00031705260872809046,-0.0027223767954544426,0],"LastChangeHidden":[[-2.4371996589951487e-34,6.891658353393443e-20,6.891658353393443e-20,8.359468097861391e-19,4.343057327199323e-15,4.34305450611007e-15,5.319192405724448e-11,5.319493354424628e-11,5.3194933544246467e-11,5.3194933544246467e-11,-4.92826779831701e-9,-4.904395380951844e-9,-4.89756467619676e-9,-4.974627684862148e-9,-4.974633710968549e-9,0.000017201264027528224,0.000017201264027527448,0.000017201264023185225,0.000017201264023185198,0.000017201264029211306,8.35946809768272e-19,8.35946809768272e-19,8.359466289729911e-19,-4.980612924296186e-16,5.319493361034178e-11,5.319493361034178e-11,0.00001720625340211347,0.00001720633045909529,0.000017206330459095222,1.3708262011919845e-10,-4.844374085613014e-9,-4.844374085613014e-9,-4.7990893223067185e-9,0.000017201270867267787,0.000017201270864258303,0.000017201264027528224,0.000017201264027527448,0.000017201264023185225,0.000017201264023185225,0.000017201264029211333,8.35946809768272e-19,-4.980584713399402e-16,1.3025058976213192e-10,1.3025359924631268e-10,1.3025794153660984e-10,1.3025844043102782e-10,0.000017206277277540325,0.00001720628410221897,0.000017206284102218975,-4.8975676927858044e-9,-4.852277402272792e-9,-4.7990893223067185e-9,0.000017201401117856768,0.000017201324054848077,0.000017201270867267005,0.000017201218742764137,-4.981464415718367e-9,-4.981468757939748e-9,0.000017201218744448024,0.000017206245491943195,-4.981273879898815e-16,7.7062509796059e-11,1.3025359847928244e-10,1.3025409737370063e-10,1.3025844036211142e-10,8.390106360072885e-11,8.389805496882819e-11,0.0000172062840948665,0.000017206284094866502,-4.852290282671814e-9,-4.852284256634329e-9,-4.936175457942554e-9,-4.8829873779764815e-9,0.000017201271935038547,-4.9282781674170865e-9,-6.026111665943707e-15,-6.026106400320708e-15,-6.026106400320284e-15,0.000017206200207179886,0.000017206200207179886,7.642088897790075e-19,1.3025359847928244e-10,1.3025409737370063e-10,1.3025409737652178e-10,8.390106360355011e-11,8.389805489991162e-11,6.835046973643634e-12,0.00001720620703788468,0.000017201270853889268,-4.93618449346422e-9,-4.936177968463401e-9,4.528476332893933e-11,-4.981460221271495e-9,-4.928272141310686e-9,-4.9282781674170865e-9,5.3185063338587765e-11,-6.026106400320701e-15,-6.026106400320284e-15,0.00001720620020717986,0.000017206200207179886,7.6420913701474825e-19,1.302540973737005e-10,1.3025409737652178e-10,1.3025409737652178e-10,6.8350469764648055e-12,6.8350469736435356e-12,6.8350469736435356e-12,0.000017206207037883827,0.00001720121873842198,-4.936183994569802e-9,4.528476339785592e-11,6.891658354637063e-20,-4.981463230755676e-9,-4.98146022127676e-9,-4.9282781674170865e-9,5.318506336649743e-11,-6.026106400320701e-15,-6.0260784906538345e-15,0.00001720620020717986,0.00001720620020717986,7.670302258358101e-19,1.302540973765217e-10,1.3025409737652178e-10,1.3708480134824247e-10,6.835046976464803e-12,6.8350469736435356e-12,6.8350461902799936e-12,0.000017201218744448024,0.00001720121873842198,-4.981468757876097e-9,9.156069382894454e-20,6.891658354637063e-20,-4.981463230755676e-9,-4.98146022127676e-9,-4.9282781674170865e-9,5.318456444416979e-11,5.318155496525463e-11,-6.0260784906538345e-15,0.00001720620020717986,0.00001720620020717986,3.010251211006211e-15,1.302540973765217e-10,1.3708480134824247e-10,8.38967221655331e-11,6.8350469764649024e-12,6.8350469736435356e-12,-4.9814583896426985e-9,0.000017201218744448018,0.000017201218738421914,-6.0260148396264525e-15,-6.026009574069868e-15,6.891658354637063e-20,-4.9814632306867584e-9,-4.981460221207843e-9,-4.928277668453753e-9,5.318456451308637e-11,5.318155503417121e-11,-6.026009574069876e-15,0.00001720620021152215,0.00001720620021152215,0.00001720121873842266,-4.851208634484735e-9,-4.844377930513015e-9,-4.8443839558360514e-9,6.829020870064585e-12,6.829020867243216e-12,0.000017201218742764137,0.00001720126402318522,0.000017206200201153775,0.000017206200201153843,0.000017206200201153823,0.000017206200200654927,0.000017201218737923065,0.000017201218740932546,0.000017201271929511406,0.0000172012719333555,0.000017201271930346015,-4.98146441491033e-9,0.00001720121874276495,0.000017201218748791054,0.00001720121873842266,0.000017201348992519267,0.000017201355823224025,0.000017201355823224025,0.00001720620703620073,0.000017201264027527418,0.000017201264027527438,0.00001720126402318522,0.000017206200201153775,0.000017206200200654954,0.000017206200200654927,0.00001720620020065571,0.00001720121874093255,0.00001720121874143144,0.000017201271929511406,0.00001720127193084491,0.000017201271930346015,-4.981469256026128e-9,0.000017201218744449617,0.000017201218744449617,0.00001720620020115452,0.000017206260222947175,0.000017206337285955883,0.000017206337285955883,0.00001720122557647835,0.000017201264027028526,0.00001720126402702931,0.000017206245489761956,0.000017206200204997882,0.00001720620020499796,0.000017206200204997933,0.00001720620021403352,-4.981455379303416e-9,-4.981455379308682e-9,-4.928277667670389e-9,-4.92828067638754e-9,-4.928281176134238e-9,-4.9814692560950455e-9,0.00001720121874444955,0.00001720121874444955,0.00001720620020115452,0.000017206207031857723,1.370787767922359e-10,1.370831190136165e-10,-4.928267298639229e-9,-4.936171114982054e-9,-4.936171114173603e-9,0.000017206245495788063,0.00001720627727403276,8.389152998240752e-11,8.389453943867864e-11,8.390056477804874e-11,-4.897561667405427e-9,-4.921436595439804e-9,-4.921445631030385e-9,6.001710083087186e-11,5.318155574335262e-11,-6.525003639378858e-15,0.000017206200207179856,0.000017206245491943164,0.00001720620020115452,0.000017206207031858492,1.3707576730805504e-10,-4.844377928962621e-9,-4.851204290712961e-9,-4.80592002630635e-9,1.2235462558601362e-10,0.00001720632938816651,0.00001720628410340321,0.000017206284097377104,8.389019724520774e-11,1.3708430328977123e-10,-4.844378429338516e-9,-4.844377096675499e-9,-4.844382623104117e-9,6.001710083087194e-11,6.001660193363289e-11,5.318155496243355e-11,0.00001720629868002313,0.00001720629868002313,0.00001720620020115459,0.000017206207031858492,8.388768734198212e-11,-4.844380939213832e-9,-4.851211643190818e-9,1.755358519767342e-10,1.8236956471536745e-10,0.000017206382576744608,0.000017206260228974143,0.00001720626022294797,6.001576817943048e-11,1.3708430328977113e-10,-4.844378428571486e-9,-4.897566509378771e-9,-4.844374087191319e-9,1.3708261934690272e-10,6.001660193363289e-11,1.0530136524519357e-10,9.847234437512909e-11,0.000017206298683866456,0.00001720620020115459,0.000017206207031857794,-4.8975750452173886e-9,-4.897569019110989e-9,-4.904399723087975e-9,1.0530655679192074e-10,1.0530655678909937e-10,1.0530655682227459e-10,0.000017206253398269335,0.000017206253389233746,-6.0252425439104486e-15,-6.0252425439104486e-15,-4.981460220407638e-9,-4.904397212555552e-9,-4.844378429384788e-9,1.370826193748122e-10,5.211629475803579e-11,1.2917930268430378e-10,1.2918231852598075e-10,0.000017206329389997307,0.000017206200201153823,0.000017201225569125932,-4.8975750452173886e-9,-4.897569019088344e-9,6.8337143308258064e-12,5.2118476853757385e-11,5.211847678728509e-11,0.000017206245494952676,0.000017206200207179883,0.00001720624548541819,4.527823840230312e-11,4.527823916933334e-11,-4.936178466585524e-9,-4.9361784666597055e-9,-4.805924370050214e-9,1.8236738196666047e-10,1.291793027839511e-10,5.211629485768312e-11,5.2111952636302745e-11,0.00001720620703788471,0.000017201264023185293,0.000017201270853889268,-4.929347263703051e-9,5.211847763712093e-11,5.2118477568204344e-11,5.21184767848408e-11,4.528777281556433e-11,4.528476333138355e-11,0.00001720624549194319,0.000017206245485917087,4.527823840230318e-11,4.5278738063751384e-11,-4.936177967691105e-9,-4.882989887725032e-9,-4.805927378698448e-9,1.7553969538418973e-10,1.2917930355098152e-10,5.211629562997909e-11,6.827190102303301e-12,6.833715103121492e-12,0.000017201264023186008,-4.929353289878368e-9,-4.929347263777233e-9,-4.929344254252045e-9,-4.929344254320962e-9,-4.9361749590707806e-9,-4.936177968557783e-9,-4.936177968529874e-9,0.00001720126402921133,0.000017201264029211306,-4.936183994592446e-9,-4.936177968486046e-9,-4.936177967691105e-9,-4.882989887725032e-9,-4.80592687980403e-9,-4.805923036477068e-9,-4.859114132281996e-9,-4.929346436231277e-9,-4.974635541786864e-9,6.827688185447963e-12,-4.9361839938779985e-9,-4.929347263805143e-9,-4.929344254320962e-9,-4.929344254320962e-9,-4.9746290176272585e-9,-4.9361749590707806e-9,-4.936174959073603e-9,-4.936177968529874e-9,-4.981462731836169e-9,-4.981462731792341e-9,-4.981462731792341e-9,-4.981462731792341e-9,-4.928274651059237e-9,-4.8829898877529416e-9,-4.805926879831939e-9,-4.859111116539967e-9,-4.859111115756603e-9,-4.897568191713397e-9,-4.974635541861045e-9,6.827189216847853e-12,3.009484180780391e-15,6.8337134506359164e-12,6.8337134506359164e-12,6.833714233999393e-12,6.833714239264948e-12,3.0094789151569497e-15,4.52877727852102e-11,4.5284763326118064e-11,1.9822840230302054e-20,6.365102695532603e-20,6.365102695315102e-20,6.365102694667907e-20,-4.928274651133419e-9,-4.882989887827125e-9,-4.805923036573894e-9,1.2235161533762388e-10,7.706685203132867e-11,6.832030348979809e-12,6.827188449817726e-12,6.82718844981756e-12,3.00948418078039e-15,3.009478915223807e-15,6.833713450635849e-12,6.833714233999393e-12,6.838056455379963e-12,7.78097919450234e-19,4.528476330102948e-11,4.5284763326118064e-11,8.873942376423674e-20,8.873960457655744e-20,6.365102695315119e-20,5.318808002972395e-11,-4.882989887827125e-9,-4.882985545605743e-9,-4.859111116539967e-9,1.2235161533762388e-10,7.706685203132867e-11,6.833714233999557e-12,6.82718844981756e-12,6.82718844981756e-12,1.6519263688593525e-29,-5.265556568560978e-21,6.833713450635849e-12,6.838055672016419e-12,6.838056455379963e-12,4.342999478556639e-15,4.5289106305773595e-11,4.5289105547498633e-11,8.873942376423697e-20,8.873960457655744e-20,5.318808002972395e-11,5.3188080727837594e-11,-4.882985545605743e-9,-4.859111116539967e-9,-4.859111116539967e-9,7.70668520313286e-11,7.70668520313286e-11,6.833714233999491e-12,6.833214561483438e-12,6.833713455901407e-12,1.6519263688593525e-29,-5.265622980839226e-21,6.833214556217882e-12,6.8375567775984505e-12,6.8375575609619926e-12,6.835046971199249e-12,4.5289106311039156e-11,4.5289106405044316e-11,5.319242228145847e-11,5.3192422281458655e-11,5.319242218745349e-11,5.319242295448372e-11,-4.8591111165347016e-9,-4.8591111157513375e-9,-4.859111116523634e-9,7.706685203132867e-11,7.706601818854685e-11,6.8337134506359164e-12,6.833713455901473e-12,6.833713455901407e-12,1.8694281066188074e-29,-4.988944180353092e-16,2.5105897627446393e-15,6.002129452755636e-11,1.370843024538244e-10,1.3708864545856862e-10,1.8237039934959945e-10,1.7553969537505768e-10,1.3025493209667213e-10,1.3025493202775573e-10,1.3025493276969737e-10,7.706685280362445e-11,-4.8591111157513375e-9,-4.8591111157513375e-9,-4.859111116523634e-9,7.706551929412887e-11,6.833713450636012e-12,6.8337134506359164e-12,5.211847676219669e-11,5.21184767901063e-11,7.670302262351655e-19,4.528476330629515e-11,1.7553585119863604e-10,1.8236906582903612e-10,1.370843025227411e-10,1.370843025227411e-10,1.8236906582903612e-10,1.823660571253978e-10,7.706685203377313e-11,7.706685280080336e-11,7.706685280362445e-11,7.706685280362445e-11,1.2235161610991966e-10,-4.859112449255568e-9,-4.936174959076046e-9,5.211847675693114e-11,5.211847675693114e-11,5.211847675693114e-11,5.2118476790106354e-11,4.5287772818385666e-11,4.5284764073325446e-11,4.528476414224196e-11,4.528476414224196e-11,4.528476414224196e-11,1.2918148552441148e-10,8.38962233236983e-11,8.389622332369839e-11,8.389622325478175e-11,8.389622325478175e-11,7.706551928306104e-11,7.706551928306104e-11,7.706551928306104e-11,1.2235078148377423e-10,5.211847676219662e-11,5.211847675693107e-11,5.211847675693107e-11,5.211847678484073e-11,5.211847678484073e-11,4.528476333420489e-11,4.528476333420489e-11,4.528476414224203e-11,4.528476414224196e-11,4.528476414224196e-11,8.359467433716858e-19,7.670301598377514e-19,6.833714222931633e-12,6.833714222931633e-12,6.833714222931633e-12,6.833714222931633e-12,6.833714222931633e-12,6.833714222931633e-12,6.833713455901407e-12,6.833713455901407e-12,5.211847676219662e-11,5.211847676219662e-11,5.211847678484073e-11,5.2115467300659955e-11,2.2644043875420128e-20,2.790966687495364e-20,2.790966687495364e-20,0.00001720140111183151],[2.0817819999334043e-32,-2.1630813925201644e-21,-2.1630813925201644e-21,-4.405914039332256e-20,-4.443306864779325e-20,-4.44302189533941e-20,-6.252719102426668e-12,-6.252719464660212e-12,-6.252719464660215e-12,-6.252719464660215e-12,8.335411314610304e-9,8.341652398379281e-9,8.341645315541975e-9,8.341656951277993e-9,8.34165709657268e-9,8.038031949891653e-9,8.038031949851031e-9,8.038031949851404e-9,8.038031949851452e-9,8.038031804556762e-9,-4.4059140393179126e-20,-4.4059140393179126e-20,-4.40591376251645e-20,-3.0304745255981296e-20,-6.252719466820444e-12,-6.252719466820444e-12,-3.04719391453072e-10,-3.047308818525531e-10,-3.047308818503929e-10,-6.271292701449219e-12,8.33539259611954e-9,8.33539259611954e-9,8.330227038587589e-9,8.038024721397561e-9,8.03802472175979e-9,8.038031949891653e-9,8.038031949851031e-9,8.038031949851404e-9,8.038031949851404e-9,8.038031804556717e-9,-4.405914039317912e-20,-3.0307851452409073e-20,-6.264354796221055e-12,-6.264355158451749e-12,-6.2643551609887614e-12,-6.264355174740047e-12,-2.984783080870806e-10,-2.984852456297015e-10,-2.9848524562970436e-10,8.34164546043363e-9,8.3364797576615e-9,8.330227038587589e-9,8.031760366601473e-9,8.031772002337537e-9,8.038024721397697e-9,8.043197507423736e-9,8.341664179369232e-9,8.341664179369606e-9,8.043197362088666e-9,-3.036322295182471e-10,-2.814477005751112e-20,-1.1635722310237857e-14,-6.2643551165559454e-12,-6.26435513030698e-12,-6.26435517257697e-12,-1.871889394354307e-14,-1.871853401040467e-14,-2.9848524522520084e-10,-2.984852452252037e-10,8.336479903344908e-9,8.336479758052382e-9,8.336498476235244e-9,8.330245757161333e-9,8.036944642707079e-9,8.335411459988018e-9,1.4533544349761265e-16,1.4529468749751532e-16,1.4529468724101328e-16,-2.984666719862977e-10,-2.984666719862977e-10,-4.1893206535846574e-20,-6.2643551165559454e-12,-6.264355130307235e-12,-6.264355130310085e-12,-1.871889394639553e-14,-1.8718531847323277e-14,-7.082837679005783e-15,-2.9847375482571975e-10,8.038024867012069e-9,8.336498621890001e-9,8.336498476581562e-9,-5.165557491239503e-12,8.341664033726485e-9,8.33541131469333e-9,8.335411459988018e-9,-6.25257410069827e-12,1.45294687497308e-16,1.4529468724101328e-16,-2.984666719862516e-10,-2.984666719862977e-10,-4.1893209513699653e-20,-6.264355130307235e-12,-6.264355130310085e-12,-6.264355130310085e-12,-7.082837681858244e-15,-7.082837679005783e-15,-7.082837679005783e-15,-2.984737548234222e-10,8.043197507421947e-9,8.33649862187625e-9,-5.165557493402585e-12,-2.1630815998053313e-21,8.341664034088715e-9,8.341664033767241e-9,8.335411459988018e-9,-6.252574100744403e-12,1.45294687497308e-16,1.4529464136466975e-16,-2.984666719862516e-10,-2.984666719862516e-10,-4.1895802706042254e-20,-6.26435513030983e-12,-6.26435513030983e-12,-6.2714379674832816e-12,-7.082837681601743e-15,-7.082837679005783e-15,-7.0828375445314405e-15,8.04319736208867e-9,8.043197507421947e-9,8.341664179408199e-9,3.854678564957885e-20,-2.1630815998053313e-21,8.341664034088715e-9,8.341664033767241e-9,8.335411459988018e-9,-6.252574086946984e-12,-6.252573765472289e-12,1.4529464136466975e-16,-2.984666719862516e-10,-2.984666719862516e-10,-4.041264968407078e-19,-6.26435513030983e-12,-6.2714379674832816e-12,-1.8718893706682556e-14,-7.0828376816019495e-15,-7.082837679005989e-15,8.341664034074594e-9,8.043197362129426e-9,8.04319750742411e-9,1.4533323402666286e-16,1.4529247802656792e-16,-2.1630815998053313e-21,8.341664034086551e-9,8.341664033765076e-9,8.335411459972103e-9,-6.252574089110066e-12,-6.252573767635371e-12,1.4529247802677517e-16,-2.984666719887886e-10,-2.984666719887886e-10,8.043197507341504e-9,8.335399678944657e-9,8.335392596107483e-9,8.335392741402035e-9,-6.937542994617438e-15,-6.9375429917649774e-15,8.043197507382984e-9,8.038031949892164e-9,-2.984665266508545e-10,-2.9846652665301756e-10,-2.984665266937274e-10,-2.9846652667997615e-10,8.04319750739499e-9,8.043197507073512e-9,8.036944787985852e-9,8.036944787957334e-9,8.036944788319565e-9,8.341664179325218e-9,8.043197507338966e-9,8.04319736204428e-9,8.043197507341504e-9,8.036933152253092e-9,8.036926069415783e-9,8.036926069415783e-9,-2.984736095292462e-10,8.03803194985108e-9,8.038031949891788e-9,8.038031949892164e-9,-2.984665266508545e-10,-2.9846652668002226e-10,-2.9846652667997615e-10,-2.984665266801106e-10,8.043197507032757e-9,8.043197507059761e-9,8.036944787985852e-9,8.036944788305814e-9,8.036944788319565e-9,8.341664179339344e-9,8.04319736204452e-9,8.04319736204452e-9,-2.984665267334604e-10,-3.0472632896487955e-10,-3.0473796465918236e-10,-3.0473796465918236e-10,8.043190424183488e-9,8.038031949864827e-9,8.038031949863646e-9,-3.0363208421145415e-10,-2.9846652663760873e-10,-2.9846652668053067e-10,-2.9846652668048455e-10,-2.9846667233740247e-10,8.341664033710062e-9,8.341664033750819e-9,8.33541145997197e-9,8.335411460292303e-9,8.335411460308352e-9,8.341664179341508e-9,8.043197362046683e-9,8.043197362046683e-9,-2.984665267334604e-10,-2.984736095287378e-10,-6.2712927148268316e-12,-6.2712927152007625e-12,8.33541131459642e-9,8.336498476193023e-9,8.336498476192845e-9,-3.036322295061414e-10,-2.9847830771127945e-10,-1.8573267382447657e-14,-1.8573629567008947e-14,-1.8718882357934457e-14,8.34164531517872e-9,8.335404231841897e-9,8.335404377498816e-9,-6.2596565761494346e-12,-6.2525737248507646e-12,1.4530844163338233e-16,-2.984666719862485e-10,-3.0363222951819787e-10,-2.984665267334604e-10,-2.9847360957063387e-10,-6.271292352596137e-12,8.33539259606545e-9,8.335399678902252e-9,8.33023412142481e-9,-5.1771935762427085e-12,-3.0365094840136854e-10,-2.9848539091017517e-10,-2.984852456154908e-10,-1.8573629238954267e-14,-6.271437997791136e-12,8.33539259611907e-9,8.335392596523846e-9,8.335392741804647e-9,-6.25965657614969e-12,-6.259656562395554e-12,-6.2525737654696956e-12,-3.098849485921092e-10,-3.098849485921092e-10,-2.984665267356235e-10,-2.9847360957063387e-10,-1.857327868506291e-14,8.33539259646958e-9,8.335399679347507e-9,-1.1429912259407235e-11,-1.1436995460837138e-11,-3.0990366748789084e-10,-3.0472647430366897e-10,-3.047263290068215e-10,-6.259657022732996e-12,-6.271437997791136e-12,8.335392596077175e-9,8.3416453152359e-9,8.335392596161615e-9,-6.271292618797416e-12,-6.259656562395554e-12,-1.1425214135100926e-11,-1.1418276592106309e-11,-3.098849485787318e-10,-2.984665267356235e-10,-2.9847360953090087e-10,8.341645460836013e-9,8.341645315541325e-9,8.341652398419256e-9,-1.1425359766671675e-11,-1.142535976666882e-11,-1.1425359807470697e-11,-3.0471939142243636e-10,-3.047192457655213e-10,1.4525058222407158e-16,1.4525058222407158e-16,8.34166403368238e-9,8.341652398031131e-9,8.335392596161944e-9,-6.271292618843546e-12,-5.1724953826645435e-12,-5.184131076832861e-12,-5.184276009157783e-12,-3.0365094800920676e-10,-2.984665266937274e-10,8.043190424544063e-9,8.341645460836013e-9,8.341645315582035e-9,-7.0831609918355006e-15,-5.172640692806731e-12,-5.172640731396542e-12,-3.0363222988047465e-10,-2.984666719862946e-10,-3.036320842098083e-10,-5.165412225720058e-12,-5.165412267616117e-12,8.336498476512661e-9,8.33649847655558e-9,8.330234121467166e-9,-1.1436850152821523e-11,-5.1841310790449256e-12,-5.172495384876608e-12,-5.172495384502679e-12,-2.984737548257687e-10,8.038031949849241e-9,8.038024867012069e-9,8.336491393703497e-9,-5.172640692941206e-12,-5.1726406907781245e-12,-5.172640690643394e-12,-5.165557894223088e-12,-5.165557531992395e-12,-3.03632229518244e-10,-3.0363208422355983e-10,-5.165412225720058e-12,-5.165412281367403e-12,8.336498476498908e-9,8.330245757424999e-9,8.33023412178534e-9,-1.1429912290000424e-11,-5.18413112094073e-12,-5.172495467528413e-12,-6.937935205110907e-15,-7.0832436436380944e-15,8.03803194985127e-9,8.336491539000347e-9,8.336491393746417e-9,8.33649139338207e-9,8.336491393384231e-9,8.336498476180783e-9,8.336498476543017e-9,8.336498476542972e-9,8.03803180455672e-9,8.038031804556762e-9,8.336498621835541e-9,8.336498476540853e-9,8.336498476498908e-9,8.330245757424999e-9,8.330234121771587e-9,8.330234121784964e-9,8.336486985791198e-9,8.336491538607436e-9,8.341657096139806e-9,-6.937948775789891e-15,8.336498621837568e-9,8.336491393746464e-9,8.336491393384231e-9,8.336491393384231e-9,8.341656950916182e-9,8.336498476180783e-9,8.336498476180788e-9,8.336498476542972e-9,8.341664034074921e-9,8.3416640340728e-9,8.3416640340728e-9,8.3416640340728e-9,8.335411314956994e-9,8.330245757425047e-9,8.330234121771635e-9,8.336486840861085e-9,8.336486840860951e-9,8.341645460488182e-9,8.341657096182723e-9,-6.937892105678735e-15,-3.6223069413481944e-19,-7.083158648146921e-15,-7.083158648146921e-15,-7.083158782364758e-15,-7.0831995383648535e-15,-3.2147443753528077e-19,-5.165557853424062e-12,-5.165557491236651e-12,4.071271971191646e-20,3.859291870239162e-20,3.859291870239203e-20,3.859291870239909e-20,8.335411314999915e-9,8.330245757467964e-9,8.330234121787174e-9,-5.177193172118808e-12,-1.1635640169436591e-14,-6.937864469311273e-15,-6.937850209619733e-15,-6.937850209619731e-15,-3.6223069413478786e-19,-3.214746940399005e-19,-7.083158647890415e-15,-7.083158782364758e-15,-7.08315915629578e-15,4.0621782256909296e-20,-5.165557491193368e-12,-5.165557491236651e-12,3.854963831937546e-20,3.854963555124902e-20,3.8592918702392004e-20,-6.2527190353181535e-12,8.330245757467964e-9,8.33024575746759e-9,8.336486840861085e-9,-5.177193172118808e-12,-1.1635640169436591e-14,-7.0831587826212624e-15,-6.937850209619731e-15,-6.937850209619731e-15,-1.5385170713433517e-31,4.0756000094764974e-20,-7.083158647890415e-15,-7.083159021821437e-15,-7.08315915629578e-15,4.024759472981457e-20,-5.165557491701774e-12,-5.165557491610582e-12,3.854963831937546e-20,3.854963555124902e-20,-6.2527190353181535e-12,-6.252719075051132e-12,8.33024575746759e-9,8.336486840861085e-9,8.336486840861085e-9,-1.1635640169436588e-14,-1.1635640169436588e-14,-7.0831587826212585e-15,-7.0831856528608394e-15,-7.083199404147012e-15,-1.5385170713433517e-31,4.075600009718106e-20,-7.083144896604242e-15,-7.083145270535265e-15,-7.083145405009607e-15,-7.082796925858149e-15,-5.165557532457773e-12,-5.165557534664138e-12,-6.252719076491366e-12,-6.252719076491369e-12,-6.252719074285004e-12,-6.2527191161810635e-12,8.336486840820328e-9,8.336486840820194e-9,8.336486840902848e-9,-1.1635640169436591e-14,-1.1636015777485876e-14,-7.083158648146921e-15,-7.083199404147015e-15,-7.083199404147012e-15,-1.5425863788227002e-31,1.3751286174996825e-20,-3.484791514576193e-19,-6.259802259563678e-12,-6.271437953731996e-12,-6.2714379542404e-12,-1.1436995126122157e-11,-1.1429912288945853e-11,-6.264354757042616e-12,-6.264354754879536e-12,-6.264354796732312e-12,-1.1635722821239185e-14,8.336486840820194e-9,8.336486840820194e-9,8.336486840902848e-9,-1.1636002025943201e-14,-7.083158647890417e-15,-7.083158647890417e-15,-5.172640731353518e-12,-5.17264073139965e-12,-4.189605900071141e-20,-5.165557531949371e-12,-1.1429912300028506e-11,-1.1436995487844447e-11,-6.2714379558950765e-12,-6.2714379558950765e-12,-1.1436995487844444e-11,-1.1436995125745376e-11,-1.163568092233049e-14,-1.1635722818389492e-14,-1.1635722821239185e-14,-1.1635722821239185e-14,-5.17719325477061e-12,8.336486840500233e-9,8.33649847622154e-9,-5.172640690597261e-12,-5.172640690597261e-12,-5.172640690597261e-12,-5.17264073139965e-12,-5.165557894226198e-12,-5.165557573845429e-12,-5.165557576008512e-12,-5.165557576008255e-12,-5.165557576008255e-12,-5.18427646958072e-12,-1.8718923880062228e-14,-1.8718923880062228e-14,-1.8718921716980833e-14,-1.8718921716980833e-14,-1.1636084543527953e-14,-1.1636084543527953e-14,-1.1636084543527953e-14,-5.177193630244184e-12,-5.172640731353262e-12,-5.172640690597261e-12,-5.172640690597261e-12,-5.172640690643394e-12,-5.172640690643394e-12,-5.165557531995503e-12,-5.165557531995503e-12,-5.165557576008512e-12,-5.165557576008512e-12,-5.165557576008512e-12,-4.405914039090608e-20,-4.189605899838592e-20,-7.083241300206013e-15,-7.083241300206013e-15,-7.083241300206013e-15,-7.083241300206013e-15,-7.083241300206013e-15,-7.083241300206013e-15,-7.083199404147012e-15,-7.083199404147012e-15,-5.172640731353518e-12,-5.172640731353518e-12,-5.17264069064365e-12,-5.172640328412957e-12,4.0709867251761964e-20,-4.6132845573346025e-23,-4.6132845573346025e-23,8.031760511893865e-9],[0,0,0,0,0,0,0,0,0,0,0,0,0,0,0,0,0,0,0,0,0,0,0,0,0,0,0,0,0,0,0,0,0,0,0,0,0,0,0,0,0,0,0,0,0,0,0,0,0,0,0,0,0,0,0,0,0,0,0,0,0,0,0,0,0,0,0,0,0,0,0,0,0,0,0,0,0,0,0,0,0,0,0,0,0,0,0,0,0,0,0,0,0,0,0,0,0,0,0,0,0,0,0,0,0,0,0,0,0,0,0,0,0,0,0,0,0,0,0,0,0,0,0,0,0,0,0,0,0,0,0,0,0,0,0,0,0,0,0,0,0,0,0,0,0,0,0,0,0,0,0,0,0,0,0,0,0,0,0,0,0,0,0,0,0,0,0,0,0,0,0,0,0,0,0,0,0,0,0,0,0,0,0,0,0,0,0,0,0,0,0,0,0,0,0,0,0,0,0,0,0,0,0,0,0,0,0,0,0,0,0,0,0,0,0,0,0,0,0,0,0,0,0,0,0,0,0,0,0,0,0,0,0,0,0,0,0,0,0,0,0,0,0,0,0,0,0,0,0,0,0,0,0,0,0,0,0,0,0,0,0,0,0,0,0,0,0,0,0,0,0,0,0,0,0,0,0,0,0,0,0,0,0,0,0,0,0,0,0,0,0,0,0,0,0,0,0,0,0,0,0,0,0,0,0,0,0,0,0,0,0,0,0,0,0,0,0,0,0,0,0,0,0,0,0,0,0,0,0,0,0,0,0,0,0,0,0,0,0,0,0,0,0,0,0,0,0,0,0,0,0,0,0,0,0,0,0,0,0,0,0,0,0,0,0,0,0,0,0,0,0,0,0,0,0,0,0,0,0,0,0,0,0,0,0,0,0,0,0,0,0,0,0,0,0,0,0,0,0,0,0,0,0,0,0,0,0,0,0,0,0,0,0,0,0,0,0,0,0,0,0,0,0,0,0,0,0,0,0,0,0,0,0,0,0,0,0,0,0,0,0,0,0,0,0,0,0,0,0,0,0,0,0,0,0,0,0,0,0,0,0,0,0,0,0,0,0,0,0,0,0,0,0,0,0,0,0,0,0,0,0,0,0,0,0,0,0,0,0,0,0,0,0,0,0,0,0,0,0,0,0,0,0,0,0,0,0,0,0,0,0,0,0,0,0,0,0,0,0,0,0,0,0,0,0,0,0,0,0,0,0,0,0,0,0,0,0,0,0,0,0]],"LastChangeOutput":[[-0.0005946896494948474,-0.0008163766664147728,-0.0008490229888965592]],"Regression":false,"Rate1":0.25,"Rate2":0.1}
0,0,0,0,0,0,0,0,0,0,0,0,0,0,0,0,0,0,0,0,0,0,0,0,0,0,0,0,0,0,0,0,0,0,0,0,0,0,0,0,0,0,0,0,0,0,0,0,0,0,0,0,0,0,0,0,0,0,0,0,0,0,0,0,0,0,0,0,0,0,0,0,0,0,0,0,0,0,0,0,0,0,0,0,0,0,0,0,0,0,0,0,0,0,0,0,0,0,0,0,0,0,0,0,0,0,0,0,0,0,0,0,0,0,0,0,0,0,0,0,0,0,0,0,0,0,0,0,0,0,0,0,0,0,0,0,0,0,0,0,0,0,0,0,0,0,0,0,0,0,0,0,0,0,0,0,0,0,0,0,0,0,0,0,0,0,0,0,0,0,0,0,0,0,0,0,0,0,0,0,0,0,0,0,0,0,0,0,0,0,0,0,0,0,0,0,0,0,0,0,0,0,0,0,0,0,0,0,0,0,0,0,0,0,0,0,0,0,0,0,0,0,0,0,0,0,0,0,0,0,0,0,0,0,0,0,0,0,0,0,0,0,0,0,0,0,0,0,0,0,0,0,0,0,0,0,0,0,0,0,0,0,0,0,0,0,0,0,0,0,0,0,0,0,0,0,0,0,0,0]],"LastChangeOutput":[[-0.00003377690205729118,-0.0001782732150830002,-0.0001817687985028602]],"Regression":false,"Rate1":0.65,"Rate2":0.1}
0,-3.1074523271273853e-9,-3.1074666955905343e-9,-4.390151945888055e-9,-1.2827277150805323e-9,-1.2827277150805323e-9,-2.6356940633599706e-13,8.220057805372792e-15,-3.107407515273274e-9,-3.107415732509559e-9,-3.1074160114575313e-9,8.219083767031746e-15,-4.246268271703087e-14,-4.2462682716981325e-14,-1.2824559285448673e-9,-1.2826650906338674e-9,-1.2827133489559893e-9,-2.998836708844465e-13,-8.937620647390153e-10,-8.937702819721988e-10,-2.1761776772107592e-9,-4.389809040932999e-9,-4.389809040932999e-9,-4.389823407064249e-9,-1.282455928316363e-9,-1.28272771509034e-9,-1.2824559305303196e-9,-1.2826849709716686e-9,-3.1076875192706262e-9,-3.107687519385468e-9,-3.107687519385468e-9,8.218968925135102e-15,-4.246268271703087e-14,-4.2462682716981325e-14,-1.2824559285448673e-9,-1.2827157722855942e-9,-1.2827133489559893e-9,-2.4948036627256935e-13,-8.937623435721459e-10,-2.176177956633844e-9,-2.176177677325601e-9,-1.2823930273586603e-9,-4.389809040932999e-9,-4.389809038601099e-9,-1.2826648118007367e-9,-1.2827274362572093e-9,-1.282461721733926e-9,-1.2827356529945693e-9,-4.390100985135879e-9,-4.390151667273621e-9,-3.107738201408369e-9,6.072362433553318e-15,-3.1639897213089573e-13,-3.1639897213084615e-13,-1.2827298625085846e-9,-1.2827136250891477e-9,-1.2826690156881143e-9,-2.555504030096767e-13,-1.2826711634646455e-9,-2.1764497433980136e-9,-2.1764497429229005e-9,-1.2826648141228294e-9,-3.1076673618319165e-9,-3.1076673595000166e-9,-3.020279485776706e-13,-1.2827133466173833e-9,-1.2827274385762e-9,-1.2827298645006802e-9,-1.2827295858862457e-9,-4.390145599460585e-9,-4.389873812811258e-9,-2.717850284274616e-13,-3.224693800419049e-13,-3.2246900886796784e-13,-1.28273593487412e-9,-1.2826831056517555e-9,-1.2826831059080876e-9,-1.2826852531045341e-9,-1.2826852531044713e-9,-2.176469903189418e-9,-8.940564373241664e-10,-2.715085240951961e-13,-3.1076737112917394e-9,-3.107667638923102e-9,-3.0202853853257085e-13,-2.998813420861035e-13,-1.2827133495360737e-9,-1.282727717294426e-9,-1.2824580779552073e-9,-1.2824577991220767e-9,-4.389873812811258e-9,-2.717850284274616e-13,-3.224693800419049e-13,-3.2246900886796784e-13,-1.2827337876745717e-9,-1.2826831055369137e-9,-1.2826831059080876e-9,-1.2826852531045341e-9,-1.282685253219313e-9,-8.940564373241664e-10,-8.940564373241664e-10,-2.7178735716305244e-13,-3.107416014167396e-9,-4.389829477700748e-9,-1.2827218432736523e-9,-1.2827194172440751e-9,-1.2827133495360737e-9,-1.282441840900154e-9,-1.2824439883153815e-9,-1.2824437094920583e-9,-1.2823930274691578e-9,-1.2824134635395555e-9,-1.2824641461523266e-9,-1.2824641481099508e-9,-1.2824620009104026e-9,-1.2826831049468744e-9,-1.282685252514579e-9,-1.2826852531045341e-9,-5.899548360536772e-19,-5.898920866746359e-19,6.27493790439761e-23,-4.3898294794426305e-9,-4.389829479442693e-9,-4.390101263874962e-9,-1.282721842693505e-9,-4.3901354302284594e-9,-4.390135432557195e-9,-3.107450179441674e-9,-4.389857854693337e-9,-4.389806893847113e-9,-4.389806893961956e-9,-1.2824134635395555e-9,-1.2824134641294259e-9,-1.2824620009104026e-9,-1.2824620007955608e-9,-4.389878013779945e-9,-4.390101265717744e-9,-3.107687800928463e-9,-3.1074160141642946e-9,-3.1074138669677852e-9,-3.10741386637783e-9,-4.389827332243082e-9,-4.389827332243145e-9,-3.107685650813264e-9,-3.1076715611832453e-9,-3.107399495585946e-9,-3.1074501799278372e-9,-3.107450177113023e-9,-3.1074584761293897e-9,-4.389820981138525e-9,-4.389820981263175e-9,1.7357416594264664e-18,1.7388435041894364e-18,-4.8535416324521346e-14,-1.2824620007955608e-9,-4.389878013779945e-9,-4.390099118521298e-9,-3.107685653732017e-9,-3.107413866967848e-9,-3.1074138669677852e-9,2.1471965091672154e-15,-3.10741386637783e-9,-3.107685653142062e-9,-3.107685650813264e-9,-2.6963723892434864e-13,1.6517988393644657e-14,-3.4166248463335636e-14,-3.416353868337007e-14,-4.853259170265914e-14,-1.2824049675641864e-9,-1.28240496806001e-9,1.7388435041894364e-18,1.7388435041894364e-18,-4.853297268428446e-14,-1.2824620007955608e-9,-1.2824620002056058e-9,-1.2826831049468744e-9,-2.696400428356283e-13,-4.7511293940657e-19,-4.750501900302567e-19,1.1490464602342343e-19,1.1490464602342343e-19,-3.1076878002236665e-9,-3.107687797894868e-9,-2.5769469051058903e-13,1.65157744372506e-14,-3.416624846333526e-14,-3.416353868337007e-14,-5.067978814907697e-14,-1.282407114760633e-9,-1.2824071151416146e-9,1.7388435041894364e-18,1.7388435041894364e-18,1.8537698839377197e-18,-1.2824641474020524e-9,-1.2824641474020524e-9,-1.2827359341662214e-9,-1.28268525273336e-9,-4.7511293940657e-19,-4.750501900275262e-19,1.1490464602342343e-19,1.1490464602342343e-19,-3.1076877978948053e-9,-3.107687797894868e-9,-2.574158573799833e-13,-3.416624846333526e-14,-3.416624846333526e-14,-3.444470371416398e-14,-9.714869317387341e-20,-1.2824073959225616e-9,-1.2824073963035434e-9,1.7388435041894364e-18,2.8057197410993685e-16,2.81276770842635e-16,-5.0679579175866225e-14,-1.2824641474020524e-9,-1.2827359341662214e-9,-1.2827359347561764e-9,-1.0393900225292448e-19,-5.899548360509466e-19,1.1490464602342343e-19,2.44370298626654e-18,-3.1076877978948053e-9,-3.107673429431719e-9,-2.5741597222183003e-13,-3.41663633052319e-14,-3.4165982323606955e-14,-3.444470371417824e-14,-1.2823993763323825e-9,-1.2823933066668193e-9,-1.282393306791469e-9,7.15639881867684e-51,2.8116192894599053e-16,1.4370791947226823e-14,2.8116201342909444e-16,-1.282463866726139e-9,-1.2827356554479328e-9,-1.282735934871018e-9,-1.2827359348711028e-9,-2.1878089852581676e-19,2.328861089996378e-18,2.811619917452817e-16,-3.107401642782329e-9,-4.390137577434713e-9,-1.2827215661891728e-9,-1.2827194186215525e-9,-1.2824479106807064e-9,-1.2823972285459812e-9,-1.2823933062956451e-9,-1.2823933066668193e-9,-1.282393306791469e-9,9.317308568707551e-53,1.436846314888658e-14,1.4370791947226823e-14,1.4370791947276364e-14,1.4370792031759836e-14,-1.282449776724947e-9,-1.282449776724947e-9,-1.282449776724947e-9,-3.631085977937234e-14,-3.631085971662296e-14,-3.631085971662296e-14,-3.1074523244340562e-9,-4.3901375793923385e-9,-1.2827215658179988e-9,-1.2827196974448755e-9,-1.2826831050519929e-9,-1.2824113181728976e-9,-1.2824073962937357e-9,-1.2824073962937357e-9,-1.2824073964214871e-9,3.495111776997263e-31,1.4089630018280832e-14,1.4089639825968629e-14,1.4089639825968629e-14,2.044083849197246e-14,-1.2823930246555015e-9,-1.2823930246653094e-9,-1.282449776724947e-9,-1.282449776724947e-9,-1.2824497767248844e-9,-3.6313188514977467e-14,-3.1074523267628542e-9,-4.3898151105954604e-9,-3.107673710327508e-9,-2.6963918665659514e-13,-2.6356952109347445e-13,-1.2826770352715035e-9,-1.282679183057905e-9,-1.2826791830677124e-9,-1.282679183182639e-9,3.495111776997263e-31,9.807687800472138e-21,1.4091968624308875e-14,2.0159676563026466e-14,2.0159676563026466e-14,2.0159676647509572e-14,-1.2823933061886045e-9,-1.2823933061886045e-9,-1.2823933061886047e-9,-1.2823933061886047e-9,-1.2823933058173679e-9,-4.38980931939177e-9,-3.1074099435277105e-9,-1.2824073958186228e-9,-1.2826791825827919e-9,-1.2826791825827919e-9,-1.28267918246795e-9,-1.2826791830677124e-9,-1.2826791830677968e-9,-2.7178735412394275e-13,6.596021615881744e-32,6.596021615881744e-32,9.807687800472138e-21,9.807687800472138e-21,6.072375343085882e-15,6.070046544745638e-15,6.070046544745638e-15,-1.2824073954474489e-9,-1.2824073958186228e-9,-1.2824073958186228e-9,-1.2824073958186228e-9,-1.2824073958186228e-9,-1.2824073958186228e-9,-1.2824073958186228e-9,-1.2824073958186228e-9,-1.2824073958186228e-9,-1.2826791824777577e-9,-1.2826791824778423e-9,-2.7178664932721013e-13,-2.717867641691068e-13,-5.283914010268721e-9],[2.817147491794052e-9,2.817147491794052e-9,-2.8512411504583422e-33,-3.1393258695201294e-18,-3.1394892105775148e-18,-3.1400537175097943e-18,5.489764795611694e-7,5.489764795611694e-7,5.489764795611608e-7,-7.452717664497624e-11,-7.452717664497617e-11,-7.452717664497617e-11,5.7735289755133815e-9,5.773528814163367e-9,5.8514230123531e-9,5.851340131398183e-9,6.027457772221527e-9,5.489797635552263e-7,5.48979763716585e-7,5.48979763716585e-7,2.817147491794052e-9,2.817147488654726e-9,-3.1398903954804854e-18,-3.140053736698265e-18,-1.1677867654560514e-17,-1.1686530747282502e-17,5.489764795611607e-7,5.489019523993408e-7,5.489019523993409e-7,5.949646613196835e-9,5.949646613196835e-9,5.7735289723740615e-9,5.773446091419145e-9,5.776730073798291e-9,5.77673007693761e-9,5.776730085484086e-9,5.549293273378748e-7,5.489797635939465e-7,5.489797637553052e-7,5.489797637553052e-7,2.8171474917934816e-9,2.8171474886541616e-9,2.817147449933776e-9,-1.1677867673588592e-17,-8.5472048587343e-18,-7.452717350638414e-11,5.489019523993413e-7,5.489019524078786e-7,5.549261261977212e-7,5.949563743919052e-9,5.773446103095708e-9,5.7734460999563875e-9,5.776730073798291e-9,5.776730073798291e-9,5.776730115657833e-9,5.776730115657833e-9,5.54926043194137e-7,5.489018694042946e-7,5.489764796115674e-7,5.489764796115674e-7,2.8171474917934816e-9,2.817147453073096e-9,-7.338241939735969e-22,-7.461005446073609e-11,-7.452717350581964e-11,-7.452717350581964e-11,-7.452716496800565e-11,5.549261261977216e-7,5.549260433167755e-7,5.949563743927715e-9,5.848056149018467e-9,5.851340292756289e-9,-1.728336615927522e-10,-2.47443677323869e-10,-2.507276597030144e-10,-2.5072781792237136e-10,5.489018693957481e-7,5.489018694042946e-7,5.489764796115674e-7,2.8171474917940523e-9,2.817147491793318e-9,2.8171474530736604e-9,-8.546640370830097e-18,-7.461005446073609e-11,-7.452717350565631e-11,-7.452716496800562e-11,5.949646624883039e-9,5.550006533626894e-7,5.550006533626896e-7,5.848056149019038e-9,-1.7283349708609211e-10,-1.72833658444769e-10,3.284017959477379e-12,-1.7283362287195936e-10,-1.7611761378891864e-10,-2.5072782106169126e-10,-7.461021895856958e-11,5.489018693926088e-7,5.517190170187272e-7,5.517936270646326e-7,2.8171474530736604e-9,-1.6334121749873625e-22,-8.546640370828316e-18,8.287240843942751e-14,-7.452717350565629e-11,6.024256670797297e-9,6.024173789842218e-9,5.550006533626894e-7,5.550006533626894e-7,-1.7611764082334409e-10,-1.72833658444769e-10,3.2839823785750997e-12,3.2840179594773976e-12,-1.7611760524244758e-10,-1.761176439713271e-10,-1.761178138678179e-10,5.489018693538886e-7,5.517190168456827e-7,5.517190170187272e-7,5.517936270646326e-7,2.8171474530738238e-9,-8.663092719929134e-21,8.287240843942751e-14,8.287240843942751e-14,3.3670161462617278e-12,6.027457933580205e-9,6.024173789842218e-9,5.550006533626894e-7,5.488003619320237e-7,-1.7611764082334409e-10,-1.72833658444763e-10,3.2839823785750997e-12,5.489797635520865e-7,5.488003619288845e-7,5.488003619288845e-7,5.488003617621187e-7,5.489018693538886e-7,5.517190168456827e-7,5.517190170101807e-7,5.517936270646412e-7,-5.783276139504368e-24,-8.546477004266371e-18,8.287240843944657e-14,5.489765624452556e-7,5.550040203788445e-7,5.550039375064274e-7,5.550006534014097e-7,5.550006534014097e-7,5.488003619707439e-7,5.488003617706652e-7,5.489797635552258e-7,5.489797635520865e-7,5.489797637134451e-7,5.488003619288845e-7,5.488003619320239e-7,5.488003617621274e-7,5.489018693538886e-7,5.517190168456827e-7,5.517190170070414e-7,5.516175094238179e-7,5.489764796115674e-7,5.489764795643007e-7,5.489765624452556e-7,5.489765624452556e-7,5.550039374978895e-7,5.550039375064274e-7,5.550006534014097e-7,5.488003619707439e-7,5.488003619707439e-7,5.488003617706646e-7,5.489764794083486e-7,5.489797637134451e-7,5.489797637134457e-7,-1.7283350022484753e-10,-1.7611764082334988e-10,-2.5072784809611655e-10,-2.507278597819135e-10,2.566419632012139e-9,5.51542899366218e-7,5.488003619707441e-7,5.489764794502087e-7,5.489765623226171e-7,5.489765622838969e-7,6.024256662250821e-9,6.0274579250423905e-9,6.027457933580205e-9,5.8480561877390965e-9,5.488003619707439e-7,5.488004446872002e-7,5.489765622893035e-7,8.271645635530172e-14,2.8205144746266843e-9,3.3670215534130038e-12,-1.727506161306112e-10,-1.7283349708552764e-10,-2.5072784809611655e-10,-2.507278597819135e-10,2.566419632012139e-9,5.516175092507735e-7,5.488003618093767e-7,-1.7611776346180438e-10,-1.7603489105335902e-10,-1.7603489105335902e-10,5.848139021427477e-9,6.027457933580205e-9,6.027457930440885e-9,-1.760347242882529e-10,5.487258346412861e-7,5.488004446872002e-7,5.489765622893034e-7,2.8172303308888616e-9,2.8172303340287466e-9,8.844688267608943e-9,5.776813127797674e-9,5.776813127797674e-9,-2.474437043582944e-10,-2.507278566339365e-10,2.5664196320121323e-9,2.8171473187495726e-9,2.8171474832475693e-9,-2.507278093759002e-10,-2.5064477560878383e-10,-2.5064477560878383e-10,5.773529014233598e-9,5.9528478876655376e-9,5.776813124657796e-9,-2.47360626464363e-10,5.487257517603312e-7,5.489764794470687e-7,5.549260431522767e-7,8.766711193862231e-9,8.766711193862231e-9,8.76671119700211e-9,5.773528984059851e-9,5.776813127797674e-9,5.773528822701181e-9,6.027457760544387e-9,2.8204314624873944e-9,2.8204316238460715e-9,2.8204316238460715e-9,-2.5072764801722325e-10,-2.5064477560878383e-10,-2.5064477560878383e-10,5.773529014233598e-9,5.952930760082641e-9,5.776813124657796e-9,-2.4744366563863644e-10,5.487257517634706e-7,5.549260431941362e-7,5.549260433136354e-7,5.949563740788401e-9,8.766711193862231e-9,8.766711193862225e-9,5.9528478845262176e-9,5.776813124658354e-9,5.848138865475957e-9,6.027540641499304e-9,8.844605252329776e-9,8.84468829464337e-9,2.8205145048009877e-9,-7.461004591410155e-11,-7.124299104761147e-11,-7.124299104761147e-11,5.952930798794764e-9,5.776813119259297e-9,5.851340131397618e-9,-1.7283361972454072e-10,6.027457810941021e-9,5.549293273378741e-7,5.549293274605126e-7,5.952847884526224e-9,2.7458215477576718e-9,2.745821547757666e-9,-7.12430243612474e-11,5.77681312465779e-9,5.776813124658361e-9,5.952930607262184e-9,5.95293063429661e-9,8.77007808737044e-9,8.766794104991294e-9,3.2841824580389476e-12,3.367063404298275e-12,3.367054866484345e-12,6.027540844708866e-9,5.8513403229392676e-9,5.851340170118405e-9,6.027457810941749e-9,6.0274578109415865e-9,5.550039375451474e-7,5.48979763755305e-7,3.2841793187249984e-12,2.82043163553131e-9,2.7458215896172083e-9,-7.124298564102495e-11,-2.47360626464369e-10,5.776813163377855e-9,5.77681296643884e-9,5.949646493698107e-9,5.949646490558787e-9,8.766794104991294e-9,3.2841824580389476e-12,3.367063404298275e-12,3.367054866484345e-12,5.851423203885522e-9,5.851340161580591e-9,5.851340170118405e-9,6.027457810941749e-9,6.027457972300263e-9,5.48979763755305e-7,5.48979763755305e-7,3.2841824578815756e-12,2.8171474917940523e-9,8.841321281636428e-9,6.027540853254772e-9,5.851423209292108e-9,5.776813163377855e-9,5.77352882269179e-9,5.949646493697543e-9,5.949646490558223e-9,5.9495636096033065e-9,6.024173789842377e-9,6.024256709508851e-9,6.024256700971044e-9,5.848139060147699e-9,5.851340122851706e-9,6.027457772221527e-9,6.027457810941749e-9,3.8720222384591443e-17,3.872005904353406e-17,-1.6334105532617284e-22,8.841321242916047e-9,8.84132124291621e-9,8.844605386654027e-9,6.02754081453455e-9,8.668570623645714e-9,8.668570623645559e-9,2.6411125201602003e-9,8.590676305948191e-9,8.590593421853955e-9,8.590593583212633e-9,6.024173789842377e-9,6.0241738285539355e-9,5.848139060147699e-9,5.848138898789022e-9,8.66528631314263e-9,8.844605216757543e-9,2.820431635531874e-9,2.817147491794052e-9,2.6410298509705445e-9,2.6410298122503222e-9,8.665203602092703e-9,8.665203602092867e-9,2.6443139559883016e-9,2.6443139559877375e-9,2.6410298091105953e-9,2.6411126900655176e-9,2.6411125201690206e-9,2.566502516115032e-9,8.590593421854514e-9,8.59059358321319e-9,3.8720216582283117e-17,3.872021641486128e-17,-1.7603472115686836e-10,5.848138898789022e-9,8.66528631314263e-9,8.668487575934198e-9,2.64431399470853e-9,2.641029850970708e-9,2.6410298509705445e-9,-1.7611764082350743e-10,2.6410298122503222e-9,2.644313955988308e-9,2.6443139559883016e-9,-1.728334970855278e-10,-1.761176439632345e-10,-1.7603492436698895e-10,-1.7603493290480887e-10,-1.7603489105336514e-10,5.773445968780685e-9,5.773446138677175e-9,3.872021641486128e-17,3.872021641486128e-17,-1.7603488251555122e-10,5.848138898789022e-9,5.848138860068799e-9,5.851340122851706e-9,-1.7283361972397633e-10,-1.2263845450635253e-16,-1.2263861784739074e-16,-1.6135884023198016e-16,-1.6135884023198016e-16,2.820431435452975e-9,2.8204314354529693e-9,3.2839823785749127e-12,-1.761178053219054e-10,-1.7603492436698895e-10,-1.7603493290480887e-10,8.274976997894531e-14,5.949563609604029e-9,5.949563618141842e-9,3.872021641486128e-17,3.872021641486128e-17,-1.2264712356878554e-16,6.024256500892143e-9,6.024256500892143e-9,6.027540644629966e-9,6.0274578024039344e-9,-1.2263845450635253e-16,-1.2263861784740787e-16,-1.6135884023198016e-16,-1.6135884023198016e-16,2.8204314354528055e-9,2.8204314354529693e-9,3.2839792392549944e-12,-1.7603492436698895e-10,-1.7603492436698895e-10,-1.7603492976548282e-10,-1.3118493126509344e-16,5.949563612743354e-9,5.949563621281168e-9,3.872021641486128e-17,3.558089649604117e-17,-1.64498002779473e-16,8.27195875704976e-14,6.024256500892143e-9,6.027540644629966e-9,6.027540683350188e-9,-1.3117626843692704e-16,3.872022238457435e-17,-1.6135884023198016e-16,-1.6135884620170829e-16,2.8204314354528055e-9,2.8204314323130843e-9,3.2841405979318854e-12,-1.7603476300831206e-10,-1.76034771546126e-10,-1.7603492976548272e-10,6.024173658656885e-9,5.949563621280604e-9,5.949563782639281e-9,1.617500252417473e-51,-3.139325888548204e-18,-3.1398903954804835e-18,-3.147988981270192e-18,6.024256667649309e-9,6.027540802849324e-9,6.027540844708866e-9,6.027540844717528e-9,3.018240845399599e-17,-1.6931080230709011e-22,-3.1394892297657035e-18,2.817147449933776e-9,8.84468826446906e-9,6.027540811395236e-9,5.851423162034078e-9,5.848139021435576e-9,5.848055979113319e-9,5.94956361274279e-9,5.949563621280604e-9,5.949563782639281e-9,9.289536938209191e-52,-3.139884425752381e-18,-3.1398903954804854e-18,-3.1398903956408776e-18,-3.1485534883646444e-18,6.024256659110929e-9,6.024256659110929e-9,6.024256659110929e-9,8.286927721212476e-14,8.28692770487837e-14,8.28692770487837e-14,2.8172303223508787e-9,8.844688255931252e-9,6.027540802857422e-9,5.851423165173397e-9,5.851340284219046e-9,5.848055979113883e-9,5.949563621281168e-9,5.949563621281168e-9,5.949563782639845e-9,-2.8512411504583422e-33,-5.645069322825913e-22,-5.645132483692547e-22,-5.645132483695058e-22,-7.461004905398616e-11,5.949563732241918e-9,5.949563732241918e-9,6.024256659110929e-9,6.024256659110929e-9,6.024256659110767e-9,8.286927705483783e-14,2.8172303223508845e-9,8.841321231238512e-9,2.8204315882732735e-9,-1.7283350563199878e-10,-2.4744354300828055e-10,5.776730085475424e-9,5.95284776501899e-9,5.95284776501899e-9,5.95284792638633e-9,-2.8512411504583422e-33,-6.3160895612262605e-27,-5.704829764749079e-22,-7.461004591466024e-11,-7.461004591466024e-11,-7.461004592332334e-11,5.949563743919058e-9,5.949563743919058e-9,5.949563743919058e-9,5.949563743919058e-9,5.949563735381081e-9,8.766711188455074e-9,2.7425374071510706e-9,5.949563743919623e-9,5.9528478876574444e-9,5.9528478876574444e-9,5.952847726298768e-9,5.95284776501899e-9,5.952847765027653e-9,3.2841824580446655e-12,-4.6505097890311844e-35,-4.6505097890311844e-35,-6.3160895612262605e-27,-6.3160895612262605e-27,-7.461004591410174e-11,-7.461004591409574e-11,-7.461004591409574e-11,5.949563735381808e-9,5.949563743919623e-9,5.949563743919623e-9,5.949563743919623e-9,5.949563743919623e-9,5.949563743919623e-9,5.949563743919623e-9,5.949563743919623e-9,5.949563743919623e-9,5.952847726298768e-9,5.952847726307431e-9,3.2839823791453895e-12,3.284143737822281e-12,5.575704400193938e-7],[-4.266813463329211e-11,-4.266813463329211e-11,2.5799088787786883e-34,8.07506791970433e-21,8.075099621072672e-21,9.456046613394989e-21,-2.5139942663762986e-7,-2.5139942663762986e-7,-2.5139942663762986e-7,7.336700144527708e-17,7.336700144495277e-17,7.336700144495277e-17,4.919278372813446e-14,4.9192829142554037e-14,4.795027573672066e-14,4.795085665111496e-14,-1.1709575926226013e-15,-2.513994278064866e-7,-2.5139942780652955e-7,-2.5139942780652955e-7,-4.266813463329211e-11,-4.266813462521704e-11,9.456015015160867e-21,9.45604671653398e-21,2.966856195929066e-19,2.966881125306717e-19,-2.5139942663762986e-7,-2.513994265645501e-7,-2.513994265645501e-7,7.097894105142495e-17,7.09764611566082e-17,4.9192781253515403e-14,4.9193364647804513e-14,4.802480456695452e-14,4.802480456231827e-14,4.8024517330252365e-14,-2.513994277356021e-7,-2.5139942780686524e-7,-2.5139942780691066e-7,-2.5139942780691066e-7,-4.266813462384073e-11,-4.26681346238361e-11,-4.2668134242738925e-11,2.9668561969604076e-19,2.886130445078334e-19,7.336837778762196e-17,-2.5139942656455955e-7,-2.513994265648454e-7,-2.513994265672348e-7,7.12726218759969e-17,4.919308438571874e-14,4.919308439035532e-14,4.8024804566954844e-14,4.8024804566954844e-14,4.8024423465818356e-14,4.802442594571285e-14,-2.5139942656699906e-7,-2.5139942656460153e-7,-2.5139942663830764e-7,-2.5139942663830764e-7,-4.266813462384073e-11,-4.266813424274356e-11,9.452049978537343e-21,7.394791123503021e-17,7.336699684062163e-17,7.336699684062163e-17,7.307976790692865e-17,-2.513994265672443e-7,-2.5139942656666337e-7,7.127261874388376e-17,4.911942370344921e-14,4.7950820686221056e-14,4.7953266101929846e-14,4.8026823462121726e-14,4.919538106307689e-14,4.919542647535314e-14,-2.513994265643143e-7,-2.5139942656460153e-7,-2.5139942663830764e-7,-4.266813463329211e-11,-4.26681346238407e-11,-4.266813424412451e-11,2.8723209761864526e-19,7.394791123502224e-17,7.336699680892027e-17,7.307976726732581e-17,7.068225300219387e-17,-2.5139942664032406e-7,-2.5139942664032406e-7,4.911941673196526e-14,4.7953218197353834e-14,4.7953263614266334e-14,-1.1689292414403783e-15,4.7952875554050846e-14,4.9121720383939476e-14,4.919542647998938e-14,7.399333275207317e-17,-2.513994265643143e-7,-2.514420946988991e-7,-2.514420947725598e-7,-4.2668134244125144e-11,3.170935033982482e-26,2.8723209761066773e-19,-2.936829678878587e-19,7.336699616942057e-17,-2.9784261670221944e-18,-2.3975117410233744e-18,-2.5139942664032406e-7,-2.5139942664032406e-7,4.912181424373755e-14,4.7953263614266233e-14,-1.1685506294713134e-15,-1.1689292414404813e-15,4.9121441222944735e-14,4.912181425150624e-14,4.912214689735221e-14,-2.5139942656393317e-7,-2.514420946985665e-7,-2.514420946988991e-7,-2.514420947725598e-7,-4.2668134244125176e-11,2.492937764677292e-24,-2.936829678878587e-19,-2.9368296788785843e-19,-1.1688967008356604e-15,-1.1710005296403946e-15,-2.3975117410233744e-18,-2.5139942664032406e-7,-2.5139937751611227e-7,4.912181424373745e-14,4.7953255543834455e-14,-1.1685506294713134e-15,-2.5139942780647465e-7,-2.513993775161042e-7,-2.5139937751611227e-7,-2.5139937751577965e-7,-2.5139942656393317e-7,-2.514420946985665e-7,-2.514420946986119e-7,-2.514420947725598e-7,5.590536857281701e-21,2.872314263064536e-19,-2.936829679909926e-19,-2.5139942663822024e-7,-2.5139942780922074e-7,-2.513994278089271e-7,-2.513994266407051e-7,-2.513994266407051e-7,-2.513993775164934e-7,-2.5139937751606684e-7,-2.5139942780648524e-7,-2.5139942780647714e-7,-2.513994278065201e-7,-2.513993775161042e-7,-2.5139937751611227e-7,-2.5139937751577965e-7,-2.5139942656393317e-7,-2.514420946985665e-7,-2.514420946986119e-7,-2.514420456507456e-7,-2.5139942663830203e-7,-2.5139942663764177e-7,-2.5139942663822267e-7,-2.5139942663822267e-7,-2.513994278086423e-7,-2.513994278089295e-7,-2.513994266407076e-7,-2.5139937751649587e-7,-2.5139937751649587e-7,-2.5139937751606796e-7,-2.513994266378822e-7,-2.5139942780652256e-7,-2.5139942780652394e-7,4.79532168216826e-14,4.9121819834914015e-14,4.9195517860532156e-14,4.919580509595531e-14,-4.2618938828196156e-11,-2.5144204557680015e-7,-2.5139937751649587e-7,-2.513994266382566e-7,-2.5139942663855836e-7,-2.5139942663817725e-7,-2.6936746350018993e-18,-1.1707157806013118e-15,-1.171003009535211e-15,4.9119033155601476e-14,-2.5139937751649587e-7,-2.5139937751703e-7,-2.513994266384631e-7,-5.365917933615961e-19,-4.266930343722218e-11,-1.1691783364492532e-15,4.795263590265204e-14,4.795321681704634e-14,4.9195517860532156e-14,4.919580509595531e-14,-4.2618938828196156e-11,-2.514420456504154e-7,-2.5139937751645044e-7,4.912148415468678e-14,4.9121182401287116e-14,4.9121182401287116e-14,4.9119123048997366e-14,-1.1710005296399668e-15,-1.1710005250041488e-15,4.912085361845753e-14,-2.513993774433668e-7,-2.513993775170275e-7,-2.5139942663846064e-7,-4.2668134834203675e-11,-4.2668134835589254e-11,-4.266930582556857e-11,4.8023901549911976e-14,4.8023901549911976e-14,4.8026917322559296e-14,4.9195815639791896e-14,-4.261893881764519e-11,-4.266813429504796e-11,-4.2668134340469506e-11,4.919514483382419e-14,4.91948057339438e-14,4.91948057339438e-14,4.919241070206632e-14,-1.0973303991237857e-15,4.802389486442361e-14,4.802591128033507e-14,-2.513993774427859e-7,-2.5139942663826084e-7,-2.5139942656661657e-7,-4.266806299012192e-11,-4.266806299012192e-11,-4.266806298095717e-11,4.9192504567779664e-14,4.8023901549272493e-14,4.9192541914260387e-14,-1.17065980808679e-15,-4.266930289558593e-11,-4.2669302941002847e-11,-4.2669302941002847e-11,4.919509941691169e-14,4.91948057339438e-14,4.91948057339438e-14,4.919241070206632e-14,-1.0976240845846112e-15,4.8023894864423934e-14,4.802653760700563e-14,-2.513993774427859e-7,-2.513994265669977e-7,-2.51399426566662e-7,7.126207369304323e-17,-4.266806299012192e-11,-4.266806297957159e-11,-1.0973303944875322e-15,4.8023901553908736e-14,4.911888123975923e-14,-1.1712407224807555e-15,-4.2669305293097704e-11,-4.266930591942901e-11,-4.266930352191724e-11,7.366626967437198e-17,-1.0956195980932012e-15,-1.095619598093201e-15,-1.0980090394337214e-15,4.802419015915294e-14,4.795086051195708e-14,4.795287692786822e-14,-1.1713348276099329e-15,-2.5139942773560065e-7,-2.51399427735265e-7,-1.0973409441749586e-15,-4.2669229195628015e-11,-4.266922918507769e-11,-1.0955137964700327e-15,4.8023902935495227e-14,4.802389348411613e-14,-1.097875347952961e-15,-1.0979692083905442e-15,-4.2669232221404e-11,-4.2668063663803045e-11,-1.1689785238312718e-15,-1.1695675061644086e-15,-1.169280277230937e-15,-1.17167778900291e-15,4.795071984653082e-14,4.795047803450985e-14,-1.171336209227802e-15,-1.1713362091961008e-15,-2.5139942780930814e-7,-2.5139942780691066e-7,-1.1689865896268032e-15,-4.2669303237408285e-11,-4.266922956617882e-11,-1.0958948929706033e-15,4.8025919350766946e-14,4.8023513768594594e-14,4.802393889642409e-14,7.063380484120386e-17,7.063380947744156e-17,-4.2668063663803045e-11,-1.1689785238312718e-15,-1.1695675061644086e-15,-1.169280277230937e-15,4.7950138934629464e-14,4.7950765263443325e-14,4.795047803450985e-14,-1.1713362092276988e-15,-1.1713816261085042e-15,-2.5139942780691066e-7,-2.5139942780691066e-7,-1.1689865942313477e-15,-4.2668134635772e-11,-4.2668137022733454e-11,-1.171953088516558e-15,4.794986115985724e-14,4.8023513768594916e-14,4.9192543297732015e-14,7.063518642769588e-17,7.063519042444186e-17,7.121610481840702e-17,-2.3919212353368827e-18,-3.3539296369350802e-18,-3.074771135240415e-18,4.911874195249713e-14,4.79511463624365e-14,-1.1709551127274602e-15,-1.1713362092276988e-15,-3.8109650023851127e-19,-3.81096468537143e-19,3.1701367973132533e-26,-4.266813665218725e-11,-4.2668136652187274e-11,-4.266930524465482e-11,-1.171571992655495e-15,-4.2620184009939254e-11,-4.262018401800965e-11,-4.261901268483167e-11,-4.261894180276548e-11,-4.261894122184708e-11,-4.2618941267264e-11,-2.3919212353368827e-18,-2.7730152426376286e-18,4.911874195249713e-14,4.911878736940965e-14,-4.26190150837297e-11,-4.2669304920079405e-11,-4.2669303236309976e-11,-4.266813463329211e-11,-4.2619012819048344e-11,-4.261901243795184e-11,-4.261901483546361e-11,-4.261901483546365e-11,-4.2620181032899304e-11,-4.262018103151836e-11,-4.261901242849586e-11,-4.261901301748004e-11,-4.2619012676763766e-11,-4.261893939856671e-11,-4.261894121515696e-11,-4.2618941260574514e-11,-3.7550596327809466e-19,-3.730260684613531e-19,4.912085223533596e-14,4.911878736940965e-14,-4.26190150837297e-11,-4.2620183105835665e-11,-4.2620181422066243e-11,-4.261901281904837e-11,-4.2619012819048344e-11,4.912181424376926e-14,-4.261901243795184e-11,-4.262018104096974e-11,-4.2620181032899304e-11,4.7953219296301654e-14,4.912182369975257e-14,4.9121280131839e-14,4.912157543184376e-14,4.912119295225322e-14,4.919303703864856e-14,4.919270439216306e-14,-3.730260684613531e-19,-3.730260684613531e-19,4.9120905722680244e-14,4.911878736940965e-14,4.911916846590988e-14,4.79511463624365e-14,4.795287554628215e-14,-3.356795877318944e-19,-3.3567955603052638e-19,4.541694420798457e-20,4.541694420798457e-20,-4.266930280979656e-11,-4.2669302801726136e-11,-1.1685481495763935e-15,4.91218610462333e-14,4.912128013183901e-14,4.912157543184376e-14,-6.212914843349155e-19,7.122279491099816e-17,7.093556533801867e-17,-3.730260684613531e-19,-3.730260684613531e-19,-3.2760666301697145e-19,-2.6457778276785462e-18,-2.6457778276785462e-18,-1.1712487956953482e-15,-1.1710489802942271e-15,-3.356795877318944e-19,-3.3567955603052638e-19,4.541694420798457e-20,4.541694420798457e-20,-4.2669302801726104e-11,-4.2669302801726136e-11,-1.168548144940148e-15,4.912128013183901e-14,4.912128013183901e-14,4.912156487688081e-14,-5.0927417058806534e-20,7.121471984286422e-17,7.092749026999583e-17,-3.730260684613531e-19,-3.7302143221567265e-19,5.349198052945486e-20,-5.27424557075912e-19,-2.6457778276785462e-18,-1.1712487956953482e-15,-1.1716298921955867e-15,-4.845065426007131e-20,-3.8109650023851127e-19,4.541694420798457e-20,5.348737598514238e-20,-4.2669302801726104e-11,-4.266930280034055e-11,-1.1685935618526462e-15,4.91212347149265e-14,4.9121521944499477e-14,4.912156487688049e-14,-2.4470582423637835e-18,7.092639196156798e-17,7.088097440956165e-17,-2.6579137835297492e-49,8.07506802283825e-21,9.456015015160563e-21,8.077560960603259e-21,-2.970348605626165e-18,-1.1712942079716013e-15,-1.1716753091080855e-15,-1.1716753116010232e-15,-9.386756675871031e-20,8.070463486503332e-21,8.075099732188552e-21,-4.2668134242739565e-11,-4.266930582418363e-11,-1.1715800584510184e-15,4.7950521414220014e-14,4.9119124428090614e-14,4.9119748281995444e-14,7.121362089503979e-17,7.092639196156798e-17,7.088097440988596e-17,-4.880883868016734e-53,1.3855832380030267e-21,9.456015015160823e-21,9.456015015165339e-21,9.4585079609079e-21,-2.6817387251620196e-18,-2.6817387251620196e-18,-2.6817387251620196e-18,-2.842294458024856e-19,-2.8422941410111754e-19,-2.8422941410111754e-19,-4.266813453642502e-11,-4.2669305545025124e-11,-1.1712928295175465e-15,4.795052141022294e-14,4.7951100943670223e-14,4.911974938094336e-14,7.092749090949555e-17,7.092749090971671e-17,7.087959346289363e-17,2.5799088787786883e-34,1.3809469923226126e-21,1.3815864920292458e-21,1.3815864920292082e-21,7.367013579192643e-17,7.155985544603872e-17,7.1559854806547e-17,-2.6817387251620196e-18,-2.6817387251620196e-18,-2.6817386937849608e-18,-2.922998462025844e-19,-4.266813454449545e-11,-4.2668136361092225e-11,-4.2669302566602955e-11,4.795349845793547e-14,4.802687190813941e-14,4.802451981327994e-14,-1.0976755269578496e-15,-1.0976755275973493e-15,-1.0977209470027938e-15,2.5799088787786883e-34,6.394997069298346e-25,9.452018269187043e-21,7.366206072390359e-17,7.366206072390359e-17,7.366206321684136e-17,7.126455144454406e-17,7.126455144454406e-17,7.126455144421974e-17,7.126455144421974e-17,7.155178040939295e-17,-4.2668062700415234e-11,-4.266806059151334e-11,7.126317049722743e-17,-1.0973398473701178e-15,-1.0973398473701178e-15,-1.0972944304576112e-15,-1.0976755275973493e-15,-1.097675530090287e-15,-1.1689841143679082e-15,3.8551752896652334e-35,3.8551752896652334e-35,6.394997069298346e-25,6.394997069298346e-25,7.366875020868843e-17,7.366067977691129e-17,7.366067977691129e-17,7.155039943102357e-17,7.126317049755174e-17,7.126317049722743e-17,7.126317049755174e-17,7.126317049755174e-17,7.126317049755174e-17,7.126317049755174e-17,7.126317049755174e-17,7.126317049755174e-17,-1.0972944310971108e-15,-1.0972944335900485e-15,-1.1685576009551629e-15,-1.1686030178676695e-15,-2.514420467483267e-7],[4.04316807360034e-8,4.04316807360034e-8,-2.1240360563165406e-33,-1.1159018792224052e-18,-1.1159249470664269e-18,-2.594105639732401e-17,9.745308560812216e-11,9.74530856081219e-11,9.745308560814497e-11,4.985075273456992e-16,4.9850752858606715e-16,4.9850752858606715e-16,-2.5341756418455297e-9,-2.5341851574079574e-9,-2.5226947928694256e-9,-2.5226954136350237e-9,1.1924273577125127e-11,1.0893383888952331e-10,1.0894335445191824e-10,1.0894335445191824e-10,4.04316807360034e-8,4.04316807348875e-8,-2.5941033329546734e-17,-2.594105639739076e-17,-2.5941411245471822e-17,-2.5941411245472472e-17,9.74530856081219e-11,9.745358535991605e-11,9.745358535994036e-11,4.4401942558495405e-13,4.4401942561713367e-13,-2.5341756424674546e-9,-2.5341762632330846e-9,-2.522695535893094e-9,-2.5226955352711387e-9,-2.522695535270784e-9,1.0937726349086658e-10,1.0893383888949291e-10,1.0894335445191878e-10,1.0894335445191878e-10,4.0431680710684325e-8,4.0431680710062364e-8,4.0431680710062345e-8,-2.5941411245538314e-17,-2.4825509366183576e-17,4.743043288037983e-16,9.74536106789934e-11,9.745358585421779e-11,9.789713159742867e-11,4.4339928229729376e-13,-2.5341762879298195e-9,-2.5341762885517766e-9,-2.5226955358930958e-9,-2.5226955358930958e-9,-2.522695535271139e-9,-2.5226955352711705e-9,9.78870205884815e-11,9.744347435134777e-11,9.745311154953494e-11,9.74531115495337e-11,4.0431680710684325e-8,4.04316807106843e-8,-2.5319100677890547e-17,-1.2163613797502287e-16,4.991294602550936e-16,4.991294602550936e-16,4.991298160869087e-16,9.789715691648322e-11,9.789653615090805e-11,4.4339928229630885e-13,-2.53417616629406e-9,-2.522685923391675e-9,-2.523138985813224e-9,-2.523139082130261e-9,-2.5346198094702192e-9,-2.5346293244106902e-9,9.744347435099194e-11,9.744347435134777e-11,9.745311154953494e-11,4.04316807360034e-8,4.04316807106843e-8,4.043168073550943e-8,-3.779159922315308e-22,-1.2163613797398468e-16,4.99129483322938e-16,4.991298163425715e-16,4.4404536695006394e-13,9.789665778664505e-11,9.789665778666688e-11,-2.534176140975015e-9,-2.5231294696288086e-9,-2.5231389851912354e-9,1.1480701398925196e-11,-2.523138960494147e-9,-2.5346196878344587e-9,-2.534629325032646e-9,-9.637820497978875e-15,9.74434737290372e-11,4.052913372591717e-8,4.052913384755293e-8,4.043168073550943e-8,-2.3068882189427398e-23,-3.7791495432234374e-22,6.207652436374977e-16,4.99129483578534e-16,4.4416700273319094e-13,4.43546237111894e-13,9.789665778664505e-11,9.789665778664381e-11,-2.5346196872121488e-9,-2.5231389851912354e-9,1.1480702020912813e-11,1.1480701398925196e-11,-2.5346196883280498e-9,-2.5346196878341046e-9,-2.5346292033968868e-9,9.744347372903518e-11,4.052912420973244e-8,4.052913372591717e-8,4.052913384755293e-8,4.043168073550945e-8,-9.06326146588783e-31,6.207652436374977e-16,6.207652436374977e-16,1.1490863667628718e-11,1.1933789139520046e-11,4.43546237111894e-13,9.789665778664505e-11,-2.437166575662639e-9,-2.5346196872121488e-9,-2.52313898469729e-9,1.1480702020912813e-11,1.0893381294845781e-10,-2.437166576778518e-9,-2.4371665762845713e-9,-2.4371760912253976e-9,9.744347372903518e-11,4.052912420973244e-8,4.052913372591682e-8,4.052913384755293e-8,-4.93913723399454e-19,-3.545914481379704e-22,6.207652436375642e-16,9.745373231477679e-11,1.0938752145429559e-10,1.093869006890532e-10,9.789665778664559e-11,9.789665778664559e-11,-2.4371665756626373e-9,-2.4371760912250427e-9,1.0893381406439187e-10,1.0893381294848999e-10,1.089433285108849e-10,-2.437166576778518e-9,-2.437166575662616e-9,-2.4371760912253976e-9,9.744347372903518e-11,4.052912420973244e-8,4.052913372529487e-8,3.799451416034079e-8,9.745311105561998e-11,9.745311154921075e-11,9.745373231480897e-11,9.745373231480897e-11,1.0938690068872954e-10,1.0938690068908537e-10,9.789665778667777e-11,-2.437166575662605e-9,-2.437166575662606e-9,-2.4371761160501416e-9,9.744357054005081e-11,1.0894332851091708e-10,1.0894335333604854e-10,-2.5231294454256337e-9,-2.534619687706063e-9,-2.5346293244103035e-9,-2.5346293250326142e-9,3.789705141097079e-8,3.799451403808275e-8,-2.437166575662581e-9,9.744359549319287e-11,9.744421675238241e-11,9.744421675238187e-11,4.441670024095387e-13,1.1933789139196394e-11,1.1933789139552223e-11,-2.534176140975004e-9,-2.437166575662605e-9,-2.4371754959065225e-9,9.744419130564904e-11,-8.920243884115331e-15,4.044317157422433e-8,1.1490862552113355e-11,-2.5231288240380793e-9,-2.5231294448036774e-9,-2.5346293244103035e-9,-2.5346293250326142e-9,3.789705141097079e-8,3.799450464415608e-8,-2.437176091225009e-9,-2.5346292032684893e-9,-2.534628582009299e-9,-2.534628582009299e-9,-2.5341755202097713e-9,1.1933789139518805e-11,1.1933788517564068e-11,-2.534619091893659e-9,-2.4371756175423132e-9,-2.437175495906554e-9,9.744419130559378e-11,4.043168133132194e-8,4.043168135676903e-8,4.044361514541457e-8,-2.522685399436738e-9,-2.522685399436738e-9,-2.5231390815079507e-9,-2.5346293249046353e-9,3.789705141047681e-8,4.0431671219324754e-8,4.0431680735509133e-8,-2.534629324904249e-9,-2.534619188576578e-9,-2.534619188576578e-9,-2.534175642339477e-9,1.193364218468139e-11,-2.522685424389878e-9,-2.5231289706270115e-9,-2.4371762383079117e-9,9.744357053999708e-11,9.788699514136897e-11,4.043212413515771e-8,4.043212413515771e-8,4.043212416011083e-8,-2.5341756423391225e-9,-2.522685399436738e-9,-2.5341851574076042e-9,1.1924272460836223e-11,4.0443161462227105e-8,4.044317097778953e-8,4.044317097778953e-8,-2.5346198093418218e-9,-2.534619188576578e-9,-2.534619188576578e-9,-2.534175642339477e-9,1.193426294992503e-11,-2.5226854243898797e-9,-2.5231391063330802e-9,-2.4371762376859555e-9,9.788699576332673e-11,9.78965107037973e-11,4.43399154318159e-13,4.043212413515771e-8,4.043212413466374e-8,1.1933641562725414e-11,-2.5226854000586933e-9,-2.5341850363938004e-9,1.1924893226433209e-11,4.044360500846423e-8,4.0443615144792256e-8,4.044317159855513e-8,-1.2212967378249632e-16,1.1490742031901383e-11,1.1490742031901383e-11,1.19342877750892e-11,-2.522685424262224e-9,-2.5226954384601883e-9,-2.523138984697321e-9,1.1924248751938717e-11,1.0937723866571181e-10,1.0938675422813836e-10,1.1933642056704483e-11,4.044317083182297e-8,4.044317083132899e-8,1.1490716091189666e-11,-2.5226854248838253e-9,-2.522685399564747e-9,1.1924772706908048e-11,1.1924772084598024e-11,4.044360550808799e-8,4.043212478074804e-8,1.1490242408473142e-11,1.1490863668017273e-11,1.1490863667662681e-11,1.1934409904795163e-11,-2.522685898072984e-9,-2.5226954136350564e-9,1.1924273577092248e-11,1.1924273577069184e-11,1.0938690068903067e-10,1.0894335445189695e-10,1.149024228046307e-11,4.044317095408069e-8,4.044317083195095e-8,1.1490716091191451e-11,-2.5231289711209566e-9,-2.5226854243899012e-9,-2.5226949145052415e-9,4.3452980416767737e-13,4.345291822117023e-13,4.043212478074804e-8,1.1490242408473142e-11,1.1490863668017273e-11,1.1490863667662681e-11,-2.5226852773073862e-9,-2.5226954136354112e-9,-2.5226954136350564e-9,1.1924273577092248e-11,1.193378913949628e-11,1.0894335445189571e-10,1.0894335445189695e-10,1.1490242902395977e-11,4.043168073600343e-8,4.0432124281746585e-8,1.1934384586041207e-11,-2.522685303248064e-9,-2.5226854243899017e-9,-2.5341851822327585e-9,4.345049790359716e-13,4.34504357080251e-13,4.338835914832634e-13,4.43545743219998e-13,4.441665088187701e-13,4.441670024100817e-13,-2.534175520209771e-9,-2.5226954136354117e-9,1.1924273577091709e-11,1.1924273577092248e-11,5.4306714054845e-25,-2.25247768807329e-23,-2.3067844019343524e-23,4.043212428224054e-8,4.0432124282240564e-8,4.044361452464897e-8,1.193438458603968e-11,3.7908995432755334e-8,3.790899543324926e-8,3.789705212854695e-8,3.789749555377031e-8,3.789749493238276e-8,3.789750444794518e-8,4.43545743219998e-13,4.435457432205411e-13,-2.534175520209771e-9,-2.5341850357721973e-9,3.78974957002312e-8,4.044360500958014e-8,4.044317097890578e-8,4.04316807360034e-8,3.789706104879123e-8,3.789706104879123e-8,3.7897504595028364e-8,3.7897504595028384e-8,3.7908551291199695e-8,3.790855126637456e-8,3.789706102285022e-8,3.789706164410976e-8,3.789705212805303e-8,3.789705203186436e-8,3.7897494956713944e-8,3.789750447227637e-8,-4.939131803985514e-19,-4.939453600877168e-19,-2.5346190664465502e-9,-2.5341850357721973e-9,3.78974957002312e-8,3.7908985322367985e-8,3.7908551291693634e-8,3.789706104879125e-8,3.789706104879123e-8,-2.534619687212172e-9,3.789706104879123e-8,3.7908551291693634e-8,3.7908551291199695e-8,-2.5231294448037093e-9,-2.5346197131531813e-9,-2.534628607456065e-9,-2.5346286079503657e-9,-2.534628582503278e-9,-2.534185779289457e-9,-2.5341762637266756e-9,-4.939453600877167e-19,-4.939453600877167e-19,-2.5346285825029226e-9,-2.5341850357721973e-9,-2.534185035772199e-9,-2.5226954136354117e-9,