{"HiddenLayer":[0.9029997916615882,0.41359618179467744,0.9999008050649897,0.0001657702069347058,0.9976888077377154,0.05689617635097511,0.9992053189244421,0.33738084658834244,0.8663604038415741,0.00011593141053124048,0.2522931108087223,0.9998708615638807,0.19007336675972641,0.0005437916235211337,0.8705760929248619,0.08763112448612963,1],"InputLayer":[0,0,0,1,1,1,0,0,0,0,0,0,0,0,0,0,0,0,0,1,1,1,1,1,0,0,0,0,0,0,0,0,0,0,0,0,1,1,1,1,1,0,0,0,0,0,0,0,0,0,0,0,1,1,0,1,1,1,0,0,0,0,0,0,0,0,0,0,0,1,1,0,1,1,1,0,0,0,0,0,0,0,0,0,0,1,1,0,0,1,1,1,0,0,0,0,0,0,0,0,0,0,1,1,0,0,1,1,1,0,0,0,0,0,0,0,0,0,0,1,0,0,0,1,1,1,0,0,0,0,0,0,0,0,0,0,1,0,0,0,1,1,1,0,0,0,0,0,0,0,0,0,0,0,0,0,0,0,1,1,0,0,0,0,0,0,0,0,0,0,0,0,0,0,0,1,1,0,0,0,0,0,0,0,0,0,0,0,0,0,0,0,1,1,0,0,0,0,0,0,0,0,0,0,0,0,0,0,0,1,1,0,0,0,0,0,0,0,0,0,0,0,0,0,0,0,1,1,0,0,0,0,0,0,0,0,0,0,0,0,1,1,1,1,1,1,1,1,1,0,0,0,0,0,0,1,1,1,1,1,1,1,1,1,1,1,0,0,0,0,0,0,1,1,1,1,1,1,1,1,1,0,0,0,0,0,0,0,0,0,0,0,0,0,1,1,1,0,0,0,0,0,0,0,0,0,0,0,0,0,0,1,1,1,0,0,0,0,0,0,0,0,0,0,0,0,0,0,1,1,1,0,0,0,0,0,0,0,0,0,0,0,0,0,0,1,1,1,0,0,0,0,0,0,0,0,0,0,0,0,0,0,0,0,0,0,0,0,0,0,0,0,0,0,0,0,0,0,0,0,0,0,0,0,0,0,0,0,0,0,0,1],"OutputLayer":[0.4000498252841501],"WeightHidden":[[0.6811816180196146,0.9834882254861184,0.04882690402959981,-0.08037701717372699,0.3855975027491866,-0.8764356264579708,-0.7541871604944339,-0.7828304657671855,0.2588934293202998,0.8616194808566914,0.7152847436471359,0.5553076994555107,0.8059226414279989,0.6466439858974901,0.7776682666798964,-0.483005287525144,0.9679703516279369,-0.6910656253793519,-0.34161075911706484,0.4118088788985773,-0.8582717342352307,0.7859054019430066,-0.20456544320564685,0.9992575986686227,-0.826498964066964,0.46421100777807484,0.28502062290198577,-0.18276995466925156,0.21067954952638676,0.5621093063600193,-0.35536119034572616,0.09008533922839487,-0.6131905893618479,-0.46704492301942613,0.2788766469638676,0.16575064180222676,0.493506338899201,-0.30561825284211974,-0.7411812665268229,0.17332252645209165,0.5858472474282372,-0.24333342916060804,-0.06447908962702487,-0.7419416986719866,-0.005441377217503029,-0.813620126847113,-0.14564942665574673,-1.0145803027527414,0.8706901025458599,0.10205459244642844,0.4335769198369299,-0.3809311379488694,0.8281381484261432,-0.9252765983522423,-0.5664225774163438,-0.4537830339585821,1.0508145700607445,-0.41921945459457416,-0.34186030334948,0.7900338687787472,-0.25214903491925844,-0.13120382414044268,-0.6328693735390161,1.0199309714651634,0.8909407836212412,0.539778330367703,-0.2431927711949201,-0.6112844244635147,-0.7823022307444476,0.8238889132494978,0.14098725251251068,0.4669896633782457,-0.7007120389032783,0.7424001885157644,0.8714099017894105,0.5676016850981179,0.3996315759886981,-0.20430046129290436,0.08184476209392452,-0.18893228657122882,-0.18908874136660653,0.32275630855542287,0.2214279740818072,-0.8883378295839202,-0.18951669997920947,0.7833050713453336,0.8404131214731543,-0.8140813037367978,0.9354258955170849,0.5065572512886463,0.35235878370353146,-0.3699629329197822,0.8530112508453834,0.019627322241987866,-0.5692936169144177,-0.05508059551450243,0.12356608545927471,-0.13082066220911254,-0.7365638989373416,0.0838611751971299,0.39187181584441566,-0.11144866147308478,0.35777509104438926,0.12651009028912388,-0.14671814827377974,0.9078017843462327,0.3280062358768109,0.574484023331256,-0.4293559140083107,-0.7199688889536718,0.11837952667048778,-0.05963675391979694,-0.0060583284931286395,-0.10612490511821461,0.5439398423529103,0.7130020351654791,-0.9445295242627598,0.007918362218058484,0.5172792390932343,-0.22629302201362553,-0.6683537138651114,-0.481259985134637,-0.4393839537539919,-0.5285147530024711,1.0110823819470667,0.18815943172221905,0.5960087069389972,0.565163287150658,0.30557873746947317,0.6697143821733534,0.42092232683038966,0.4980400131581857,-0.3437370199276199,0.8277632662333053,-0.09713408046575576,0.247271008121396,-0.8273301848553463,0.8132495615521389,0.5926768032783769,0.06856732586838056,0.7444902483456366,-0.2682558456185536,0.6256869769852483,-0.5446890064252473,-0.6680673964893994,-0.7093805361147292,0.3508897384719943,-0.5677592351603405,0.07435708660032918,0.008826845953551522,0.5746034291003447,-0.5755226003098034,0.2548099637555083,0.8848610587253789,0.1839828295780871,-0.06590228596121278,0.5489537024507813,-0.305438559985532,-0.9293054131090449,-0.9021431364236273,-0.11413415271192202,0.1363494767230246,-0.5102031684593163,-0.33134908312706374,0.837800899351208,-0.1822260544519203,0.6434914040146807,0.857022200065004,0.7898675847344677,-0.2821498661722828,-0.4457591717145544,-0.6558057679071474,0.5477725716558165,-0.14236447558157872,0.8843128549239425,-0.20855788603581293,-0.743523576350185,-0.20058322165887893,-0.7705329188469904,-0.45193867338047006,0.9463229959786107,0.9112794265272052,-0.02005182076690629,0.18882220054047572,0.923369958354687,0.05356596011626377,0.7089114605391497,-0.4401508776530083,-0.05539383712682797,0.7175371991716931,-0.9228000519515466,0.9555405472267087,0.45073304466542097,-0.563279302371849,-0.42761306699192086,-0.07565782008135369,-0.14554968036863905,-0.8401212310967574,0.62622676951515,-0.9309248528695485,0.7139281800217648,-0.0939056482249689,-0.3742613333416546,0.8277057859122018,0.1661908283362744,-0.7792944826113994,0.22404198785082136,-0.4598251695533799,0.35907542460917413,0.12497050255627576,0.5405977148254393,0.13502110174443854,-0.4003233160450267,-0.6475655371656844,0.5839742752303078,-0.23807982050395832,0.09807170016511697,0.9932965208280976,-0.4915059542105934,-0.7005052791212932,-0.17978106990580606,-0.38228524235777994,0.8281539282307357,-0.7553895254891948,0.9173268189629759,-0.054847231258512215,-0.4409027485247605,0.4686739106163431,0.71720718847421,1.017802442887742,-0.20429977961294224,0.384422093435744,-0.3620457605342341,-0.5883087786471771,-0.6297965326865781,-0.10368616252519403,-0.438258215593011,-0.8025407751815954,0.7595868750477577,-0.7801602020584918,0.5709347740841921,-0.4287079562572083,-0.04356571666577362,-0.16620740227540892,-0.8791395559981676,0.83862892843734,-0.1831260670913207,0.19017370341585516,0.3376958912772672,-0.3635609284908952,-0.728855717350957,-0.6117201275687397,0.7932616524083852,0.6254857700905043,-0.9339761794498844,-0.5127931345839564,0.4238146521471147,-0.6569728292351535,-0.434063046280819,-0.9171706770440556,-0.5477288725539691,0.5589301076024249,-0.360904666623775,0.45920681910539646,-0.5342895928571513,0.9116674123782272,0.3419076616714976,0.5667808816591245,-0.47935726397266964,-0.8243875178207605,-0.568346268986635,-0.0867122515480688,0.935467746766318,0.15159001719806223,-0.6728092869187177,-0.02027390347697721,-0.4487423573454512,-0.9205048175507722,-0.32768894167175283,-0.7001222324485338,0.8511807606234303,0.11065663667026586,-0.8956056936803669,-0.6431944567503451,-0.8642263278660673,-0.28807563772059386,0.40320349901892066,0.9640461453948171,-0.35666223467533614,0.8901863371281183,-0.8213517652695025,-0.9660841216669418,-0.1621512508995816,0.03143441633013875,-0.25840164723775766,-0.7111606441213207,0.7000739992265482,0.2269210306422173,-0.28962852693801727,0.593227453393642,-0.4168633043335749,-0.6336842192149948,0.5436843970868527,0.32480359108975065,-0.15393670980780907,-0.22003648464505918,-0.14188977409230538,-0.5039550997901486,-0.6312152731548702,-0.9082731589997101,0.16765219371952633,0.141466023116775,-0.13619142291769598,0.8939734247128233,0.005271609060721418,-0.17536066913125578,-0.9773409400872629,-0.6288410438076427,-0.19192719054342236,-0.7681695566026646,0.22879415356846788,-0.8505603222301118,-0.24599613366027887,0.28284855168897516,0.7020322970437123,-0.48615305597491026,0.10906734588471731,0.9270893498659203,0.8086863280153921,-0.9994905973048593,-0.8442901149483751,0.9432228206467924,0.5710909772282362,0.935256079183467,-0.6013267770654585,0.8032882981169032,0.9230502595520816,0.21969459456853566,-0.7010822231859299,-0.8029532238316031,-0.5592881037108219,-0.9247468069475748,0.801440950078384,0.5467159674032424,-0.33498024975884355,0.35009184293560036,0.6366722465811344,-0.9229150625629866,-0.5065167462894152,0.5835905129588052,-0.5117653979093779,0.3457501942464189,-0.396253343762782,-0.601393155646474,-0.6368119440679912,-0.5181349290883132,-0.11288344323284583,-0.7584148469619846,-0.6929553499408803,-0.2494918806727662,0.5475682825726736,-0.8932757871739837,0.722760932065114,0.9567081503390198,0.7047878184971477,-0.8156134497660259,-0.7486387953695979,-0.47373759903007767,-0.6446238266946814,0.8213944695123763,-0.6817811736773679,-0.3792525984265263,-0.150194054180306,0.6616633794544224,-0.20240244509269045,-0.1632025913031535,-0.5085780315996655,-0.6872664861848641,-0.30574869342791094,-0.2730718996923041,0.9645238362865451,-0.12509370003411738,0.6652654373658722,0.47519531136586046,0.5743068757396659,-0.08325348087419995,0.3858342575302821,-0.5257268477318694,-0.6082504966853608,0.5344382868382817,0.8856101032412856,0.7841593091359904],[-0.2344972989240683,0.29532232661353697,-0.6524414976256158,-0.755142410067654,0.5717034015062201,0.33920352536752746,0.1797823584349548,-0.16732867726490624,-0.41375854573606086,0.4101849123701235,-0.7783176888456335,-0.9724940569904731,0.8673971800913651,-0.005332861974318783,-0.733459996798618,0.6526275975888721,0.02807673047679752,0.8672546355732234,-0.47986780671926066,-0.8623830093674805,0.8694402377437974,0.001097465913374746,0.42751790596554134,-0.9770823320567522,-0.6558132847735264,-0.7704013901496397,0.5335090073534114,-0.9916133681188012,-0.8393436364088789,-0.053068039329089205,-0.4667799291605699,-0.6484207088366192,0.16414919584856588,0.2879183785913887,0.3054859641768686,-0.5201279081145961,-0.4233047724499764,0.20692569293352328,0.07865091813719925,-0.13907657666664022,0.3759954808730889,0.9714456261282329,-0.22546938086959112,0.13020320340007185,-0.3716320606599493,0.307956032792903,0.6959782715425414,0.7400037774032263,0.44207944358083784,-0.8884316529793216,0.44891812970358014,-0.1341850071039883,0.32681263750872885,-0.07328846246223804,0.8399623367369392,0.6291203651528371,0.3333462678432531,0.6523269307140185,-0.5804946316299829,-0.20327679820749306,0.18822422595893756,0.7478077768038005,-0.9632933827205465,0.04320595402982762,0.2309767855245021,0.4889373573083141,-0.7074265199697362,0.3169630591287451,0.6830565649058484,-0.9051930873219999,0.4406726230109482,0.9413002073249721,0.31303807901834846,0.44677243404508016,0.2286038890198358,0.10918673656989579,-0.2047636539027345,0.6627887215377544,0.7300218698871511,0.9277025182550511,-0.6356823284983326,0.1334468357935126,-0.5796389230884441,0.10025921910199204,-0.024531521467840454,0.04354639571666655,0.18547797193920215,-0.5169924029135334,-0.7934542982748926,-0.9294226807048083,-0.08807085145860992,0.22848581450614677,0.5290567277124052,-1.0035561016587629,-0.22745885719015466,-0.6838441917183831,0.15281395989991745,-0.9060103433575426,0.5477236541788231,-0.5151073867578424,-0.7408430026496717,-0.9782910643627886,-0.4091579360169131,-0.9540680993664568,0.12736403168331212,0.38238816700156575,-0.37682359307878577,0.444737964164384,0.6762356940585709,0.07856135490346115,-0.9759796272225992,0.5666376424024256,0.8551706562898965,-0.6746219748386059,-0.43629436506866964,0.39646037027687814,0.8136336579565179,0.5602447762559131,0.9885143634594086,-0.18986662142631394,0.8364890328223311,0.4917890948424482,0.4917104896044825,0.7006581713457123,0.9023573712108791,-1.0051103042431335,0.60489855150635,-0.5332414306388883,0.8321992064410858,0.4852880951555737,0.05424352600741214,0.12664881402707423,0.4859383981745289,0.8030520324286321,0.2747764410161862,0.46926342904622764,0.7488298012220287,-0.9542666353928665,-0.7743932745364674,0.6306021573531032,0.3085974638952083,0.6086054169651376,0.3608753437114592,-0.47385782945003696,-0.9526954438081003,-0.2768605995807427,-0.5438907022964148,0.1682589773880409,0.39970940291744944,-0.1601772355403829,0.4717851026174566,-0.5980647327868462,0.0408581289662762,0.7644087145849792,-0.36671830076856915,0.8224118781288109,-0.8167209853736064,0.16581894339918968,-0.7489028709811774,-0.42965315663590925,0.834133834296765,-0.4236396504886656,-0.13209755201220383,0.21438811617219253,-0.6322790033002563,0.4750909281963833,-0.1226649232731965,-0.27339505067488556,0.8614134746475477,-0.10016267972725426,-0.3561238552493224,-0.367898278838065,-0.955986505296865,-0.27922697909800365,-0.9308879434173839,-0.3367540416412028,-0.08940880856148072,0.7805691532734664,-0.06017090931646701,0.009629968539558244,-0.44973663705559963,0.6391112783946602,0.31090394778909136,-0.8575649362558398,0.8884995564856445,0.5284525451286016,0.8733685396902793,0.25880211256036284,-0.9040311725649983,-0.5604868711331874,0.3843029728643393,-0.31044611489210316,0.89335208830421,-0.7498623346607366,0.8303989769662206,-0.31413659215252104,-0.11113080074896961,-0.5794477969038068,-0.9270788405563515,-0.2620647670523767,-0.045717026920575284,-0.6433622624647571,0.08869117292830046,0.7380503649340945,0.636443226048736,-0.20724957342895228,-0.7112342702864327,0.06593912694890551,0.7815617074401473,0.6894707190648679,-0.7343153955170525,0.8111160554551635,0.34906997224089853,0.6553362390851102,-0.7407880456352777,-0.7803557952179172,0.7087570728476936,-0.030779519268991237,-1.0218159986552362,0.5946917589399666,-0.7515474045903561,-0.4037679212560803,-0.7461727617088268,0.016604829783472067,0.4629426768545753,-0.5289189348661729,-0.12222794224725987,0.32574265775258826,0.6610054112553327,-0.7502197916760316,-0.9809627898331839,-0.7010160578473928,0.7011230907422679,0.37298188437377994,0.8384896499668539,-0.5739337118107256,-0.7526654595099473,0.6407035272394352,-0.7778316487418633,-0.5119883669470461,-0.8200939096624078,-0.19928087322327476,0.01219261411766836,-0.10213218695940779,0.5293745512133105,-0.7615363858765355,0.1991028798385185,-0.43542742828806946,-0.04175612779310235,0.6548850868649672,0.0038918599177855634,0.8311288082310784,0.18289959877093642,-0.0289369398901018,-0.2517160017357747,-0.7011465664913076,0.4647472969130703,0.3764844783319656,-0.49909118067941294,0.7720339588126311,-0.07927956616223687,-0.18935856609795146,-0.2259918307918882,0.5383695436205828,-0.4382855989595003,-0.0544586435164136,0.5454696485036231,0.2279573034877608,-0.5228335995816348,-0.3485913396010652,0.911494824646746,0.7964354631547025,-0.823641337744191,0.30480984077793655,0.06707316222523502,0.10664557909413837,0.1603465954125711,-1.0489428920444732,0.39594338732557033,0.13062535704497583,-0.5165864650706173,0.45722197061370656,0.8975910417389807,-0.4149771250256871,0.974608177435399,0.04389253442153644,-0.4956661489274908,-0.5057652049822898,0.3937371757086029,-0.06366161244809222,0.4171257961260713,0.8644958852456945,-0.014452480134092657,0.1503877493299887,0.8257457915720796,-0.6646188451473434,0.442482819825398,0.7408295250814881,-0.5494063186117394,-0.5143245953616643,0.9391405260720793,-0.7894613440218473,0.24731778460687415,-0.44722555150946125,0.8819088306519852,-0.44509488671161784,0.9380570716220576,0.08846574588795873,0.4910539914211638,-0.000793946142120307,-0.7604885583750451,-0.770843667351978,0.8883376150645493,0.6992414341759289,0.06040192938478258,-0.792933122908411,-0.8912112932836675,-0.8825163011500303,-0.4587003224778115,-0.3686360524245591,0.7871327806242995,-0.20405992223239303,0.7107313034748136,0.9854490009515705,0.019385182300763727,-0.6184951736127322,0.8683269562219503,-0.286660830901428,-0.5917298384635558,-0.10522836216080383,0.2452087932313227,-0.5877015864094776,0.7407114052217089,-0.2206401551870614,-0.4558184325893673,-0.6425628803296483,0.7061688870251701,0.8989035144498935,-1.014043515457188,-0.7040081784835422,-0.5550614190882179,0.12931849726920444,0.6808861628819357,-0.2913815362693545,0.31932199063477196,-0.32343176543778474,-0.07848316987130403,0.7669996396171846,-0.14186270688850708,0.7041204503831089,-0.0670077455238783,0.7692770039910531,0.7181310198966693,-0.9307330016550831,-0.7364622295840738,-0.8437983101349241,0.8574784477720332,-0.48261384187825945,0.45207914309543185,0.44797749970213957,-0.31123074952041563,0.28730710619094196,-0.5280395644641304,0.8773687968988253,-0.927245270052044,0.017601586951105724,-0.5602125834009497,-0.9070836273426744,-0.8504134300234136,-0.5755998418889663,0.12968273880311249,0.09569969966476971,0.1308941541913873,-0.6844857359044029,-0.915540321862999,0.43426389349601635,0.08549413942955504,0.5535180537705736,0.7804018939850488,-0.6661363717971266,-0.878958776624114,0.24910032121868847,-0.14400415182789753,0.7876390136218394,-0.6019739165638693,-0.5829970580593332,-0.20536004064421154,-0.787207910942572,-0.754332775141538,0.6908387580252372,-0.6539611346835832,-0.8625223560375956],[0.5924832411497094,-0.913557989082009,-0.9385802689292826,0.2907015142823823,0.49549986364005166,-0.218189691361061,0.16990713224072654,0.5585270940710824,0.5477173232104965,0.6367449075409392,-0.9474784121950055,-0.9033252351812492,-0.1048359762065471,0.5887194257263955,0.7806960933231908,-0.2336601011613666,0.8935280213563462,-0.7516210074165756,-0.019317193436021715,0.10014094486352175,0.7600736172859035,-0.11144026125520475,0.6164941810771104,0.030813509729491866,0.4121289109904021,-0.2727632168473288,-0.3292193781993543,0.7289109818513152,0.4523070547944676,-0.3663254124854482,0.3721779883197385,-0.12412365749150364,0.5633228807799283,-0.42445434010986205,-0.1550639621599345,0.20782287896666726,-0.8377584520594222,0.7664372185351085,0.87908456381487,0.3261649786020863,-0.4070275362892888,-0.6386946922790587,-0.03376223568231874,0.7077306304177645,0.9337178699550258,-0.7473038241957018,0.7979491425934443,-0.0782099692449029,0.7070746215815988,-0.5518461565784268,-0.6233470475658086,-0.6996293968258253,-0.33074077730193224,-0.135049254996156,-0.7870662683035835,-0.39310269700222256,0.07254273156363111,0.4415247434302581,-0.2842704070365778,0.5707502927951226,0.1964174315302657,-0.5905243353541265,0.9115300415223844,-0.1565749097321511,-0.28053313028346966,-0.12804852287954657,-0.602928835554195,1.01235977615185,0.06072283158054305,-0.10194955169483162,0.696696347910989,-0.18607753176660038,0.3501610992382489,-0.8442185208976314,-0.22533074298660224,0.6643602544918749,-0.7027888160597768,-0.07099212616975384,0.02010364711164268,0.5394303884294736,0.09226101919219172,0.5092199045354453,-0.5244072657480967,0.5531447665004272,0.3345497900257953,-0.7393199066680713,-0.8817511879123132,-0.16700305250961553,0.1159261183443156,0.08872931355002132,0.31600279089441585,-0.02981899568891041,-0.9703888225856069,0.8247352722534059,-0.43481040662384374,-0.7569305222601824,0.3340173181737685,-0.9390890026100776,0.9706545576710057,-0.35959554953623507,0.7091259474190255,-0.03477895211079521,-0.13419602306466893,0.985656760765886,-0.8726062307317993,0.6702158603006468,-0.16686285476869325,0.10214613718783548,-0.8040927186557909,0.17353140524710142,-0.7993320961829157,-0.344353693010305,-0.7417563235247211,0.9172477032908176,0.36544847435645456,-0.3635445613625654,0.5342998963078907,0.00491782268995079,0.9423783627672736,0.8551650248106856,0.5751199703903499,-0.06800546633432049,-0.44837858569737776,0.6369354156818587,0.370378781308159,0.09523225620563028,0.6658952152571193,-0.9324123698629155,0.37936758953967886,0.8987566332765634,-0.8267110365279352,0.3389797292317695,0.8878304173864197,-0.5790717266032228,-0.7750056243414212,0.6249025828239396,-0.8284056575709954,-0.5192190232817497,-0.7975856714947481,-0.3138392133097273,-0.7721044558085027,0.8472853267986624,0.031522027363789076,-0.9673362131843298,0.6315043360427637,0.30569506793398155,-0.7079576210035107,0.26819929618921134,0.6901603904999349,0.543084688146086,-0.3626050635556989,0.7841663554963646,0.8123265650924176,-0.6680516968291684,0.23479393171604976,-0.4132547414702895,0.019433304029888826,0.6066840773348693,0.8034383146568338,0.3350966898222797,-0.6824892648815029,-0.3131223076423238,0.6344384809328354,-0.6673943490050972,-0.33757295708585,0.7406363346848145,-0.3838220908613875,0.2025465828518363,0.9328486420193678,0.08882472447514492,0.0000662787329895445,0.8849809075371277,0.37979561177189475,0.43339727597170014,-0.49679153727064185,-0.5459208393302468,-0.2771094563694703,0.8491232205333773,-0.8185441369057466,0.39217305913909284,-0.22635105138112613,-0.6913493662336593,-0.008045591208263422,-0.19093560055376588,-0.2977788783506225,0.6506228631968616,-0.4709637189279604,0.6392261814905711,0.21053955913638298,0.7356339680804059,0.5795022717068726,-0.49272810252348614,0.9645954086817382,-0.8868267829168374,-0.6410515634886809,0.8679187243516219,0.8747945548352877,-0.07442239238902892,0.016492344095189612,0.15354278999517,-0.01694250284807201,-0.47789283326505405,0.5749752726900612,0.685518300108829,-0.194475278537698,-0.3269556033512644,0.8872386276327736,0.5360881133950973,0.6064613177350627,0.7382343649547262,0.2741672596480415,0.6029424201687829,0.8477959675398506,0.6345259502292927,-0.4897720953387282,0.3893787007157621,0.8532147232802749,-0.9253980145569852,-0.892243493061732,0.5988113796643901,0.7281117677810893,0.7434492701802559,-0.8960183963832741,-0.5589114194339099,-0.6639820385799085,0.8469967642197276,-0.22151580694709097,-0.1633849711977113,-0.18454170799490974,0.17980431767159658,0.48995871302992855,-0.9388678773462608,0.8157537596612977,-0.6695390527833751,-0.7209389929334238,-0.7795103798449343,0.22990264410764108,0.40004113932099566,-0.2970017096132481,0.9668899423021856,0.8810007875280326,-0.5665471868859023,0.5790728679252692,-0.2656607450282425,-0.10979575392856011,-0.22783786257472938,0.49793585992680145,0.7190763228421647,0.4420223557822073,0.4671576500474047,-0.043798234760065086,0.8207578636075616,-0.6520458350532099,-0.780037715004374,0.29848608631759044,0.5897368998724215,0.37827903600662194,0.9679650122796724,-0.1668611019639131,-0.33788069258847236,0.8169789676024969,1.007102544469022,0.16970646975532117,-0.5870344691695788,0.9653623111114289,0.8532202973481365,0.20044738971951367,-0.9199828641043969,0.25005438341598946,-1.0054130375591446,0.22880447008031415,0.6882990769816839,0.7463387175704101,0.9257891098405476,-0.142898338808409,0.3411886867763809,0.1510813713785118,0.6503145128203508,-0.9549609607041041,-0.46779350366328704,0.13535698233052784,0.8217670833231099,-0.04405541934936079,0.6106518907269639,-0.7099307982404849,-0.5990781284294456,0.4066897714294536,-0.0026930822974148435,-0.8211961080953364,0.04004738354870148,0.29889158821868844,0.8193437689300602,-0.16162275144697347,0.5483313498874984,-0.11633253320044952,-0.8602627201743713,-0.7129844685162995,0.8934640276280995,0.8384324589277187,0.6540964145274937,-0.23226683357229536,-0.32065373606517616,0.11479785525547423,0.4540473761207996,-0.13123002843471632,-0.6784962977879646,0.7253584121319127,-0.6484825231305131,0.2624077167655656,0.029881971006242958,-0.8442789051224121,0.088649436886002,0.6059449806377285,-0.7245769590036453,-0.11010252229647108,0.19619029500793034,0.7849144551397919,-0.45334580468592195,-0.706900797860192,-0.05417186469220828,-0.8181346443837643,-0.7595627534572474,0.7991545532390012,-0.9676937785484148,0.3416872496477417,-0.250319562817981,-0.4456879789912825,-0.9236736021282468,-0.044161187147342185,0.7335694587589329,-0.07751111813377262,-0.4617200178471369,0.10271935890908253,0.20586504482449178,0.2513225207663848,0.7638806661508685,-0.6180370057555249,-0.8721073745144642,-0.476356519538698,-0.7318748285204129,-0.9684970752569882,-0.256567064541312,0.4211164732041763,0.6460784245063358,-0.7386497950085638,-0.5334422018740723,0.33703235766912304,-0.6858700031206105,0.45711460363646916,0.5733994941362959,-0.54090236707445,-0.20291045218267137,0.557156945860175,0.34958735746869357,0.13148629132456913,0.8182780461097096,0.16637888049327956,-0.2932747876344184,-0.19921955717129694,-0.7613257136035653,0.6609239791931736,0.5866807044287019,-0.7295633153058071,-0.24597259368249416,0.8128091994612806,0.5484048940799555,-0.7196117235510305,0.6739810140855029,-0.9831098943149792,0.9611118898295543,0.9309071320488793,-0.8431300254188617,0.8264946526285102,1.0011363957019823,0.6073179050732403,-0.23322988732128438,-0.38993825360296835,0.03236764123705602,-0.1046685432324749,0.20445087204894472,-0.42301180982144815,0.14551700470176954,0.9530766221658851,-0.8618293468314276,0.6284860053675588,-0.07417294249518668,-0.410402499370852,0.45645668540580725,0.45731505601558814,0.5316981882690092,0.6994345915427289,0.0032068348731255658],[0.6759288064743857,-0.46099882685333576,0.89967544822978,0.12621636904034622,0.24860554912248414,-0.3676799933551627,0.247659761493813,0.6182219934557875,0.6589986767274187,0.3260988941435547,0.18444543070990846,-0.7593240710231864,0.8467946161745913,0.34338256077563933,0.185978541599458,-0.8684412718127728,-0.9970145355340639,-1.003894723778275,0.12712155653808882,0.0480868016375102,0.09686867503412629,-0.7207732299958405,-0.45568769833006867,-0.9934841420076723,-0.5414878696114488,-0.18844808896777637,0.12621078544923967,0.9710068917830219,-1.0314287545860463,0.9723599978985369,-0.3003898987390728,-0.6187869463991007,0.539866536390034,-0.7552981796643965,-0.8462814831793319,-0.34467302153819523,-0.7736123055961355,0.320543159799336,0.7383520111744287,0.5191828144800346,-0.7138220325795734,-0.5338776004722166,-0.6118806656313241,0.9126366805985571,-0.08420585597508062,-0.18638769428573004,-0.29005241345218014,-0.9216149577491809,0.5964221512896285,-0.12323708767485135,-0.4309539727547173,-0.2208621984118635,-0.8359719568820997,0.4174933120613415,0.7901101851306228,-0.7606511125908596,0.7766706621251683,-0.4321210382897664,-0.6356304103643835,-0.47413283585413846,0.0684386302423148,0.02035630061425068,-0.25091963589266914,0.1551583993517059,0.6605230916968516,0.6671327095159223,-0.33671388339601543,-0.8286331488734392,-0.9537883531447632,-0.5313584875720936,-0.6468034316607281,-0.37266041063725,-0.7890400042195403,-0.08239467039875367,0.9774248773540085,0.6263250959681745,-0.07391045044256973,-0.38011029019291664,0.27870278529944287,-0.4257768587651094,-0.41653727426699116,0.5543597361009115,-0.6797818449268953,-0.4206915128517654,-0.42097673389068774,0.6645279526151726,-0.7934959530319501,-0.5269515285258026,-0.42260737750471716,0.1730683479521979,-0.03484961035456629,0.7358988409542666,-0.6602189053508588,0.8454955083404488,0.426022689447509,-0.2671038245189575,-0.20243922854659027,0.0005031014652778665,0.18941646553426258,0.2875457157323719,0.6071827778081961,0.15808003435907242,-0.09061589310800305,-0.44470138055532654,0.8635026928235707,-0.7823542204019485,-0.5502887319159314,-0.3143230802727205,0.8415024071823606,0.3289584287159735,0.725318747065601,-0.13748001218307895,0.04175720360683849,0.32565817920483403,-0.752603357129102,0.27300368059455044,0.32789455442906723,0.046798784523784415,0.7687000729848035,-0.8109804800830926,0.6158958347860327,-0.6950041986514043,-0.07197809501609195,0.5117772876105492,-0.1216327569146498,-0.9563750460808352,0.26984145504476403,0.3736054840989587,-0.7685680760528679,0.42420289481295753,-0.3977992814953712,-0.5049637125684189,-0.07686693038039134,-0.4567115474128443,-0.5957992290750186,0.09824511419718887,0.3441279607547092,-0.6223672099756882,-0.8823496237053184,-0.1124226453917291,-0.2304724590807002,-0.6110326545029541,-0.4254776863821701,-0.0892889850324317,0.2099169251748562,0.6466673454328038,0.8865761615725988,-0.7598000554942377,-0.4768998438939539,0.23019935005455813,-0.307243302024283,0.6286983678965083,-0.4751307075070774,0.026815075404540967,-0.6849123975742277,-0.36671761386642265,-0.9062279057861373,0.7416002244574885,-0.9040208833305979,0.7788330760637888,-0.6188651126072227,0.1550184570945246,-0.8395378630781792,0.44371474571411806,-0.22166900548588475,-0.9442929432742508,0.20171611488002508,-0.1600894499754084,0.6321299965909939,0.06968705420878842,-0.19667306247956495,-0.8563084690021133,0.5417186770709633,0.7852389645451923,0.4101647688519104,-0.2730045570203115,-0.8061499551282704,-0.4499218857868114,-0.9495015683754504,0.7569448964059712,-0.7775410926217989,-0.69152298340126,-0.7628038107614086,0.8977020988339653,-0.16639265220874094,0.2546898138875667,-0.8651118081298178,0.8774374752433166,0.3865336263319629,0.7039843894041002,0.1091485445226634,-0.7226080657748817,0.5087956616845006,-0.3392934538979947,0.27790675561647504,-0.9705619268619092,0.6209083278039885,0.9206161625850479,-0.9719851150190012,0.49496542976104024,-0.4051990019929835,-0.9526056790563585,-0.4196735875400283,0.94947580861991,0.34396016977082533,-0.764832170128833,-0.46336238351436654,-0.05078599766125829,-0.5042516452700578,0.689869209825969,0.8219673767018354,0.09213769034863205,-0.7918044936064043,0.5520883700847442,0.41820116721380746,-0.15871164286539238,0.8586026830910355,-0.5580817122453702,0.37408085327038026,-0.9611275864450558,0.09110732917613923,0.26813221227971995,-0.6840050499696906,-0.013390902131974162,0.2875260323295377,-0.6649609183931923,-0.49629024448197806,-0.8643695293220977,0.7888376440108326,0.22717508233699962,-0.6207999664672899,-0.6371657217742277,0.04678701767670489,-0.4535274632566251,-0.5320963489714312,-0.06374451352835703,-0.26916977234394773,-0.1844239578147596,0.8020709507061705,-0.75843380759353,0.005495326619363461,-0.6302449766252607,0.3518495437097128,0.6689178305980966,0.3061258105158716,0.1285249566982182,-0.6439983760621422,0.8170143944139838,-0.765963973547367,-0.14342714115439797,0.1743568207512041,-0.8592632662509502,0.9706709773948985,0.7112045820345946,0.36387331923901983,-0.7646238869898883,0.13925168456010922,0.5801029643682682,-0.21837800168632937,-0.17379531746981897,0.44389890891065725,-0.6649795272790616,-0.9498421972752544,0.591655164795974,-0.4287735558750974,0.9851715847074692,0.19165151796293275,0.2796189430665396,-0.6475971704853682,0.6581320934054166,-0.8896638601035273,-0.2354502542182041,-0.5520132566584868,-0.584390744823849,-0.8546615710721205,0.18264332721602677,0.567869584163716,0.17387004748277482,0.4975786660105819,-0.9809177372283059,-0.5216544415560461,-0.9314004634586177,0.3479671288683746,-0.7007705300791024,0.21161089263903274,0.5654323839229919,-0.8820421791918728,-0.4826432431836672,-0.7164895152902406,-0.24668785610311791,0.6894889681864057,0.48946159313122917,-0.9312194281743684,-0.8213776220465484,0.8571852474830137,0.7021060012072797,0.545494862633449,-0.07163011472743888,-0.6079322472830679,-0.5353017814355187,-0.7476987209979026,-0.8413936832077753,-0.18993350745544443,0.7858909737407187,0.441800983197895,-0.14994993259868683,0.18530845131646606,-0.7762734060196428,-0.48739301748741426,-0.13342102173675874,0.5985819704380451,0.13746253005522333,0.6429237407592043,-0.7187686849456738,0.035284073397042814,-0.9442761115121553,-0.1015880847140355,0.8236524840448987,-0.16592996025124274,-0.14517232585144302,0.7411263006519926,-0.597668643422328,0.94501343324085,-0.2367824214173605,0.9330859170120458,-0.6332639577344907,-0.8792761905853694,-0.9387107166997842,-0.8861536930293412,0.10489583775325316,0.18552894625063895,0.8776819119398628,0.5076499091111137,0.03539071155564512,-0.10208695028642781,-0.6824913661034279,-0.9121603466136142,-0.7898865542438266,0.2543422899253218,0.9749561767597931,0.2408647565983573,0.7282835985355376,-0.4608948140713343,0.7586425048958413,-0.5421453753587746,-0.6790688638648784,-0.8014042539959864,0.8386992374343526,-0.9492026639311403,0.21555651507781656,-0.709252676985466,0.46341530563375166,0.0033329201567001933,-0.26635361285245657,-0.7956170815074861,-0.46333023192040157,-0.6019442295212498,0.5530066629895023,0.6963166560244738,0.8285918114057397,0.7629689524441151,-0.18602312852448588,-0.6209286393697073,-0.4369390765514901,0.2932993997841087,-0.013032719248366484,0.6389740719170859,0.26789219182208146,0.07267336009101408,0.9874317403936925,0.5406619603304769,-0.7827685933381661,-0.0982630690484071,0.3978903666607751,-0.5093239257550505,0.23315566459239723,0.23071751199736337,0.4527101859031797,-0.49539899315763647,0.08420339216918898,-0.5528985898449854,-0.515910077433785,-0.4640208069556862,0.6664604834537978,0.9957641093189425,1.0054341837785055,0.19117969314082722,0.6099731746930085,-0.2737314895451378,0.8414602067608443,0.5163010440183495,-0.5084132557564367],[-0.9617109111125026,0.8426993455552031,0.6878850316977073,0.6967198437770071,0.8260311806259469,0.9910404053712463,0.02847261262914148,-0.8733394778770359,0.030648344768200362,-0.29962471228692955,0.011523624355119453,0.7457017645111189,-0.7915980019251543,-0.5172144150397966,0.07068243235122947,-0.6265589863264261,0.277903168323174,0.7035808006799822,-0.7597896441639899,-0.9530689636288691,0.867248675214459,0.8999348952775046,0.7033804280403209,0.6637599854264331,0.5627393310535181,-0.20320918336998514,0.2656274936804226,-0.414572044477311,-0.05373648924296897,-0.6277361904473889,-0.22759342668793398,-0.6955678640014843,0.3877991432170975,0.7882236427270315,-0.4166238396525026,-0.7717984529812122,-0.7170217590996001,-0.317360076862961,0.2253015857395706,0.9704066142536049,0.8822438497564111,-0.4594592282284254,-0.3481640998490356,0.7609245574428027,0.08104386410372942,-0.13492203975416828,-0.4737432335816795,0.5490430878768061,-0.3352588606494937,-0.5885486339779448,0.894316482302688,0.6128473839910967,0.3313660838584213,0.15352878127724512,0.9285000477402311,0.2567053904488174,0.011995194124840533,-0.5188570797381418,-0.23465186216005032,0.29976328701172694,0.01907697661341816,-0.17294873999567856,-0.8127431379595588,-0.8226158719060696,-0.6541745461162519,-0.6522630074955548,-1.0968064600367935,-0.09178036435096043,-0.42504296164921396,-0.031161143362482404,0.5638895989175884,-0.36089610764546254,0.8840076779477868,-0.617244482747003,-0.49033316104264346,0.7083023580884773,-0.6294985560812711,-0.1492899239820926,0.32484418580666313,0.40340351822143067,0.4262963211658985,0.3955814148619586,-0.363675711078835,-0.6406013905752216,0.8598830358824776,-0.4869000943853862,-0.3336324380575723,-0.4045017532647162,-0.1432470679219694,0.7134668462367764,0.671451249756522,0.06184724144263122,0.1444383507372348,0.5490164825911801,0.18967906236975443,0.015961939948143534,-0.29115861521284614,-0.31851294753342296,0.7196225897329429,-0.5482762466974128,0.6408071153792319,0.12520312231746128,0.7884856970920645,0.491642467463918,-0.03544640640430229,-0.6957281040165063,0.9503917421168279,-0.2178438662265211,-0.4756753872943794,0.25522199430833914,-0.702151731680597,-0.4337143398857763,0.3289793736201381,-0.7097000537893922,-0.701718109959985,0.2821054771245386,-0.5528719831814505,0.6280644082712603,-0.07898009726138154,-0.8979710474510989,-0.7760751789349227,-0.04159676096126377,-0.928036553565346,-0.8574633622324983,-0.6840097571453407,-0.6037849931058914,-0.3373502173275536,0.3233369832408032,-0.7985547793886725,0.8827635157421195,0.10866116799823428,-0.6445763435359705,0.1510876039615358,-0.859454084215339,-0.1859109116346305,-0.0936224474672811,-0.512381575696181,-0.9620935937371765,-0.08339018538768686,-0.3314461053282375,0.4236052016692114,0.7039050361951158,0.23889723908390678,-0.7048790823009395,0.9552673414149981,-0.5269176776861145,-1.041706308905945,-0.5622395838998708,-1.0698343908712828,-0.13107673092754374,0.7560757544507285,0.10178296783792909,-0.534322301146886,0.35117588653342435,0.0312885501325447,0.3478707125473396,-0.47800788970077024,-0.07277604419891841,-0.02564947570229445,0.9596696860115645,-0.7182764276639466,0.15118440574898181,-0.5836849735483882,0.2900782383675217,-0.06557207056689414,-0.3962591971710449,0.18263392637367795,-0.5770121038800674,0.002520068561886875,0.5874675318992845,0.04422947995945973,0.2266295798513964,0.17286380142579186,-0.39798158282557206,-0.02546972942109059,0.4465325941517126,0.14319008965468927,-0.21737466140738354,-0.05108139724764782,0.6551097469259666,0.18030664744920455,-0.04234369038509664,-0.6180885948310737,-0.5446168874932387,0.401292948567527,0.7020283746802647,0.5584450086300313,0.00817920811614028,0.8046450942236661,-0.14138160470473882,-0.38479899083371616,0.6477800060098935,0.11871885980795285,0.5578701779791817,-0.48306289032966093,-0.022084074414828778,-0.8753619019932614,-0.4493132414412486,-0.3789760291444065,0.4864397694181907,0.9385324860806015,-0.3315741770875752,0.6101340347963655,-0.49960414132664677,0.8859517325070374,0.8595470246168169,-0.5264944552334376,0.7913477797024894,-0.019440454483180936,-0.3067816771753233,-0.4186744279529688,-0.37075103409586674,0.5500687512132453,0.2501151593773128,-0.9365292748201993,-0.4314195609468349,0.0036785731565051765,-0.902888963694914,0.43721889140072095,-0.4432554885891538,-0.3703653063870554,-0.42083599656259835,0.3598244444831954,-0.7806992438269397,0.11027893909939966,0.711704611181104,-0.3694766197461885,-0.9412883759434227,0.18542758318147382,0.3324575266850326,0.364569778423594,-0.6832533615498496,0.5779287670578005,-0.7991803777560533,0.8871635611529193,0.3614578095999872,-0.18260641955195958,-0.06010114424951761,0.6784020794643675,-0.8182537562910734,-0.22972258151683725,0.02735419106590335,-0.09221070016482764,-0.5255829285504944,-0.43286592135055324,0.9733203177317746,0.4269731294915785,0.2150029970601953,0.5454120830330168,0.29847985471381655,-0.3434417359750184,0.8659315004603199,0.4978979947150941,-0.31830433676850994,-0.0983806340849987,-0.09032097617285582,0.7454909320502924,0.6914331163055546,0.4861307530113274,0.5020554435159966,0.9046399320084354,0.10037911861770832,-0.45956339489744336,-0.7919833140417006,-0.46947983716364156,-0.43752219041191054,-0.19535341234774659,0.2471027191668326,0.030561273601251146,-0.48146889811006505,-0.9109100792161386,0.28756153346657315,0.1687368478981556,-0.47915641232430306,-0.5792048432699833,-0.24262708853354972,-0.30813412387794414,-0.49922175733110546,-0.03555028313398729,-0.5436833657228854,0.6735497973707516,0.680916392757963,-0.11249107292384955,0.0318624279432875,-0.7830559244482893,-0.41432269099545005,0.10588044064514973,0.3075100227462798,0.29622767983887016,0.2880090242329367,0.4890619712763678,0.33967640928884507,-0.3204715186146432,0.04599266205769542,-0.6827416473289114,-0.985700154029376,0.09993287331793811,0.7817357314872931,0.4030597250666832,0.8509346680544878,-0.6861610569424972,0.05640756550932059,-0.06424827235412608,0.3871985260576979,0.45081597665601075,-0.680555505307631,0.5619714114775655,0.04146747663391653,-0.8682777707030237,0.7415758034982417,0.31046236997324994,0.7953682210901856,-0.16501063091924678,-0.0019660732050280232,0.8096617681987904,-0.6765012025238961,-0.02828081253171459,-0.9346717596681251,0.47760137876779996,-0.5652743027239595,0.8124284426655863,0.11203316981024411,0.1560698341311278,0.7870256817707534,-0.008267635179373125,0.12796022574491098,0.9896295635141308,-0.10903199687778509,-0.464594914160195,0.1938370674267449,0.7275877086178137,-0.8020203680526267,-0.5626174724699985,-0.06405981787487874,0.15871181311045376,0.9800538954292342,-0.511742226648888,0.255932296773047,0.9134297905592642,-0.11481075975840718,0.12915312052193545,-1.0066052067147697,-0.6833089049300651,0.7526545982363744,-0.8966732682274235,-0.599627931979558,-0.06956347627328863,0.42412151766960743,-0.7036453019114612,-0.24369835363111075,1.0136386223739418,-0.16383289494799044,0.9076159566799257,0.6509090693957386,-0.6250993955912981,0.5090918821444195,-0.18907454237357266,-0.41028623678268233,0.4601797025729793,0.8924277584326877,-0.7947850000648219,-0.23700108187436128,0.934557175701745,-0.7121625810775134,-0.5762097904486148,0.8927694040028674,0.14751256004360674,0.7488604701004853,-0.8117598921215485,0.12781253078734978,0.39486241729678684,0.9087306292765708,-0.6663389368232431,0.818570534710715,-0.09943230331157492,-0.791006641429856,-0.3670962253923275,0.00819961938195451,0.7094488993538781,-0.23670330539664453,-0.09814519497958614,0.8226834328636825,-0.8853865536442121,0.8680436639584154,0.5931815671443571,-0.8015065212708008,-0.4444949234853632,0.9802069891763109,0.15892279013277488,0.957599833939147,-0.6544131730623037,0.13173053107319713],[-0.3630082419081985,-0.786846621294664,-0.4016504587404634,-0.7747977603791967,-0.6237705153674691,-0.4244212318828714,-0.6783616448717407,0.3992686538740088,-0.49849099543116454,-0.7360720036609788,0.8672262202064215,-0.3677227132485521,-0.7778790581847952,-0.635606501850715,-0.5187743183393713,-0.6670542025017092,0.6511422231275297,0.7983900683127463,-0.946032487667078,-0.6089585001060348,-0.5729340314796104,0.39253285210240774,0.2359597190379221,0.8628829622935471,-0.77994747284997,-0.5659867289051564,-0.6982674638495754,0.3361774602695789,-0.22641055434538596,-0.4157037119137569,0.8960019066369619,-0.7327620692934806,-0.1762249838186993,-0.6199796725410129,-0.5425860527029871,0.23714333972837712,-0.22188681816022607,0.7389522730217096,0.6699219886808792,-0.18967073367991708,-0.6682245681656639,0.4777475008669823,0.10233503259243217,0.4231893527035741,-0.39207336921163366,0.29157550075638305,0.6421491378783775,-0.46699165035452034,-0.2318591056848722,0.50726598661795,0.7682712861061963,-0.12529146657334214,-0.5979957887155087,0.3928180435255971,-0.18574610889129986,-0.99060193474298,-0.9773136790400673,0.5144755873416386,0.5591123742976934,0.459582100279605,-0.6588815267297631,-0.06642881443916747,0.23646863493936798,0.4221089470843494,-0.12944580206278616,-0.23751566265578944,0.42216719743334563,-0.09860190096653244,-0.8486894274548291,-0.8744448463942883,-0.4710234928732619,-0.29465896123093993,-0.5060809639718463,-0.6962871804423554,0.69429038890001,-0.6066571126808475,-0.4515748654202813,0.3904173102655043,-0.35305204497528897,0.6879770556340759,0.01671186856407596,-0.2875171724725986,0.5295445471785872,0.0857289881334911,-0.14661919544788646,0.9105655206216294,0.37706218392595353,-0.035778291839120055,0.6617579071834063,-0.7940605607512823,-0.9694837618531296,-0.05536419994386696,-0.6903779922968801,0.5088541725489848,0.957811476844243,-0.5397321400612065,-0.04167757721694834,0.037814735077691994,0.23153679851057732,-0.001997299705552223,0.7582983829310147,-0.8254239151508758,-0.46148359567876396,0.7618004964083471,-0.7592333624213274,-0.5632465117089536,-0.9635478499424943,0.86746079451961,0.6446586530742909,0.310243382221212,0.7335112357693724,0.5998082545948248,0.019431449191355074,0.1539572683962309,0.6543986149647263,0.8886577592157808,0.5974736616209307,-0.22033165871323868,-0.2678819340049178,0.15456117907781794,0.09906327442302752,0.060112125536775106,0.3951059098278313,0.12471854910434152,-0.38023558732971413,0.41265998775602586,0.7344069406585984,-0.22895585083531814,-0.9852716452563204,-0.3149071510483266,0.45388933395980363,0.1463218908319504,-0.33278145362690287,0.18344989715915017,0.886255631979688,-0.39472999738394704,0.1538003948652996,-0.2962204847857409,0.6528797095786155,-0.69783740211878,0.3161541755564923,-0.20610559248591234,-0.9381078770661009,-0.7330090338775505,-0.5176764666946916,-0.5801917924794555,0.3040175708724309,-0.3104675939149151,0.6324350819478987,0.12911226065904613,-0.3990111524389839,-0.7823685535188887,-0.5826011872347784,-0.6845993165239407,-0.7076798754257867,0.836155462306419,0.8232040647566911,0.6395686512512369,-0.06795525534281828,0.16912329322276712,-0.27874601831257306,-0.1112864897231276,0.5897633050728276,-0.8213576910787107,-0.23252987529907404,-0.21056903227071813,-0.6441005617816322,0.6625297982913635,0.6431500483643149,0.5293114928242779,0.10332682638568597,0.4212406627626338,-0.5784125723565787,-0.05503032073814728,-0.40671338491844683,0.4356204162232905,-0.1218477154805327,0.32783317130324535,-0.7453027460201067,0.7151229871857445,0.48353138267326257,-0.9717985014653421,-0.043215179872282544,-0.3158233683913552,-0.7412807142873854,0.8961318445583131,-0.05989259033713947,-0.1300697766722562,0.9619710768224846,0.6874165462517142,-0.00432329853061584,-0.5343125019739122,0.9198922371492163,-0.5040351186092387,0.23607445284366763,-0.34339252158902767,0.7003849794010704,0.50715182340587,0.3144302555101631,-0.31024806921033393,0.8577654827114218,-0.6339819399648857,-0.779990432606142,0.6183441875695219,-0.7387060071862134,0.5107530572506707,-0.2699225934178131,0.9283833936662963,-0.07318444546917188,0.7572016294599986,-0.11665542357776083,-0.5069746770808807,0.9532137227664744,0.8469433841308314,0.4121227026460899,0.143339306793335,0.7140067006960709,-0.8772624385575531,0.021825528660845618,0.7576736344996644,-0.18336176516870975,0.954338587098318,-0.9976604838863118,0.2616659280103837,-0.5726323405974239,0.0552162237380349,-0.7758650680151845,0.22275504441561264,0.9971758979816557,0.31504947281675744,0.031483493926039434,0.2678957900551602,-0.4580859669633138,-0.8996781052744968,0.5897238872472635,-0.7736195822898059,0.36895069144210335,-0.5952555338329618,-0.8788986290412799,-0.12272729775414068,-0.3701718123809422,0.4548427954752001,0.35565505401754666,-0.11940305980416993,-0.2418247627594619,0.18777362827880156,-0.866003770842028,-0.4836588194637672,0.5317265660231407,-0.19390963770328357,0.3228955929535971,0.6800874628725287,-0.41068646771803613,0.4838155521981998,0.7517633014884095,-0.2726165081449167,-0.3133899800204504,0.3330817816276359,-0.22647585723452573,-0.16749310384059526,0.6304251682451718,0.3998339486100827,0.3646120823668613,-0.17702642323922696,-0.6986910440995872,0.5277072632000949,0.844531381945462,0.912610975872998,0.03549039266676661,0.078629695388789,0.16589016508420323,0.3480227722110477,0.649233566423228,0.4765044191335382,0.48558599878170927,0.6641160493235369,0.0716161030465619,-0.36560934483259455,-0.2408937872671941,-0.2505264007210385,0.8916103407111629,-0.5113233021166019,0.22835423996656792,-0.5141209638490417,0.492668235767209,0.6594324576857872,0.006965088167088347,-0.6878849761002082,-0.2008462816654571,-0.825328839051793,0.5215893813754233,-0.6875542642791813,0.2278965209632756,0.8742991798523205,-0.12679504392975793,-0.21724890211474807,0.38958851581909093,0.019287931608448168,-0.18710529436949996,-0.8115287812110917,0.8100251814328727,0.3941963949568967,0.10720254747022318,-0.28839308145673037,-1.0206804710463722,-0.34811360021995424,0.5363669547916716,0.6275141275522252,-0.22321167396226013,-0.9963751848116857,-0.0894997160180531,-0.5305506586615126,0.6214458607996728,-0.8625436607062585,-0.9369477053346079,-0.2904147243363897,-0.5255379704228392,-0.6498960024086421,-0.2273631013031542,-0.5131883767941232,-0.22477365940742794,-0.26765744803526237,-0.6320699729880256,-0.6279193757106593,-0.8453077206332272,-0.2901634757219685,-0.9415158065332834,-0.7608604724951339,-0.6028301700557175,-0.6468987584328864,-0.16455257213552024,-0.9561878406603014,0.029730749132258358,0.20552837508476318,0.0017613332288817492,0.41951825468820736,-0.7308953155507563,-0.13580446711716465,-0.12838174534780683,0.8296928876832548,0.38186467258778994,-0.2220751953814678,0.40193905193820745,-0.24570590442335527,-0.2883816796779344,0.6072974037296451,-0.3078545859664688,-0.11735660527239515,-0.48771713478973355,0.3784967683683183,-0.7329756017468433,0.1204102592000107,0.737268400484955,0.8348581501634647,0.23769516387112938,-0.06746645323785386,-0.15794972788914038,-0.8540807935530635,-0.8889922432883878,0.31114730399594853,0.40026344082082455,0.7274551863419779,-0.3030036404423034,-0.9609899388486377,0.867161135335938,-0.8788394794745752,-0.35305865932394276,-0.5874534169163277,0.7635167244083434,0.9539483297853972,-0.657767390430817,0.5984913996582076,0.8587976473755691,-0.275082530940181,-0.9649252151261669,-0.3708760332105291,-0.139759844793473,-0.3765571591034698,0.8350316099887004,0.014430009656053063,-0.4825709251403998,-0.10142077194457672,0.8000279737688313,-0.2178473581608038,0.18055710268522715,-0.9747142490088833,-0.6603336737942606,-0.21123264942079337,-0.561209820277344,-0.4174894423213611,-0.8057693065785827,0.7430914168827437],[0.817493078704975,0.8944772235631173,-0.3577349361071742,-0.39040096419875747,-0.8648575804586942,0.006453133495898212,0.8772833646572383,0.18070898561587959,-0.4725812163280843,0.5849687897490539,0.6575795955108216,0.22209173242585667,0.9639613629530698,0.2477468852798574,-0.20074943788793073,-0.003524788229027139,-0.8349580958105988,0.5964313752272103,0.6294363928724241,0.7477725943366959,-0.23098946483782928,0.8612716252979122,-0.7738188041090632,0.9616132470433781,-0.02146711742694947,-0.8346000860227343,-0.027422925024506557,0.17426605255980376,-0.45335462020190553,-0.8561496380902925,-0.08279296350286401,0.5859050196114561,-0.0496731784731491,0.0010567030111032457,-0.027027931521232475,0.7650436301882517,0.056990944055075175,0.8126984351094961,-0.8321094315887376,0.8295838347432217,0.1937218330278746,-0.8021090738368493,0.5417098201319175,-0.7266690418099773,-0.31054017063630046,-0.8827786956317423,0.05588830334012902,0.49872551668740317,0.3962606352673305,-0.7167956992487021,0.5970179152633218,-0.6547021598250028,-0.2669964679830428,0.7638930592028614,0.17892674773682535,-0.913755740370752,0.6223662165161086,-0.2711985688056195,-0.24650054623960907,0.21580833477887706,-0.2434689092984992,0.07697420092758833,-0.7486947380527861,0.6994542860278122,0.663382212494583,0.11104370950841948,-0.6870477296508244,0.5043406288673519,-0.12460068307310887,0.36747877667952306,-0.1123717288877846,-0.522904349620797,0.7171223102154012,-0.414848218121258,-0.6894817496831948,-0.1994209066585667,0.409257448768693,-0.3083252401968866,-0.6413988159501344,0.015219702059071328,-0.6566656044487598,0.29930560691713154,0.8330886616755458,-0.8692025033653701,-0.23434734009588407,-0.1601258678632436,0.6884845763166259,0.27153441280020474,-0.5466564192783334,0.6962521618678246,0.06170185839647421,0.9001100385790193,-0.004663290120290576,-0.9604040806188564,0.14139345713374482,-0.4936292160181365,0.5971922893107904,-0.9098954385914861,-0.0687622528624616,0.7268547217214375,-0.673547669343938,0.8662588921274458,-0.46290322912238135,0.7502111163231483,-0.016432957627938324,0.4178292063526236,-0.8808750197995777,-0.5308694412719974,0.7961483699630503,0.09636609016906948,-0.3861541526894313,-0.6583343181258413,-0.4857805003004142,0.9373828882911132,0.3992994463623553,-0.7174496760794857,0.3577752321968449,0.7517034448255784,-0.4822671755369154,0.26355131032591567,-0.3174015079943553,-0.9745775807894779,0.3817012773369409,0.6880016406618013,0.9590792536269561,0.6143066132135276,-0.5097866330529558,0.6089705338038931,-0.14385855344692086,0.14980436684067203,0.832523859818494,0.4300948763646351,0.4015887776905463,0.9772064824805748,0.39303309319608654,-0.27697613097672874,0.7639873569389629,-0.47482110721386345,0.7191670884794634,0.8261027467724578,-0.10058764002452439,0.03212746284953389,0.7580910016708683,0.10637010183052321,0.9082265205467868,0.48785584434458773,0.35439294186663683,-0.1255057063590575,0.041550227579534804,-0.018862177341980483,0.9830554831731898,0.7496175653334629,-0.3618303766976551,0.4117515208553295,0.6336587695932965,0.8904674594575991,-0.4083277189174698,-0.7945606660828795,-0.4927933563625722,0.19347193333098311,-0.9918078036652583,0.783539956964143,0.4678556219168473,-0.5813430097811362,-0.43076533418498025,0.8149111014816552,0.3744360443310761,0.01332453047646723,-0.24355366931475783,0.8063206514990545,0.6395241988032132,0.7975600107399463,0.04561743203952136,0.25304748026939156,-0.2537050657072315,-0.28080593177783414,-0.615798701628909,0.7325391131086771,-0.47448359188464445,0.7075697389242265,-0.16057387727117767,0.31734527644560606,0.29245493478995227,0.2502982829464366,0.4340195998694683,0.9685062305082768,-0.01369144962256565,0.9152078083393248,0.4901068978313922,0.9481250788875826,0.7894236742772021,0.111680143474651,0.666713317315559,0.0032822996810787167,-0.9656502420610955,-0.6472708088014502,-0.39076910330860987,0.47274861889743414,-0.3564986107924041,0.39251875710573664,0.43021358603405213,-0.5221291983313365,0.5063149188119611,0.2618470356153251,-0.8241134920201386,-0.7102999950344515,-0.367938792976691,0.7035233200352877,-0.4982601005831327,0.0006396947482729234,-0.6471359666015579,-1.0022574293340898,0.9679760616200854,0.4267349658557241,-0.5748610938659908,0.7394127482325002,0.6319149873580441,-0.08498668535886256,0.11314959351203456,0.3118158015587435,-0.5192546531131151,0.765181761966277,-0.7426062326193816,0.9512622556531323,0.10019120207133436,-0.4031932726583763,-0.733167050276772,-0.06123251067653397,0.2730741689630428,0.04047390121303564,0.716319169345922,0.9392109330257106,-0.004476534092132737,0.8194428314801232,-0.7293243358821915,0.7370817331669808,-0.5780087448049221,-0.8264352804418742,-0.9067516283142988,-0.5760595645937082,0.8032013964729797,0.7525477528403491,0.11452959931823957,0.4723997577496793,-0.3661983560164233,0.7585970587667057,-0.6243033350446981,0.4655318585048098,-0.16764170723197616,-0.7293348666007172,0.23483225426093585,0.2096824913600512,0.4428011226665868,0.6018644673859094,0.6071956456506452,-0.5929494522379356,-0.8429384148636379,0.9815463354100639,-0.9245473376194506,-0.5107626104513278,-0.6590360868719419,-0.8584409743669325,0.41383280264747424,-0.4527304657017585,-0.7078745226387265,-0.0015046728681866676,-0.06386899302273041,-0.19667484542006236,-0.6861800661351113,0.3511637942671237,-0.331427553508519,-0.7616254534570972,0.3474709582074226,0.41355555303735714,0.4063582969268949,0.004313933128501117,0.593428759985881,0.41077745013499994,-0.5448825048898076,-0.22994576502895117,0.9696288583666214,0.9693628317954758,-0.49202028575098583,0.8231065071616985,0.38645296718262867,-0.4005098490171513,-0.9545857082124858,0.2782356508588578,0.2922326733986175,0.8759912545247279,-0.947590263481082,-0.7704582973310469,0.1615999109290978,0.47942110886866307,0.5614992769747802,0.29672587734887074,-0.29710245017602277,-0.46027725138719927,0.2576587507684629,0.8470555257853959,0.1048221686406048,-0.9575486038314436,0.2070552969659431,-0.331241730624192,0.7746695770402412,-0.026894637932579582,0.9447296571781485,0.3322521304421924,0.3361260582925966,0.014871041646587584,-0.7243408700011136,0.15119992432760734,-0.05632473549473385,-0.5458691507738334,0.1921301557052457,0.2893447175377963,-0.5599782404611504,0.236615243861596,0.9792024181119253,0.3732681746401274,0.9830783778376884,0.4151886834964911,-0.8523367913920095,0.23709514368525056,0.6839512624740336,-0.4943660701913575,0.3523708580348009,-0.8297687085022906,0.24493978063624408,0.3307441684984028,-0.36888687003283405,-0.664527814006482,0.9700202428538243,0.5079829028388625,-0.766678403079277,0.38441186093703705,-0.17939377366895404,0.11505956384168622,-0.7799970127092931,-0.09058001639088137,-0.09956763831646763,-0.3487249040572101,-0.8281907691991178,-0.10961256542184117,0.12354217686924525,0.20181188465025302,0.7532436083471529,-0.00013180484121122908,0.9615214217881091,0.306075493332522,0.3059143550543874,0.5146352962242816,0.7542026968524752,-0.954386929538701,0.5975143085099324,0.13294382349685324,-0.09075176407652563,-0.18984047586563313,0.1650547012684979,-0.7782540091793471,0.725607924224516,0.7151558160751059,-0.6124893029064142,-0.2978317532959178,0.03965312571252958,0.5848765906105928,-0.7321666078186118,0.5703174514335559,-0.1757261265664787,0.9202078609465536,0.9591744794639369,-0.2715632248768728,0.335329626279392,0.24978071554891598,0.024437697956190323,0.32270581014002153,-0.3081522613518462,-0.38931396977767757,0.5433609708764684,-0.12320284110551806,0.26536750368150247,-0.8423549694075164,-0.24878400082116325,-0.7353557348245076,0.8876361195102619,0.6200011598879529,0.38008352994818195,0.8326299903157602,0.18859030795917195,0.942238066063165,0.17184155897217684,0.39095849896079427],[-0.35682710888071967,0.030335876694324068,0.7941859011894602,-0.09759859319276493,0.8721922628422715,0.0027676584099160053,-0.715500582239666,-0.29479453987170556,0.49090664213098184,0.8505515390975942,0.896965554316322,0.7420294063340096,0.09370605949158362,-0.6381469819137457,-0.5755278372418181,0.22689548299986012,0.12462141149358542,0.02107275321815205,0.2957991106031406,0.5184393470368613,0.4137113908498965,-0.7365443163608799,0.7250855546343005,0.5763785898930938,0.3494638945891895,-0.9043257179528418,0.0760482684993856,0.5843141445425705,-0.7640973154928676,0.782286485552686,-0.19095859419930722,-0.17218257913733137,0.4026627910696115,0.42178154144294544,0.9513399427061283,0.7086571880704873,0.8386253992934795,1.0402043944865382,0.31542647496095777,-0.796670418033967,0.21776272189395252,-0.0777239741537464,0.4854725936480876,-0.7882391501141919,-0.670541593858312,-0.407272215477213,0.0439858713597419,0.8418349906293682,-1.0103485821024434,-0.13410006149164594,-0.06198317761529702,0.6284012812267941,0.2792920860154301,-0.8233679420166686,-0.5026958723364443,0.341585446705971,-0.11987039419224539,-0.9511635787120025,0.9551003194487755,0.8414424687430982,-0.924631321354553,-0.05139399821066174,-0.6955672815429974,0.9496536955081633,-0.28952436872572107,-0.2818164435127336,-0.19858115986176383,0.7216030509011829,0.20445806298050034,0.6560369935703048,-0.4497493621952298,0.39235914092869095,0.8883499700409755,0.059591562898721924,-0.21513816263028032,-0.4048189734749995,0.7809391923072087,-0.670544441369525,-0.7354813670097664,0.3782561019297934,-0.175880603840619,-0.8141452180983989,0.3204941079216905,0.08616268192277621,-0.3503655756569563,0.5735797742109219,0.26178191134761103,0.08696786514995553,0.2832682118550176,-0.6557581597754558,0.07323007380349071,0.4964814971048739,0.0972497979877174,0.11168464611303348,-0.2660399585062256,-0.9630278860677,0.22735573061244296,0.21409440344397931,-0.4308157100598861,-0.7595321140307755,0.9408262760697125,0.20835896945989363,-0.4963697098117554,-0.7154817354681052,-0.4580812135332226,-0.5262634684921284,0.09186840120320677,0.8089364983994772,-0.36758265809324897,-0.6934623392149617,0.38465054085452416,-0.5548891216769389,-0.8464722391538094,-0.452399297527065,-0.756816709565384,0.5716304118256744,0.6730565009907867,0.29874646697601565,-0.07136752595764269,0.46839513794102217,0.5128921022561467,-0.22835661371779456,-0.815149790237,-0.03429939020928696,-0.10710208350634288,0.7159056667185238,-0.5663538853718509,-0.6724455684111842,-0.9295802380023105,-0.5883592302045318,0.9267244900523746,-0.9056812594093832,0.28318967421568564,-0.6124555859853991,-0.8827270084324464,0.2192969619565801,-0.46903164191209734,-0.698350479132304,-0.18641386347398084,-0.3524001838983998,-0.11442758704895661,0.10647671037525809,-0.4089672650411981,-0.7992381063639972,0.24692696051133214,-0.3663102483468937,0.4019857542963281,0.1868068383505043,0.5926055790120609,-0.5027864936687587,0.626868397741774,0.10790653989966408,-0.37080391408726987,-0.789658372470446,0.5135322448838091,-0.43263774797803317,-0.7735088929147641,-0.3955000388821202,-0.21680622922221884,-0.21134669813618473,0.6180042201087692,-0.21288548618231792,0.8493542086713197,0.8241669482846062,-0.31692979047374037,-0.18237732293522155,0.4562642393401951,-0.23741341402266442,-0.121384385540489,-0.9614657002911415,-0.25448515948905465,-0.40871662422993854,0.6158224968224406,0.36671866205101505,-0.386712299457804,0.30731932142650165,0.10225397674516949,0.9468314126752106,0.41988328887268805,-0.8460178118134111,-1.0282061732487742,0.3073066532246893,0.40351158512618224,-0.32916728303511256,-0.6005092182610049,-0.5122057019226968,0.017694022485145268,0.7655588405502007,0.4050582080537914,0.9605545652272274,0.3794682033237443,-1.0152950397466176,0.1058931818770278,0.1862091115686373,-0.9975828959470122,0.05047022525805493,-0.962709855307764,-0.557018668008954,0.8808230817700359,-0.08355820585327323,1.0590829244209687,0.7923028603525193,-0.5613132152921291,-0.34674743180147133,-0.8951427322407883,0.5066641855372832,0.3328245325745864,-0.4325489457022122,-0.7236233555469209,0.5694799798327187,-0.9934882861166567,0.10988604907443418,-0.1495871718286518,-0.763267555616432,0.2527832679761815,-0.8785982427694902,0.2947795530379521,0.5077000215636355,0.6866166826747176,-0.6408205859918524,0.9320981194942233,-0.21798811682589805,0.890546860615968,-0.1873799193216936,-0.4009115047858982,-0.1362145765794131,-0.6257193802052902,0.6495897040544285,-0.8117220457895609,-0.23213271671410035,-0.7024280416223331,0.41989587355625974,0.15840791753018582,0.43435918235129944,0.8677660366989225,-0.6571484988061089,-0.027986169793717316,0.15050035714547577,-0.224830711655233,-0.7819709178445788,-0.5543978305784568,-0.21956463083995068,-0.053165640758922016,-0.15800640630692986,-0.23514253409745692,0.9538365925516519,0.14719597438198548,0.20336044764693956,-0.5363625247573649,0.8410875379877003,0.7352692900902472,-0.03878051183697244,-0.503659085299027,0.45930971691353895,0.0959202316388944,-0.7846629181893364,0.5398853767795013,-0.7301481741879484,-0.03333288110552726,-0.7814839111336662,-0.09455635882615604,-0.7136044522714738,0.7149399702475615,-0.8585380318268697,-0.4853097627344699,0.3645640952036162,0.9826556835592337,-0.8509443867564906,0.5489696824801648,-0.6941279937731321,-1.0340628299389463,-0.210939493754493,-0.9321167557240392,0.31885203659166095,-0.7598495334704163,-0.3615398351422396,0.9154329315256358,0.9584153085581737,-0.3974747883793909,1.1266135168186502,0.8922972085881398,0.7833913067064033,0.28783965772001974,-0.11233736674046348,0.23136570201636789,-1.0142633900724922,-0.18037230717636085,-0.8907117372006463,0.8620940446428137,0.5389014026587304,0.7546806027735325,-0.2961821597228017,-0.7613480769535261,0.8120411261720497,0.2051024125196988,-0.9241975361046235,0.009594408801153318,0.336725374814218,-0.8362686683983794,0.8674478814737965,-0.5454167746709849,-0.8557524880173372,0.03353666188104862,0.3089872846139319,-0.4461435036138218,-0.49733076538695825,0.4364792746084916,-0.06905774720559013,0.6709681068121565,-0.0932355171369984,-0.42033989122555054,0.09812068186007127,-0.5462464758432402,-0.7008696599768227,-0.22459429269606107,0.8833489089921732,-0.805341407655525,-0.06531288871782094,-0.7081042263197365,-0.9283233074253607,0.21510286552607838,-0.8882807947271723,0.3785363181870341,-0.14551891630166303,-0.23389116363206405,0.8287732457967835,-0.5267596474511819,0.14659060361258694,0.3261968030070842,-0.578555189362947,-0.6021899678843518,0.3396992190051216,0.575055792319972,-0.4300240355186016,-0.8690262289364148,-0.24971437118714113,0.9238121965894062,-0.9422925483205564,-0.5857303531010776,-0.20246337394276828,0.29529608859250495,0.6362593152827846,0.30802538649935196,0.3826562148756948,-0.590892303057544,0.863122926747078,-0.4511089667765088,-0.8738855764876219,-0.3842101647502484,0.17439986504230937,0.038282090631518745,0.8785829335497444,0.7874420704420864,-0.5969889218302544,-1.0113120897509498,-0.8114644548182786,-0.8148999136964892,-0.6361832101647378,-0.3960556264586786,-0.10011168797258481,-0.6445301459789583,-0.5670080316330182,0.16983544796441688,0.9334297200769981,-0.6872023634405802,-0.027874029796987408,-0.12352473177423855,0.3893754487369119,0.399741190468759,-0.15104801186822744,0.03814323794350008,0.21407147371557161,-0.6567079112306686,-0.6436064969935409,-0.5594328124172777,-0.5117244703801997,0.8121587350519116,0.7593946871527124,-0.3247835364908594,0.6829948929849139,0.5489941577709778,0.9202150655462072,0.3204727302706464,-0.8723571565322987,-0.6360347200517881,0.7780206639685618,-0.6453160769019405,0.17967306787660314,-0.24591909538453624,-0.6814447408068272,-1.0691372564676895,0.3975184108258028],[0.18571738993419326,0.9520555129189104,-0.6255305023912969,-0.10980909817112602,-0.7193192738219621,-0.8401860660867009,-0.05836606597017399,0.9013724841722311,-0.6504911859092989,0.1430843620228413,-0.6703644119669927,0.43299412024769474,0.9657982375352372,-0.010752234072698746,0.4944696672501516,0.7395071300422067,-0.7712548555347423,-0.4520018216333492,-0.45187077349888805,0.35013786692921844,-0.8384033126330631,0.555341133412486,-0.5186732416430584,-1.0128982472363388,-0.3572192896575307,-0.18960003076296134,0.9575545265557459,0.5843118436208219,0.3758314155257669,-0.846961841871487,-0.9726228587479502,-0.9101123793089124,-0.9121625135420415,-0.037552335907336004,-0.8172732694420853,0.439114979229911,0.9578586652689544,-0.3204805644947217,-0.6274886024532202,-0.5815123694557361,0.6475058691889866,-0.2953619043219172,-0.8185070250951326,-0.699390174986167,0.6728787980102826,-0.14047624775940462,-0.24998573776306354,-0.5420557880640002,0.31581926720194803,0.1909977178387511,-0.04412418300361091,-0.9584747571080238,0.5903826081867173,0.27538636825990015,0.37451687281972446,0.6065829178239149,0.12155037640456678,0.36543873911708985,0.6451564174492693,0.8746511299189863,-0.6947015926400888,-0.8950708328696955,0.6684699999683861,0.20758887515117405,-0.6108748680610878,0.530610079556282,0.9456853120047608,0.6401390731179158,0.5711554275017707,0.8001114546998578,0.3779320415950489,-0.7431876264715289,-0.6473917348659226,-0.6724214691385068,-0.5223060877291773,0.472660308465043,-0.39787585356121835,0.617288764115743,-0.10127316677354295,-0.9403007612371103,-0.14331397821681635,-0.9040649330519124,-0.6547457231007145,-0.17623978986144126,-0.2160316278832316,0.49043793558674004,0.9274463956172017,0.5110965415613683,0.5065688283822581,0.14415552161781878,-0.6207928212119123,-0.5819073437932373,-0.6385759188955,0.538754215912903,-0.5826937379004862,-0.3250324719097648,0.47834933186050105,-0.2692986848760908,-0.5152695448671234,0.34620632579998734,0.7998875191222818,-0.6236890418159461,0.5649727185599019,0.7695670037948351,-0.3481430686461785,-0.027586311580340212,-0.3805231696662818,0.7745949077306865,-0.7234494280744872,-0.810993283057764,-1.0499503037601337,0.5767589339997408,0.3569085111910572,0.196582876287708,0.6358567544548482,-0.04279780177283123,0.8801519771110747,-0.40821648831416985,-0.554801381224951,0.5231413819909864,-0.27753362533621473,0.6492665103663854,-0.48326392197100065,-0.9871221740291583,-0.03638453086490338,-0.9795890808486074,-0.4529116852210777,-0.14566113305382272,-0.8177159957288302,-0.4748880987234893,0.14971768228529417,0.04433032478751267,-0.9472408631640948,-0.14684340902547155,-0.30833059387726053,-0.954692724295496,-0.2794864033808913,-0.3099864778539312,0.5033535537605894,0.3288855938668613,0.5277792239392096,0.021237386489690764,0.6773697355807649,0.5407800544891924,0.4753966435894853,-0.36960548470247534,-0.2628079658844446,0.6472142458965481,-0.38562176834999407,-0.042921576044079035,-0.4428653401326413,0.2907661941322132,-0.8716027671235291,-0.27992873403556656,0.6757590242722601,-0.85490481999085,-0.9115869671359917,-0.8232217242533462,0.34098663170759624,0.41026654044284355,-0.021047506114087716,-1.0071838315274877,-0.35043917222964277,-0.781199377333106,0.5184627912019402,0.3846346712238198,-0.0603283009558407,1.0071958033142712,0.3530555790876338,0.6240355814565883,-0.5510402283078365,0.7200690952109753,0.9661983434804654,0.5298168460188941,0.23219640259361193,-0.03400235434943334,-0.9081425843967239,-0.536530825945824,-0.6763368864592753,0.08423975474218505,-0.3013819094395634,0.6251397869281602,-0.6556437821842473,-0.1852580625690795,0.09198930753993294,-0.0161929409577426,0.21713991174105624,-0.5837238006878374,-0.5548433397262009,0.9813048132103209,-0.4549017921040102,0.36202519109621645,-0.1675561292893033,-0.7527841940216327,-0.04286763511422761,-1.0203404602065431,0.04794237737355357,0.16990889116873845,-0.7345493420033288,0.11081224759193313,-0.24466512811124383,-0.14677213035525966,0.06598289923396168,-0.3060734116579588,-0.074090960978326,0.4206302343314486,-0.9064647410727633,-0.5915508827736696,-0.36962020544550783,-0.39185391906395023,-0.9288190845910036,0.4729979025295399,0.23016408340707542,-0.22310161110630408,-0.9540575956912684,-0.0839320183264238,0.93362281013019,0.7362251120578224,-0.03852757331831764,-0.8055320403908205,0.6997140019528125,0.6084580315668909,-0.670868352041197,-0.22971162782039528,0.1879477195222632,-0.49639773155398853,0.6291246036344872,0.5657039735029986,-0.5301655329473021,-0.0020732511134934515,-0.5014168658054736,-0.6129853245112774,0.05089131477684351,0.11298354208991158,0.9154346943146079,0.38275406887023133,-0.5780547853582569,0.8693381586446235,-0.9633212663702528,-0.8411374304224714,0.20031520514194187,0.656489314689008,-0.7018555924141934,0.7176307525860425,0.809190339747611,0.3065311160587429,0.9173754413853371,-0.6135975630262399,-0.08318600989415212,0.4149336283779234,-0.5330733584652503,-0.1913967230665123,0.21890912415727862,0.8090023236986571,-0.38944217020175803,0.7725079879959993,0.6172114367268376,0.540767484589213,-0.7207705840558464,0.273684985361107,-0.6491877575165754,-0.2538448687827236,0.88103382128023,0.3593446457606235,0.009569775520000105,0.30901324463366975,0.3802539797850615,0.4704328907161831,0.32964053800844123,0.3227040493691317,0.6524806512026307,-0.20917357945115048,0.4228351619733826,0.2319125668124584,0.915220159865595,-0.5217166555775197,0.8394719141502017,-0.5370255044596038,-0.9033456969100292,0.7082255735361765,-0.3001656131982121,0.059594371249908996,-0.23940172046532632,0.3661420056837489,0.060575588957617256,-0.5616466843266869,-0.6148446431085369,0.40786729629421786,-0.2735973148832543,-0.05636856673155993,0.22942107166064318,-0.5551411042895692,0.7732030864027626,-0.6858499562503999,-0.10180100846012584,0.2226185311325621,-0.759276520746303,0.9642832183993654,0.8219608033609249,-0.5075742316224318,0.0797465776669762,-0.5310433596216144,0.10665718927545724,0.2890599385248566,-0.5636375772324267,0.05396533303962604,-0.5985689162742038,0.3085195287128995,-0.33803210591455884,-0.25834238277663113,-0.25013002676112933,0.5727253943996,0.5565678554095802,-0.7388261237029783,-0.02806970976021107,-0.9786704263565595,0.4422304948348729,-0.8849738444053463,-0.02848962609910755,0.21176153563112507,-0.17951595134375342,-0.5642257986129698,0.014131442483594249,0.6111228212620562,-0.634594717108113,0.03008678100865716,0.8817284818551503,0.5022736435051958,-0.8359382853713433,0.23611662563534525,-0.06962505407341564,0.3685697803216531,0.15196932769357602,0.19474854624643256,0.5435347087972748,0.11483829075999712,0.7643843227331945,-0.6386265373345094,-0.5659112247689521,-0.135143371651618,0.38940649464859406,-0.8940009433076747,-0.8070579936886779,0.5491672055946936,-0.34755605411648505,-0.7866812271480748,-0.7001374723468086,0.7010216333078457,0.8790022037705714,-0.2390958335940715,-0.18908230592268446,0.41566632924209135,-0.7084352093201242,0.5378836461449403,-0.33202579061103166,0.23590336224644765,0.8797786930057799,0.38810502103737005,0.7075744383354237,0.27901932082163977,-0.7926859385418457,-0.06779042832567016,-0.7917225115461306,0.840611351529144,-0.26615612417487294,-0.9738222427577361,-0.28760543415053025,0.024100098610814816,-0.1607136578776105,-0.07808148561877683,0.16822833377331392,-0.3325596927345799,0.9613560482311627,-0.4321224588801441,0.13778144932815337,0.20088189393411604,-0.33128057839605557,-0.5074393602477725,-0.11741844108778714,0.19560422809223743,-0.4513923006450898,0.6340273656388987,0.016408670145776506,-0.009721259979385501,0.5837564316976255,-0.8935651919577844,0.7344517233654435,0.17580525851498777,-0.6214822829207817,-0.5356085176271098,0.8069301488651902,0.5370414603418184],[0.4495094415779259,-0.8617056105376407,0.7486364384879781,-0.35005168951610727,0.2858722358199427,-0.653856712886508,-0.447715606021441,-0.03250689070536702,0.4005940548035821,0.16855509498491353,-0.7332146907681864,-0.49083895260494,-0.002424245691716956,0.532921123017957,-0.104054961173011,0.7896859302755255,0.308483957769402,-0.2897527271539438,0.6996364797151382,0.6204023158684596,0.8722226604357608,0.39140546522582975,0.8604572875012119,0.5945691062808571,0.40133485540571434,0.9662423046999374,0.3113351108312823,-0.23690590162193267,0.03190531846805138,0.857221629702063,0.5401255465062886,-0.245539973217133,-0.12693251117304907,-0.7826202385419785,0.7359271694174092,-0.41572346915300346,-0.5858133606213901,0.42038979652529007,-0.7775153838470986,-0.3487546740865543,-0.10310981071156494,-0.2738066982632806,-0.5522942444809494,-0.38361668700015017,-0.06716234455368475,0.2995312437405724,-0.9213601808524085,0.40645378160243484,-0.20471246118278277,0.7638162555623742,0.3118589915626124,-0.3024251563857912,-0.4233269733152161,-0.6664109677726373,-0.08203359528895786,-0.5381712967157242,-0.5665086671802055,0.9699987039963204,-0.19078502148070353,0.41394554826587737,-0.727589881468999,0.4101449675992457,0.7625694511751555,-0.2676976999865991,0.5226521551243207,0.9857645409214052,0.9065801902331773,-0.9669339517423019,-0.5555635225443096,0.6950374867129289,0.25144050493704495,0.06871353093785654,0.13296247537650827,-0.3791372545246733,0.3594628191987037,0.46596664460133785,0.5442430134897103,-0.8200292111906234,0.36219768058191465,0.7458132134449388,0.2994130753297053,0.6571355567620325,0.08498182166951049,-0.9643295397278989,0.016290439939243874,-0.30086523711463564,0.6578828507027243,-0.4007455979597657,0.8576338543511907,-0.398448825639059,-0.21813508497974746,0.7128929084210042,0.9056387403557732,0.2397530899687667,0.5772130844992219,-0.9381862778335296,-0.809205192367779,-0.9190320109786113,-0.7019063192526744,-0.14615595522529626,-0.8697238919618449,-0.6984766879881416,0.5820368506740101,-0.8286991671740775,-0.3992370794170845,-0.4934067685662542,0.37276174590640127,-0.10858140992191276,0.624502159458891,0.35942947363492406,0.1316895294154229,-0.6562657472830182,0.8090365186860697,-0.2716752851306965,0.7452756726109888,-0.9149714436475913,0.07046470659040088,0.6128925202410688,0.9203293279934914,-0.06414832220074765,0.39514072046203436,0.41856002877233006,0.5032593289888428,-0.3035006862995868,0.8340951571146277,-0.12239875696609527,-0.36593256935743884,-0.5056993789911215,-0.15168041157781773,-0.6956919155475394,-0.7784215085424735,-0.8740182928280703,0.7045900112827742,0.6914677866041202,-0.30091739501951925,-0.05294893874630819,-0.9917335830064028,-0.682236222290492,0.38295987754409483,-0.6264568365633439,-0.8837329379409633,-0.36245131182819873,-0.0931293032768304,0.1614095627549799,0.41090755825269415,-0.5873659918773163,-0.8536350220697947,-0.9624597887187913,0.24169555532401593,0.8126668221750191,-0.6980902162484274,-0.11908019598452885,0.03794617012011706,0.7098397240710144,-0.4594856961835021,0.5409150274617431,0.08224316583776946,-0.9444324309912041,0.3667467160945218,-0.8458053020515619,0.8680877059090616,0.08229405827199635,0.8920480314055188,-0.8566649178362991,-0.07192400641816568,-0.6685612085496551,0.8474097786989665,-0.11204220383499743,0.20776973196303325,0.17425794778199175,0.027684561330219355,0.8048477513659025,0.6380995681807027,-0.14168035999479234,-0.7032573241852937,-0.1977608686163572,0.7411436964266704,-0.670883542923574,-0.8009972374615854,-0.9750527074953382,-0.03500776464943001,0.7071925768667816,0.4783045454982561,0.6233915541534193,0.9571052944832683,0.6659777916441747,0.009516952778001053,-0.2562033336127413,-0.6823542730436669,0.5474396118711233,-0.8319815785753047,-0.8158291581467149,-0.5800876650572578,-0.3667216630804185,0.487721286233018,0.4297080151747683,-0.46678525904576623,0.9239611540602459,-0.3180488784333674,-0.10338864775291298,0.15259142490195185,0.6754473316423666,-0.8717864577346299,-0.4077389446820424,0.584982755044597,0.6472547291877119,0.16594708224071547,-0.761947581533273,0.2781641324825438,-0.5342537220690176,-0.5766616064001551,0.7542711079338519,0.7561673019959059,0.2035664599412965,-0.42042042075969555,-0.17458850457808286,0.02191343481868367,-0.817900231996524,0.2665337486642106,-0.2624375084886756,0.05033058141875021,-0.630868235241501,-0.9434163789713456,-0.46660223786305244,-0.32385886642330985,-0.021666297459175865,0.5840226771392802,-0.7224106657220003,-0.2193953148570806,0.46393608831067734,-0.37242184019019986,0.07456484141870459,-0.9519610676162413,-0.12935319500244957,-0.03248726681783842,-0.156829400061323,-0.17262796943443975,-0.5733009816884788,0.4303449513317117,-0.5826804390440997,-0.8933485867781881,-0.8498221416136174,-0.49807436541974903,0.5566782562292685,-0.9868198973734371,-0.10779500303267907,-0.768083021483242,-0.09686319218288057,-0.9607088953188896,0.11554438919753614,-0.5413288163156237,0.15942045327105794,0.4496936287710467,-0.6109496520749131,0.05565745431539512,-0.17402037051373195,0.9935873369649291,-0.13132538315149425,-0.19668872806979956,-0.48299078705292936,-0.9827594096762374,0.2741538170544339,-0.9189017400058389,-0.5718178511206613,-0.6949642890408179,-0.40029285387107394,-0.7655623784914488,0.46164370102314095,-0.4094659667863233,0.859981191193382,-0.7749468525947779,0.010005138988773902,0.03575142608288757,0.1912455628564766,-0.8782000041078971,-0.8829122874205475,-0.3311092776416973,-0.11479981486972438,0.46176647665640413,-0.016184785009368992,-0.40428332136026673,0.44247578586411623,-0.14862482816564904,0.9408776626024102,-0.600234177051505,-0.5226605269602937,0.8794772547707236,0.2924946145884413,-0.8374252930290553,0.8080595767131168,-0.6972404764574548,-0.5745025436734236,0.2039040189507614,-0.2733145957869826,0.40097509354938465,-0.3366789948991882,0.7325879402413336,0.8449156796926894,-0.17606087442117288,-0.7629240352382352,-0.6767655700733145,0.09196295055668674,0.4486908353804658,0.14265621990565977,0.9258183498405408,0.2854424778558583,-0.36106644823399603,-0.7692913098826242,-0.7763096421178245,-0.22753706731467624,-0.9940616870096498,0.6366409522864109,0.37420605651942085,0.365677153354898,-0.8156425158570269,-0.7531809795656422,0.1605108758104651,-0.46176484621567876,0.18468909340584974,-0.19351520170004216,-0.5501824073882478,0.43879275804809204,0.5493450492638959,0.5784385925953454,-0.04385884809767254,-0.47236155378316363,0.8233554281076887,-0.7362759173203138,0.49511637922665186,0.9693201355779506,-0.10939265749332311,-0.2933322987571359,1.0237654511414935,-0.119996728614888,-0.06211952941583006,-0.5167637744542163,-0.5686936477569416,-0.8914650779257649,-0.9791859624307668,-0.1469363511238384,-0.9638792652230285,-0.030394160128128973,-0.4776308229052196,0.3218547579736086,0.5190529202800888,-0.7404423677031046,0.5638675319131602,0.34864668354148276,-0.6816418876289108,-0.806996349211568,-0.7627523083154056,-0.9358156754871968,-0.5448092887097288,-0.14352548582642985,0.021713187331262818,-0.4105359943945479,0.04776342393718651,-0.35953431087580573,-0.79950778279525,0.06551769488930072,0.2308693488247053,-0.49420416495887826,-0.8010485859567301,0.2548948616741627,-0.3949700792366419,-0.5965839994979667,-0.43161519418502164,0.7141107590509185,-0.2046237884556006,0.9058815860991972,-0.7283898857147362,-0.6265290234140842,0.027388819983974987,0.4694653232183497,0.6909885985452285,-0.37611141443188445,-0.8188978174297282,0.26172570406594003,-0.3833259805711795,-0.1388084029062983,-0.8965267630405431,-0.5325318467208334,0.3278258600468679,-0.4872527237585344,-0.9850683640143039,-0.7272521830597303,-0.5194247954788858,0.7435350178581115,0.5917154874384805,-0.7136278538853491,-0.4211594402892274,-0.9714614251966818],[0.4135426610388944,0.8485344502562122,-0.4164647626807431,-0.8816045439937172,-0.7351938042631373,-1.1192610598594444,0.4841484005543739,0.6190551273298923,0.478159146232735,-0.9210474414333953,-0.3550057290777006,-0.3361918238826769,-0.9091367816700137,-0.7749123952998326,0.0329144378794431,0.5461946500145313,0.20208968003468153,0.02595897678035039,-0.5760713225026474,-0.5258371301159089,0.4806957467315592,-0.6404341507444645,0.6567933404839038,0.42762325222250824,0.8585556295854255,-0.46667502927665905,0.11744231076579172,0.07765971494509281,0.41107308996246,0.2834351376702665,-0.8266328081907517,-0.07166404104983477,0.46236063098598995,0.11776497691196984,0.23678328753566327,0.834313760951518,-0.7623302500170637,0.06707073190469243,-0.08793539145332953,0.24727126920706696,0.6838463283502405,-0.3005552296820909,0.363829508545138,0.5767939475721594,0.7477289477444592,0.2579572434769276,0.08046206988236439,0.011498414016516724,0.40645286246376017,-0.2062775330272557,-0.2502510465763243,0.4892125902563928,-0.18001032345807982,-0.7903998618767231,0.223109772936288,0.3366837939931458,0.8436695183677029,0.6934306857350154,0.7558163200700139,-0.3832747857829135,0.7895020960049992,-0.02981215442751725,0.8969258841416151,-0.3579311568801107,0.2182477687652452,-0.7975517211556622,0.33665350624322876,-0.1695169648170802,-0.9496046352235735,-0.7884305581166253,1.018631738477366,0.19461290365091052,0.5421610373809497,-0.21060772373328887,0.4285640422663515,-0.24707015270643243,0.2202622325415619,0.10487433088740525,0.7022250252891513,-0.6855929993361155,-0.5808519632907556,0.3628542402408292,-0.058057234769519864,-0.5974338904443675,0.36789142903311156,0.45486969175424097,0.06048538588082441,-0.6707296509514525,0.628064849010052,-0.4311468715488098,0.9428856822009853,0.8720150934203891,0.06496391115035155,0.4843921773112439,-1.0371845491028575,0.9276420597242262,-0.9381153728607402,-0.027470839488048106,-0.33626587819153547,0.16156888547027662,0.2170802427948247,0.17414898386439157,-0.9391162841954757,-0.13777983054496104,0.7177781724756086,0.5193238105604714,-0.7499157359755779,-0.33371575222786676,-0.34004450749601517,0.19384254550983734,-0.0638771771016557,0.2110262571420414,-0.953384340391834,0.31319287880405833,0.3769867325598339,-0.2083174132144453,0.2028528067015014,0.7399786112216501,0.6747828411752902,0.6072382498179258,-0.563735571800998,-0.9681314405567769,-0.24478271227684648,0.5061961582796607,-0.9619594214406506,0.04888992346014302,-0.8549274483413225,-0.2947068833464773,0.8715121800323566,-0.49104681317999577,-0.5459729510447799,0.20851565161688962,0.9751759984796152,-0.780234457790524,0.9838236089696931,-0.3632067422328719,0.03206431528234516,0.008396552641658166,-0.002016446896794137,-0.7144295406147084,-0.3254600167521372,-0.006419767631794059,-0.6070884981454084,-0.04653500413220012,-0.16717921881067993,0.24996337289374967,-0.7634968686088525,-0.3260100572627555,-0.4219815460628152,-0.4243126261634762,0.3870531681894869,-0.6176826447335012,-0.737112795983488,0.9174562489871142,-0.46472386430016327,0.32816314917242667,0.25950724552054916,-0.759347698667905,0.954294863340077,0.19927046207734536,0.3766383391478136,-0.044200188584015664,-0.6036571514385988,-0.8069796419504695,-0.9187522596479226,-0.3517710097389358,-0.8666035415904271,-0.430016441431466,0.49439235387771563,-0.5028866074751033,0.46234203948227864,-0.8438793050904464,0.15112174104484957,-1.0678720940717392,-0.8428739492222839,0.6776728223495555,-0.9161604531135271,-0.5249110072224091,0.02032479891920408,-0.1776905452403766,0.4988627517201715,-0.8815004098310458,-0.513833845206225,0.7264682278319934,-0.8981207063110814,-0.8217384659805728,0.1843217418990404,0.33449540941882383,-0.7750044917911401,-0.12750477543857303,0.7510515025307194,-0.2140335490612611,-0.41814280752866106,-0.6483736391768095,-0.9733261780348391,-0.9147771052412904,-0.12975491681177032,-0.8936117547274437,0.8222223577178432,0.9718673523526143,0.4139605103218928,0.3348649195289702,-0.3267143680559987,-0.8804377593325832,0.22517418239601217,1.0213720532397808,0.5103887052068359,0.4805641797939085,-0.5586289683108621,0.2734750562336246,0.09725523408986496,0.2687833610489138,0.13873479888463233,0.9175763712275864,-0.7550910428023168,-0.5131065376690193,-0.22523271942458994,-0.701622386352622,-0.3005792629940277,0.28744271385139186,0.1742385511552025,-0.37792336281730393,1.016129275609211,1.1014299804674739,-0.32973087951069974,0.9371252075938502,-0.26237662431301745,-0.5078617879628146,-0.14844544055024678,0.23680432354981706,-0.9696179577306485,0.42473702730152135,-0.21068468005454252,-0.7089006182853628,-0.530754601891411,-0.1234362296843052,0.9711195849046206,-0.1202150774975832,-0.751007852906512,0.6637454870540879,0.09839212564606978,-0.4027376626924037,0.30998946013636747,0.14092897282420438,0.0020138455566517427,-0.9470668793811318,0.08482024124742567,0.39784160231598864,0.8105602060223732,-0.4198559453878472,-0.4104072297164468,-0.3533011034297735,0.7545068764318316,0.2042483797309842,-0.8649153159727809,-0.5168469801000491,0.35998472157504896,-0.35011274906769796,0.928662004203303,0.5228568966354664,-0.9515745518489437,-0.9385192737754117,0.8778831061033882,-0.9846364268223703,-0.6730108133102536,0.20177557783716846,-0.04451891687104884,0.08380055464825084,-0.9443626490088053,-0.449044161708215,-0.33944976772360047,-0.03406665831701491,0.800733710535066,-0.7892809157947366,0.17579062544166776,-0.12460651867383882,0.5712426537592665,-1.017111193546889,-0.3103347794787399,0.16897205063052514,0.6648155105695297,0.403706175305904,-0.8933191492827944,0.055678129795893795,-0.5805632410640246,0.32934780527871693,0.34672453989021546,-0.8214532919075547,-0.8744555132907794,-0.4130483419350757,-0.5209900679716281,0.9634156403031933,-0.23744729198358114,-0.0399797614254383,-0.9074417406273209,-0.018622484959662337,0.3094858700686467,0.04760068451624693,-0.5171030160213913,-0.8659845189555728,0.6910511863211368,0.16545212180392205,0.9670725609439574,-0.8732106975718574,0.5396772624765713,-0.857680600946248,-0.14073408909926555,0.13616858268152726,0.05525194082913419,0.9528343767429434,0.2164276364015723,0.17166509674222305,0.5632652092591144,-0.7772996695247277,0.6276902650821965,0.4533028932581615,0.9227893265315017,0.38791330757704284,0.42645685922460375,0.7693864284057449,0.579316333767437,-0.2637289697136004,0.5208409337643651,-0.6271955057370197,-0.0493187914658566,-0.8570862644555749,-0.3646779766335521,0.1461966389268303,-0.8377269917254186,0.8869061849614711,0.8656535530844525,-0.39106928538721486,-0.9250242621726693,0.8018147534414198,0.8652984697292562,0.12613961416152236,-0.9341565477671122,-0.23095916466151314,-0.07237169648770087,0.03596191010909356,0.5355941469417348,-0.21776126090769443,-0.14189786587752212,-0.0893390395076598,0.43287581652171836,1.0001167921620253,0.20083523932741715,0.10612363299629597,-0.7603230605353506,0.7355823828075541,-0.866792022318162,0.6907146764054466,-0.5182800916539039,0.7463830248398708,0.7771970466008671,0.0915723973844966,0.13335266430144002,-0.9044418471993112,-0.5196133132983203,-0.6146459309579455,-0.4312407372373844,0.557212347791235,-0.3734539142746471,0.18321900588118234,0.5558021443901255,0.23375888412868864,-0.7332642745717703,0.12940908285742386,0.6907210856101689,-0.43427258494808657,-0.506790631531096,0.8695197005364007,0.245585932659961,-0.381731384385343,0.17154284316454232,0.8167159678577741,0.8231668825006923,0.4264122053050912,0.498375774540645,0.2628156167471218,-0.0028515744192341114,-0.4470158244254467,-1.0111642445939675,-0.9038951232446987,-0.46601489824806736,0.09376605391494773,0.14238713448793952,0.025813976532575573,0.6836629987984228,0.5456727945356137,-0.4200289894588771,0.39385886832635464],[0.9416257548761657,-0.40545554641711623,-0.947439867392493,0.6701079323799976,0.28746167692796215,0.5782909600981171,-0.1936614630571761,-0.8436112233638715,-0.6264846339914013,-0.03127813766065496,0.31781453772395923,-0.18623761355389287,-0.27692283734475537,-0.8940280377755151,-0.5182223458492556,-0.5749890377680792,0.23071455266023677,-0.44958773449290396,-0.6107889737873267,0.5296211870087634,-0.7159236139832044,0.4320654114219399,0.9706765131207153,0.685753603420251,-0.2958113886306272,0.039110972183793426,0.9053977842436889,0.9072835452636678,-0.6929143230031424,0.6870654639250663,-0.29293574336196937,-0.34195884182049674,-0.10204082831644969,-0.2783241603982127,0.6797200651272413,-0.6708967471239654,-0.4205622959304745,0.9989725213070852,0.13262995492904064,0.08016196982774829,0.5382295181235602,-0.2853338989800548,0.7706625528092803,0.3767987691054047,-0.31782972905857926,-0.8590886707488474,0.15814568495262615,-0.2630065773700529,0.5408143932532946,0.1719358799143086,-0.21779822911712046,-0.7379583018592288,0.6473539847760232,0.7876570953231669,0.18732552390751553,-0.7317094122890043,-0.43045907193423133,0.25241574937388,0.3159911139687131,0.8791246068591532,0.16633638334691436,0.02134660348307557,-0.46989841723746484,-0.44582047340127157,0.8370366736445276,-0.3922930173550022,0.7854253957392487,0.2015082013565538,-0.7693242525818109,-0.5029870302200745,0.7922308776003825,0.9711301734876215,-0.9842841685563204,0.08252111026218495,0.7190706314221248,0.560309730034459,-0.4857719670259483,0.8632169462587289,0.04533555439365674,0.797349162712149,-0.2292499860338913,-0.8632587335107761,0.9208851904330027,-0.2412888696351726,0.3962387510110551,0.32500149728093564,-0.6227117738547567,0.7590767977922848,-0.8564727766960957,-0.3471870039483816,-0.25485444017783626,0.8023232652324713,0.16890588089262398,0.5020255266684991,-0.15037899313873684,0.43254389997321324,0.6487419707697052,-0.1601952730915713,-0.6207875265591875,0.4204092880727779,-0.7849805863636065,-0.35082601979287864,0.6742278699746934,-0.4760694543477199,0.4442914980010213,0.4454998442431182,0.8358459606473543,0.21105784005967254,0.0554336463568831,-0.2274812677148716,-0.455114921794028,-0.8132019188619438,0.3802087635417119,0.1915433688767292,-0.3260858804049975,0.6235560748767395,0.653122821966521,0.43750370056385846,0.5490377955911905,-0.907111897998133,0.4624289470593088,0.9582543548722172,-0.19279437171549527,0.7327314454806406,-0.5956856233714074,-0.3884881387574034,0.30974460697466866,0.0645302002642505,-0.29918900531650555,-0.4036480803303828,-0.12832033265143236,-0.23096456866820195,0.4686986730229775,0.8156745803949209,-0.08880133436402567,0.455396081514723,0.9444721820618065,0.5640223936379456,-0.07356570846340175,0.0530011781014741,-0.7535627134972988,0.41241606993452046,0.04381237996013924,-0.6609084596749983,0.5227558551002406,0.7872177937430663,-0.10783967779789529,0.9477795286522511,0.5194669416877303,0.869441868989266,-0.1360943768983621,-0.8347909952047612,-0.08713366278111018,-0.21502255602741557,0.12814935598737645,0.2682775496532274,0.671858485863891,-0.4018817147488776,-0.41190072437716224,0.23704946152647852,0.22125178528602438,0.6777015355077204,-0.7759990885121673,-0.8278454324622694,-0.9365866194794282,-0.09085017376642189,-0.34557465594735365,-0.10644697882510445,-0.5554787561654339,0.6670383181081813,0.8398188786922922,-0.07889952501690162,-0.7390608477043915,0.015219069527274243,0.03444213546450937,-0.3522000970875736,0.897143077492162,-0.7382660916954507,0.6249372379397595,0.6295473168762807,-0.15754359082704045,0.9543887598200039,-0.7549759858355146,0.25032168620112366,-0.35843790337720105,0.741041151230442,0.4293914999550852,0.3307068094093217,0.45792660827266773,0.6858256807312587,0.7678442170269563,-0.9032772705983325,0.05160005474195233,0.6597282781614365,-0.5129146184345834,-0.37386614009096786,-0.07615185648924544,0.6144209321423378,1.0350000334723437,0.7518919399447247,0.122588039076855,-0.7535164387175192,0.6058501305608441,0.677192363624554,-0.26502119979265576,-0.8757709234641343,-0.40257137816200306,-0.3140182754103755,0.3222464501942622,-0.467103309525457,0.4122112216202646,0.31301378801972385,-0.020674713328119643,-0.23569135947400094,0.8374447598193889,0.4081392431767053,0.11503378704274166,-0.38890177712800117,-0.08112911309263453,0.22897220022868317,0.08293212780393308,0.15367347840831547,-0.6338741527600961,-0.6191221561584886,0.03963804904719968,-0.8433558885405569,-0.43984986395234327,0.14136131611908034,0.35173912079982167,0.33868513768207587,0.4180971580834886,0.39672552269559436,-0.26262994875106366,-0.049934707885377294,-0.7487769114014909,0.34188388061536656,0.5251420421690625,-0.17785092484054074,0.7273429554627306,-0.4855956104343793,0.12139218927385136,0.9408969739162913,-0.1589414278372944,-0.7863584303510643,-0.4308316450321491,0.8330006013238301,-0.7604408050801184,0.7950807092288855,-0.8052546441642819,-0.1143555157322693,-0.6605874885831526,-0.13107416000405675,0.01388283931887476,-0.7543420603118873,0.8842144868117678,0.038462930371751275,-0.3271090669028243,0.3611210700339647,0.23522110088391512,0.41226261274890125,-0.4322108329822183,-0.7953399518099359,0.6702472528044994,0.38692743472017055,-0.1013694257610623,0.22536798905017202,-0.4115686312243536,0.9711553885223383,0.2223189193683824,-0.06943939132460229,-0.1549309452345462,-0.5594188936290813,-0.009854669349387196,0.5801511598339733,0.18981386606449896,0.9655022795152447,-0.3485726553502198,0.12233665191768348,-0.8298947523882672,-0.9808590728141202,-0.6690921291911572,0.6458759351481176,0.7133825078830984,0.33231888481457866,0.08865864937998649,-0.3071172091472548,0.26392919577634866,-0.8727250464325083,0.3208373400855009,-0.39218502229863883,0.18145354626119542,0.5980604590769663,-0.2445155734442972,0.95480075217137,0.6631568454913798,-0.673687085283702,0.036715415148853056,0.5822460200680876,0.43350185374551187,0.19269621209596854,0.3128031080020675,0.28317906951479804,0.9035051679071392,-0.6662773613522832,0.3221733114598453,-0.13842058384683756,-0.49764939964751964,-0.30846451483133475,0.7849390155239954,-0.35335534938008323,0.966107829496777,0.10107620116304357,0.9606420996930478,-0.8067673239498357,0.8379376559285682,-0.04850262088893887,-0.47832148837514993,-0.27050144229947237,-0.11031991655017964,-0.18588202026556985,-0.7573736661848575,0.9122974945502798,0.8714860217232365,0.5375756935010316,0.4015497721969319,-0.44441734267750005,0.1064183945237382,0.209045223567774,0.49766093188818267,0.8383271851455493,0.9830188707388196,-0.4975412686676862,0.6108790707427374,-0.15502600009654766,-0.313903340871102,-0.05911668016741352,-0.457940160810727,-0.43086597210177496,-0.8089995417951019,0.8648296121511833,-0.6459666529465983,-0.5843691354976619,0.1334038475008965,0.6717079238194957,-0.5584152174374657,-0.5850964729084103,-0.8170156037953518,0.6272767859498366,0.7723203534490266,-0.5112842414482535,-0.48124794052167735,-0.8267439808790961,-0.1932967946878087,0.7629204284191312,-0.5271428696533658,-0.37639511909629525,0.7811478820587919,0.8817743414823469,-0.7087406557353876,0.20795806923075952,-0.04273617273280402,-0.6267460664719551,0.23813856961734278,0.24258849439495572,-0.7332975679444462,-0.45591883906246505,0.8973292935402578,0.13848231776509853,0.4299451453267024,-0.7723346580768429,-0.8128312152832803,0.7400742341057628,0.6983173026628278,-0.8098863965443626,0.9429240263622236,0.08607373983506104,0.5006690274314458,0.6971806702958435,0.7105256604167146,0.8665021686669012,0.8147898202454439,0.09116643171296143,0.34769708729740467,-0.8970134969294637,-0.295023657600514,-0.07486803580772564,0.39791311431420995,0.8555761148427564,0.6830235009918633,0.8483789059949095,0.12240788432417156,0.8685476296666367],[-0.4168096633546109,-0.5310591144919633,-0.34795246804645186,-0.6358474255943997,0.7899194464928887,-0.2131054771149708,-0.7049134375670171,0.41709959862794366,0.2195679580274518,0.8551900600903131,0.9510339181939901,0.109768137313856,0.6796836478054351,0.35964214213501955,-0.27189216517770387,0.5553598528272575,-0.9816123242880952,-0.95396802486612,0.6853149994235447,0.7211398551927134,0.21653705595822412,-0.9630883261732475,0.2843496405558228,-0.6548098744502091,0.6934073853839448,-0.8477797750626672,0.8583903271229479,-0.9409293373262273,0.8809082980834574,0.023370678400056268,0.37751744081392324,0.31364902711384995,0.5008048937613349,-0.8525428391007367,-0.8693022846668658,-0.5797888385448645,0.09523432116804142,-0.9704598340329657,0.04321687850606011,0.2728195596502552,0.4805714575914106,0.9331703349715353,-0.06586917245352283,0.34830571121392767,-0.1999941204837532,-1.0085395204084937,-0.11854484397301449,0.22804313636629334,-0.1721378102680828,0.30908427618799145,-0.731362010776051,-0.2240617140347983,-0.77263377880938,-0.7096549034223536,-0.4556146633331679,0.9515425094732255,-0.17283993186244684,-0.6883920245681598,0.17392827612336903,0.6272312988402091,-0.5077897946293657,0.14529187665842372,0.5930878765677802,0.31122147342942297,0.8748245941537921,-0.9826336779234953,0.04885355240274922,-0.41985528739011285,0.5307614335139221,-0.43129329787794723,0.07131956549369557,0.7120322922764475,-0.3105693297914173,0.5654231401924805,-0.6916151443775569,-0.6928947212662382,0.8971016573269348,0.02366610494086227,-0.7995388052885966,0.41286103494919046,-0.6293628135512966,0.07725088555829364,0.886868200935691,0.7970777737914042,0.8905239811382509,-0.35484081286943747,-0.770984072032829,-0.21935174337024022,0.9804737848772443,-0.6981098805427924,0.5049553057037278,0.38794549196642963,0.9401893259820632,0.6354330513618103,0.6713358431244456,0.7110007118805736,0.7050046103899261,-0.6971001836772275,0.4814128757318462,-0.49341353576526575,0.29766093717076736,0.8789437857124878,-0.7381083835718728,1.0050277187910959,0.7093711692054504,0.1357374111868983,0.22769929424920402,-0.10535267524506248,-0.6066000574691583,-0.2959995584275886,0.5284178206400614,0.48483833111720886,0.8485908429929139,0.21880497274290692,-0.0918455600442453,-0.02219764339861888,-0.7502906321314717,0.6584418115991364,0.8366152801164465,-0.07636631234809746,0.46877646019321223,0.6660384787577713,-0.9352419939214128,-0.4386195375685674,0.27855911942100625,-0.5420421995131717,0.9004570606349424,0.7634891850516143,0.8977413643295458,-0.11112836140120295,0.9040418440511621,0.4159713905212371,-0.14548165405514904,-0.8033120412870142,0.3430719218571751,0.22877767744981373,0.11101024010331101,-0.7630548777877494,-0.21432988251966256,0.0940460791172092,-0.23674498848574443,0.9953562300521169,0.9572276338604117,0.23727165272368522,-0.85544258679183,-0.5451667830413803,0.45932291240960677,0.3926360509360456,1.0156471087473171,0.845077189039316,0.9058979661544858,-0.18227296206974125,-0.9340979463630169,-0.30201276971119306,-0.7403561553423105,0.354617191636905,0.7269828696517414,-0.41216041596264835,-0.6323688161605989,-0.8191594380694746,-0.218272282739623,0.2754961962806486,-0.2863704610153296,0.2611929287903109,0.9884720751297424,0.944571453432377,0.5946701198241618,-0.34036724086457276,0.9395309633997115,-0.6798416684030775,0.715297473356568,0.5020186892785897,0.41900013032982797,-0.1548241399351727,0.6779602083927919,-0.7698757813581362,-0.9449880346077546,-0.21268446348015768,-0.3026180630874685,-0.45816977641695267,0.302639603529872,0.8400925478611961,0.8029947480336008,-0.3683678012366088,-0.9613580011542716,0.9707925599305781,-0.9166916177718155,-0.91803506796223,0.9570341335511429,-0.9397256454286329,0.6799171770313126,0.6442901485551689,0.659020489421158,-0.5836986330770466,-1.0023735999824075,0.11631016559456547,0.608470762801813,0.7373179499934486,-0.42017019885755763,-0.1810103793590533,-0.6262226598666202,0.8289195007690483,0.16023820446584458,-0.08394968458165165,-0.8448903489579673,0.39542689894511135,-0.38131471531152117,0.5454991881187682,-0.7197030998977153,-0.4112463948659511,-0.219708164457808,0.6371640959927237,-0.9548481476215273,-0.7927883602419911,-0.8026723264276505,-0.43729071658660046,0.4481334059007269,-0.4384610818181095,-0.8064009835768677,0.4530970269709681,0.41582653249251755,0.14846255214025936,-0.45908009339702205,0.46226834334623956,-0.4142518835120805,0.6849301448956959,0.15708974747288754,-0.15380765418790454,0.7321153440217644,-0.7054915513685482,-0.050548442566090056,0.6852810610299038,-0.37123314816549197,0.15707722321051937,0.2650328646432288,-0.3078946205559483,-0.9775342781335995,0.7240236687734714,0.5109347199205133,-0.07744852560311388,-0.859493511598744,-0.26167073066239777,-0.7999900654451421,0.47431331973348767,-0.11283529715102375,-0.049646935073726424,0.2332106448344773,-0.19827752219644754,0.8269453113082823,0.04320745707528441,-0.4770157714785544,-0.2949489590865204,0.6836889211332597,-0.2246166841938381,0.2691444622338416,0.42070363687128104,0.7370172570979017,0.16981320868124014,-0.027861139729621422,-0.6731514064630545,0.9448552454149571,-0.08474445554867194,0.7772928664359922,-0.1474048685793803,0.3037366635257821,0.4945778872114928,0.15169060226703118,0.04032177577947423,0.6029757669367624,-0.17629835449797177,-0.8951591819509721,0.7123850848952853,0.02370588096364817,0.8415051021240337,-0.7283184751621893,0.7672901571900365,0.38408888000568386,-0.6715633331237122,0.33387011397433475,-0.9237834574763428,0.9648088310914208,0.09064368381092722,0.131469365509537,-0.7669587727785377,0.5954267902199265,0.4335924716712672,0.2737687121953066,-0.2607381450262786,-0.3679404410455423,0.7225331684076138,0.5703803620032132,-0.883596982353527,0.5448356019637184,-0.7019422054840799,0.8171864138506104,