{"HiddenLayer":[0.002244974144373904,0.43092195164656855,0.012279044025446538,0.13085923692236823,0.005520751110236158,0.32062115244144707,0.0009981839239281557,0.9956896149906134,0.0035880527430056483,0.06442147067029222,0.9849873787051242,0.9959513587652566,0.024945777615018414,0.976943142119308,0.012059250258988635,0.9801580193851521,0.8838438608411544,0.9999998050438832,0.9999818187439874,0.000001033980831599542,0.1341307919702355,0.37700617723725477,0.39629254096327576,0.9903611970520227,0.03287482264275171,0.9119680511862572,0.3299649379599021,0.07317558819057055,0.016697250347866344,0.00015314299901484615,0.059506085397162206,0.0010001853679097394,0.23121885765791136,0.0006912136787166458,0.9950687729519685,0.35132817282309603,0.9999527561087149,0.988287788708488,0.011162938145220116,0.00015291662309875755,0.0019649699117335498,0.9017158812959678,0.9991795683313724,0.0021419774365227105,0.000025556437422645296,0.9220532157634922,0.9979918078331297,0.999990745513874,0.867080577911842,0.9999965490300994,0.00004673166482244888,0.0003786484571342895,0.0005120089304539951,0.15614589886142638,0.8505295271556383,0.0000015126234786468947,0.9718344252483595,0.00010552694902392592,0.49757720410967576,0.02379538762320176,0.9999429412383614,0.0009041758945780156,0.08500093489994127,0.5118003897840084,1],"InputLayer":[0,0,0,0,1,1,0,0,0,0,0,0,0,0,0,0,0,0,0,1,0,0,0,0,1,1,1,0,0,0,0,0,0,0,0,0,0,0,1,1,0,0,0,0,0,1,1,0,0,0,0,0,0,0,0,0,0,0,1,1,0,0,0,0,0,1,1,0,0,0,0,0,0,0,0,0,0,1,1,1,0,0,0,0,0,1,1,0,0,0,0,0,1,1,1,0,0,1,1,0,0,0,0,0,0,1,1,1,1,1,1,1,1,1,1,0,0,1,1,0,0,0,0,0,0,1,1,1,1,1,1,0,0,0,0,0,1,1,1,0,0,1,1,1,1,1,1,1,0,0,0,0,0,0,0,0,1,1,1,1,1,1,1,1,0,0,1,1,0,0,0,0,0,0,0,0,1,1,1,1,1,0,0,0,0,0,1,1,1,0,0,0,0,0,0,0,1,1,1,0,1,0,0,0,0,0,0,1,1,0,0,0,0,0,0,0,1,1,1,0,1,0,0,0,0,0,0,1,1,0,0,0,0,0,0,0,1,1,1,0,0,0,0,0,0,0,0,1,1,0,0,0,0,0,0,0,1,1,1,0,0,0,0,0,0,0,0,0,1,1,0,0,0,0,0,0,1,1,1,0,0,0,0,0,0,0,0,0,1,0,0,0,0,0,0,0,0,1,1,1,0,0,0,0,0,0,0,0,0,0,0,0,0,0,0,0,0,1,1,1,0,0,0,0,0,0,0,0,0,0,0,0,0,0,0,0,0,0,1,1,0,0,0,0,0,0,0,0,0,0,0,0,0,0,0,0,0,0,1,1,0,0,0,0,0,0,0,0,0,0,0,0,0,0,0,0,0,0,0,1,0,0,0,0,0,0,0,0,0,0,0,0,0,0,0,0,0,0,0,0,0,0,0,0,0,0,0,0,0,0,0,0,0,0,0,0,0,0,0,0,0,0,0,0,0,0,0,0,0,0,0,0,0,0,0,0,0,0,0,0,0,0,0,0,0,0,0,0,0,0,0,0,0,0,0,0,0,0,0,0,0,0,0,0,0,0,0,0,0,0,0,0,0,0,0,0,0,0,0,0,0,0,0,0,0,0,0,0,0,0,0,0,0,0,0,0,0,0,0,0,0,0,0,0,0,0,0,0,0,0,0,0,0,0,0,0,0,0,0,0,0,0,0,0,0,0,0,0,0,0,0,0,0,0,0,0,0,0,0,0,1],"OutputLayer":[0.2856946650791608],"WeightHidden":[[0.8568784123951716,0.3330913243231773,-0.8233939954164472,0.6850873943341034,-1.0446310126530003,-0.11538703519572172,0.9664402723585853,0.6152201431499362,-0.7452576943138414,-0.9870028268731306,0.42669573121788945,-0.5024814379033509,0.594461177848741,-0.48293050899221235,-0.2263907660579,0.2371994912154273,0.39255659667452464,-0.023897698320468994,0.6912785655613417,0.7976431698223156,0.734273541149072,0.11536963114904364,-0.6297332100941399,0.19702520718447675,-0.487912904563865,0.23581300453964027,0.27597339189713926,0.46002841017328566,-0.7556666791741439,-0.706344580405232,-0.2783913787631883,-0.3001055536090631,-0.3403306957814209,-0.7361425435801342,-0.18598743788850153,-0.3877590870411841,0.2396605635146285,0.7081507507123064,-0.02032308629504202,-0.8593499187578568,0.9205110078733889,-0.21485737674647054,-0.09407307856194853,0.4497472889191358,0.8594207086840179,0.580952266582165,0.5375954875837939,-0.21635511080992417,0.1689892381411775,-0.6877295474626016,-0.9127518493052545,0.3101897241688443,-0.9517363064737969,-0.8402631001564315,-0.3912257128283641,0.27330871140710883,0.9197337264140871,0.6844363418641538,-0.14773984828243558,0.4283365230073345,-0.8493112846225285,0.22753637483895567,-0.43506311981462303,-0.3739180987663105,1.0544927304674239,0.5500659402801494,0.1517069258841016,-0.8381058784112573,0.04054572714486631,0.4570285040646791,0.24520505655891642,-0.7608321079714239,-0.1134987985854359,0.023698137292298707,0.35645977917891214,0.22357929667960305,0.5163112628112662,0.6463244319877639,-0.4214552987338074,0.8244254752841796,0.2919604276383497,-0.2663297465674646,0.7172689212750843,-0.748114291468534,0.4156279296373255,-0.6859210690973462,-0.03461145197272166,0.5682427595953974,0.37995109619683604,0.4951482950977645,-0.9803253019738368,-0.3463237899422661,0.36125378059812185,-0.4702666277139476,-1.0023235218244932,-0.6608739902351078,-0.8912658519023983,0.6834168300366245,-0.8837303800035772,0.9225401165980543,0.26524158885892446,0.3732743385805612,-0.3531493919857818,0.27590459630626524,-0.7199842260918795,-0.4511914253459023,0.14810990197715623,0.32855292996429275,0.4823152932209873,-0.10897721515510295,0.6247592967624581,0.058625124029933175,-0.10221603612353472,-0.32822333845077045,-0.7388266608543254,0.016507963450127935,-0.42391773641790464,-0.10416984673490347,-0.5255152766839724,-0.6898322798422345,-0.20511527710906982,0.5222227932791162,-0.2795434437765867,-0.5487684571441244,-0.2053061581135139,0.8021224450827756,0.3412093971669343,0.7755377699436038,-0.8529759053700656,-0.029406025077136373,-0.46639274898184796,-0.04701369974595649,-0.7752621305861658,-0.934992926872882,0.2631193447425457,0.4230726757694928,0.9455330658367032,-0.9577956762013736,-0.07130408827373994,0.3116685935759917,0.37629213010352464,0.6198516584130552,0.5463037524889903,-0.7969641823632687,-0.6945007880265737,0.7602939517485077,1.00734910268571,-0.3284375693126598,-0.5249405092347738,0.8986602603011479,0.16020858754520434,-0.17717791725017998,0.3510301090751208,0.08989022588282042,0.7519463720912127,-0.42553636448453763,-0.23614997354105632,-0.5688039350209164,0.6200185574257647,0.6077633882243133,-0.2240540714317122,-0.3730924238208597,-0.7693964987389839,-0.381220877300556,-0.08049785500259873,0.12210574568370637,0.002898809079251327,0.8190666752979152,0.6883943936175004,0.3910610383595231,-0.7226370476120577,-0.8558630377075079,-0.8345553877386213,-1.104852284555224,0.2370857538832519,0.7897219793721252,-0.1973459033147951,-0.42022277792045915,0.35001409741652423,0.7152531557738955,0.49527555697698433,0.4233471967489531,-0.7366268836302737,-0.5875285681159936,-0.1697222711294751,0.33697893663112694,0.09860496853316046,-0.3651937989826142,0.043997839559054876,-0.6259700010004192,0.7974161822169348,-0.43553160446114386,-0.7649664067176061,0.03324024939437424,0.2038362912780366,0.09432096137755375,-0.22943072389105748,0.6335872945376579,0.18155220996972027,0.8338100168039668,-0.38880492176900533,-0.3058378015233739,-0.5307091586617038,0.5680456252868575,0.5043819324048271,0.026325950018525668,0.10733237117658874,0.15675235303847262,-0.8385263876154048,0.6874569363208174,0.803106290219559,-0.01294913563380767,0.45434307688377773,-0.4991874462995469,0.5099496340291761,0.08942382791030364,0.48373474024444973,-0.2549807542169247,0.4173072780418258,0.5465862560647808,-0.5179088352566117,-0.5673265146034288,0.18365056516781303,0.40110637500701196,0.2622026186982256,0.6193923629657793,0.28487169924620664,-0.6081956276363185,-0.37300319915052427,-0.24405896441862435,-0.8671056699369295,-0.51649044196804,-0.09796420268492628,0.09037002816218775,-0.07178715902841892,0.6316857100274998,-0.8093872415290083,-0.3397626580581182,-0.8751972509130482,0.4741401530656558,-0.010855957905454787,-0.9702003230915773,0.6364814514778341,0.740269560759545,-0.6714339241606415,-0.16528593787313817,-0.6697232020589488,0.08475276496453908,0.21795450827913268,-0.8797566892758844,0.11730576438162728,-0.18908642176008816,-0.1419070198264182,-0.8325220840292507,-0.09424859090446489,0.5049511886494937,0.6575972931621219,0.7855573446410665,0.47598530642650205,0.7062006162987066,0.5710179404867874,0.7878406686177212,-0.4147641431971277,-0.3311751754654318,-0.4204184183698632,0.2381509462210851,0.39556276273591134,-0.7960579804294747,-0.35792798769314377,-0.078407843727516,-0.49823644871868783,0.357056221277714,0.771138164622516,0.005865958030662313,-0.7673895128636152,0.008229510057639418,0.20381793979472193,-0.07757813429050392,-0.9107920018114601,-0.410610789878252,-0.648496396476692,-0.8762301216955424,0.39145061133092024,-0.061963197615043465,-0.28232800222762494,-0.6752924276166039,-0.12887643787896697,0.8814152332001627,-0.776739335182643,-0.26870552831353134,0.47279797758338804,0.6415016324628712,-0.7107168985273089,0.14295932971345657,-0.47979589349833957,-0.04575633976440822,-0.5240034968380853,-0.948464653490142,-0.1969733314892657,-0.403039554981976,0.11171133011982852,-0.38148727062629395,-0.8823544250858066,-0.21021147093891854,-0.1721045679595914,-0.8469209004201658,-0.06299216054708975,0.513479937907092,-0.34182364543822397,0.9103269515807139,0.9642620252107068,0.32724228004900574,-0.6158632277750254,0.984961582277982,-0.814461057900981,0.26738177413635755,0.15195785992835098,0.034198958272872185,-0.07753884828843358,-0.6143602343389495,-0.637111830193744,0.966583302414636,0.2615502837739924,0.07626051963857586,0.7580956255361632,-0.8471686807155082,-0.7495682866127301,0.898896880276163,0.9046964494731716,0.8959866184273827,0.31876566350511687,-0.1242859481405323,-0.9031611537736072,-0.8620348487710212,-0.7558650209014288,-0.3071036442678945,0.870973071327744,0.9605613479406353,-0.8557244939615347,0.9267394134894205,-0.8223710007020762,-0.8796729780919929,0.9650058370414981,0.8737494125263203,0.3184501071096671,-0.4585674614426045,-0.17530936940325015,-0.5002289500714872,0.6693379549612847,0.4128082490005819,-0.5021413425775549,0.6708220104216731,0.5484196690508438,0.2578692924870371,0.042978007056891664,-0.9423262122845419,0.3399952145903035,-0.3129158717620749,-0.2072862186362557,-0.5798259134463952,0.8752317864377849,0.567020156829393,0.4602101407398971,0.32863397764544316,0.3310448160880993,-0.5888577733567586,-0.13300848956609196,0.5382413609415939,0.5762527677292217,0.12123857166033472,0.8124706498960507,-0.3085660093142595,0.40483313234370594,0.9665649725850424,0.774552975049054,0.16080477434659232,0.423107141344085,0.578042776052599,-0.43803182314317607,-0.6903211313767892,0.8637822833036396,0.9517920769472906,-0.44037505461845083,-0.7444884544593109,-0.1167384483839423,-0.2870630673180251,-0.5981853569759672,-0.9063890054930227,-0.8529688733737025,-0.5001363942064528,0.02211410761202396,-0.2600815355962853,-0.5374463204018081,-0.2422616396658418,-0.7768357046210292,0.37249817872556723,0.4796365279480752,0.25428581903899755,-0.5740250726425108,0.5682131210746303,0.4880745441924766,-0.9064464567718956,0.022284166646712785,0.7299820821367203,-1.0074434360516635,0.4538120575487441,0.9111947447053544,-0.5068497000835255,0.5714925152189833,0.8081217934966051,-0.01728979259941172,0.3383490586438845,0.4258347111093748,-0.558224982732857,0.3669773034028869,0.7348825061586056,0.26657709741316754,-0.8233924979748587,-0.8914580461504106,-0.397488867961028,0.6444637193171161,-0.35916538144660815,0.37668872204310244,0.28923399198173105,0.7731108135440863,0.18729890314538739,-0.7680031146927612,-0.5898490327090041,-0.33648652398571605,-0.29596667030805485,-0.4354675813420325,0.11482638905701446,0.023628698525185246,0.8731785495043369,-0.688345696265361,0.24366116017232942,-0.7857486055485513,-0.6002279906297784,0.5233998919720729,0.02384482822056272,0.7830638565845361,-0.11571738359936977,0.6758041102821043,-0.25313798862436804,0.36683323287720776,-0.52594325810107,0.8501639070727075,-0.6717511626251416,-0.09981790807343602,-0.4897071975547984,0.40367950569858707,0.5052804571412426,1.0837265659598685,-0.6400407956418911,0.17249437764357406,0.99082997290725,-0.37304576931477984,0.12073589542351085,-0.07026677608336686,-0.8301929816169188,0.0472722021288419,0.5787829772576788,0.17179584783551777,-0.4448044892380186,0.6745283601853198,0.23006835994485197,-0.36418332817420046,-0.16607213185147687,0.6702604777392053,0.5644972517416592,0.4560671883096378,0.867040222165756,0.214543334157089,1.1152589692622537,-0.16986973905596528,0.05003284446517123,-0.5270037922734631,0.9505038079216136,0.8569393958396868,-0.4099608971068587,-0.16085339412984115,0.4191950352607504,-0.35660053005306863,-0.2586689533273343,-0.2225339604073284,-0.06229854201107229,0.6143839912650381,-0.6204916506347078,0.8123904422174941,0.3292157154003061,0.6536251236037293,-0.6271245554065702,0.15709614857604304,-0.8180378231083577,-0.2821959706156442,-0.8724363885701126,0.5803393891733727,0.9505097742791302,0.6951663736798762,0.2731179844257242,-0.4493690277443225,-0.2104090733603428,0.34269123954343544,-0.06458665109219552,-0.07101918379225201,0.3500662141696168,0.9058570445197911,-0.2401282024532015,-0.0396979250880231,0.31803135368562047,0.06216665423174391,0.3067624742732405,-0.048207473339271084,-0.5665489579958695,-0.13928941584868462,0.746126409092133,-0.7736385165465598,0.38161388587767764,0.907145694711008,-0.3461883727776329,0.30541456396855937,-0.21088008416946719,0.25540852226252836,0.11127187699035057,-0.39691089436116117,-0.38889565491779027,-0.30738193712728973,0.21022491311103644,-0.4450494739009291,-0.04588853873988291,-1.004632918408433,-0.10701948445729458,0.7410094147523986,0.2911582198509269,-0.2886475335993932,0.3412658423156869,0.166117885431755,0.186709629244523,0.9190410487312121,0.46331653305823506,-0.3470937585812352],[0.035740833878669026,-0.21974023439248863,-0.5730860008643474,-0.8390763066567498,0.8144765863753514,-0.2774573276111423,-0.2549035927581097,-0.19457826308478177,1.0067812517743826,0.4285517380263303,-0.15551271289125665,0.7242999606453501,-0.5994680586166918,0.7830882718450505,-0.09986089761848856,0.05884629576197144,0.5575291960276502,0.24157060278308604,-0.3074911712330385,-0.8980896749362829,-0.49647556331559717,0.16548359165841026,-0.025005313054294216,0.6778732202325659,-0.8352998903727898,0.5775639402759892,0.26415603175316177,0.9392616885628283,-0.39216491771806505,0.024970126398876177,0.49982221739354277,0.9446205636121674,0.1058010231027744,0.7550553679349636,-0.3895318990430135,0.35765898464629947,0.3649879366832373,-0.6164130351369693,0.2882680159027697,0.19506723113393867,0.48493380283542886,-0.6359953195233978,-0.40315805880532174,0.9675447287414419,0.4036434137430485,0.2730199404692448,0.8762234485699286,0.0759358603419339,0.6750357843873079,1.0135673295917251,0.20962531957133565,0.5133737027218629,0.6861065673116316,0.2155659912926443,0.2802087926374271,0.7142161264693377,0.06946245570299552,-0.5069172534466213,-0.1674064377981085,-0.11346080433542033,-0.6382988310837953,0.734482690223832,1.0635489961312814,-0.20101978158642703,0.09026228028245503,0.2714501297248187,-0.8844949163315696,-0.8580739674457744,-0.7972636400907828,0.8624960733789214,-0.588495438990601,-0.061429430702319175,-0.7265545955738646,0.7194190218315265,-0.6633386825874474,-1.0274994624307654,-0.17075161160737545,0.3957115881060295,-0.25444196401615493,-0.044273540764852494,-0.484078812005845,-0.3325813312093682,0.8763866628274587,-0.45144592179406573,0.11781820407499641,0.048148733558674446,-0.08787203745053579,0.3020259964479938,1.0117145222057007,-0.7517608844425423,0.5566743702666993,0.7241234580397522,0.16420936869492578,0.23540699017263986,0.8974782658432238,0.6318235487305237,-0.7141213748397857,0.32971750719168436,0.4973817714654903,0.6286305167887644,-0.6179945687559388,0.726757939926548,0.023416439553458162,-0.7965906128597667,-0.7901954963212439,0.8807204934612726,0.882302365006962,-0.8779286129653555,-0.4573974431684249,0.26809066077336785,-0.4647523404156648,0.6744007139664436,0.12889595526546554,-0.09447028967758268,0.8795028018086315,-0.2987244839148933,0.09021291948683692,-0.9382790604099308,-0.6739883870940555,-0.9234743047537124,-0.3086897031059851,0.9645569288730639,0.05666375455258255,-0.627710190286043,0.40709699174221337,-0.8812030761781493,-0.42473226559957655,-0.2150878004436104,-0.6986768116289571,-0.9314949976249889,-0.5570075582510544,0.18759968612878292,-0.3254204116600184,-0.5827329281675013,-0.8691216064319499,0.4435049300758295,0.44963700830428016,0.9435655405450992,-0.24907285398948129,0.6496370208487302,0.25720028488736424,-0.057370174395689366,-0.5678102189676049,-0.18941736242739246,0.8442266735590894,-0.7216874120478651,-0.3324706525285977,-0.48248633393588347,-0.04639534141281394,-0.49099895301844887,0.4657620259554667,-0.10099418059469668,-0.3839748696292679,-0.7930768926931463,0.009500226861704923,0.34485997248442746,1.1074413581298015,1.188259583649039,0.7337920266220864,-0.012057898816741998,-0.06042093650492427,-0.019257477306760078,-0.3713774243014465,-0.43729506346528646,-0.09718499759927444,0.6503406799500506,0.7570715256683377,-0.3120310823757189,-0.021701941209297484,0.5901848326969493,0.7602663638673676,0.5612893967089738,0.15757460056463868,-0.716908084734036,0.365659294184896,0.8955357412916733,-0.0005235858643518625,0.46124169080664507,-0.2729548363694829,0.11184394392064231,0.2302519253137071,0.6012867638926911,0.9649526257195457,-0.7536674966193414,-0.656886497319442,-0.37803249967816116,1.1302769902771286,0.5776822011139292,0.48734690990056206,0.6515656025327269,0.7717377928914024,0.9844116585356977,-0.6218146795276175,0.3147770806054408,0.3619201682888469,0.7255694153167347,-0.7976669175522254,-0.7788575043862298,0.1396219633528143,0.11419473549473269,-0.025858185351555114,0.23478339941346604,0.5388395980136411,0.8872813542691382,1.157940958730112,0.578185480566827,-0.837210750046136,-0.39292437986411527,-0.9002079914854426,-1.0595664189458065,-1.0271027576238192,-0.7581802047586115,-0.25067853093014925,1.0785419602130235,0.20294408259836913,-0.11585759945972363,-1.0883315645446794,0.7327459814124975,-0.08762182878600543,0.638202973700463,0.6781213816910607,-0.8426963299987613,-0.4592389321242674,-0.17274203176112587,-0.19810106946196426,1.0532237404119287,0.4415987007239449,-0.46623290792351335,0.8192336591719588,-0.5942935619418421,-0.4535758791915347,-0.667449670717804,0.491177110548777,-0.2872347465277725,0.05616829706553668,-0.4725547281238966,0.14437784246381138,0.33953644992786813,-0.8531363851358224,-0.21498998898774188,-0.6174987014790579,0.21917636969276974,0.8817541550591829,1.0634793878362199,-0.33941617838137694,-0.5812367357236261,-0.644466306350507,0.2559262746600578,-0.14458004082972203,0.9803504528759632,-0.13671554641602657,-0.8480647521245478,-0.49568382807661937,0.6339446277098836,-0.7349067778343247,0.6105725123081648,-0.7163515301476463,-0.005481646477841392,-0.31226446336587405,-0.6950390255761706,0.6619339790453646,-0.9666880280308424,-0.3008124796428255,-0.2756903953367608,0.3317953913544868,0.29443436154278396,0.3011039406334124,-0.8534283919702609,1.0083575960955502,-0.12644098466555473,0.46794279249874454,-0.37045564722988483,0.9175551120300453,-0.7416121904893447,-0.09717739873683319,-1.0205197221668794,0.6398545818673657,-0.36332405382688854,0.885140151963241,-0.21256925774788107,-1.0416638121249882,-0.18888995871390865,0.002924403426457662,0.9042970732711314,0.23743493375413044,0.9767601149836198,-0.8269834431132883,0.4417381363758207,-0.740427188546971,0.13342614310635878,-0.4169994498240435,-0.6770782495908731,0.47932858347384466,0.05039482742549355,0.9339731381566939,0.6706949337718147,0.7508210191320768,-0.5826411371990716,-0.5023023070124374,-0.8097675325783976,-0.27619825829359324,-0.9892130475520492,0.11410273289684073,-0.5472800799418677,-0.802177812182698,-0.30921957211667805,-0.4371957642440455,-0.40803610426190867,-0.18605280938165142,0.27151023893982906,-0.043616791142897016,-0.7977419901933788,0.6087243732598011,-0.2827432116384418,0.6687032655944476,-0.30762102499997573,0.1223602684264826,-0.7961459336966861,-0.7897718826369808,-0.961069951433404,0.8756378129155196,0.2697662822831301,0.7190312952879564,0.13260486216170775,-0.07191331931526887,0.6133580309261446,-0.07366444308420103,0.15379845986642413,-0.7060339877933038,1.1282024421936039,0.33507031863775205,0.891843086204692,-0.4561071578997988,-0.3767337784742368,-0.8672718285127655,-0.0077285567004615795,0.12244308175554433,-0.43886723221111795,0.24002988185301347,0.1387072448245296,-0.7426744845811637,0.10595464517751309,0.10781791706014146,0.4395771084802193,-0.029703393717546003,-0.2503141774434803,-0.8751548249843857,-0.42241749332912437,0.4649128147621672,0.7370782229701063,0.7485877113399467,-0.2772681362002023,0.9460104109802668,-0.9041993355927026,-0.36952802149486924,-0.4698360292994818,1.052898303406872,-0.23027673428610168,0.26133972415937556,0.889097224974307,0.8041757882886471,-0.04748705305709518,-0.24169580686010167,0.5070363703580091,-0.43737364165704856,0.6724287535331547,-0.7307565644508957,-0.4786048739608477,0.8404635939907218,0.018925817878852943,0.9781478182668247,0.6089273505594391,-0.37428466660117227,0.7608596022954918,-1.0198182309815165,-0.30769471775611634,-0.6230042331227252,0.5603685011065217,-0.6539273147063361,0.7863228537277245,-0.7590716844707905,0.7934916995712686,-0.6342724094159046,0.49025707169359267,-0.29237846249261584,0.45614633379735037,0.11479895870444627,0.9866670943930922,-0.8349705613159397,-0.5537223848244494,1.0405002506620356,-0.31499361945061877,-0.3811615003973901,-0.4854350654175315,0.5171988681711205,-0.18698569515688723,0.8130275595345416,-0.8342548115483737,-0.6419412307117117,-0.26666521841759766,0.2290696904612201,-0.0851619517655114,0.8923899021768369,-0.5595220999511221,0.29440768541392137,-0.5599204356773986,-0.42548242396182057,-0.7965043916811356,0.4388362748536733,0.40620425458753856,0.3609650162009456,0.37472854717401105,-0.5702637380425088,0.5421494522770041,-0.44248905517273013,0.765746401171024,0.3303542132617063,0.4251452264676879,0.7608394917986578,0.8248228637837312,0.6466572498479982,0.17058223351331608,0.7762608259757278,-0.683137125516627,0.7794371807152035,0.08672480927119577,0.9109396448337485,-0.4569124743858351,-0.2783602428213093,0.21326854819666394,0.5479401257752653,-0.8630574533123913,0.7327803831780104,-0.5398533917544833,-0.6389546806108292,0.5889065197574886,-0.5693038995813328,0.5076404616005155,-0.09516957772576312,0.5482525103218626,-0.6269611162990492,1.0031673726402126,0.1674720341235385,0.5785815195838147,-0.7545592518101736,0.33538047905851875,0.8697974222013092,0.188388682222987,-0.5038605054269004,0.4695450722996387,-0.4541819736465711,0.4751118316959015,0.49854483730280463,0.2490697890114257,0.6295615393602431,-0.5624157785568308,0.1837927720589934,0.05013881898277023,-0.09188813873309827,-0.2974323567005054,0.6465677119485304,-0.13722009330614743,0.1995177119901296,0.30303737252715773,-0.3686508118551127,1.0073667270574003,-0.2441751064737407,0.40680021627345103,-0.3084529879098108,-0.8359136968470672,-0.5207325840693704,-0.4581354044178169,0.1276942678072056,0.5481534040939162,-0.38113349799577295,0.2292246679017194,-0.18709529028204228,0.4651481934897829,-0.18110286522095953,-0.30619136865714475,1.0029634425794016,0.821207191441615,0.4365229463138281,-0.4887733161192734,-0.341640430690774,0.49027684413844735,0.5753364233646285,0.6792887608155802,-0.7136703873292936,0.3892795267068123,0.63648882435089,-0.7326713860010191,0.9192783911634245,-0.9706780516507001,-0.28389050030137597,0.16681650213066562,0.23411609443906686,0.7900100993061383,-0.20125066364305563,0.15586839727221824,0.03784037826299732,0.2147767773585925,-0.038855940112208776,0.2141240176771257,1.0665740766828322,-0.3102330969032233,-0.5652517248702246,0.7779466201329739,-0.8928137564051066,-0.9219940622665798,0.04152749704693924,-0.23595390234869731,-0.4452148191539489,-0.38791929419325727,-0.943275735270899,-0.7519951886084187,0.17352646475973157,0.5419161591270482,-1.1029113536423962,-0.7666737118850584,-0.6253894506831713,-0.3803111940492775,-0.3309487951606532,1.0435542686045913,0.15067106872889544,-0.3484878335092129,-0.5001227034363569,0.993330288469633,-0.2405229042558651,0.027309298642766544,-0.1712483123814153,-0.7217479967329175,-0.052805233215235024,-0.2603898215221922,0.7481277687306889,-0.7786038318057918,0.877922798414292,-0.24663422868781854,-0.722756568098183,0.15114660803627328,0.000694752085418921],[-0.20295983074220555,0.2656866767364373,0.49445356900644266,-0.6375898030944341,-0.6603126776175385,-0.022147892839734652,-0.6194904833750676,-0.29789878480973747,-0.3291079504521765,0.5080377232368462,-0.1289360287543053,-0.45914423708940805,-0.5664704801872539,-0.22549335052568792,-0.8406387512690856,0.30331315770469897,0.39873819821793555,0.07275633739242594,-0.5285543905023244,-0.8890139692742168,-0.6099635182149119,-0.5289843063500869,-0.555784068196421,0.871260124547625,-0.43755947838859977,0.31437464224940215,-0.42295365413546354,-0.052321866845454305,-0.42888842402670296,0.3047588046062804,0.7062376993526015,-0.7615054686687612,0.5440894782053822,0.23424604051033726,-0.5355647278978285,0.28126616949630967,0.4825951130061268,0.6274779217658719,0.16492709313433074,0.581670861558287,-0.14636513002198967,0.43057651914624634,-0.8767730382698617,0.8824937935055455,-0.995050272667903,0.9156896382902984,-0.6269304716912651,0.8472358755057009,-0.8538310896876137,-0.26880874676499,-0.2929145475258153,-0.21887490655489902,0.23026207571384094,0.8629393740906988,-0.3979243795260643,0.001369353602818633,0.8689384579537289,0.30551385278156723,-0.698178865888581,1.0010862683128041,0.7727155290397014,0.13063539197308552,-0.755017458767889,0.734439525491544,0.9255089740014548,0.27172083556583054,0.28646307223130013,0.7331556537169767,0.40602207779336646,-0.4975267302384416,-0.102293108911952,0.7250949197746456,-0.24728228207442565,0.6920529596792555,-0.15808173611426624,-0.17999243372669366,0.9590962773316726,-0.6694444777981423,-0.5088350927633651,-0.4800761421221353,-0.4032830014869581,-0.06360898281315838,0.4445891651076682,-0.7997138617471359,-0.4220416391005137,-0.7178159655799203,0.210527166206009,0.7313626761163045,-0.1525120694797389,-0.7448863344990223,0.3546799016667285,0.348424976403278,-0.15406622480540955,-0.3678784546880501,0.11816790618519239,-0.5997777005723576,0.9239718129984195,0.5769538994389739,0.33297814949666027,-0.6654600019587869,-0.36541239745847226,-0.5817038497259864,0.2651619570179769,0.8837768332632449,0.8967048382481527,-0.004430640431917324,0.669410032764204,0.0531595032442854,-0.2617879334405528,0.17882901890006073,0.6265081824149865,-0.09119065381172971,0.9815003766062776,-0.435601982226186,0.9262076312803418,0.3851635831920409,0.6920149826376957,-0.07013178161561649,-0.21463394314202758,0.2387014106773525,0.38377582489850753,0.9566332457943458,-0.1721628744137991,0.019108496041378188,0.30812550139993095,0.549913637198497,-0.9059663183569391,-0.6540761722923447,0.7395082105722227,-0.30869783843780085,0.42235386322606944,0.9337485735481676,0.22668115296760885,-0.06478451153373663,-0.9638760459009363,-0.8250346731137089,0.5731752525751619,0.41655215936548745,-0.23950720783860902,0.9692202535270724,0.6810402138779496,0.30810421415750705,-0.8964828723021117,-0.34230213452966574,0.27022287157415886,-0.3371251716288796,0.15344252941378195,-0.6785816254567398,0.17125085506251891,-0.9942196141555031,0.0908361069961685,-0.0873211287569514,-0.5317315818203515,-0.6198234464914051,0.569433553568206,-0.6350303105194716,0.2598239010092935,-0.2394556883831685,0.14612496931778773,0.6137268075707831,-0.6246476317667432,-0.07176038810784435,0.6640031450896537,0.39464627753125914,0.34110660122236297,-0.7783820510516247,-0.19244446760026848,0.4080989595102764,0.4224346401365113,0.7611555921634687,0.10915819924283951,0.38704161147841626,-0.8789334906280654,-0.9484146468543162,0.6065139179055753,-0.3079159307105239,-0.33107367675187926,0.15769357620188584,0.23045930622006736,0.8994907705298111,-0.7020146739732221,-0.9033184587429604,0.6433010612506229,0.5725304742716549,-0.9451909215787572,0.5982001559777935,-0.6452793931971267,-0.6184457521518363,-0.8746139714901056,0.5252727289397997,-0.7885144211813412,-0.14336174766996185,-0.7941848451969307,0.6488833238479083,0.3603613572755772,0.18091523978471669,-0.00274402251077346,0.08747527625977264,0.44719465931782204,0.8785480154099462,-0.1470367212387001,0.47597829186858365,0.8590148231234188,-0.3838165343750362,-0.8506761999373779,0.282235197267056,0.9295525748351587,-0.5662580659782981,0.367418245499442,-0.6507924420796833,-0.26861699748524803,-0.06294721718294495,-0.38630640472626626,-0.5548242486969368,-0.5730293531806812,-0.16869042502208856,-0.9654876753104751,-0.589958942099652,-0.7020126098117665,0.9395843398664985,0.26866420185580964,-0.498468131472853,0.4500343683408554,-0.6639604630491666,0.7356409637395857,0.08749661659232232,0.7225424961198824,-0.8067134324554839,-0.9377041937732165,-0.3946595479088806,0.7415100679215605,-0.13885261554374265,-0.36540405031443524,0.7435115344958138,0.7361774105520524,-0.15263515611937445,0.82951982857912,-0.8935023490044881,0.2632089176778224,1.0094403917967436,0.25099439848542204,0.8358995092787619,0.9407654827214327,-0.7207516066324645,0.3839057216018302,-0.9672142859847522,0.5972383734164393,1.001973102790061,0.34904559049238393,0.9326269850952561,-0.6002909747630522,-0.045617641890227836,-0.7056707548967496,-0.8923470567848248,0.9260350387106242,0.570201779063104,-0.17498383520036384,-0.4463767289284757,-0.3411848871502343,0.118507351173688,-0.9391110978761384,-0.37662840903870426,-0.04096728147540081,-0.468130949585493,-1.0021707248910048,0.9281478216497755,-0.10064516421223431,0.331416199167584,0.393743466666349,-0.2793488254413511,-0.6657176206035033,-0.2475557288659472,0.0861346294003279,0.4424924887152858,0.2820877067655225,0.5371029289714606,-0.6217568940060467,-0.3996523802400653,0.6901781673331432,-0.6784852051604372,0.7612598247947991,0.47363796217258597,0.46930818150835657,-0.39325120492369153,0.5477729811556605,-0.7951889880236743,-0.5641616075487369,-0.8030438946217139,0.8055576004573174,-0.7150325212823011,0.8277622700688066,-0.5757986224172751,0.6244082331413842,0.14057409616378352,-0.5702945165892463,-0.05448914545885864,-0.5520343104719734,-0.0420875267088097,-0.2805332672659101,0.11290384649577043,0.9021361909572733,-0.16629085336774946,-0.5130533944470489,0.05015861712382407,-0.585376762455129,-0.7041111510319118,0.6066448340981447,0.7590605210923901,0.24132314292388826,0.4197941011465539,-1.0384073752355472,0.2769350523780875,0.8119704876922482,-0.7947474104158518,-0.903475633764538,0.9117881224569294,-0.40739778962696893,-0.9839062115039476,-0.7735343419951686,0.7778208553242835,-0.850153650448418,0.5766462911893513,-0.0684650379454324,0.6833747219508061,0.6552342827778518,0.47959890926603194,0.5402535869333532,-0.3508466990332804,0.6853357302313342,-0.655129881120558,-0.6935529078991625,0.543830789119802,0.251997333296966,0.8728538664119725,-0.12266608084134364,-0.0306773017448572,0.21806685430326408,-0.622032160364563,-0.07324765224575805,0.409327707955335,-0.3252113961092074,0.43935932093784436,-0.7153104746146887,0.505005353469229,0.6025630043144931,0.7395409547039782,0.6858366901936798,0.7692581796490627,0.6642376112107085,0.641923816597689,0.5042641772788108,-0.4863151337806025,-0.18153292823771525,-1.0258329499536134,0.21666174537345137,-0.6492349034356241,-0.34314422201514033,-0.28944190385926527,0.4956872265453456,0.9665572155449512,0.46808135446231597,-0.6178951142081408,0.7988724040322708,0.7502142004191541,0.6677843256353867,0.17693466120146378,0.47349308834372916,0.22746276469270438,0.49360771877342685,-0.8716958199910999,0.698857845632191,-0.8851628475618052,0.044016157123346195,0.3302960021132733,0.4486010668503723,-0.5590186634816969,-0.5054574157469501,0.8037794131930304,-0.6621105082469245,-0.7486397699902068,-0.36599026400913937,0.29404346554949345,-0.8530251381318048,0.6780816648775599,-0.07061941152936502,0.9512385051053311,-0.46314163908743905,0.14999475925011746,-0.004922027303888679,-0.3499689271186746,0.8646559983940878,-0.7101190702673099,-0.867885614704101,-0.4929484786450621,-0.6607796973903474,-0.3500313963530608,-1.0410707651136846,-0.015378534944387921,0.9523133553234905,-0.34137207569644945,-0.5316210420204651,-0.3003158482387233,0.743697113550439,0.733354264424608,-0.017427570343616715,-0.7083453740027155,0.16443055805983228,0.11930137073533184,0.05139537298913671,-0.09529100436156632,-0.5555972696712328,0.5093283074134051,-0.8232844772070452,-0.7389169175458812,-0.10213988370406793,0.890644865237182,-0.6111494869877405,-1.015331861031125,-0.5339202800758704,0.24752039512060245,-0.0021607039329753232,0.708889340325905,1.0340104539039645,0.821500963587969,-0.8303596184444385,-0.7384506167511179,-0.9438570760965154,-0.6469479185814639,-0.04611346314336082,-0.2454870010154959,0.3409230126062588,-0.12357104727844406,0.8203223128479956,-0.15564473881379834,-0.18338443842801933,-0.3480899542261797,0.2819582032701927,-0.1831364076355475,-0.23305636206119673,-0.4986003428771236,0.46990407943433216,-0.842306214237489,1.0578612631949607,-0.5073780361633297,0.5846070451725948,0.7625977876214214,-0.8237303300958556,0.19757877722574874,-0.066286309785721,-0.8696043764586671,0.804991580456455,-0.27789564028746416,-0.13662959499649197,-0.8525971684387507,-0.876912057406456,0.8150138333539575,0.3690420014676948,-0.4166529740418313,-0.9503326413227511,-0.1689416585587975,0.9945024719204892,-0.09771884532011625,0.29445901766691696,-0.7509187697194426,0.07954856667127976,-0.2584128567689231,-0.3286988773168706,-0.8176509486498628,0.048426760066387936,0.47098317684304086,-0.616632627444431,0.8530051926101745,-0.6750634798062113,0.014028415270862639,-0.1573652461236631,0.2548224581882237,0.9255140874736507,0.5615339566802522,0.8165952601648612,0.4438371045210573,0.06476353857671134,0.14728506589414447,0.7354867372752306,-0.8626853706990776,-0.37049596839093757,-0.6453987450691099,0.9758028896896698,0.45105553481894733,-0.5628723067120104,-0.751921756501059,-0.7927027818087086,0.28441250764596987,0.8738076413462367,0.8218725951232395,0.13159034015923343,-0.27165525037611804,0.7892268132418828,0.9090419084705158,-0.16052219859554112,-0.9983539431672667,-0.438284962102017,0.7136174610249334,-0.04576719904359693,0.2915837299507318,0.6831844095274247,0.9907568865015441,-0.9699581237814255,0.6523202251892226,-1.0079656824628451,0.27366997290473644,-0.7117771623451886,-0.4592168813047288,0.9827257943835079,-0.5403406016787368,-0.7242582168422523,0.31901859717627745,-0.16767357252308782,-0.0067332046685671856,0.6904006985932615,-0.03282757155002564,0.6383976495449873,0.7966707221857448,0.006188558373274933,0.47628009688451933,0.7984823933466718,-0.06449326164437175,0.7269215518360604,-0.26338914579127237,-0.2130322968587357,1.0015176078854966,0.13721627586349427,-0.4100838152611343,1.0077516362174357,0.539504052321003,0.36095495029937574,0.08104504701559273,-0.03597140965522142,-0.29250986776431986,0.08802661084287877,-0.491291578038476,-0.8991419745210757],[-0.4675519808464842,0.4607986510565462,0.5882537295352342,0.48245082753153995,0.7659945729092987,0.29988757486247,0.1218923256372846,-0.09353515628583398,-0.2529954602302419,0.13716221568543566,0.1397146549393544,0.9544433602325322,0.772258095787136,0.89349134449109,0.023710623571649422,-0.8010739931175925,0.7484533994702223,-0.9145238949212688,-0.5013590417049641,-0.018823479135492698,-0.14543028180449047,0.5092281149784466,0.7040387457806078,0.3080274498637529,-0.15506723704252778,-0.84005487413104,0.6696574727320647,0.8198287928237545,0.564871759149392,-0.013097998091385458,0.28269641871295886,0.4392963897113925,0.9106964893358009,-0.17847631159297958,-0.5460462468500278,0.8949404759937832,-0.06157432738316136,-0.16629235510655602,-0.5583552355184792,1.0162993605490014,0.5759036324166699,-0.3144956344660804,0.6504106676258612,0.35375682767502037,-0.7960947627483418,-0.49269544670578125,-0.3239753166781164,-0.42939093853317495,-0.39768903315384524,0.02472063827048932,-0.21916137764864113,-0.8451866838035877,1.005406987026777,-0.7221918673989585,0.9388555886436678,-0.5394420634324194,0.805043181625897,-0.5369656865956997,-0.7632531351489551,-0.5716613431841501,0.9032936311696377,-0.5907616393155118,0.1884697381032275,0.8909253163158019,-0.4276057943582767,-0.19239840715462989,0.7408425474804744,-0.6063128175799285,-0.2160544075043326,-0.4075248516573162,0.25309092575382386,-0.5573451836424211,0.21362271623129236,-0.766331781851772,0.19042425284357373,0.09470694598004091,-0.5961534910903427,-0.7044402816347919,-0.9407076405105743,-0.6913320942247224,0.7503902796797478,-0.013561077281679617,-0.09061530090187646,0.544007882634558,0.2582100116271233,-0.8019062252960935,0.6283689925320876,-0.21541397861061193,0.10537029940978894,-0.3668086013028882,-0.8196815826049847,0.3475895981124544,-0.9218841291761755,0.4004326756723192,-0.516121763729438,0.07700942358022396,0.32984165610727,0.2681131833393037,-0.11519373092142055,-0.7254632169351928,0.9401708276631465,0.452928622768841,0.17108587398357397,0.7535324603777133,-0.8900540583549725,-0.09544853771044047,-0.6228154394348849,0.9708267591179286,-0.3345693848468263,0.8100866267234139,-0.5866787772555973,-0.8701478757969728,-0.15246135694331492,0.17007176527016674,-0.7032613531333911,-0.5637934474805202,0.6249352215369447,-0.3752391825902004,0.6823251286427574,-0.11212664989188545,0.5685919897221432,0.7187730903907801,0.7245352484189524,0.5347593528602653,-0.6063743782728998,-0.6447628417734838,-0.9259273385558918,0.864341841956353,-0.6306797560998829,-0.053256290265147194,0.9333593988298514,0.9898242114286533,0.7142911465368742,-0.4851863187887802,0.17091260513900752,-0.6914075454753366,0.8645476092785148,0.9749639712185275,0.8388262734901603,-0.2614206194798435,0.8439174996899884,0.679206341813608,-0.6515555441366437,0.7546105925635517,-0.5483010945713991,-0.3710485398897536,0.37726385088516246,-0.17706696388126936,0.9136546331676441,-0.6534121217084181,0.14242934437857074,0.5252987500012727,-0.859401235261238,0.41053387740490266,-0.04280439090259803,-0.6937521013553202,0.5790547577370064,0.69457185605351,-0.19280895380475233,-0.06917833156332728,-1.027339674487204,0.13029663651517812,0.29926655783059913,-0.512895579020213,0.06832833270536764,0.08240102745474025,0.3733722843700432,0.16234751238063788,-0.23051751933787945,-0.19524392438526875,-0.40086490249647977,0.42122988437372627,0.008507632565425057,0.19874197070831076,-0.16716746755313217,0.7536329784416917,0.14858090557368733,-0.4284063873992558,-0.9868475119220845,0.6228295044959369,-0.3557596313267867,0.5245064746223129,0.5731710541595326,0.7670455874790616,0.6559616525078524,0.3075748696199696,0.5839804712205587,0.8486599446005192,-0.6094015065786275,0.6373636163986435,0.3420225647902387,-0.6429640326702132,1.045985436776583,0.2947932956945027,0.23884893647210215,0.051900465835277534,-0.5111973039536881,-0.3662518912680035,0.8769201096730529,0.0582489543646215,0.04111545033292905,0.6313334169676184,-0.9205141145706383,0.39811956503922397,0.13306158581571007,-0.026952358020241776,-0.3366801486629681,-0.33202706419226113,-0.7486847154167133,-0.7297334160852683,0.03251663583911454,-0.9129589889238272,-0.8060717018072497,0.4945943618965127,0.04667086880069124,-0.8488112989520572,0.6200736354581828,0.15316777477918359,-0.6937499148388998,0.8008169400353468,-0.9307787824716038,-0.28245384976306165,0.5846620776490743,-0.8462080163798923,0.0034619255990019863,0.4011091424417631,0.5296758166165799,0.7387043566250715,0.4904714921693528,0.18602742849791015,-0.870555106423479,-0.9046559193669752,0.25024463012078824,0.05305622407431738,-0.5757732957797798,0.08535165018297239,-0.22012227385560637,0.2658505182482275,-0.904715931998949,0.6723592808423122,0.6924586940756886,0.9439637638789302,-0.11085232564124652,0.7294344255529848,0.1982990355501244,-0.6352286294705864,-0.37325809489526557,0.3835408901092442,-0.6330378479000843,-0.5215126652346308,0.5777909248451367,-0.7161381554973236,0.7792921192075003,-0.8789961449416155,0.11500046945449652,-0.0056617233634727124,0.8700983741117625,0.5266190094516693,0.7095786161228902,-0.68762854889467,-0.8588581910830955,0.041017435628041235,-0.9738975194618297,0.5538671814132784,0.35322592752276105,0.3094609388787183,-0.8640724939891391,-0.5256499440774708,-0.1701364217535703,0.2445235008572099,-0.02992873774560543,0.6399798700393858,0.8230959999182565,-0.029824530061726116,-0.08345667737443484,0.8636481370104246,-1.0614052460855767,-0.6573642734781441,0.7468609330578588,0.35043220877613934,0.3165727544445676,0.443551148894266,-0.022290741768279325,0.36929810813422487,-0.8781739770048624,0.3160929685112329,0.02834883338418127,0.45633964140201355,0.7106699232166666,-0.8020803576293786,0.7511311475428971,0.452215009603963,-0.4625943650623742,0.06981235491309942,0.5900477064033172,-0.6865853628386104,-0.16530605525479108,0.44318092492449873,-0.48816369737021276,0.09043658055319898,0.451759205820092,-0.7490971501554285,-0.3487227398168456,0.32890608071651956,-0.5033186131536458,0.6262539343757805,-0.8958926002007498,-0.6739860004419191,0.844751280040023,0.37275369024863597,-0.6096483333781241,-0.5476212103559053,0.5714755410961726,0.654247109552799,-0.8691188301566694,0.6160012403123882,0.5598269957935769,-0.10646904235430642,-0.34345667710616723,-0.49423745642477557,-0.6628174320344017,-0.8734022452129521,0.8808119110725112,0.3393102244394283,-0.3677749621943712,0.059394336822283,-0.6322217371893685,-0.48498653995689606,0.35950713410888924,-0.6419792795499474,-0.5184308277472632,-0.8814115792438408,0.4057498306540722,0.2845326265539042,0.7392645841580334,0.7587446993237474,-0.9165220796843675,0.10330302346309521,0.7631889871038887,0.026362692105785242,0.5210779321591159,-0.7460566813870144,0.08646756757589825,0.7722205288524506,-1.0392056167704105,0.18675348929356075,0.9216700141777179,-0.556588588988113,-0.41575914331414876,0.035263894802385606,0.8877414435356397,-0.7252908751220433,-0.11820097517280405,0.9644328635177162,-0.3206353369079231,0.021694668619623412,0.3943533926089722,0.6337385037288878,0.7697728070667558,-0.2972286232230248,0.2054390502410747,-0.8630176687211633,0.14190017457579163,0.023084069657336507,-0.9918149314748248,0.029481811841004554,0.2324762874706146,0.3056748140660361,0.5290258332777892,-0.620728428461271,0.8732851388250706,0.2896328666581632,-0.9701859310608922,0.6905025243695149,-0.3876259519572349,-0.5136682639034323,0.7727876606420827,0.49432963048970396,-0.17802657308263356,-0.45828339979597194,-0.9976899233624442,-0.46567976421446183,-0.5345068354643095,-0.5816524842495564,-0.6182684504190485,-0.38150750048054183,0.19692869968741852,0.8170181561580424,0.2475119412104649,0.2029649447586708,-0.6721472257862101,0.23937057304814882,-0.4175628414185655,-0.6673194033630557,0.373802885414787,-0.9696379889459762,0.8405980819347306,0.8866261322422205,0.7736988195988479,-0.9657308870520017,-0.24569521391569968,0.33847578575357723,-0.9389408960539547,-0.820343760256031,-0.24716430716709065,0.020392407078608787,-0.11217430541326641,-0.5643985617819947,-0.5727704086559404,0.3032753547620445,0.5736531206002428,0.6310822382860534,-0.6012609307768577,0.6102003752656832,0.36900890255881985,-1.02549689408798,0.20235131936366565,-0.004257619718630818,0.4900707600344984,0.4727781673220458,-0.8394280636426557,-0.6716570003341733,-0.03891820241937958,0.7951054701522493,-0.10462391404247642,-0.9083753163870397,-0.3955844322815077,0.14750726954149795,0.8593819751415255,0.2108482871294701,0.3232600008465754,-0.969955101427416,-0.5204315418450685,0.1897955994337824,-0.37318199939217106,0.3816617964328342,-0.9187093187379839,0.1769486056989378,-0.8710153537688726,-0.2747392875132656,-0.405106317008049,0.12416383708379371,0.32368624081683767,-0.4748003153860533,0.8355015476381902,0.2505686877094447,0.6008839949042368,1.0101645143143194,0.7602959730798456,-0.18058470519409925,0.5025174173010073,-0.9704012414961175,-0.6364153781628437,0.9628778070671504,-0.5544440602985282,-0.7218475103132156,0.5706029018465788,0.8731691985261638,0.4929098078245582,-0.92438977702058,-0.8043754530953575,-0.0006545163493910084,0.6395894442572364,-0.6489158605182676,-0.7467416533225752,-0.4277819523854948,0.5290769895473872,0.5739634129951928,-0.40328353312905774,-0.803230324443281,0.630558849513651,-0.7757840768676536,-0.6388636091593562,-0.8029132892460279,-0.23971675519158264,-0.020028050378291504,0.7968689314051711,-0.43236086488104264,0.14549132732490064,-0.1687989388978704,0.48296530085105605,-1.0405925968702492,-0.38012703919948626,0.05980427617291893,-0.5200401796142832,0.23482305027470218,-0.7025324673948393,-0.4939361693306295,-0.8650119261641427,0.3985250470050174,0.2934745427780223,-0.3852642866397605,0.963780785137268,-0.5289223616781601,0.7264606855222293,-0.6375627134935564,0.5067695221641225,0.871892964945204,0.1552886846866772,-0.725400815751644,-0.5803993025414852,-0.9371566580892746,-0.4053276051602452,-0.029137248232160788,-0.0753554243700393,0.7677738242582814,-0.5616962102415674,-0.5767936634077483,0.03702538403144681,0.17415603386737738,-0.08515654504578359,0.887247905753416,0.8827649809278681,-0.20448316710393957,-0.15796021024695997,0.1007024071354724,0.6454835303107572,0.9952249176966735,0.15636349660433677,-0.31512583819792894,0.43632882137053014,-0.6993930927773582,-0.9632467946948394,-0.7045747386194445,-0.4489967777532709,-0.29924669096537126,1.0138046400467193,0.8888209764101336,-0.8247468253462857,-0.8849253218373216,-0.23668800993742414,-0.44029942137877237,-0.05570826649637912,-0.6785138865632585,-0.7893525942050306,0.6717333333733913,-0.8851223656822468,0.30952766298444456,0.7534167201336619,0.2668096799828801,0.43290225423783985],[-0.9241555168237037,0.12484005752760632,-0.2697030767833299,0.46248180922487275,0.5520508936438095,0.9404880188390148,1.09312836668784,0.6804736534869935,-0.6241309116816786,0.08654798008218839,-0.7206808131555608,0.4408433731451739,-0.07069097612948122,1.1148219005523528,0.6010507190719889,0.927089729691958,0.5607423664446893,0.42180824170729686,-0.10283746765656052,-0.3440775572533233,-0.5296264298487844,0.9113787473139024,0.7092933670077661,-0.4375669380244741,-0.24386372325589725,0.6019003988287026,0.43978724021517374,0.22591533238762976,-0.630174456158538,0.11533164089826826,-0.36894690800969265,0.19221721281794504,0.14160512889098578,-0.5916911633979739,1.0927991071622618,0.8106059968805388,0.1123844884802647,0.661068866010236,-0.36850844335458,-0.3717888844447103,0.15960398246205493,-0.6915919166878587,0.24711581301737517,-0.6971226335050861,-0.4351521795660237,0.11192708888416616,0.9447218395139552,-0.25333547173079435,0.23158633326825537,-0.08615864271733314,0.5827880647577457,-0.6445806772655254,-0.11245920729341695,-0.01851809604510314,1.095971602227805,-0.3412298083655018,0.1639758916480239,0.036671473746659335,0.8911476763911665,0.9821354309179622,-0.6831791485275126,0.5301946117501476,0.23515917183653387,0.4785838094529535,0.7744683694328909,0.38872855922050414,-0.5740775421715862,0.5966379789870542,0.9263564500022907,0.025826846237330687,0.7069827941389419,-0.29658413384611526,-0.2506629865997195,0.2925909261005336,0.9998827072298592,0.02685186396486002,-0.057999654273800466,0.1571991940487098,0.4547791791122357,-0.6023836254654992,0.33987476770541597,0.2684782008519172,0.4893300867096497,-0.5317276409784802,0.33128113569967954,0.024987139164468052,0.6055372814856164,-0.33411317446284977,0.3466137029110552,0.026873034345300976,-0.2840510462522699,-0.1082485335585335,-0.007210161156549391,0.944289556702207,-0.2526002214341069,-1.0521084595095276,0.07157375806446767,-0.6703341907489339,-0.05233460344524971,-0.996791014490196,0.7891283166511057,-0.9350916523761866,-0.23803433171719723,-0.9371451715329631,-0.7697874486787626,0.4136976439848745,-0.7386698185974007,0.3601077967838816,0.19370645659073327,-0.18200148355344342,-0.18632437801386997,0.06522522252343413,-0.3961462590259263,0.09605968406102859,-0.10411547609865811,0.43181414348362,-0.023953512956808636,-0.28160052469476976,0.2578202707796856,-0.7743366887199725,0.07766862824123931,0.39134272003596854,-0.9047191369966906,0.546150523083473,-0.46648168703236725,-0.5441926089379362,0.2783549869640986,-0.3836060710108345,-0.20135808946743755,0.8326526877351472,-0.6063025213238843,-0.044076449295235944,-0.45787162324422237,0.7482630073575507,-0.33538375874419685,-0.14479714161756774,-1.0248568431250034,0.4355022258224569,-0.8634620521666544,-0.04130404557673036,0.6337144595925784,-0.7028163964997084,-0.8411399317791124,0.8136940904686177,-0.5725204175352208,-0.9201900540669087,0.1258551651822694,-0.12328800245230954,-1.0575537048394017,-0.24520788521938952,0.03518774726645284,0.8183571053088976,0.8672780726102063,0.42301992268141414,-0.7388972221998322,-0.4277942598311013,0.02079740853764838,0.34355773938827805,-0.34707170701544454,-0.1708170241084998,-0.7351631390683605,-0.7397116196324001,-0.14342839881185568,0.5554939499646713,0.30315373357428194,0.6941673017419175,-0.45058893009402895,-0.14554068545370785,0.3052430153379546,-0.046135878149665646,-0.4702035441168128,0.7402491783952095,0.12266048497832484,0.2101075460074856,-0.8217024206424984,-0.7029838640769254,-0.9340376671828106,0.3064461612594876,-0.37102151914954073,0.09886174056143783,-1.1509610332782043,0.10283128423834705,0.2696174687669577,-0.1209392285298934,-0.9186236822023192,-0.11956274240178476,-0.7415078972741054,1.0232859275857231,0.34210744579383034,0.5153496609825412,0.9070272987353528,-0.5282640589047239,-0.32373176907174883,0.11601675123847048,-0.5617554058181752,0.31356924610097175,-0.9302393516351489,-0.4318345202417278,0.34516178364717376,0.92069496030984,0.5065213746282337,-0.6762290445380682,0.4804175731275689,-1.1170280499316512,-0.747105995824791,-0.13188924599671656,-0.2697107288573061,-0.2650153543503497,-0.6135777986012835,-0.7184133251649398,0.5268044092206116,0.5997018157059756,0.1074963007504168,-0.05407271963194043,-0.30144782627754674,0.3079193827660907,0.42969686887720243,-0.3063724553432743,-0.5192320474322834,0.8069705483337967,-0.05254999981425244,0.7084620143331006,-0.10581905016682729,-0.9726936663023898,-0.25282020190890964,0.1522978322770315,0.456943892051465,0.24626257450138145,-0.4159486536032159,-0.9478690832651601,-0.9114476287047532,0.06594950718513007,0.7865908170785975,0.10209709102741756,0.17143829049855153,0.6198517257253857,0.6777989671836759,0.22227849060771263,0.34087568972175414,0.4375774248455505,0.8708077086327791,-0.044491241592932995,1.1048455459629556,-0.30348296367483873,0.8823729448972767,-0.5008306506184563,0.44631827821114023,-0.5056741753539318,-0.013812646340782822,0.27342592435914054,-0.36081574236824976,0.7636817958058033,-0.07768376750238873,-0.8660386434953701,-0.7130310041490482,-1.0241939043493153,0.8487599963214169,-0.08926485573523996,0.49203457729910866,-0.16178928548045432,0.28458311799939057,0.3557794929063215,0.1249858657397063,0.20867317765692817,-0.36422816218172616,0.25079002906896025,0.16098883977802375,0.09016971402132401,-0.9560679825853107,-0.5968118848236956,-0.3740670463858465,-0.9773275789840209,0.8781769544415674,-0.29941038928461683,0.3103109800816771,-0.0842157424902125,-0.5211379137467095,0.39162936568703133,-1.1374346686643644,-0.06535269109272238,-0.3366516361464329,-0.48997760298289667,-0.11199367969512626,0.28725590179137483,0.4793600256519821,-0.4716501107353722,-0.9820982032628746,-1.0100768887981066,0.24895761780230663,0.7386391806073966,-0.5719269276230753,-0.8366983970812286,-0.8549290825842218,-1.083373672055986,0.3067035486411878,0.09770316610784324,-0.35672827039331106,-0.2563981401518026,-0.08658151877546609,-1.0417694740207488,0.8314409435174894,0.4369713946193181,0.9229595035953799,1.0298066179653564,0.16221743904280098,-0.12144014675450436,0.9749840165138532,0.797724470758012,-0.543958578469909,-0.34017147620375277,-0.06534620515305015,-0.15948511379195268,0.1020846294707056,-0.5859426012396582,-0.27723164263747774,0.7850884003512086,0.7891711250831991,-0.08307102106517401,-0.1853771443874932,0.5304857842452597,0.8954833129703214,-0.8306389253640876,-0.20089657629245566,0.347994561644081,-0.6154381477680564,0.5947500060882366,0.2734772580437773,-0.007919513707835155,-0.2779161137754623,-0.05585098904305348,-0.3850296520252023,0.34045322456459093,-0.7155867432689811,-0.07484856579396043,-0.5522645317037136,-0.6193898445936451,-0.5444560931445982,0.5331236874481963,0.10821995612399647,0.06585574271008462,-0.6520677991144859,0.6876209074341287,-0.042747014532666675,-1.0167445371731416,-0.564662374697227,-0.8650168239804311,-0.37028542247258445,0.260475612547449,-0.9213986512011139,-0.4502528546970511,0.5892600472722964,0.0320687092252716,0.7228891682088264,0.32055646933648585,0.22765133061410853,0.7261720584723281,-0.6595321434189847,-0.10970425014420988,0.6254672927399741,-0.4608424027448406,-0.7447509646646818,0.4808664131621119,1.0509533361574208,-0.8407826831153778,0.7895820520134292,1.0395096578632317,0.4127369343428318,0.16920969853726583,-0.12387378352252316,-0.3191469409996278,0.18401394194379303,-0.025038548781635517,-0.5709696878989391,-0.4967787420029187,-0.8369977713774365,-0.9036405232229962,-0.5817956777923646,0.18217035946745364,0.2318263141194731,0.5954818980740326,0.23467472307834872,-0.007831989632083263,-0.4652028112207085,0.8805831961293589,0.9744465963435328,0.376709840129058,0.6179058204468041,0.3416071945052086,0.5732055152460176,-0.23329776845649786,0.5906735235585154,-0.3449436582659821,-0.3227426071559664,0.8587040328249231,-0.3244976945836486,-0.41710827360008107,-0.9395940124614609,0.03744824872734638,-0.9245886484304665,-0.35430428424529115,-0.903941604282772,-0.26201145114503666,-1.1338174211579615,0.4955653636289048,-0.33787832122618555,0.6186267987571865,0.22878392684539905,0.3468651421289098,-0.711615327799658,-0.8478810142182448,0.6409716715666337,0.5144555944898236,-0.38571921765397127,1.034489216852117,-0.3667175031508667,0.21234439841881003,0.6127301322485906,-0.23013751732431245,-0.2228406828166227,0.2697785770976995,0.48695670594952534,0.11497617222974105,-0.9349023945246487,-0.4141877702281034,0.40669630551016955,-0.43596545745744814,-0.4971627619186296,-0.6360541585948004,0.897577834904644,-0.7834493492978105,0.5207177861940975,1.1313273435582358,0.9344308746320892,0.4606283893648676,0.6993083720528983,0.10098568637355859,0.20094558089833287,-0.4697941514780947,0.4654952711432881,-0.7526528867493506,0.17273486305201227,0.5929900754325802,-0.2962201772272615,0.8531228007460164,-0.40363364144235775,0.6421190174443691,0.2122518491745677,-0.08962566288712463,0.17310980336207146,-0.11009258137517022,1.0180089835815664,0.5954606680481872,-0.44989119996981364,0.8694008417108539,-0.5544278192522719,-0.4513527813763564,0.10145396535737859,0.16048405647489944,0.35100009368580315,-0.713434417079175,0.1210606903789303,0.41173562523508045,0.3876289069842784,1.0446446492890324,-0.37733444870880484,-0.33822964290854146,0.6847620466153972,0.48490957601002244,0.4654045756280084,-0.6020846064176947,0.21570285234176434,-0.44884646039357623,0.2717086241097276,-0.5152693424612387,0.02835498180232315,0.00623887766634704,0.7815312994506346,0.8999876375632172,0.24101072282702776,-0.9369210586956125,-0.9783789352425514,-0.7065753236142739,0.773858028034656,-0.0014409497271952389,0.34401093170691377,-0.4810734318327774,-0.11349964567061778,-0.1925450123751844,-0.8623808093068407,0.032756982097510656,0.7534918074227775,-0.2476533025626303,-0.3084747388239165,-0.7026631930367907,0.551756579479251,1.2241879621179195,0.4591722052083566,-0.46144209328325575,0.47131852264387736,-0.24412288575100072,-1.1487865055292859,-0.812574845654496,-0.367091921986855,0.5799929232765818,0.6504785601182457,-0.21676341645871688,0.8578832367054888,-0.5295702799418635,0.19389257936930918,-0.8456311612316165,-0.09971498245321897,-0.2501870623815671,0.1455371858680363,0.6360332783026018,-0.37568079215380984,-0.19070504905563634,0.9109855025230237,0.7797035351252154,-0.2699426941558212,0.4859001476505072,-0.0499602876851446,0.38375311025479225,0.3768054564637757,-0.21398716513219748,0.5580332720853521,0.2040114025388875,-0.3881474661321976,0.4296738869410249,0.7029884772154716,-0.781905715617479,0.23300429893591604,-0.4548280851241257,-0.26153251306016767,-0.09926224145172367,0.8266991743810207,0.39268696680404225,-0.11870018140896536,-0.03362469432146367,0.7660684301203284,0.4614321668505461,1.086454325835483],[0.05794266656511975,-0.5683287497611534,0.3335682036069971,0.24197436512741674,-0.16237794042277687,-0.6233147540740158,0.2716169370379533,0.6322456489442527,0.7737814636723369,0.8137759588290735,0.31599015499750965,0.6596411721274246,0.0540004636072877,-0.4264969563356606,-0.7299361930035526,-0.31465328577709545,-0.7019986018164172,-0.5687959169069734,-0.5967214663916315,0.6388765135570332,0.5389370016184158,0.17397646235311695,-0.7980516679845391,0.4812713368664294,-0.553159432625763,-0.4184261197975048,0.4229462496840858,0.5376912257779303,0.6221172145408888,0.8987695784187404,-0.48093427184381304,-0.30657039767414324,-0.9892971589295769,-0.6954317278939406,0.14840196310902493,-0.2381873443415059,0.08346141118480872,-0.49979163274314337,-0.2746661042883319,-0.26489140628418606,0.6283408898411427,-0.5876637619285496,-0.32514947261954086,1.01668437021271,0.7744841501744301,-0.9245356005247573,0.0007473822616914217,0.9006792415869639,-0.699691708046844,0.5500123915901528,0.7517898405667961,0.7677548103616717,0.487317421645745,-0.8120528817039814,-0.12616694060197722,-0.9223334306113272,-0.12411190081478143,-0.6640393416530043,0.4586754975068178,0.1925431052550365,-0.7494748575930058,0.06582844103228462,0.8052824035527224,0.03995597520615939,0.30922641536951256,-0.6360077335671869,-0.5926380353249096,0.6089065246228261,0.18150095500578556,0.14916562102210823,-0.5473464005045326,0.1724521769830412,-0.8338059448654759,0.34153622832864017,0.20626802739333713,0.18216436171605238,-0.5315529116920532,0.5534878172920136,0.4287368511276582,0.3529169539624196,0.5015620814059469,-0.7079260189790979,0.0029740265445831393,-0.765136432056053,-0.7579604371733976,0.5994662313732775,0.3765724369573276,0.544350466149618,0.8751862321768739,0.2940419603886446,-0.8558917313200374,-0.8276602424460981,0.5476543215821721,-0.3208421143466227,-0.7294523255817834,0.3072454021773981,-0.8779002169170494,0.1926981927730416,-0.49220394326049066,0.3209242928850204,-0.19404808098907514,-0.7284363343097502,-0.7755832756067798,-0.7560821010649245,-0.22853115277760852,-0.2588650395800686,0.15687792706975112,-0.7328354708610209,0.6365163757772259,-0.09967232536654443,0.4491646583027416,-0.1238506240104954,0.0579560467435282,0.6030308802034554,0.5491445487979464,-0.22072104944954585,0.595817236675854,0.7930675240609785,-0.42099761131270513,-0.73924738442069,0.355162790796281,0.02929933662110649,-0.27520567809712215,0.4379699132461045,-0.7800975555169913,0.4857860414921753,0.12014873818933149,0.9442279698792763,0.13422145516024853,-1.0249885473442157,0.7480789891579206,0.7969380686951709,-0.6710436892387213,-0.7158003159352408,0.823761974501786,-0.521030656756455,-0.8156691022498048,1.0290890569991566,0.9407172183999578,-0.3602090175645463,0.9435758044707017,0.026945807574637153,-0.40399683715222673,-0.46213073044834446,-1.0723420905172325,-0.8382455958446277,-0.9312632401759317,-0.6351172062578616,0.29751602562355645,0.31080018547422106,-0.7619975648492181,-0.9454664149853448,0.1212751807551614,0.9423869701838187,0.2046672337186139,0.5288478616189433,0.883442610026589,0.3094740758223727,0.2289180997872828,-0.722302897460294,-0.7158257687140841,-0.8121342466023806,-0.29443922104474646,-0.6102140976290069,-0.24569054598782075,0.580092540602987,0.41181927295703413,0.18247248546637587,0.8600314345584669,-0.29944536153158385,-0.9364599900388741,0.6920033097414601,0.49202290709984625,0.04998827084612483,-0.8502753915147014,-0.5444794846548484,0.33300109022216706,-0.48140799872227485,0.7777855491134099,0.6552286913844557,0.9715486312674764,-0.6621383400766134,0.0960700300604893,-0.7208514722332134,0.6053011028657559,0.8471342353362469,0.3719039253228321,0.9081429937414661,0.10067377314935237,-0.1254047400890041,-0.8783103120585427,-0.03472312637506525,-0.369728160567167,0.8051571498149881,-0.5977175049088925,0.6222305149227239,-0.3108150310299531,0.1894059826513489,-0.9441245911278845,0.04639705541348392,-0.5562405964595996,0.5420020899157613,0.540853053555251,0.8830652610743375,0.04788278706990325,-0.2207087005421915,-0.8768615954956048,0.013401141964473876,0.6302375707674901,0.7278692067085901,-1.031312715585856,-0.704589946577637,0.3096617829622361,0.11030322549241114,0.8608432296719986,0.41856570504821794,-0.9636536822814457,-0.8051993351210037,-0.271108810134582,-0.9337950444282824,-0.5247263999591602,0.8299678190486048,-0.1659535357592719,0.9201451445444606,0.3238548671758207,-0.2776733298761398,0.5801251173568948,-0.8784614648232688,-0.9468732343733718,-0.9021321753563167,0.13467473751036765,-0.44083660370214905,-0.4762952861809683,0.0010251149495118103,0.9434405035102856,-0.5411546883930068,0.8807582856009925,-0.6414269829894974,-0.2042133221485653,0.5690696993204574,0.2969867311072314,-0.29396630619424113,0.2287618805476897,-0.7556362823278436,0.9547109690452408,-0.18729564566619883,-0.40432433979384896,0.7950832571693125,0.09256863406751316,-0.3927639737185321,-0.11717474830663578,-0.512927726919093,0.22131604778872,0.33393734729296465,-0.4289580780947829,-0.7694437370833291,0.3420380369547096,0.6691512559692477,-0.15563578741913164,-0.7251195573944075,0.7067786620915346,0.7012267351442953,0.37629557904814265,0.029345689225685805,0.9869463827045154,-0.28761771368515865,0.41987491130557947,0.6602878317554591,-0.7121693658530508,0.03003476202815161,-1.0945263882135534,-0.6758116622682466,-0.45585061457029197,0.815992860279249,-0.310190370212959,0.7530625107122155,0.0012349711886249575,-0.5926095040953886,0.37443817926467055,-0.7696536177620406,-0.756705085603335,0.07996031000633147,0.29545723522837225,-0.8814304425433346,-0.881933674202232,-0.211979395904363,0.6187000617625124,0.8172780668934547,0.5163465769857585,-0.5267755093020775,0.2011111246189626,0.7508864145341406,0.33101600477719184,-0.022433361678820995,1.036356803364232,-0.26888668790167136,0.7846420033601669,0.8330873943316763,-0.47096859742001396,-0.22742721243773695,-0.1516910903400343,0.4182213268276606,0.4330379659881872,0.6972195202036723,-0.8342455777545323,0.5420734510872441,-0.824669529895769,-0.9894225496227128,-0.1644399226214997,0.4681119194811443,-0.5549572955371724,0.22520246399463514,-0.5731222261963125,-0.7591909820728705,0.5727195783265009,-0.5645008986276041,-0.24418865255390404,0.8313089540380955,0.19375475205342677,0.2964547456299898,-0.759706939363125,-0.7781008191131328,0.36210766835837493,-0.1671944066060783,0.8198356154401644,-0.24006650918974942,0.5135743944692542,-0.950804289854795,0.3784360966485455,-0.908495132222651,0.11096508718807523,-0.11863317595843524,-0.5801977840042153,0.41822105826583095,0.12361495957620504,-0.5151753202459282,0.8580915453416239,0.5436011224934006,-0.6606345538804189,0.16193306285721373,-0.24916160963822803,-0.9885517740184645,0.7322306342029489,0.863708252240971,0.26879189298402634,0.6585294758895377,0.9077901290820136,0.6426991960473998,-0.9894342444213615,0.782527970630234,0.030461922963967228,0.7978917018422643,0.28052440809453216,0.47052384742519576,0.5118206173182611,-0.3906647159731665,-0.38494474752642033,-0.4857836204542268,0.7043288494746999,0.4027689260260453,-0.2677608141363795,-0.3838315422773831,0.7487717775735884,0.03234055669922665,0.02260322019047785,0.8420990563056772,-0.6912809191122309,0.6367711857734057,0.30160674679610944,-0.9983106278278964,-0.6632875087202174,0.06102692332979359,0.17388094410490434,-0.3891823140441491,-0.26687695939482764,-0.00377237782838349,0.12809836248644982,0.7100043327027771,0.924444527670243,0.6589975804198139,-0.16482538942651853,0.43171583185899826,-0.22077546773480802,-0.5941630858206318,-0.9383777350178101,-0.06291632952002911,0.284740668472883,0.7257426490982988,0.5805358315751068,-0.0315816085788855,-0.9642545237518015,0.7747023539212077,0.1246169812745234,-0.7137598515182239,0.5728024782631469,0.6807736151846902,1.0096437165655399,0.6673705977951185,0.6962188277469562,-0.8536408252049201,-0.8799448997842966,0.5022020557467115,-0.6031056851880564,0.3460489822390947,0.016678179143857635,0.6180512663779906,-0.4878241198027295,0.5373272851544957,0.45386550679816196,-0.7014935916934514,-0.6664742652474097,0.8916303268913878,-0.06540892978402996,0.17008907153499997,0.12950498160666224,0.20100195064469092,-0.9214865988033684,0.01083802174800914,0.6919136369348359,0.20903436778653095,0.3992432219787839,0.014720752374545407,0.46848600086601816,0.1302929590582963,0.6315054347206353,0.8411721873279009,-0.827204771880156,-0.3783854755949689,0.5690726225070155,-0.8999730440052746,-0.17766923159364845,0.12534436508088598,0.5296284262771049,0.1765915821982389,-0.06416494528251997,0.3135627725200079,0.413697245173412,0.4249362587757647,0.903528435763607,0.7049003826223705,0.26714971301072643,-0.9785047705227307,0.07933110568644341,-0.14193023975314867,-0.16415376798083628,0.2996526259636124,-0.6967988087733267,0.22718408017272732,0.03608141989839657,0.45938827550728945,-0.5780862215881831,0.13665299600697597,0.14424936989465859,0.1513010221791871,0.7716803603305528,0.6109042227266415,0.6938422139843039,0.9972460530801259,-0.6200430230561923,0.15017059270359992,-0.26785738639325807,0.6706173118007835,-0.0832663375489185,0.09141259885000269,0.06974122146222932,0.23889858381571413,0.9050718989970487,0.3811102552738401,0.7800435675764501,-0.5757504802902036,0.808346761553338,0.6195572583207063,-0.6705147483875005,0.6847129643180171,0.5945658694868752,0.48908384165947966,0.3956205787024608,-0.4875360728476142,0.515041020517522,-0.7783079928719631,0.7299879587006031,-0.25962107717263655,0.4542627806575012,-0.015331096102006213,0.2798006723258528,-0.429103076023255,-0.23949631558190915,0.15406066206250515,0.530135823665027,-0.3640768570226441,0.5359200021426722,0.1383354986641849,-0.561180516411716,-0.24046119158876422,0.4643242525821338,0.01913077854053027,0.3065629756613883,0.23940742975987833,-0.40944340771443294,0.20734721054128413,0.7838407009244345,-0.006503144303885955,0.258030108468178,0.858234594577689,-0.773607799978199,-0.25036853990804614,-0.6565039836182712,0.8008789871482317,0.21618229848671683,0.6144966071790218,-0.2826996662677358,-0.8224719882655185,-0.3539576734516535,0.8540002384142523,0.6007722004284901,-0.9793342734456806,-0.9337912268379378,0.19026292639360545,0.16221904829898504,-0.5927814554503975,-1.026568802999563,0.32115584227942223,0.6311947994075886,-0.829888775069044,-0.9414948659853876,0.5993423610707024,-0.3106794564302294,0.9839603135510379,0.5514556248342621,0.14074639611061,-1.0366353340861287,0.18284530651974534,0.7781825396988556,0.1486696486503689,0.23813190047329164,0.9504940127214185,-0.6416189840647986,-0.7473357373702333,0.7359403706433904,0.6139038246976144,-0.6283219996796653],[-0.06045847602270654,-0.3465732450921412,0.9239809152549345,0.8325958948790088,-0.08820384376690597,-1.0682330679331886,-0.1572200706284349,0.4397056228291527,0.7436368047600396,0.44755353427226574,0.8738919738252205,0.06651757755754932,0.17528144785270022,0.46777469763764834,-0.3344973654161336,0.8129913958970766,-0.43994409623076,0.1537035595041866,0.8536455258525479,0.27545997395641814,0.47868411259301386,0.9769208204843414,1.0331547937081613,0.6701436816162174,-0.8076868136773329,-0.09718388015033205,-0.9378301745826734,0.2182705427618048,0.15899569843530073,0.20694330207930206,0.031509329652750266,-0.5595406533789391,0.4344069214660182,-0.4850211471129732,0.8396522503598909,-0.2324481381401802,-0.3115001249683308,-0.22641862744284005,0.800207733000013,-0.2696035734635847,0.5415203576263504,0.5645065359175193,-0.702552500729484,-0.8703741662696518,-0.865901391479125,0.26054474510020526,-0.11434420335541508,0.524370476193519,0.467309859831658,0.1316583649339861,-0.8463977175113024,0.5810168185666466,0.5273778995268903,0.8346977193323376,0.8850529972692703,-0.8163901898707194,-0.9337751608445937,0.32070734858677735,-0.7764354156814542,0.7913041523320815,-0.31594497507301866,0.18851328106316942,-0.9248022211315556,-0.318279134356808,0.9745904645047363,0.5429265219131917,-0.70293339010493,-0.006573613368651135,0.1792815266809585,-0.23237362652941151,0.04807598626388656,0.5580944700014299,-0.8599234242909702,0.7525523040977455,0.6121334922328947,0.5217815535639748,-0.6834355811937399,0.37295506982909105,0.007815891734881909,-0.627100095077155,-0.5870716093732352,-0.31018961183387506,0.4772118223656783,-0.6644736800739538,0.7823341182962051,0.26206947252741386,0.13169014217295438,0.6701634747601837,-0.24077502320928235,0.7968262663733675,-0.8922955425916423,1.0418690002468043,-0.6917364177605503,-0.8839865772991801,0.353429292740116,-0.20800750022954168,0.5370941304577004,-0.3553410070424901,-0.4858637244844296,-0.8692899670070207,-0.368729455687313,-0.19841826519399605,0.5252656851195084,0.5649579603881911,0.7394699786978614,0.35430057492133804,-0.515466429948551,0.41351646657323354,0.6357254724190099,0.4471502475731336,0.6020052017666392,0.8398373112794436,0.904480573869389,0.3599345078190021,-0.05836056685490665,-0.981586594070056,0.9134889241204901,-0.007284828798852907,0.007068471856825517,-0.7372233627604629,-0.5053382219876155,0.23981103662592798,-0.13541260329565163,-1.0200723397843476,-0.542699715835065,0.2673007307759361,0.7500333912376552,-0.28206845969648986,0.6005890006829899,-0.4188621938036439,0.07778164570556867,-0.38060607304113453,-0.3111744780988208,-0.06122859929029659,0.3943839095690033,-0.4455457763272442,0.6175574985022306,-0.08204222127895572,-0.11743254024256818,0.08780205764541495,-0.4152806766020137,0.5397711081119146,-0.09273012096404747,0.26639046925432003,-0.8633063705569264,-0.571284588420919,-0.5231513700175698,0.33822693599027315,-0.21200859128203695,0.30430191168539983,1.0217225859159722,-0.10641737572382087,-0.1973841120104623,-0.5644367642813469,0.19406122614080024,-0.5768120538981402,0.8915347463196373,-0.7952722128382824,0.7563533895389284,0.2693950920119002,0.7244907127570988,0.48051349344247435,-0.13031806863939052,-0.7307021781559709,0.8722752461370535,-0.4831886681280563,0.6675780431700722,0.3850993827630316,0.4933686765385951,0.678777311596721,-0.3115496019241822,-0.5881572714854144,-0.531179640882903,-0.9069551845441145,-0.4904769476359532,0.6393451832211041,-0.728884127554726,-0.7230573646249153,0.45953091241194466,-0.32426041633900854,-0.5042714820900817,-0.8372969180121679,1.0169261414678221,0.007815325213708575,0.6077687669890921,0.33485552739805263,0.26312335686754323,-0.5741685035498564,-0.7980214028076639,0.3445229064824113,-0.4257008435046071,-0.2749786700167333,-0.9973452680643952,0.38336819364837815,-0.9642436779706873,-0.14102165048082377,0.004399013353678262,0.15441496483320777,-0.6154068059550184,0.6300260760910413,0.45651526220448774,-0.11477834895440613,1.0440803565365973,0.5265760818655465,-0.7875182051415659,-0.7722280632794434,0.5830149377392481,-0.44613561961444437,-1.0090560083177287,-0.06115877980771174,0.37328856667920474,-0.6400388460944113,-1.0661421311238393,-0.028580838605602073,-0.42656416438384614,-0.985240572150097,0.4608010624021505,-0.26990115689933747,0.9286641056741834,0.21914190182732649,-0.33293324775964794,-0.6859424388773397,0.5382442088552077,-0.5424210339966284,0.6116956144664012,-0.08532653130698829,0.6539150648981512,0.17373241930388145,-1.0633830790611758,0.6510375358392113,0.5250682286470207,-0.2698194486256986,0.31614469687405133,-0.7767638155321948,0.09052259511065971,-0.6088417557103614,-0.8652954700511658,-0.4415791113822762,0.9101307808856444,0.014357413444898746,0.44578392681140294,-0.8453727914275888,-0.6429767549030236,-0.00039492846764841474,-0.3885055195116892,0.6947183874170991,0.5268450671437249,-0.6671980055207849,0.0007908878747194843,0.15857769617083134,-0.3911904382541863,-0.7565887041989038,0.4634219585797925,0.29936340807933537,-0.26836659865687396,0.19844380676030998,-0.7436547823221634,-0.2986189956409918,0.21286058638774735,0.8567054585049939,0.8285114980702393,-0.17971861458508612,-0.22197395001817913,-0.4583615991398959,0.8348767710619618,-0.9189733631956741,0.45893562635324475,0.32641649303439746,0.5528970220600041,-1.1132018353874182,-0.43672959736706,-0.4806513443772508,-0.3621006056511955,-1.041503854098108,-0.6048719252616087,0.5603873117957595,0.7828641106391161,0.112611264110637,0.3799825150212084,-0.9710588348270465,0.36580754005671146,0.31329619234873,0.6981415373169972,-0.9922979205259311,0.7124590028254166,-0.03710737901989661,0.8925692633546596,-0.5244027311514602,-0.4765677655727885,-0.6847783537315861,-0.4443278487611878,-0.39450412684300534,-0.13037610277673292,0.6351903127514946,-0.9731572363348654,-0.8800126114079686,-0.1875049298304926,-0.1276415679965057,0.8066167881438722,0.21280038123523795,0.13423987227209064,0.6583447586206762,0.24584626354282393,0.43687473425625256,0.1363157707730412,-0.130832661663322,1.0084669711318224,-0.4913543108222893,-1.0972355933195812,-0.03835062284269299,-0.4330797830596312,-0.32990395772023023,0.36984458760221955,0.3551922504095778,-0.5928968533094469,-0.020992480861945047,-0.01855696277249612,-0.35513702437207073,-0.3214937854300507,-0.6721996381754682,-0.7832564143784807,0.6956812238148883,-0.3066443889903508,0.9519918378258505,-0.44163983918081257,0.9122054718516536,0.924306825442582,0.7295495997044952,0.6094713752424634,0.196193666708868,0.1269369492325169,-0.055856626251159495,0.37633417584209067,-0.7222055862210363,0.20579029371894833,0.06787318130495446,-0.31831966007376505,-0.6923513323518699,-0.8924891073034263,-0.7473811484599074,0.7024799434623948,0.002325919659031719,1.0135632379649848,0.6570741353461388,-0.18971401407950902,-0.8307755501684181,0.985742594748335,-0.2894303448953239,0.10631924903301768,-0.5016765149749434,0.3618161776954694,0.7674880504112613,1.0763561327951152,-0.7470003726909292,-0.9412053234986759,0.9164460669862539,0.552402892087881,0.4635735085064926,-0.5674814376240284,-0.8737331688925581,0.6709035613934181,0.5167107194714046,0.5633452460205679,0.8232089014668558,-0.5977765183003808,-0.07559371986505366,0.1512933129312029,0.04639070470206939,-0.33198216650967804,0.20436390497188153,-0.2534492831962667,0.9787909357791802,-0.6636672641727733,-0.41844336947671945,0.7230070138770106,0.014974782705662888,-1.081201744730037,0.14757862911784952,0.7660651282762326,-0.3531174804713709,-0.08491085619468973,-1.0180675947210973,-0.755417504500821,0.261134060809165,-0.045708286306908354,0.10826961531847515,0.6968605556441978,0.4055358224279182,0.5682644534250402,-0.35176114946345827,-0.4130954143393815,0.5588669615140629,0.5010015943442869,-0.40206815830161347,-0.5388713784809777,0.08011618695842909,0.20474982997669472,0.29472960334218357,0.6420943755279336,0.18676324696752053,0.7453083614525606,-0.9823105455447984,-0.5697345404249046,-0.4843078307643141,0.009154979983343239,0.7833695979407123,0.9412885445637159,0.6965234205486588,-0.40883448052373333,0.5297170898331869,-0.7804434540029872,-0.6387366357218585,-0.22112682836096206,-0.5443797106562623,0.7555096233254325,-0.195346719218143,-0.519884518294288,-0.9284354589674777,0.7161201209343846,-0.7717000978068038,-0.13917215933161273,0.4422058662505631,0.7795348368310691,-0.4107534153641606,-0.28101644586552316,-0.6939181322328616,0.3403505410722188,1.0286542473643459,-0.5456388365488346,0.0977397795117941,0.17190368076291596,0.5433032678648388,0.6016526474802987,0.5437128002213524,0.07272902047607242,0.09798556590978988,-0.22741804914681207,0.04371243171872278,0.858445760049157,-0.40561836589023453,-0.7665123078108627,-0.6146882333040133,-0.3439772577525431,-0.4619002505360768,-0.35122895565520323,-0.6170175040581138,0.3430691060397053,-0.6723000797437312,-0.20123673777929363,-0.09573605024294896,-0.6959983308306252,-0.664229649587702,-0.96303138935265,-0.5925478002141088,0.8880836389943129,0.11107289787893222,0.03506166425868933,0.42398618341360605,-0.3751038412512466,0.5922522671940644,-0.8148105095580251,-0.9746038418757468,0.2938412314550681,-0.6109946494902087,-0.2807853410855648,-0.7456698622214091,0.8267334650099244,0.6177131933014359,0.573474056295671,-0.6717189921824583,-0.9819002607788249,0.8771433857244523,-0.8117975194256964,0.1825232772350426,-0.5967951063231223,-0.6604614007592714,0.7456783233298955,-0.9887666735325038,0.22845657919829726,-0.14117563182639564,0.7030281466654407,0.10146023433881579,0.1229743319473667,-0.5158749433398397,-0.6598056133685445,0.1943523008469362,-0.38823579456974755,0.9066735503169673,0.7511632067908771,-0.3062327355421694,-0.6079989647792785,0.8626543916309349,0.35518353479517534,0.37657392246331123,0.7806411183942602,0.5003646239013307,0.036574935961743826,-0.46909224004985833,-0.4790793317995117,0.05618118697025607,-0.9085181251199422,0.2777636570500485,-0.005135678934884746,-0.2662438495686882,-0.2821861634785809,0.09890651513138699,0.7093461593043671,0.33212569792661417,0.7923400076403897,0.14167393174973442,0.2811907409061706,0.10284395808720653,0.1243137245000868,-0.4407085207731529,0.10967312388516856,0.45569538063029763,0.07894955560307118,0.5326876733747632,-0.134302447080283,-0.25708972927329105,-0.9179011015949109,-0.20806699798318662,0.21741358987204748,-0.3292891203986695,-0.28240823856376623,-0.34643505240782874,-0.8588640319337213,-0.5068146470795845,-0.887106056122587,0.3199405929790972,0.6813850198549217,-0.48484541199756087,0.6074003391086532,0.28467282762107676,-0.3834901948565413,0.16834815394190197,-0.6343391499766396,0.41066299358982067,-0.4569704027003077,0.34670285190992123,0.22465713036764967],[0.4171980723829376,0.6590598636534194,0.3457744927292216,-0.9864381253470376,0.02791353887975731,0.7633268954174021,0.17534472620550587,0.14618404715747751,-0.21639323120761225,-0.7063860921672245,0.7198153418362849,-0.27856246800474305,-0.3983861135509245,-0.3163036775514959,-0.8157303976068375,0.6476155066729242,0.08101135733858696,0.5953021111036075,-0.23543764060718572,-0.8544993786321973,0.7600444995742974,1.007490277823581,-1.140522084990571,0.3104666235051322,-0.8058165332691952,0.4055539701260837,0.021604405665437143,0.2818248587890992,-0.44170402272162584,-0.19862809629074377,-1.0587099867842953,0.28812629028890463,-0.07639633332741677,-0.46332071921603774,-0.2620800402665543,-0.7806425907611565,0.5274210634114899,0.5909524632588501,0.8536629841828177,-0.6328241862261459,-0.9436027716345118,0.16720969273718597,0.5938122031920366,0.8720814172043126,0.6210100044542419,0.13124397722841788,0.6533134976459772,-0.5726110270397616,-0.06487572975965902,-0.6172767882508533,-1.1024681041894333,-0.3873845700189128,-1.0739417037547219,-0.19248384452576037,0.5470097876446793,0.9434124844242362,0.9709336469481975,0.7141539543635862,-0.0735824306498492,-0.054932443856563144,0.5212612674119294,0.6731559798729864,0.4403196447206497,-0.26169915832255625,-0.20765202424334817,-0.29474662032945964,-0.9308171001065775,0.8393279249917242,-0.4693723277632385,-0.7860248441834158,-0.08423359333489126,-0.9321892287854274,-0.42554491571810105,-0.6036226263376293,0.7688750138726291,0.2572163954986834,-0.24604898233067915,0.5791358443304379,0.04280703898078665,-0.8081643374522973,0.8851032660448466,-0.5086605369673722,0.9441982999137494,0.06779799542964048,0.6148360817564786,0.36710468150582615,0.4345427388251578,0.8145738437360504,0.5498933644451723,0.21721998994756436,-0.2898507386698764,0.0633776530576407,0.9194466882491467,-0.2886956310648904,-0.18017728808693026,0.23875455763042436,0.5152770274551499,0.406596335528475,-0.5335342487159487,0.5025269231117221,-0.4601712285767922,1.133813315878419,0.5999726581220967,-0.3479974423142146,-0.9384108215575119,0.07269489577667475,0.05944464646180701,-0.7522781361289433,-0.5140123714549394,0.17406991166408095,0.8518406883377493,-1.015654915661172,0.7644733588409823,0.8543312216165121,0.7828437384551128,-0.18469354233309968,0.16324871776784997,-0.08369672867815035,0.20582766774402725,0.2809686719444416,0.52831383381234,0.030238385922029147,-0.3368174251919006,-0.20455670519372632,0.7016863083797719,-0.6301925556399672,0.011311130089957547,0.9623158298282615,0.4343756866942746,-0.819784752321432,0.7664393588548155,-0.26649820453119066,-0.9158132817573067,0.3653978178063503,0.7101453289272748,0.4712900442109204,-1.0004982954228367,0.14315885624127594,0.8006148541070904,0.35821372870085144,-0.7179904274356511,0.32049203257040054,-0.5218693575871122,0.4190121240408291,0.6680526985723789,-0.35338345830966866,0.8511643224072443,0.17919760181402852,0.8727018423982869,-0.46478294819501614,0.5041865743761691,0.1367224600663467,-1.043351245812941,0.5431476882729704,-0.25528292858046636,-0.3747077545357886,-0.2456397805681961,-0.9150996181689126,0.5013601948178944,-0.7639671033884712,1.010355353585377,1.1062021468232073,-0.29735952157482515,-0.8935041486629607,-0.8615455943012688,0.7585887714188281,0.306702175602496,0.8264632412371667,-0.764524944793397,-0.3610577874762429,0.5086129786562635,0.6156028331371195,-0.27394111154226863,-1.0646017800858962,-0.3848175488843068,-0.9260952156631845,-0.9280339476772679,0.8343645570687831,0.020401324150090838,0.5570417959115553,0.9647555765514222,-0.06472940823984659,-0.8655107957704127,0.15304139074283715,0.022706993460927305,-0.5745392716835096,-0.788397452929422,0.91960551433237,0.7914858832455506,0.6069829312138568,-0.08140677579397136,-0.22188257373942213,-1.068603525676186,-0.15751682132078046,0.26879398504463176,0.08587292527672917,0.5134334944002574,-0.3657955940534755,-0.7537441514825198,-0.12795430138499048,0.16750109471564506,-0.058847827507799176,0.5886065923698611,-0.29465178361238137,0.05678798284306343,-0.7480384934278254,0.2515216878274829,0.8978439725621643,-0.11980509218291487,0.5358671482184956,0.3059407990124087,0.13897962851239518,-0.7137612443986247,-0.2864647866199385,-0.6562060088921569,0.7435642631843136,-0.8361902813492317,-0.8634207636880646,0.41866791014412513,-0.3400889572509537,0.1368250091426883,0.1536118895279304,-0.8722026397806876,0.6886828867539617,-0.03445817545808366,-0.2774977812764023,0.5640006547029092,0.08897375189703567,-0.9054789393804106,-0.00884261488611695,-0.38143725174903576,0.44098602920736074,-1.0273126054188684,-0.004746808291140038,-0.34368619061235084,-0.4537947154462131,0.6047333524790581,0.7282928537963639,-0.7715825273389946,0.8509446930718352,-0.39022167973086025,0.08233347310841038,0.5869614957159982,0.3901779159029368,-0.48192107397103484,0.6156304578055604,0.7781247053177786,0.877456793685542,0.3795723033053055,-0.41057939053520776,-0.2967748327176749,-0.7908592965700015,0.48555223657175806,0.5832216348544166,0.6800986298764463,-0.6835164505117327,0.49705084848562725,0.5997314083471662,-0.9394978991540003,-0.6935087049448657,-0.6613707411745586,-0.42280404651889314,-0.5442417819181267,0.5594915095997399,0.8641170598793361,-0.0508436714992568,-0.802940216334438,-0.9491200269630478,-0.6006077331312224,0.11545728560127154,-0.27091975555926173,0.3710050260558406,-0.3941005540666752,-1.11108626312711,0.6620347951853277,-0.5011418680299876,0.43692214659137785,0.3392850979373953,0.7178673116843723,-0.581229795040057,1.1754927903086048,0.3344317453946558,-0.9892986212051498,-0.5234921540483165,-0.2924939102615393,0.6370383669591778,0.42100724651714466,-0.4243548291799505,0.19605002612094669,0.6259731074729101,0.46239076537940027,0.6548537075491048,0.729659261567764,-0.046454562958148655,-1.0403434869112849,0.7230044812306997,-0.4179536257466577,-0.03771187377143422,-0.18588995837995492,0.44128579189504624,-0.11932594681886298,0.4026540219305062,0.2558700012053192,-0.4208532345887912,0.1845069045729031,0.6887477656499188,-0.9167211383545221,-0.019537146449627906,-0.784790230323335,-0.7317365505944144,-0.7539762496558056,0.3589573237232802,0.7739850209529568,-0.6645708322216697,-0.4620900648305022,0.3824065245079278,-0.3186464934255447,-1.0682724907519152,-0.20941792936813025,0.08484102356996083,0.5985765515622697,-0.47007227271222757,0.07143331863735035,-0.2465578421934187,-0.8687178131185824,0.7815875301475682,0.04347534465168201,-0.4327182538720934,-0.2850358833628044,-0.5839334450175222,0.5410254650328065,0.19527942258706885,-0.4689212883771984,-0.06516737791504273,0.6179267110303693,0.8289590189264349,0.8373588687458826,0.3439510337008571,0.3791191827741488,-0.770403179543078,-0.6671968251909483,-0.6169812452131959,-0.8886205000537052,-0.8745223578267022,0.5999640036370928,-0.3396138332035639,0.8203422541756262,-0.13639242911880411,-0.12667631747199204,-0.2609835625322119,0.15073831496368664,-0.8673663399716994,-0.8669045079529023,-0.7688469891850009,0.20380655876130802,-0.3456432367598145,0.9595821364400199,-0.7002656135408023,-0.552059837749819,0.21501755570151623,1.016612445639632,0.8102391841723869,1.0143817067970444,0.7151480912370197,-0.327871438592614,0.05967947378849983,-1.0429659404298823,-0.538729888406215,-0.5224551764211819,-0.032522117590565135,-0.2706151710408066,0.44288058954302306,0.4984479303451505,-0.22945286868012169,-0.8887520894326624,-0.2520998922895072,0.41777440016597817,-0.08419134426318768,-0.560844223461441,-0.5530215648919284,-0.2866735372464098,0.29364526605141816,-0.9553143674085931,-0.5272430736684722,-0.3946079674794301,-0.9239610083161781,0.9785370194309129,0.43909936822078605,0.28326630138121695,0.24838018305814735,0.5688529777764822,0.16583692075011308,-0.029208160152218852,0.025607150386667533,-0.5999615966014185,-0.8311876555618751,-0.8451395022663373,-0.04881875105196351,0.5619397318978299,0.44995325316570983,0.13570532789528486,-0.5242846813021823,-0.23135612780876658,-1.008991533258867,-0.18184774650315763,-0.8296305938556128,-0.1918044138565031,-0.20353268119572515,0.37530943924772464,0.7655854096470638,-0.9342800547355407,-0.9095037196606764,0.27905572601292605,-0.2879494766682412,-0.8268894099579361,0.26095616593523985,-0.0989575206432979,0.5734328341010407,-0.5271404851079976,-0.9667097253353295,0.2175101992415667,0.8335277201781109,-0.9165682329572552,0.18192016873744057,0.8723499535099413,-0.8346123988329028,0.262227267944842,-0.6651121215450108,-0.872438553818831,-0.19832397026578136,-0.4366862848179912,-0.540967925897902,0.3585588726361506,-0.355816331405456,-0.6729866457699305,0.871943942469413,-0.09972146475313011,-1.0568472013438281,0.6926571451919519,0.8047675637464033,0.3065972627841105,0.05318529903822376,-0.23804010349730031,-0.3040904197395553,0.5461953910585426,0.43393337665687176,-0.0345189388149939,-0.1825934724481902,-0.6029240830276889,0.7061078034019687,-0.08381843272733963,-0.7405030776703421,0.3718155987298964,0.22975171438150832,-0.6717468273710151,-0.15177517665542864,0.7801414472847101,-0.342975447669135,-1.1556748385898556,-0.29851089164484723,-0.5579988101759623,-0.17980144769986728,-0.16875475903411327,-0.49794346517375615,-0.10167835758283657,0.5028260695618456,-0.23564669088622384,0.5695063918845347,0.5228015052353683,-0.780764020197151,0.645171791956038,-0.8471081081926544,-0.3319971695570172,-0.09642661784134131,0.35224209330088285,0.12465186714856222,-0.21082451282931483,0.49746489087091444,-0.08652916213682983,0.35283633201528253,0.36367351778209284,0.37941795786652244,-0.970588024160944,0.6408956735455376,0.16624134323281475,-0.38141008961830564,0.7538253957909063,-0.9916201125478016,0.6338199963189132,-0.2849153461476286,-0.15630749087228246,0.58616396187753,0.7995720415596959,0.16649426473885012,0.5074232583040963,0.18174284870162474,0.033944131346173564,-0.24732585236896484,-0.5776886759278099,0.30372136242759695,0.8853865157380512,-0.07162333552780902,0.6477199347591028,0.5849374602655327,0.22249386528055215,-0.6331106649889895,0.3656281027975067,0.16805344769503347,0.2059545726440858,0.8255903439932957,-0.8735820916964955,-0.6819141949596061,-0.19017812923763552,-0.20852933646563904,0.8180457288791035,-0.47804773340948814,0.6456716756304848,-0.08135498173377431,0.6184736925037827,-0.7327702891280493,0.4597056204507482,-0.9537118413541922,0.3761137411659198,0.8484863240836829,-0.4048031280071567,-0.1142761298760241,0.8775741663296132,0.6658478013470082,0.4541566332687334,0.620090597781675,-0.9748952673295906,-0.691405239993318,0.8599932595772751,0.971015576215657,-0.768846122373676,-0.07849184306836636,0.559874718781036,0.809404601863312,0.19385494579676002,0.421655802138563,-0.64617107093991],[-0.5998014564113656,-0.261983027049622,-0.06786954217783982,-0.26485705263959425,0.6155856448114431,0.8606915424191518,-0.017481082917960925,0.7391521338248751,-0.7925382899993633,0.8863886533558983,0.20969667992973512,0.07448527086983732,0.931922515312916,0.11363833218094745,-0.31959551773757605,-0.053432299559389045,-0.48801050446396776,-0.1357709739776248,-0.17797044625682415,-0.6983765832350746,-0.29897428744627375,-0.3845598908191677,-0.7439742317581974,-0.5640671487935934,0.039956128516205794,0.42405024787086104,0.5560156129165447,-0.08365228127285786,0.6442258651312562,1.0358035067395925,0.9926083181530199,0.17013553698028147,1.1127146481347387,0.07665979926907021,-0.5281348438810964,-1.0450886193812785,-0.7019916317239526,-0.07863456192627813,-0.2736994322042124,-0.7890921015423943,0.832799455289757,0.4051875037076411,0.6587861519659804,-0.7685701589841306,-0.2924374429656908,-0.2673095601660222,0.4497835264827199,-0.3946697021948918,0.5028536283008112,-0.24051712502867342,0.689781524473051,0.3294128996307582,-1.0137822008262793,-0.5802696256865634,-0.6915940156671174,-0.5966699294103176,-0.4708120169283129,0.4643335331082395,-0.774468537353112,0.02042126823798081,0.6940443441237336,-0.41956559254933756,-0.0565374070182221,0.5718664601252388,0.8697578018577337,1.1200154374196352,-0.06446009069890711,0.3766314799104161,0.010332587634981604,0.551368690357284,-0.5834981059018105,-0.9098248321207814,0.6311398413437403,0.30812670174844825,-0.01369046311824386,-0.33539637651858123,0.39466316403258783,0.6492734624536588,-0.6866174534068001,0.6583678073462754,-0.22731199859661158,-0.7025706843973761,-0.70481105757671,0.9162030210640091,-0.05979128572413384,-0.6144012399181645,-0.07731385643597918,-0.5425499978831863,-0.9871427533018455,0.7938295106034289,-0.18040820592602183,-0.18973437279297473,0.08539876687485468,-0.02903777960806624,-0.478689407614584,-0.2901317799248578,-0.14949474708447863,-0.520329097132274,-0.13538785151688937,0.0389663311156175,-0.008715524186351608,-0.08241084300143943,-0.9210753406439642,0.1491177231345246,0.26581706926068344,-0.0033568699383285517,-0.8872132129019549,0.9311289521060606,0.2472198818552348,-0.13681934048840746,-0.6341360647960337,0.7807454285748311,-0.6216157367103298,-1.2068041996568664,0.07897226584102017,0.24669390821565704,-0.14437240467719548,-0.030854531908734207,-1.0150819208828143,-0.7492275291975188,-0.2063930415109514,0.07482641253129411,0.3024735964138415,-0.2073864944198705,0.847494218734055,0.7639378247510329,0.7732935815327067,0.6550336703882822,0.640339400853102,0.8732163339419245,-0.23933735658418273,-0.7363835518677723,0.18063988480045043,-0.9247363265436077,0.26249120204651955,-0.7861954283945283,0.8274143399681676,-0.6301248051857165,0.4609926483789335,0.03888341146883578,-0.1304134119415796,-0.23131687951540067,-0.11985866638197859,0.5494223497907409,-0.654464123754354,-0.03327748460025068,0.6932301744021008,0.36856055693687645,-0.17119023568853603,-0.03371558206914346,-0.5678187726725108,0.40160016637950985,-0.5355559646604054,0.3902232771584748,0.420716135187468,-0.7165220495462644,-0.27401181316131895,0.29232417998705185,0.34009884635000365,0.061022689857402126,-0.1588826754777169,-0.9871118299220885,-0.8825437526088233,0.9868810134909615,0.8119063648577374,-0.8471691549609235,-0.387035278870396,0.7034618786956458,-0.5635290322325256,-0.27847144471139373,-1.02511331030972,-0.10440337175931108,-0.8506976161314176,0.2519497296342922,-0.111497971938596,0.8263444370119364,0.5127653726409428,0.4890375463311394,-0.09255996829679522,-0.4922215546891567,-0.8979620181467995,-0.6826240678079377,-0.8803294947356384,0.23405761427758912,-0.44443271883414637,-0.4587629692123401,0.622488848883454,0.36286933911729335,-0.5401978735147609,0.44970755226734827,0.7153020309261656,-0.06263143270448203,0.42290241814413054,-0.463531268706821,-0.8838541311029956,-0.4148269041655039,-0.3673016170053766,-0.6501499493809614,-0.12239778224649615,-0.3280487515664352,0.27579598898273205,0.6188222303774893,0.7658034780164125,0.21437875692907804,-0.546500494342732,-0.738177418967841,0.3796364034758111,-0.8722253655270218,0.32348365694604353,0.007051034893290152,-0.30974870420499745,-1.0715248081038875,0.17220938803901342,-0.5165831978395244,0.9900126675545793,-0.8846735062612091,-0.19362084605560062,-0.8045363175656288,-1.0451694284392026,0.5451143113742501,-0.5772599479932986,0.23003084084174757,0.5484657052255602,0.5784712995570732,0.25236360493507737,0.3261009577863477,0.1911997993251281,0.055280215890868956,0.639845360795096,-0.18396460706293402,-0.5822577140426247,-0.23593434829392415,0.21841670392726342,-0.29610165090529517,0.7738728847953406,-0.6291520494465005,-0.04106116354272662,-0.7313635259217897,-0.7479922580367117,0.19594912378263077,0.8865924127909172,0.9224947230572913,-0.730803352228353,-0.8249493661090553,0.8945763977828785,-0.43062879828594003,0.7295230577183451,0.4214442676468628,0.7412215769511038,-0.8936542124216283,-0.2725685268820638,-0.27149328912608206,0.7320015870596059,-0.8541644369661953,0.19994741845090594,0.6428850001453211,0.9148270012405035,-0.8448065946171939,-1.0088556807779678,-0.34595316968196765,-0.23178155971764813,-0.1992320431758656,0.6564295279649517,-0.04605043845354103,-0.7820731740873917,-0.3108573131177954,0.4002000997096248,0.801357119774787,0.13536195628130895,-0.46210895292202847,-0.9634018729032301,0.40597993507446434,0.30746646538275896,-0.715623619168776,0.48904446787907524,-0.6471099355164723,-0.6771742749405103,0.10195310200807763,-0.6053345949041713,0.645077891015589,0.9516781207227519,0.9703050772143901,-1.0184549248795853,0.2312555000476701,-0.5559607112836343,-0.7043824219819924,-0.8385257747270626,0.864592232329442,0.17565416392304303,-0.45866389510690997,-0.9511048134390799,0.6022791976065879,-0.9797614905449268,0.7579894753419824,-0.3881703690973547,0.14691431421623352,0.020456315803605882,-0.34376739442181403,0.5283056702551203,-0.4918003706561484,0.31999424796554393,-0.9204034745671608,0.4986796530872433,0.675418145875529,0.1735038570494004,0.5940585073598329,0.5957157523637093,0.4654046101047061,0.6131939067171673,0.775765768679573,0.5555189838208539,-0.7177753187869965,-1.0600189897193815,0.5594043408981912,-0.4712251895473463,-0.892061543547145,-0.3909384490801015,-0.1612396643364774,-0.7474342816543229,-0.30708641391144237,-1.0073279186800228,0.5553220792582093,-0.7568840883274781,0.16863926493443104,0.31379715726163787,-0.8735880751992376,-0.25319264198264796,-0.27512604082699704,-0.02950610394788693,-0.9108600432549915,0.4392683147065283,0.2639573666310474,0.3888526972944012,0.7325511849534296,-0.2480461126199552,0.7523546174388374,-0.8716329517374276,0.4298457576387137,-0.19549822303567452,-0.13762505083701362,-0.04480839166580852,0.6292896750977673,0.16479931839473147,0.8698797392416262,0.8023847146178292,0.891069557627508,0.391934239586639,-0.8542695690404802,-0.3517558995629918,-1.0349291473570115,-0.6257276243250722,-0.8304658520483108,0.4547623147711354,0.5815787962780341,0.3983685633996788,0.5093420766649656,0.02812257156748549,-0.34409699356498774,-0.7416892133024988,0.9463212968973498,-0.49020127648518297,0.7961639803929618,-0.46759859307299534,0.800302235865362,0.598943052575925,-0.4439327693204714,0.8450633073551681,0.9254732560628517,-0.9975121929377119,0.44880784605646173,0.8913587841456504,-0.10239564286195092,0.6737728293190653,-0.7848442189093836,0.32429979982855045,-0.6395138912863593,0.1750311492245684,-0.22516237767306038,-0.07410871127482259,-0.20908604804117462,-0.6709403373204708,-0.43407372469429817,0.48556989329717204,-0.7535896423120774,-0.2572249977568492,0.7392726785799013,0.6136929397290676,0.6061506754750646,-0.855191444016115,0.5686370986392923,0.08346356210296949,1.0473605335464873,0.5792691753286349,0.598954594081802,0.7547233420740052,0.7608104896518425,-0.589340029312276,0.03134701446073114,-0.5675982641382575,0.022977677072332343,0.0943674456549617,0.38569802330942926,0.4580395677854267,-0.9256853019137576,0.7481230278107279,0.7012420534187165,-0.29278213120358726,0.6034501880984452,-0.6928636040142092,0.8448768656452311,0.8740042007665242,-0.6083385548498473,0.15934808241853454,0.9908331575647537,0.5379179005882826,0.6193887749724133,-0.1401973498332244,-0.24667277630744716,0.28300415164117815,-0.5443902803465848,-0.22576846079722834,0.5952782900244075,-0.04465836912630058,-0.03933279566085034,0.8899665785254176,1.0216833881063545,0.74318213011385,0.3084958935566686,-0.8075516473828503,-0.7666831506116336,0.865309115703619,-0.46867793369440475,0.15100432194399205,0.2729220513556506,-0.6289611053812575,-0.008235239511460081,-0.35458875839752513,0.5503554790715754,1.0049874897480748,0.6948232272951052,0.8751873905338465,0.22605050110723449,-0.6918456754742063,-0.00769234431662449,0.5272887561689538,-0.11099866645096498,-0.6405572114429742,-0.5220312351592736,0.6996962284538419,0.8542669865691848,-0.9504404670675859,-0.06271712076432187,-0.38914636235109007,0.3172960640246555,0.52385065568555,0.2518116126639402,-0.16503596150336444,0.751494386491473,0.7180258951775659,-0.22393820184509602,0.8996685923354399,-0.35099738018565996,0.8010042785533118,-0.25491550554493536,-0.19245170877329262,0.08949959246271706,0.966402601281053,-0.221268379318698,0.19693293845915932,-0.39459508010403815,0.17674208050707851,0.33771022568643566,0.767075469229679,-0.8236305355923208,-0.1872152207384368,0.43486552896565045,0.22697812189119357,-0.31040184394333786,0.7331259236401091,-0.7810145880900208,-0.6632551060473587,-0.40464904885890257,-0.8776507485175474,-0.3495781913171715,-0.18593928875134097,0.4647179127373647,0.9661581661598289,0.9261216967007523,-0.7906430545171701,0.8796961040316775,-1.0036411849489195,-0.6902712474217211,0.07522248611732596,-0.08674954396257055,0.2850198478992425,-0.6391928973270995,-0.8260337341442269,0.5912467190403461,-0.2614551106198662,-0.9842879494854239,0.4863923022570958,0.5579249781952159,0.8392090574650752,-0.3963752239817658,-0.1534394223105793,0.19625179189537512,-0.7512524019663382,0.06721935895745183,0.2157380381228345,0.6859132922821819,1.0215775203103685,0.9738351194911152,-0.6014671243645926,-0.1557895247426707,-0.6149380023240193,1.0825572336205584,0.07673730606494668,-0.806832510295967,0.7696783485231133,0.044095715281802304,0.730702673618619,-0.3722128224678393,0.9740659794489758,0.43981587775232606,-0.23124593654312528,-0.5064464896715363,-0.4410844482714204,0.9744202885240807,-0.5871992237123003,-0.7329964197667876,-0.0031634531694467683,0.6673323767721765,0.6651509614293318,-0.4526458557941644,-0.4144714519471223,1.0366408528762907,-0.3292271151817043,-0.8018890270017694,0.24180146825344978,-0.6896516970550312,0.272462799179718],[-0.7830091104412306,0.35114789637624855,0.6933126426224757,-0.37987953775821726,-0.08902094304159427,0.7289234852486757,-0.22429395474518687,-0.68269273332989,0.9032559645750322,-0.7028601183737021,0.2366932422534117,0.662234272338535,-0.8185867028104327,0.7881076893496893,-0.21522279458346563,-0.9128117189485925,-0.9132737316213553,-1.001685343403289,0.314773959958908,0.4813461660346769,-0.6350983304280196,0.5557261103630116,-0.12300512861205781,-0.7222267630491789,0.3399909381709998,0.7736386634577329,0.7704374544418717,-0.18269515646623213,-0.42272984000275443,1.022299072837591,0.8624345328420625,1.125181781475522,-0.2791363905779778,0.24224407932450576,0.5602292145814369,1.0193150618439941,0.48689935951043867,-0.6348234501843734,-0.5882016003786354,0.4268126223920424,-0.7564755007364488,0.4794226865443346,-0.577162507074816,1.0290520882871708,-0.5389868148816475,0.22347606357470376,-0.25894073264534145,0.4600156497266926,-0.48827788661025306,0.43479589978509436,0.3378823384482649,-0.22548273666080973,0.7199927814152155,0.10632072326269419,-0.9455593460253511,0.43521140599946684,0.7027056576382091,-0.9152678619565182,-0.4061988971889169,-0.03301523831828655,0.8746685702415864,0.8149411950472704,0.3352511012951439,-0.518204636121542,-0.09216028466438603,-0.6156297469361643,0.5643995699503581,