{"HiddenLayer":[5.717596842398985e-7,0.0034176845208839495,1],"InputLayer":[0,0,0,0,0,1,1,1,0,0,0,0,0,0,0,0,0,0,0,0,0,0,0,0,0,0,1,1,1,0,0,0,0,0,0,0,0,0,0,0,0,0,0,0,0,0,1,1,1,0,0,0,0,0,0,0,0,0,1,1,0,0,0,0,0,0,1,1,1,0,0,0,0,0,0,0,1,1,1,1,0,0,0,0,0,0,0,1,1,0,0,0,0,0,0,1,1,1,0,0,0,0,0,0,0,0,0,1,1,0,0,0,0,0,1,1,1,1,0,0,0,0,0,0,0,0,0,1,1,1,1,1,1,1,1,1,1,1,0,0,0,0,0,0,0,0,1,1,1,1,1,1,1,1,1,1,1,1,0,0,0,1,1,1,1,1,1,1,1,1,1,1,1,0,0,0,0,0,0,0,1,1,1,1,1,1,1,1,1,1,1,0,0,0,0,0,0,0,0,0,1,1,1,1,1,0,0,0,1,1,1,0,0,0,0,0,0,0,0,0,1,0,0,0,0,0,0,0,1,1,1,0,0,0,0,0,0,0,0,0,0,0,0,0,0,0,0,0,0,1,1,0,0,0,0,0,0,0,0,0,0,0,0,0,0,0,0,0,0,1,1,1,0,0,0,0,0,0,0,0,0,0,0,0,0,0,0,0,0,1,1,1,0,0,0,0,0,0,0,0,0,0,0,0,0,0,0,0,0,1,1,1,0,0,0,0,0,0,0,0,0,0,0,0,0,0,0,0,0,0,1,0,0,0,0,0,0,0,0,1,0,0,0,0,0,0,0,0,0,0,0,0,0,1,0,0,0,0,1,1,0,0,0,0,0,0,0,0,0,0,0,0,0,0,0,0,0,0,1,1,0,0,0,0,0,0,0,0,0,0,0,0,0,0,0,0,0,1,1,1,0,0,0,0,0,0,0,0,0,0,0,0,0,0,0,0,1,1,1,0,0,0,0,0,0,0,0,0,0,0,0,0,0,0,0,1,1,1,1,0,0,0,0,0,0,0,0,0,0,0,0,0,0,0,0,0,1,1,1,0,0,0,0,0,0,0,0,0,0,0,0,0,0,0,0,0,1,1,1,0,0,0,0,0,0,0,0,0,0,0,0,0,0,0,0,0,1,1,1,1,0,0,0,0,0,0,0,0,0,0,0,0,0,0,0,0,1,1,1,1,0,0,0,0,0,0,0,0,0,0,0,0,0,0,0,0,1,1,1,0,1],"OutputLayer":[0.29199469188163146],"WeightHidden":[[0.7486676666845734,-0.8407441888038867,-0.629672459511183,-0.01374539235950896,-0.5477919742620977,0.7336229518325978,-0.691492873667899,-0.5886738436618543,0.22471888217220656,0.9252346215220018,1.013494419369718,0.18092592179054712,-0.0447950627066521,-0.2465637613658706,0.42981804064289225,0.8173597726809296,-0.13267624188906638,0.7219660712131795,-0.8485487796719767,-1.0773726996034625,-0.08273399437302517,-0.4937952161616008,0.3423619320927104,-0.28785241966688774,0.798056991204437,-0.10266630051836223,-0.6972646925585283,0.6415026264709525,-0.32484660788814645,-0.6707592604110044,0.7947644112243114,0.27435235903999244,-0.2174344780944719,0.7783164016045251,-0.8677554599223738,-0.06859105587270248,0.26929033145548975,0.6328204036152641,0.7733224247771243,-0.14387033485910639,-0.40482619344569654,0.15857516769745109,-0.6631287200411662,0.4973004396800621,-0.2295615701684611,0.6418428937034176,0.6913329874500405,-0.7765265506523853,-0.5702625379045922,0.019907560152358367,-0.4353330263901093,-0.14458507747678398,0.9213686808991189,0.8319917883430197,-0.7626937904949966,0.2867532601985022,0.19967356936178232,0.14730188834692853,0.28087945080583626,-0.914748954542631,0.10096809216328373,0.24479312469422376,-0.024559467022442032,0.7654299591307594,1.0377687243086913,0.16886422784776836,-0.2726808204337436,0.2716854511588208,0.8231992530452154,-0.9159541608346938,0.9746987730721501,0.3067623166298204,-0.8929560308986396,-0.5291235894832328,-0.6180285098141367,-0.7443535936808463,-0.25911464653323274,0.3249214798777816,-0.28393774205032923,-0.30613486674277657,-0.5337575933572789,-0.011913370538619319,-0.5680615759342126,0.014773239925504372,0.325329891154641,0.29415030322242114,0.27670497424555274,0.7368995211425299,-0.9753018184967721,0.2860020903067779,0.08553267387194974,0.40022631549275006,0.48585314535349433,-0.006513592738224618,-0.38269850724022153,-0.35825560267023776,-0.5134219291658584,0.3816844759810907,-1.0225404205277904,-0.9987929801579448,0.4198530459363429,0.34993668476318085,-0.1173322450001227,0.3817144661113438,-0.13684913591600195,0.19416779082242952,-0.47380549016388934,-0.868801476375029,0.38810945580941136,0.7232835417437296,0.5182590872038532,-0.24113622268565474,-0.043256015742940135,-0.6942855994335405,0.2787107885706937,0.4770871489467126,0.4777823003239811,0.45648914798064033,0.4883760510682736,-0.7381538537966782,0.5849893339743555,0.27162084618671967,0.7743085785716532,0.09470635426504288,0.03856181582396076,0.09723471018374139,-0.4236386779695701,0.30199803017648935,0.9356290008554933,-0.4416403699659711,-0.5189372642181628,-0.2095718515646044,0.8947203866161462,0.09677756554913125,0.4502003865488855,-0.35924720553532974,0.8649804315248514,0.5336840287572008,-0.15053783755210265,0.28126699337152855,0.27087051528568185,0.18632933448622266,0.6583612956236059,-0.05564363247684296,0.588195911011981,-0.3494067742156573,0.5584992389207297,-0.45228562928991034,0.916249499898752,0.8648555649795676,-0.8342521231661695,0.9597271680858359,0.6336473526748962,-0.9336962649568299,-0.2587903557236031,-0.2133749832865133,0.5333997698770833,0.5539427187198726,-0.17942214549005947,-0.23286522300394974,-0.4058850315225818,-0.6269541770551127,-1.0476144008185977,-0.2690676510926338,-0.9846296394154674,0.027001794765962824,-0.839911991876427,0.382395849898638,-0.3310090722239171,0.03453136956748299,-0.4700563832351312,0.035563960137534066,-0.15525186201806787,-0.8987257895611535,0.32804652128739736,0.0914168893458599,0.27108964392031376,0.18973605422923953,0.3083767358151031,0.5207341857038832,-0.2518874702026304,0.4364660473476472,-0.8136045621920526,0.005256090619634991,0.7125469182598291,0.2093464530864181,-0.16396339423870607,-0.4772940567431368,-0.2581295356819734,-0.10975016229984444,-1.0240026515400988,-0.33086144628484176,-0.06855671207938964,-0.9745523007626358,-0.5556995638273484,0.8671639354105228,-0.8236752800580672,0.4966412979411731,0.14135875717981727,0.03122348492163905,-0.35966938237510016,-0.34895618042631393,-0.8892883505107952,0.30177008409430606,-0.18300437248824694,-0.5882738108935283,-0.9308739411634804,-0.4353372447195267,-0.9559300718962815,-1.0241198184571105,0.027260425768906513,-0.6114306575564742,0.3846096208698016,0.5648420135171924,0.6009054328273415,0.8959368810782176,-0.5868079202264609,0.6954046648717934,0.6623109382008091,-0.02085518027514059,-0.06898170124539306,0.6705722585984653,-0.7639455421423605,0.5921907368391958,0.3574519229795716,-0.6599965499896976,0.6241615430443728,-0.29282113421137745,0.8306101928057434,-0.12460556944015884,0.16008080246873738,-0.3601792735127931,0.43835384200449873,-0.8022298310696289,-0.2470460330335946,-0.3705923092443215,-0.6513555809090875,-0.7069770359133146,-0.5451931221849943,0.4121518575250466,0.5246396592192625,-0.3304634285018215,-0.15983031418389687,-0.8092114972026546,0.503871649896327,0.8400369885958234,0.3092867142853036,0.27580677839568885,-0.6097338243418963,-0.6375107271635574,-0.049618012281542306,0.7450624466956248,0.229397956973221,-0.9472344119939636,0.9123904431941177,0.3421778956340802,-0.34474353443623507,-0.6822800956737194,0.857436288530126,-0.9680505668490903,-0.2694641931920339,-0.5783420283122815,0.7232817879826958,-0.4673133424323961,-0.5091307469114927,-0.32747145317834214,0.05297528503934468,0.25713863632491635,0.3377680879194653,-0.09343933085480507,0.20149604695294696,-0.3396498335532842,0.9124648595479657,0.5642435233561834,0.1815112554736521,0.7139766225820642,-0.2366021886579141,-0.6370241012330027,0.1896477637969335,0.9529233105961663,-0.09654260431736068,0.7273350548329489,0.8456321185139671,0.9303651206816103,0.6705819181929789,-0.14827856479326784,0.9269550055713495,-0.9882534075918628,0.4348804273372392,-0.7536089826489044,0.4649973038019897,-0.6155884397880743,0.0661830032005504,-0.34755076228975185,0.8539589279453139,0.5263203211259961,0.7799802658892799,-0.4446365239474924,0.8386232241240968,0.8435456647790057,0.038318030143097696,-1.0642889854596025,0.10139071062723913,0.28620484615660063,0.11013209026758869,-0.19444686804098263,0.9430213455049785,0.5099553650327991,0.7042615927941579,-0.5695506931986726,0.6392915365434401,-0.8100626158642893,-0.0026812367138591424,-0.8864782345922861,-0.7515302054763043,0.17406560497228638,-0.5717249606656625,-0.8658658146767353,-0.7981754072311986,0.22194492548864023,-0.4012274602425555,-0.7299535708061968,0.5032377251531417,-0.76824172923241,-0.1962874991923889,0.5401693273642809,0.4445608621448408,-0.7896070555990431,0.06831081937062547,-0.39581532536488356,-0.20884799630215034,0.42701714334150753,-0.9212377820542985,-0.39338673163586635,-0.945127282384359,-0.12301735868007405,0.1698413196178627,-0.16503874661787324,0.43869110757392654,-0.10355813629501585,-0.2269954287412443,-0.1492412381922919,-0.9026649314981355,-0.9082183735541545,-0.11702469109202888,-0.8794804594164078,0.8235792200055537,-0.8946973251983762,-0.49972428733048185,0.6077635225373955,0.06123482076104957,-0.13070680634264875,0.7124024736284973,-0.9310908893137143,0.4033961359185968,-0.11463042642236303,-0.71851253568439,-0.017980276684312846,-0.6478222798870088,-0.12669338023237312,-0.5316784326338221,-0.3014263714905872,0.8322045536033493,-0.3304363006750586,0.3469549175213557,-0.4710083641952707,-0.4221412975030799,0.970332100091044,0.8650258740073486,-0.2862083312307128,-0.6857717360078601,-0.43551836244182507,-0.15329061366363592,-0.26677482714379924,-0.26690715986458036,0.9259235329333964,0.24410713963651168,0.8622396994658944,-0.4464220100635867,-0.42051899597601383,0.34825341712956465,0.752452991138917,-0.36461950348372696,0.8313073040379753,-0.2918741184284489,1.0751626966914816,0.1593337418761082,-0.7220643564485665,0.9406404018806338,-0.6127553487134547,0.22298528554942437,0.7435278093348905,-0.45723067940814366,-0.31615815623889126,-0.6638647381827757,0.5403143726767249,0.5337309469127294,-0.666984725757056,-0.7391220690971093,-0.9976780056297334,-0.04831828687645122,0.23946076170634134,0.771860302467359,0.42170720198779144,-0.18372304216226545,-0.7353746885639851,-0.303806996221839,-0.7770364298573358,0.9165280186722176,-0.31049767438717385,0.9307490221885735,0.4282953701066013,0.8768164267273657,0.8680503351232454,0.2503005080315826,0.41357451199503026,0.9082785160505842,0.6878280572646983,-0.0010578365565546333,-0.7333830679709987,0.3377602600086042,-0.7617176273621844,0.2116011101719445,-0.9608191120109494,0.2614442664565629,-0.08413283527349584,-0.3299111882542596,-0.6739459982945606,0.21719128934883794,0.6779614327788738,0.31813378649727575,-0.5861521037312389,-0.8895189728692214,-0.18714037169871292,0.9347249570632802,-0.6168316408803516,-0.8933828282501836,-0.348205322150851,-0.06007451308239642,0.15450389997439395,-0.13738915636904445,-0.582113574560558,0.22927040338830637,0.31308588304807106,0.9099837945072896,-0.5629064832971844,-0.13964368043690742,-0.3311861768674445,0.8098348091862548,0.050301603021858626,0.11466669492916048,0.8760661370275207,0.4826653715884648,0.44126033976366935,-0.4413503002476849,-0.5317068378412749,0.5961928510734084,-0.3493849140834548,-0.4191857135155198,-0.6052032874627834,0.24483977538992807,-0.6836776118984768,-0.14497902479765634,0.597622806752965,-0.6334077357207966,0.11809825676125922,0.09359245288715848,0.6752560445502785,0.671944532145691,0.18154630971879385,-0.5265307676771387,0.06304001116322704,-0.14954017344005158,0.2079182228629421,0.06632500506007664,-0.46512768785307734,0.6464541325352106,0.39402877021106975,-0.07943535422935025,0.8129345787057175,0.6492928166265449,-0.7570150204920751,0.2731603830342056,0.5947136307526152,0.9048237867234054,-0.3547876017747285,-0.2515449058468844,-0.7808385126382719,0.9662413626340013,0.6000907220611472,-0.8201222004136416,0.11024011999454932,0.9878455095399103,-0.11221985778163672,-0.01637626560787867,-0.47218715127356886,0.748419288107477,-0.8425677562674208,0.7116139997580596,0.6498642776800194,-0.5326346264541246,0.7767310657995017,-0.668868937743664,0.5000228146836482,-0.029634144414134533,-0.48115635968290077,-0.20080290140414309,-0.3242722529697081,-0.8914144300224319,0.27593306149676844,0.7820444650274999,0.8534081019017461,-0.2543436205115256,-0.03136800637712256,-0.6438675577255205,0.8949759261193734,-0.46851538413648014,0.39375340291865285,-0.7637856920946844,0.3629651143040907,-0.10296345765701113,-0.7944893303150959,0.2816915127283901,0.047961977089988304,0.8026796998396735,-0.7446052874004189,-0.7026524350839792,-0.30915816921801104,0.8619859745227224,0.7550682587615275,-0.11863547268834526,-0.10268451309538142,0.8146601197981337,0.7043099885960327,-0.6391297781255697,0.6625641111197759,-0.1250652796257973,-0.9280067306088494,-0.7101903617168432,0.4344003109342026,-0.8403737734542859],[-1.166918153474705,0.08514549474545025,1.201056768451153,-0.2761795258765911,0.14792967867794837,0.11999960087839438,0.942362515929385,0.09883823731442677,0.7157898523196051,0.33865360568024244,0.9229909349279793,0.05482585097325765,0.07108986768931094,1.3517384620989221,0.31079806881057337,-0.0920118301886044,-0.93866503781959,-0.28424921390586944,-0.48457469563452515,-1.55453629054741,0.3477898322991774,0.0945681633742017,-0.08216910420370833,0.7021998702480027,0.5160638298580414,1.0353157029859137,-0.0326714478228374,-0.5101843996444282,-0.10864946709821334,1.4846547477650192,1.034968994193045,0.12706370203615844,0.7562624398179222,0.16286508018116433,0.28614743215881533,0.22226243287131564,-0.6116982630004867,-1.4417664755614166,-0.23319572995181748,0.32742209701548614,0.46106404383526317,-1.0301659702362986,1.1768381828075722,1.4040254827832284,1.1097634441566213,0.22957840778571686,0.7909846472230829,0.1164279173224448,0.023830162278533712,1.0273244612887422,0.4577855056108604,0.6796153673150418,-0.3816920511219793,-0.5584382769116076,-0.3962412524481363,-0.04062268206012371,-0.938564249245273,0.6518307450435727,-0.6788871376472208,-0.1261308968941624,-1.098808239483183,0.692537624275287,0.0824743266032888,-0.17267474549694,0.38625884371443153,-0.15453357785028377,0.983854105898394,0.9601138421296224,0.7535821766100772,0.6737380381059394,0.64742680324139,0.04011517008799764,0.5299544974106974,0.5094072699674443,0.2605198737133101,0.7559682463333118,-0.17360730434068974,0.7504624037881681,-0.16646844297220817,-0.4347003506264682,0.2286949605050043,0.5641373919989343,-0.24487065742205555,-0.13122606634232198,1.1011094103421317,-0.871567000734898,-0.6187224875248399,0.5610604889667048,0.9410213400768175,0.2140723625224734,-0.996651527493146,0.9071680680516349,0.04362632007044968,-0.039967221248461936,-0.17745186118190898,-0.02122723729362145,0.0845304515496387,0.5206335392137295,-0.0984903837865121,0.2829366894783984,-1.432033532402079,0.8088236925736301,1.179148549679324,-0.32170682247400806,-0.21813221756459225,0.5667426134715384,0.1750156828123745,0.04175253090491282,0.5919752558653557,0.32954994510899005,0.12599279622762471,-0.746434053323079,0.4043400829369601,1.1372404919723575,-0.27973991778579516,-0.6134008225837992,-0.09828060080800168,-0.32785135657621345,-0.17221064729760957,-0.8630054049231134,-0.6338332089821064,1.1860242541738986,-0.562785861482707,-0.026722343624259695,0.5391084648524306,-0.6851273745689009,0.09870312323959013,-0.21007767994888601,-0.41807386429023546,-0.9183390964566838,-0.9006824898987609,0.041184819649303483,0.40680286291812734,-1.0334453624160658,0.3120275556484041,0.580521517503175,-0.35611852959918444,0.6447934114079951,-0.1729790357175987,-0.6973558861566819,-0.45324732702196097,-0.07076430768103634,-0.6066994330457331,-0.6448828725478973,-0.8332526108384462,-0.5688415464817317,0.2857375700921551,-0.44443976840063887,-0.4547117332491862,0.018408398971341507,-0.7216854311718689,0.5782870564208303,-0.5220898164242355,-1.063813065452597,0.125272477134681,0.49112333630933047,-0.9198030060006143,-0.7845925180517966,-0.9685892235532921,0.1241577781736131,0.8020451475991632,-0.7707528770304832,0.5029738370970528,0.6568387506143604,-1.0288589016459815,-0.562756160709592,-0.26002475587617646,0.3119499772344794,-0.14005404501816568,-0.9181144916881945,0.6277557986956177,-0.8955441621486431,0.2356373333672409,-0.4284614687454833,-0.4077114268436577,0.016701293224480527,0.17807766203911388,0.006567287008921214,0.4650753614350548,-0.29510480010989826,0.23436263639842597,-0.43962209042412387,-0.35963606900569534,0.5244336424226747,-0.2622925551571532,0.5044762382114811,-1.0830650138221987,0.5340330732653449,0.11655509082702069,0.4652836983472153,0.12357017393056381,-0.07928007609152544,0.5654255074410491,0.5607968665112998,-0.0938093884560567,-0.594086686558715,-0.07312939098603263,0.6280020016514067,-0.02709109310097246,-0.23729514780593697,0.22335825073265295,1.0218773857131591,-0.6507058587493127,-0.28117117683267834,0.6699014841945108,-0.6265712947782999,-0.7861047191102899,0.6238674015033322,-0.22136604476915556,-0.533917410112604,-0.7909905980396974,-0.6917138719999918,-0.03684243046151762,0.011649039310765724,0.44241286333965174,1.1332184365539237,-0.6843447032466253,-0.3091838489324052,-0.5819191535795865,-0.7140330620390303,-0.03267331242425564,-0.5226942052327764,0.44132951990398517,-0.10834001555600228,-0.4286964572188041,0.2850807673625961,0.34320208237735517,-0.30013478984555614,0.19952131704767476,-0.2753329911033805,0.46559200304793463,-0.22591989836505594,-0.5109872037820908,0.419218570195341,0.2136781160875806,-0.19068215690524645,0.2722159002158876,0.1693696537584818,0.4194951832475714,-0.09894032022114725,0.4976757848123266,-0.5748091956135202,-0.2023189938233669,0.05314581933154851,-0.7379368100296929,-0.640036455115402,-0.06404226894997216,0.27059229029964943,-0.6444845108515898,-0.5994390236233696,-0.9375254412999551,-0.46029422112749974,0.5418816379070652,0.1140863942055265,-0.5812753534721948,1.1865410823719051,0.27273301713592557,-0.42917230957752495,0.11805926334110178,-0.0486338462191654,-0.8041089662408372,0.23575689069034275,-0.2115181488438002,-0.5383945405699003,0.34570308231139013,-0.6098105183694517,-0.04259616734317785,-0.8559418445173124,-0.12010450115766756,0.2793957025096445,0.23864680396617047,0.5767249601898133,-0.9497564512482105,-0.18001322957763005,0.19467601633343035,0.2770352796010655,0.3309781748000636,0.07793960114737869,-0.5963303707729729,0.8939556769004072,-0.3543253987506744,0.2998682007694568,0.13482100891804075,0.029306204367186475,0.8199092049703778,-0.0334110275050067,-0.06368667544351773,0.050648778321935366,-0.06477820730832826,0.17201465664230228,-0.6098595453305032,0.3619308493374391,0.8529179323674057,-0.1926476034658863,0.4646177721426998,0.24079902812313758,-0.5606032239647538,0.5940968543822676,0.2539673475228896,-0.03694052295069749,-0.6367417931900377,-0.14034496818184297,-0.838753080377406,0.6681402566926361,-0.3351033447970765,-0.21437525461457893,0.07925560711224919,-0.7036908270683412,-1.0477848842358513,-1.1112491311893988,-0.12405937408872941,-0.48538442022708955,-0.06641923083466195,-0.1292673223669151,-0.18019674340674188,-0.7295076470403333,-0.06667763839420524,0.07092131958619977,-1.1215774801290712,0.3742351334829877,-0.5085778403088069,0.3038578180463866,-0.4413970091626796,0.41548763553189627,0.4328762403972105,-0.10624649333729916,0.667363663299758,0.11848756844774443,-0.30396937648776795,-0.8356820733634022,0.6624193642043851,-0.27636042284351403,-1.007964554952495,0.6554164908172887,0.1027755151799985,0.5712080708806417,0.6368538817036811,0.2442169323889868,-0.31824833770281974,0.21727263547647913,-0.5960867008823941,0.4479818613344114,-0.42151801996185356,-0.8083817561866591,0.6548034052322329,0.25658570275968173,-0.7244808815569298,-0.7269332326857152,0.4130119246675827,-0.9758660750368516,-0.41540682942943596,0.1932259480490088,-0.4797763598853199,-1.1077449930119911,-0.19910056589821484,-0.11436927218319397,-0.49116304313141884,-0.6438433993935587,0.0504482242960767,-0.10371712179395681,-0.2312339578116284,0.2048223855051165,0.2596741682106427,-0.3190436194814138,0.8869890798574334,0.2406384369668518,0.731755824135686,-0.270429274766364,-0.5788278776594458,-0.5550206178731123,-0.08875485325496306,-0.29722060752565305,0.9358639291749751,1.0255398424786404,0.3429281238355915,-0.6259259163293589,0.9001967954052358,0.002347910829720343,-0.27391414347889376,0.2755090786344879,-0.4687111662991784,-0.6390589940899469,0.2877357247631853,0.07185203304059458,-0.2677105749892215,-0.15638515520546678,0.12062975976055527,0.9507432424782982,-0.1871998973447731,0.8369156087398099,1.1638204184622087,-0.1259361475552984,0.7179230795726306,-0.11594935212863189,-0.3064545213448199,0.17774937086189152,0.2947746377140466,0.04204297041826302,-0.37276880303414045,0.8034210301667758,-0.5376904254094828,0.27517512031195973,0.1122831185198354,-0.31406477461532517,-0.22858602498673802,-0.11297841235151633,0.7378480205283234,-0.3320246918110671,0.9913877661764907,0.2207501975607396,-0.19157269976350694,-0.3017381767562181,-0.6842143773215779,-0.4732063162999046,0.5873971288666626,-0.31557164239023455,0.5229952197554847,0.2846090165967523,-1.1812733499721468,0.46330762005823106,-0.041111001227869065,-0.14495848698628813,-0.3249938031653415,-0.15166827803991612,0.7466899135184346,0.6256963122154572,-0.15177780539958385,0.7338617903607704,0.4217974237592413,-0.15172632735466973,0.9531416592108718,-0.34939709263454477,0.9285324775065273,0.7790922757918572,-0.5090296251967583,-0.05677187396730184,-0.5095941710685441,0.12197596404398309,0.6283017132583778,0.8049830318058784,-1.5925703631774037,-0.7088981559919216,-0.003992738932340882,0.42652521970968515,-0.05303996403276689,-0.6832610819082592,1.2293721271572842,-0.31959391670213894,1.0927362430540932,0.47072936520251235,1.1942309196053105,0.8163440931706939,1.0729606985027613,0.45940635141457475,-0.4447037004635519,0.0620007991061681,-0.1920229435491794,-0.2765013231726411,-0.5477767985729985,-0.6171340387288785,0.3345056059594202,-0.2687258253757309,0.46166959701107185,-0.5521330734653128,0.8159725763186895,1.0712536579399468,0.24757745405477338,-0.21478490470556796,1.5311252403983773,-0.43057536777018746,0.08134772469230563,0.16508689626455075,0.5470828218235084,0.48439901855809697,1.13267270360065,0.33612255193494067,-0.030113913323457663,0.3934266268734596,-0.5128667825640153,-0.8449224295689829,-0.6283776217371615,-0.2066423483992074,-0.26570176346514257,-0.1903206958682278,0.7179580093236428,0.6204183357120513,-0.10034375656370789,0.878102458063154,0.019369112602990308,-0.5785412447103826,1.3427678240087118,0.1415409745798194,-0.1806026410725917,0.10196047573793385,0.7808298017094689,0.39242310940489405,0.7951449965768546,0.09694507396530873,0.6364662913583793,-0.827505151115297,-0.7301839641563219,-1.0353307325092573,0.2998652817564724,-0.22923964449990317,0.7164536619437658,0.9883280152039543,-0.47969641982036837,0.7491490767554362,1.0359902404614287,0.04252608417467689,0.6024501511546311,1.0651545238916271,0.4376118949353739,-0.927898606194569,-1.113971891597824,-0.8170447707769104,-0.6042785388117675,0.9861183397521951,0.4276207627540705,-0.7739705422746885,0.49533910379553026,0.1526716405693371,-1.0652571874153742,-0.22761567504837704,0.40739703354918116,-0.7815566935272252,-0.575916742195495,-0.3794663833092287,0.043578815913077426,0.5951915124482448,0.6640521753259353,-0.22457927049624815,1.040046183910509,1.0109185377180918,0.3439486837095546,-0.6447315811487138,-0.6734924273990782,0.5396643582954425,-0.10491148511107742,-1.4068947527652427,-0.12931016817568947],[0.4765516238056666,0.03516130128170403,-0.40715421111062366,-0.13615064020169498,-0.861102406980658,-0.48729696541123746,0.6244357584144802,0.08371155200988478,0.325759721291746,0.016960992960151522,-0.21562913056979804,-0.9664377434430882,0.07955981299389303,0.4613987796299208,-0.15161462980105145,0.03285579886126255,-0.018081070087037965,0.1236505349597723,0.614109483504458,0.7181748901461462,0.7861254746874433,0.5696600842312753,-0.1587278025483183,0.5374489586453273,0.6258762081984739,0.16486122540923742,-0.11155980325634918,0.6327978828308429,0.8243587596811914,-0.36675094350815296,0.37229010461473155,0.3402079706473129,0.575199928863791,0.14151206850235054,0.5280535977721101,0.333319871010354,-0.48843962078988123,0.40256441528691056,0.3830713729521411,-0.5785366560416778,-0.7357325432775093,0.22654276624173497,-0.0897508673850963,0.39222289178162795,-0.21877033316783012,-0.9213296881267323,-0.3041093171361725,0.5448011417056802,0.90633411609081,0.3588341820344383,-0.6451090776693329,0.6708653687488402,-0.014638489607671223,0.6150577360818288,-0.7646867051479274,-0.8351756042458887,-0.930529225927841,-0.6900487716012997,0.24876803434604722,-0.9321810122581505,-0.08317740476654034,0.6025706256563819,0.9631544939646055,0.13728622434086724,0.6871599775309578,0.9523341819652988,0.20954717402855727,-0.06594038027390947,0.6422534033666458,-0.4285667132466634,0.4192317714838605,-0.882846765767855,-0.9450085224828931,-0.38216775750053733,-0.737154870487104,0.11204555003010741,0.007226813372754881,0.33557653395876974,-0.5340213457964511,-0.06480120734065886,-0.02781606214526322,0.7830197284958464,0.09852364988524309,-0.18183423212977678,-0.7479183758258339,-0.7339121479919479,-0.06884207491773164,0.5935007178706391,-0.33430055281701276,0.573711355096985,-0.8473889076608189,-0.6539850467735316,0.5958725429918257,0.259455621381411,0.7904174213927948,-0.5138183008172985,-0.24975570246798717,-0.18750142282242754,-0.2949638542430145,0.3401228940263141,0.44134136990514694,0.8074354327883568,0.230477128707252,-0.9450972319725396,-0.06055729863416692,0.5723475332017978,0.2849985889226092,-0.8119823077592254,0.8349067834600237,-0.18534584335247362,-0.5679537600080184,-0.754115746200013,-0.42993882850753795,0.05046780014118979,-0.9474023550913616,0.12864233364813704,0.2696919783021765,0.5851981391104037,0.09945994582293505,-0.7973761964713086,0.5956057496695286,-0.12245020034769583,0.8009815514993495,0.9439393348758587,0.6241650948559845,0.5352076041116309,0.2706322278738782,-0.27413538043638874,-0.5551815094753615,0.8706917589603751,-0.946414296106756,-0.25363546162077233,-0.5180263230510355,-0.6394638527749914,-0.26103378704814406,-0.09871509842270187,-0.6042613923414144,0.21664007689834097,-0.5388459254016311,0.8436085818447043,0.0039279545051120746,-0.1349085105591934,0.1967731331696061,-0.9790843370764898,0.08903239483153835,0.2338328163361234,0.3986194345740173,0.8112333914546861,0.8454694106417588,-0.8102453532849507,-0.7927970554612727,0.725344496473532,0.9237350296245315,-0.5442062421675887,-0.5650712962782312,-0.14918331097559256,0.9118046382452389,0.19279126376234923,0.29364087566415176,-0.7302121301353428,0.6575008689028587,0.9115790449415182,-0.38345155254004115,-0.8233856053351014,-0.029460477414693043,0.45147632062026766,-0.8102266408700542,-0.8607186233405486,0.6672314033144224,-0.19224003571500925,-0.7520221277415856,0.5367849505811806,0.5455408650621714,0.7579911348066928,-0.2690395567402337,-0.09150914313431657,-0.8980258520429929,-0.8555983257926737,0.04193376420301287,-0.6612430549453462,-0.23531434660913797,-0.9195235632651708,-0.04527653438444679,-0.4669882198930869,-0.03359307331103811,0.36387576502943064,-0.3788414478668718,-0.3916937777711329,-0.04459938583858447,0.5667867615054667,0.9844036759878778,0.4355867541609151,0.2946154795671341,0.46851589045319475,0.7150771407403411,-0.9340583369233585,-0.90344661264004,0.026926724835477422,-0.6254811120220373,-0.46954677297134073,0.5922909112342483,0.8564432672232305,0.45009294589304427,-0.3822598630224995,-0.9162600560586461,0.9528580236205828,0.979456838870215,0.9072172030243351,0.10897706779939864,0.845490444806178,-0.05500680350436238,-0.3747216067751211,-0.5183769066275423,-0.031761953639843576,-0.4115253182038875,0.012860712967637467,0.9607040457959346,0.18606607176469225,-0.08063115957463862,0.4931663651304363,0.932391465375561,0.48600196304214616,-0.8100678097012558,0.4857464355434844,-0.036420927965562844,-0.6970545281793924,0.37900321501087975,0.6587487226057545,0.7000496756485648,-0.04856314037475773,0.7667491126399641,0.13612973061343592,-0.950448950863697,0.7331897293963829,-0.9580945557304155,-0.42493705020667205,0.6153072223875515,-0.7228458493551981,0.6049858516076574,-0.9534237389183831,-0.5796115282751328,0.8788671051263368,-0.168114007217799,0.11996279818315725,0.2782937465700448,-0.07944042924100969,0.1720627974061364,-0.46831281652483414,-0.37958327259476254,0.19962600951807485,-0.10144646451193284,-0.7965317989196289,0.9144997029068473,-0.1299452770816576,0.38233753435141615,-0.4954007918089125,-0.01740649546983941,0.7930826118527317,0.9898716005985129,-0.9680395491236942,0.5774698337635111,0.5068963903644141,-0.8959011563176341,-0.8544360152484783,-0.37371566463138883,-0.4253214868952122,-0.6544741493568274,0.9139180504991138,0.058008589566798996,-0.5050565725279705,0.2081202801558122,-0.32485324277268834,0.6023851268242815,0.1965045392682938,-0.6093902208394251,-0.0068425729924336265,0.4772400612717991,-0.3102144129740593,0.8115383167880268,-0.5687437102996398,-0.7161120546909785,-0.23179077371232393,0.0656135154285209,0.37328168269760065,-0.6357464067747469,0.3058526669301249,-0.8309739548690493,0.20800071751178062,-0.2845826102794796,0.6350683398450214,0.9386278814364566,0.2627865115644956,0.32672997594182096,-0.28931792664904954,0.34288831603142267,0.8519246488930365,0.4029967729975894,-0.5814873095214864,0.8674342870909684,-0.9121040015293613,-0.33890118690993465,-0.6186751877812448,-0.8445638149361256,-0.08666352034761671,-0.06221374127079371,-0.7139276373179126,-0.4622770642597658,0.8613869898614501,-0.6315189027376347,0.5483005428398462,0.46976572618329415,0.9037269707098154,0.5858998786226584,0.6427423665270058,-0.9977015953192769,0.3669538264884027,0.4554586328095702,0.45409912898456284,0.8763247369412062,0.4833292998111247,0.6191367485497592,0.8683135333345591,0.17567609235835313,0.29765536660663505,-0.11399427249387639,0.6608104445108001,0.8847328998549691,0.8494632871870451,0.19205456875563587,-0.5455653018430934,0.26890000701191674,0.9975628116781521,0.11806614346378175,0.2587038893554374,-0.3565451344384387,0.3944148283214739,-0.6682640403142499,0.5833517937334953,-0.7738734843177264,-0.9806181106720573,-0.6925250095027196,0.46839559436554157,-0.6425792611349446,-0.42067101225743186,-0.6941316416213221,0.4056917038286554,0.5350797112167278,0.8030298613306055,-0.5755387511753511,0.9355690398143228,0.2595920667576741,0.6400322266741854,0.718231495934567,0.7931652744382329,0.11463405729225062,-0.054793426230373865,0.4594309304461235,-0.9839537345785293,-0.8174739486869556,0.5971500821660356,-0.2941071278650389,0.9854643414411834,0.9390421371923117,0.8469962560286397,0.23944047889043585,-0.8143789180660554,-0.7949173832355613,-0.13166393200672755,-0.21083722268606142,-0.6555395043309928,0.5005112033754311,0.3773034877050092,0.770592480256094,0.5509573575362814,-0.7843163777376657,0.947495319595862,0.5542105300084266,-0.9643740289993081,-0.06366468593601982,-0.5598538998328565,-0.3203994298325138,-0.8866903170026449,0.7045469399145534,-0.9778232730094762,-0.6247144962555607,0.9769119794128143,0.3722306182435797,0.8291392464581955,0.6384096753178254,-0.4200305115124392,-0.2306837877657193,0.6059086886274292,0.7702770741606675,0.3411743627609152,-0.8337690247028474,-0.45558464796035536,0.8238350457751185,-0.5670588665634823,0.7478393843600362,0.0426577885940429,0.7308284779777228,-0.8981993775867735,0.7137063602004328,0.9577578412774779,0.46676102714937384,0.8496783723413914,-0.36956911591844366,-0.9437338000614348,0.5535757639936507,-0.37378397001651653,-0.0002961705453287111,0.5460194468872277,-0.8617982252533948,-0.8116441466128188,-0.20649949733659467,0.965113709915171,-0.11152085150793101,-0.349736031906542,-0.9369017954991805,0.4131588535474675,-0.1592824358807432,-0.7886394516436611,-0.5316596921876332,-0.3360386249528168,-0.10081950465504186,-0.13880295297594636,0.6728574819204227,0.540557118417845,-0.7680160822469005,-0.5166224133008472,-0.3313497369464261,0.8871469539989059,0.7235071143884406,-0.8085217515373779,-0.9866594999866733,-0.04196435934125675,-0.08278543879122613,0.018485361711416015,0.13572584236174468,0.7631867508277836,0.5975924493534328,0.8047543119287874,-0.2212410530952602,0.19377873749778596,-0.8160679645494853,-0.08561290095085372,-0.03561236448705973,0.3936131509098708,-0.4205884400817309,0.43911735921642814,-0.5398874825461758,0.32281591160246115,-0.01828000980593114,-0.7691302456750889,-0.5213811990710053,-0.6250669711212209,-0.8571509253644394,0.4906661827228571,-0.13089932240051638,0.052422658500467234,0.4201367711157722,-0.931656781383696,0.3135904120133002,0.2880834727056818,-0.7100996501856365,0.23929088919455777,-0.8746473520520576,-0.005049910213409059,0.27859609886625103,0.19634875318892742,0.5931507092242141,0.009245077253634548,0.8950143917208118,-0.8264033929102141,0.5538115213559649,-0.6627387065296622,-0.01498824287458711,-0.10071524158074285,-0.6391779659244687,-0.6371625585698144,0.35499800391904035,0.382419107658559,0.648134215854048,-0.5983972212991551,-0.1545134186089373,-0.8823448144419077,-0.4144928933476075,0.685299977620206,0.9243692671386619,0.2664957652124911,0.09483548920833229,-0.5368237599535592,-0.953941512359179,0.9257754555356397,-0.3058935653179863,0.17813396667722037,0.05631869037727433,0.4975687056741387,-0.9456084235740768,0.10953863588605461,0.8181918552566114,-0.8687205959337094,-0.03290695420466405,-0.685818730115598,-0.2959897237068182,0.9811208073188731,-0.9802088571751302,-0.1822087275697487,0.8283730950181158,0.3065744835026367,0.19023864912015176,0.6251835124140441,-0.9693022737400828,-0.16860745117566434,0.5812672070800597,-0.9272618366358745,-0.09352357046544335,0.020503917291163187,-0.09130563093250066,-0.5262438117251345,-0.04272460239819342,0.5039533840468873,0.6868743093479441,0.5446514015296016,-0.6401337333176991,-0.40316765963009116,-0.18474427129195947,-0.7999680779819378,0.7999171188113985,0.01769727032450863,0.6318968629171811,0.8730427162763184,-0.3241000338113892,0.6203988368675255,0.45385971425678573,-0.6013454677612489,-0.180434724206035,0.7632509083670911,0.9328655596744995,0.6624996371679932,0.6084742187617129]],"WeightOutput":[[0.04360543440596912,-0.8815382572897323,-0.881370298444342]],"ErrOutput":[-0.008005308118368526],"ErrHidden":[-0.00007176417284394197,0.0014593294188275769,0],"LastChangeHidden":[[-4.2800024730350195e-20,-4.280002474251179e-20,7.860994282688661e-47,-4.273240987614347e-23,-1.6185506669591325e-8,-1.6212177363865333e-8,-1.049872067725261e-7,-1.0498795620180721e-7,-1.0496128564893756e-7,-1.0496128564893756e-7,-1.049612814194651e-7,-1.0496053199018394e-7,6.168329004734671e-10,6.102923698436126e-10,-3.3434248487610484e-11,-3.379647010193934e-11,-6.506251411064748e-10,-6.898529288907325e-12,-6.8985225699081955e-12,-6.8985227752517565e-12,-1.618550666952061e-8,-1.618550666952061e-8,-1.6185506669634124e-8,-1.6185506669591325e-8,-1.0496128550753325e-7,-1.049612856489376e-7,-1.0498795634993062e-7,-1.0498795634993062e-7,-1.0498795634993057e-7,-1.0496128142618408e-7,-1.0496781772734501e-7,-1.0435098905634048e-7,-8.816548238665736e-8,-8.816548661612983e-8,-3.343438989552428e-11,-3.379647010193934e-11,-6.898529380739074e-12,-6.898529380739066e-12,-6.536301047411183e-12,-6.536301160923e-12,-1.6185506669428778e-8,-1.6185506669428778e-8,-1.6185506676353123e-8,-1.0496128551425223e-7,-1.0496128565565661e-7,-1.0496128565565661e-7,-1.0498795634993062e-7,-1.6212926941273347e-8,-1.6212926941273347e-8,-1.6186252017526863e-8,-1.5569423346522325e-8,-1.0435098905624864e-7,-8.816548238665736e-8,-8.880920899836142e-8,-8.880921322783389e-8,-8.88088260202589e-8,-6.898529494250886e-12,-6.89852938073907e-12,-2.66707008794942e-11,-2.6670694274006887e-11,-1.6185506669428778e-8,-1.6185506669428778e-8,-1.0496128551429502e-7,-8.877577898610808e-8,-8.877614120767961e-8,-1.1117990223869815e-12,-2.703306401524854e-11,-2.6670842397377077e-11,-1.6212173282516185e-8,-1.6185502446837806e-8,-1.556867377583327e-8,6.095470220034034e-10,6.095470219998607e-10,-8.88026726972005e-8,-8.88026769267648e-8,-8.815856310739392e-8,-2.7033064015248613e-11,-2.7032922493822957e-11,-2.6670694160495072e-11,-2.6670694274006887e-11,2.0534356143254444e-19,-7.494291186015625e-13,-8.877577898610808e-8,-8.877577898610808e-8,-8.877614120767961e-8,-3.6236974124172706e-13,-3.622216143287582e-13,-2.6670694274006854e-11,-1.685589974621038e-8,-1.6212400380931834e-8,-1.621240461031248e-8,6.102965994079188e-10,-7.281500764250133e-12,-8.880267269057333e-8,-8.88026769267648e-8,-8.818598323094908e-8,-2.7033064015248613e-11,-2.7032922493822957e-11,1.1351177034084049e-19,-4.6229820809002935e-26,2.053435614325524e-19,-7.494291221444221e-13,-8.877577897938907e-8,-8.877577897938907e-8,-8.877539177172227e-8,-3.622216143288022e-13,-3.622216143287582e-13,-1.6212177363865287e-8,-1.685589974621038e-8,-1.6212400380931834e-8,-2.6897940721199986e-11,-6.532071596616693e-12,-6.5320715749366215e-12,-8.880267254916541e-8,-8.882934762115232e-8,-8.818598323094908e-8,-8.880206247267247e-8,-2.703291577836653e-11,1.1351176950859774e-19,1.1351176952075934e-19,2.053435614325524e-19,-7.495705265155134e-13,-8.877577897938907e-8,-8.877577897938907e-8,-8.87750295501044e-8,-3.622216143287582e-13,-3.622216143287551e-13,-1.6212173134392814e-8,-1.6239071075205842e-8,-1.6239071075114012e-8,-5.356863499520713e-11,-3.3206995229586174e-11,-3.320276584894351e-11,-5.431384150119678e-11,-8.88293433916763e-8,-8.818598323094908e-8,-1.621253973360653e-8,-1.621253972677402e-8,-1.6185506669477767e-8,-1.6185506669385936e-8,-7.494290758016931e-13,-7.495704837154886e-13,-8.877577897929725e-8,-8.877577897938907e-8,-8.87750295501044e-8,-3.622216143288022e-13,-1.621253958547962e-8,-1.6212173134392814e-8,-1.6239071075205842e-8,-5.356440552273265e-11,-6.703973060425426e-10,-3.320699532141792e-11,-3.320276584894351e-11,-1.0502138622102414e-7,-1.0501485006126759e-7,-1.0501521651235792e-7,-1.6212539726887527e-8,-1.621253972677402e-8,-1.6185506669477767e-8,-1.55686779983814e-8,2.053435589016964e-19,-2.7420264757722374e-11,-8.880244967345774e-8,-8.880244967354958e-8,-8.880170024426489e-8,-2.7032915774823872e-11,-1.6212539585366106e-8,-1.5602242986050017e-8,-1.6239071075000503e-8,-5.3568634924495105e-11,-6.703973059290305e-10,-3.3569216978546697e-11,-3.356498746327226e-11,-1.043513511365469e-7,-1.0498854158851607e-7,-1.0498854581798856e-7,-1.0434406977017438e-7,-1.043440696286565e-7,-1.0434370740704215e-7,-1.0434370740703862e-7,-2.667069406866333e-11,-2.7420123353351286e-11,-2.74202648005224e-11,-8.880244967345774e-8,-8.880170024417305e-8,-8.880206232438302e-8,-1.5602242985958183e-8,-1.5602242985958183e-8,5.897999847940179e-10,-6.707595275433593e-10,-6.707595275433593e-10,-6.89852270453981e-12,-8.878267736734079e-8,-1.0435135113645506e-7,-1.0498854158851607e-7,-8.880228548292464e-8,-8.880228971240067e-8,-8.815856295906522e-8,-8.815856295906522e-8,-8.815856296578067e-8,-5.3568634881695455e-11,5.89408547651184e-10,5.894084062040128e-10,5.890461844978524e-10,-8.880281189516041e-8,-1.049608984411965e-7,-1.0435060170043324e-7,-1.0435060170043324e-7,-5.3926627023549554e-11,-6.707595275433593e-10,-8.944578893620059e-8,-8.878267736055108e-8,-8.878267736734079e-8,-8.816584460835997e-8,-8.815930830719906e-8,-8.880228548301648e-8,-8.880882587896805e-8,-8.880882587885453e-8,-8.942565454985907e-8,-8.878192793803796e-8,-5.393086321502303e-11,-2.7260168944601875e-11,-2.800959833925877e-11,-2.8009739878261762e-11,-6.448384108792543e-10,-1.0498854581812321e-7,-1.0499507788304988e-7,-1.0499432845376872e-7,-8.944578893627134e-8,-8.944578893615778e-8,-8.944653836548172e-8,-8.942604189899119e-8,-8.942604189904023e-8,-3.417958990599584e-11,-3.343016062485062e-11,-3.379224083835098e-11,-6.50625141315361e-10,-6.506251412018491e-10,-6.506251412018491e-10,-6.506251411983064e-10,-2.726016894105916e-11,-2.7260168944601875e-11,-2.726016905811369e-11,-2.8009598473890687e-11,-6.448384108827971e-10,-1.0498854581140423e-7,-1.0499507788304988e-7,-8.88095712134586e-8,-8.942640411384378e-8,-8.944617628522901e-8,-8.944617628527177e-8,-8.942604189908303e-8,-8.942604189904023e-8,-6.502588316293859e-10,-3.3430019220479414e-11,-3.379224083835085e-11,-6.50625141315361e-10,-6.50625141315361e-10,-6.536301050953933e-12,-6.53630104741123e-12,-6.440888332265954e-10,-6.440888332265523e-10,-6.44088833343607e-10,-8.877502940870356e-8,-1.043437074072903e-7,-1.0434370317781783e-7,-1.0435135127123227e-7,-8.878267327264556e-8,-7.648093255467462e-12,-6.7114687657179e-10,-8.944617628527181e-8,-8.880898598153947e-8,-8.878231528722266e-8,-8.878231528722266e-8,6.095470219080288e-10,6.16083329787951e-10,4.229468931856235e-15,-3.5427073216590656e-21,1.0996910926122735e-19,1.1351181340352191e-19,-6.437266116122238e-10,-6.437266116122238e-10,-8.9418756020273e-8,-8.877502940870356e-8,-1.043437074072903e-7,-1.0434445260709899e-7,-1.6193150533583114e-8,-7.648093347256287e-12,-7.648093255467464e-12,-6.703974473334447e-10,-6.703974541659557e-10,-2.6670842440220056e-11,-8.878231528726901e-8,-8.878231528726901e-8,-8.815894607891207e-8,-8.815894607890854e-8,6.16083329745151e-10,-7.495707318588426e-13,-1.618550681092848e-8,-1.618550681088214e-8,-6.437266116122238e-10,-8.941875602026945e-8,-8.941875602026945e-8,-8.815820073769903e-8,-1.0434445683657145e-7,-1.556942333984613e-8,-1.6193150533625916e-8,-7.648093393599015e-12,-6.898664020622018e-12,-6.772958287078682e-10,-6.769336139260505e-10,-3.3207002200314673e-11,-6.536307926264864e-12,-1.0496707238617477e-7,-1.0435098904966074e-7,-1.0435098904966074e-7,-1.0434445274850334e-7,-1.0496128564898035e-7,-1.0496128564886685e-7,-1.0496053199006688e-7,-6.502629127731467e-10,-8.942529232143036e-8,-8.942529232143036e-8,-1.0435099313772883e-7,-1.557595964100705e-8,-1.6192788312011587e-8,-7.281642420307668e-12,-6.898664112453761e-12,-6.898522573450903e-12,-6.506251344338612e-10,-6.769336139260505e-10,-6.536307812795965e-12,-6.536307769995943e-12,-8.878156570970464e-8,-1.0435023947881891e-7,-1.0435023962022326e-7,-1.0434445274834704e-7,-1.0434445274834704e-7,-1.0434445274834704e-7,-1.0437112344262105e-7,-8.94252923215222e-8,-8.942529232143036e-8,-8.880846365046862e-8,-1.043509932791332e-7,-1.557595964100351e-8,-1.6192788312008044e-8,-6.536442455324978e-12,-6.898522665282439e-12,6.099301483392529e-10,-2.726016222555974e-11,-2.6897947373073067e-11,6.168286643562053e-10,6.168328938714797e-10,-8.818486720234071e-8,-1.0434370317765798e-7,-8.815819650807025e-8,-8.815894607875575e-8,-8.815894607886927e-8,-8.818561677302976e-8,-8.818561677302976e-8,-8.941875602047479e-8,-8.941875602047479e-8,-8.880267677879419e-8,-1.5569423339842586e-8,-1.5569423339842586e-8,-1.5569423339842586e-8,6.160792417233903e-10,6.102923699571244e-10,6.099301483427956e-10,-2.7255932749585548e-11,-2.689371801056768e-11,6.168328938069997e-10,6.168328937579679e-10,6.168329004770101e-10,6.168329004770101e-10,-8.81581965081838e-8,-8.815819651490279e-8,-8.815894594418393e-8,5.89408399439482e-10,5.89408399439482e-10,-8.941950544975593e-8,-8.941950544979874e-8,-8.8158950308381e-8,-1.5569423339842586e-8,-1.5569423339842586e-8,-1.5569423339799785e-8,6.160834711958647e-10,-6.5320716884483874e-12,-6.5320716884485934e-12,-6.43722389064135e-10,-6.437223890151034e-10,4.222802464078724e-15,-6.627210304859438e-18,-2.5308547443660232e-27,6.168286710045355e-10,-8.815819651490275e-8,-8.815819651490279e-8,-8.880244530946248e-8,-2.742027156505347e-11,-2.7420271473221723e-11,-8.941950544979874e-8,-8.877577883798117e-8,-8.878231528054647e-8,-1.6186252010847125e-8,-1.6186252010847125e-8,4.2294724744083386e-15,4.229472474408327e-15,-6.53207168844859e-12,-6.53207168844859e-12,-6.719042049709159e-18,-6.670010329601951e-18,-6.670010329601951e-18,9.178882454717251e-20,9.183174231880198e-20,6.168286710009931e-10,-8.815820074437523e-8,-8.818486720917676e-8,-8.880244530937061e-8,-2.7420271678522332e-11,-7.49570480172755e-13,-6.437266118603675e-10,-8.877502940870001e-8,-8.877577897938554e-8,-1.0496128141950435e-7,-1.6186252010804323e-8,4.2294724744083386e-15,1.0783919729150984e-33,-6.536301160923e-12,-6.536301160965919e-12,-6.719042049709159e-18,-6.761842074451671e-18,-6.670010329601951e-18,9.183174484972029e-20,8.828919593734795e-20,-8.815820073756439e-8,-8.818487143193024e-8,-8.882859381427532e-8,-8.944617191455748e-8,-6.711426472127846e-10,-6.444761822977401e-10,-4.279999459852679e-20,-8.877502940870001e-8,-1.0496128564897682e-7,-1.0560501226075159e-7,-1.0496128564893403e-7,-1.414043709791227e-16,-4.3050835702732946e-26,-6.536301160965917e-12,-6.536301160965917e-12,-6.719042048876916e-18,-6.761842073619428e-18,-6.761841885726757e-18,4.9031864948979826e-20,8.82891855491893e-20,-8.815820073756439e-8,-8.815820073756439e-8,-8.882970546507896e-8,-6.715048688271132e-10,-2.777825700954584e-11,-1.1117920945015421e-12,-4.2799992067670756e-20,8.32243999288162e-28,-1.0496128564893403e-7,-1.0496128564893403e-7,-1.0496128564893403e-7,-1.0496128564893403e-7,-4.27754607038872e-23,-6.536301160965774e-12,-6.536301160965774e-12,-6.719041904867323e-18,-6.7190419048673874e-18,-6.718998984565158e-18,-8.877502940866077e-8,-8.877502940866077e-8,-8.815820073756439e-8,-8.815931238845987e-8,5.890504139949897e-10,-2.7778257101377584e-11,-2.777825710137758e-11,-1.1117922998451037e-12,-4.2887639868349184e-23,-4.28868076269372e-23,-1.6185506669591325e-8,-1.0496128564893407e-7,-1.0496128564893407e-7,-1.0496128564893407e-7,-8.877577897934279e-8,-8.878156585122256e-8,-8.877502940865726e-8,-8.877502941537627e-8,-8.877502941537977e-8,-8.877502941537977e-8,-8.878156570982169e-8,-8.878231513910283e-8,-8.81654864680983e-8,6.095427991580962e-10,-5.468042738688388e-11,-2.7778257101377584e-11,-2.7782486573851988e-11,-2.7782486573851988e-11,-4.288763986964284e-23,-4.288763986964284e-23,-4.288763986964284e-23,-1.6185506669591325e-8,-1.618625624027684e-8,-7.495706891019376e-13,-8.877577897934633e-8,-8.877577897934633e-8,-8.877577897934633e-8,-8.877577898606528e-8,-8.877577898606528e-8,-8.877577898606528e-8,-7.285871849982022e-12,-7.285871849982052e-12,-7.285871846439349e-12,-7.285871846439349e-12,-3.395656602865741e-11,-3.3956566028657414e-11,-3.32071368393439e-11,-3.320699543497281e-11,-4.288763986964284e-23,-4.288763986964284e-23,-4.288763986964284e-23,-4.288763986964284e-23,-4.288763986964284e-23,-7.495706891019376e-13,-7.495706890590501e-13,-7.495706890590533e-13,-7.495706890590533e-13,-7.495774080581829e-13,-7.495774080581829e-13,-7.495774080581829e-13,-7.495706890590533e-13,-7.285871846439349e-12,-7.285871846439349e-12,-7.285871846439346e-12,-3.3207136747512155e-11,-3.32071368393439e-11,-3.320699543497281e-11,-6.536301160965919e-12,-1.0502174858388388e-7],[1.9444342815043363e-19,1.944434281546889e-19,-4.842409145914982e-48,9.428355104461705e-24,1.1582614980266326e-12,0.000003230814308656948,0.0000032312485637711377,0.0000032312485637825256,4.354133897478901e-10,4.354133897478901e-10,4.35413389076641e-10,4.3541337768869753e-10,-1.3459624979539408e-10,-1.3107610872424714e-10,-1.0896291577139258e-10,-1.0896291538298426e-10,2.56333337411675e-11,3.520140768992272e-12,3.520140767780848e-12,3.520140788312938e-12,1.1582616920005677e-12,1.1582616920005677e-12,1.1582616924700607e-12,1.1582614980266326e-12,4.354133870755822e-10,4.3541338974789955e-10,0.0000032312485637851993,0.0000032312485637851993,0.0000032312485637851993,4.354133890778525e-10,4.389335294777573e-10,3.043372803536053e-10,3.031790188355255e-10,3.031790195067746e-10,-1.0896291309907445e-10,-1.0896291538298426e-10,3.520140789054876e-12,3.5201407890548673e-12,3.520140399435386e-12,3.5201403999048797e-12,1.1582616719379707e-12,1.1582616719379705e-12,1.1582616936814845e-12,4.354133870767998e-10,4.3541338974911095e-10,4.3541338974911095e-10,0.0000032312485637851993,0.0000032308143086710096,0.0000032308143086710096,1.1582748882347382e-12,-1.334379742359173e-10,3.043372803335365e-10,3.031790188355255e-10,3.252922118072312e-10,3.2529221247848033e-10,3.2529220149900797e-10,3.5201407895243687e-12,3.520140789054876e-12,0.000003230813150395451,0.00000323081315039545,1.1582616719379712e-12,1.1582616719379712e-12,4.354133872712371e-10,4.342551284455278e-10,4.3425512863949234e-10,1.44498809298538e-17,0.000003230813150398512,0.000003230813150398124,0.0000032308143086589504,1.1582608279795292e-12,-1.3343798829617247e-10,-1.3107609535409302e-10,-1.3107609535409222e-10,3.2177207140732636e-10,3.21772072098638e-10,2.996588681273973e-10,0.000003230813150398512,0.0000032308131503958394,0.0000032308131503954497,0.00000323081315039545,-2.053209016090614e-20,1.1561854635348586e-17,4.342551284455215e-10,4.342551284455278e-10,4.3425512863949234e-10,3.061937632212885e-18,3.8840806560146794e-19,0.00000323081315039545,0.000003230836421849249,-1.1132479532520867e-10,-1.1132479467402219e-10,-1.3107610941555886e-10,3.5201510960669884e-12,3.217720714261713e-10,3.21772072098638e-10,0.0000032311128092749656,0.000003230813150398512,0.0000032308131503958394,-4.632464268231354e-22,6.246852666534056e-24,-2.053209016090614e-20,1.1561855443244194e-17,4.342551284443164e-10,4.342551284443164e-10,4.3425511744478106e-10,3.8841430427467e-19,3.8840806559721265e-19,0.000003230814308656948,0.000003230836421849249,-1.1132479532520867e-10,-1.124830561720394e-10,3.520139708593185e-12,3.520139728186287e-12,3.2177206875385937e-10,0.000003231134922467549,0.0000032311128092749656,0.000003231247405512702,0.000003230813150395838,-4.632464268225626e-22,-4.632464310778602e-22,-2.053209016090614e-20,1.423416653998996e-17,4.342551284443164e-10,4.342551284443164e-10,4.342551170563722e-10,3.8840806560146794e-19,3.884080574177476e-19,0.0000032308143086562768,0.000003230701825600125,0.000003230701825600105,0.000003230700667339278,0.0000032308166705358294,0.0000032308166705351785,0.0000032307006673500154,0.000003231134922466878,0.0000032311128092749656,0.00000323081430866001,0.0000032308143086600084,1.1582614975477189e-12,1.1582614774913608e-12,1.1367411207480007e-17,1.403972311183527e-17,4.342551284242475e-10,4.342551284443164e-10,4.342551170563722e-10,3.884143042704146e-19,0.0000032308143086573364,0.0000032308143086562768,0.000003230701825600125,0.0000032307006673386067,0.0000032308352635885966,0.0000032308166705358497,0.0000032308166705351785,0.0000032311396008661034,0.0000032311360807283762,0.000003231136080729436,0.0000032308143086600088,0.0000032308143086600084,1.1582614975477189e-12,-1.3343798764666066e-10,-2.053208893069439e-20,0.0000032308131504094897,0.0000032312474055238738,0.000003231247405523894,0.000003231247405512506,0.000003230813150395838,0.000003230814308657336,0.0000032306832325479405,0.000003230701825600104,0.000003230700667339472,0.000003230835263588596,0.0000032308166705364325,0.000003230816670535567,3.0433727806970144e-10,3.2293033329422033e-10,3.229303339654694e-10,3.00817129604134e-10,3.008171269313534e-10,3.0081712654294534e-10,3.008171265429508e-10,0.00000323081315039543,0.0000032308131504068178,0.000003230813150409684,0.0000032312474055238738,0.000003231247405512486,0.0000032312474055102022,0.0000032306832325479206,0.0000032306832325479206,0.0000032306785541460227,0.0000032308352635889845,0.0000032308352635889845,3.5201409822868725e-12,4.3777526634702254e-10,3.0433727804963885e-10,3.2293033329422033e-10,3.217720604070484e-10,3.2177206107829206e-10,2.996588654333362e-10,2.996588654333365e-10,2.996588654345533e-10,0.0000032307006673392776,0.0000032306785541576936,0.0000032306785541605604,0.0000032306785541609686,0.0000032312474055242825,4.35413378942328e-10,3.043372666800772e-10,3.043372666800772e-10,0.0000032307006673389947,0.0000032308352635889845,0.000003231269518703174,4.3777526653978525e-10,4.377752663470228e-10,3.0317901924399534e-10,2.9965887884408427e-10,3.217720604271047e-10,3.252921988271601e-10,3.2529219882669057e-10,4.5988844795084235e-10,4.3777525497867256e-10,0.0000032307006673396672,-1.1248305578287917e-10,-1.1248304439446638e-10,-1.1248304150764926e-10,2.2113207616501725e-11,3.229303341799786e-10,3.264504737129858e-10,3.264504623250425e-10,0.0000032312695187029802,0.00000323126951870298,0.000003231269518714562,4.5988846179754445e-10,4.598884616231636e-10,-1.089629023618552e-10,-1.0896291374979849e-10,-1.0896291603370074e-10,2.56333337617004e-11,2.563333376123091e-11,2.5633333761230912e-11,2.5633333761236347e-11,-1.1248305578287998e-10,-1.1248305578287917e-10,-1.1248305578240966e-10,-1.1248304417996035e-10,2.211320761650253e-11,3.229303341787734e-10,3.264504737129858e-10,3.2529221221496887e-10,4.598884619903071e-10,0.0000032312695187166518,0.000003231269518716846,4.598884618176071e-10,4.598884616231636e-10,2.563333537435952e-11,-1.0896291642210335e-10,-1.0896291603369449e-10,2.563333376170664e-11,2.5633333761706644e-11,3.5201403994424405e-12,3.5201403994416327e-12,2.2113193340060377e-11,2.2113193340050948e-11,2.2113193340521252e-11,4.342551143840555e-10,3.008171267579271e-10,3.0081712608667804e-10,3.0433728074080113e-10,4.3777526836694543e-10,3.5201548280446718e-12,0.000003230835263602462,0.000003231269518716846,0.0000032312509256642954,4.377752686509884e-10,4.3777526865098814e-10,-1.310760953340234e-10,-1.345962357351397e-10,-6.71248283630817e-19,8.157980557985873e-25,-4.686774856911477e-22,-4.694850994440928e-22,2.211319295164314e-11,2.211319295164314e-11,4.563683071412554e-10,4.3425511438406194e-10,3.008171267579271e-10,3.0081713747462134e-10,4.6784156753362514e-12,3.5201548480978466e-12,3.5201548280446794e-12,0.0000032308352635912686,0.0000032308352635912703,0.000003230813150398318,4.377752688454264e-10,4.377752688454324e-10,2.996588786489152e-10,2.9965887864891436e-10,-1.3459623554069626e-10,1.4254698389172442e-17,1.1582643643028022e-12,1.1582641698585668e-12,2.211319295164314e-11,4.5636830714125457e-10,4.5636830714126087e-10,2.996588652599099e-10,3.008171381458704e-10,-1.3343797404268527e-10,4.67841586977968e-12,3.520155042542082e-12,3.5201436345361885e-12,0.0000032308387837293845,0.000003230838783728998,0.000003230816670536046,3.5201405955605486e-12,4.38933516283189e-10,3.043372805468365e-10,3.043372805468365e-10,3.008171401469324e-10,4.354133899423333e-10,4.3541338994185784e-10,4.3541337768822123e-10,2.5633333351548017e-11,4.598884475411657e-10,4.598884475411657e-10,3.043372785457745e-10,-1.2991783364277417e-10,4.678415481371615e-12,3.520153983354418e-12,3.520143654598784e-12,3.520140767781664e-12,2.5633333934409752e-11,0.000003230838783728998,3.5201405951004823e-12,3.520140400657056e-12,4.377752545890466e-10,3.0433726629166297e-10,3.043372689639803e-10,3.008171399520198e-10,3.008171399520198e-10,3.008171399520135e-10,0.000003231113967535402,4.598884475612221e-10,4.598884475411657e-10,3.252921986114571e-10,3.043372812180856e-10,-1.2991783364278123e-10,4.678415481370807e-12,3.52014307174729e-12,3.5201407878440026e-12,-1.3107610833630778e-10,-1.1248305578410003e-10,-1.1248305597684378e-10,-1.345962489289572e-10,-1.3459624979464978e-10,0.000003231112809259844,3.008171258917581e-10,2.9965886439374794e-10,2.996588784540023e-10,2.9965887845447176e-10,0.0000032311128092739043,0.0000032311128092739043,4.563683071617867e-10,4.563683071617929e-10,3.2177206962002764e-10,-1.3343797404267984e-10,-1.334379740426861e-10,-1.334379740426861e-10,-1.345962377362087e-10,-1.3107610872471664e-10,-1.3107610833630858e-10,-1.1248305645534049e-10,-1.1248305664762421e-10,-1.3459624961979943e-10,-1.3459624979418027e-10,-1.3459624979540111e-10,-1.3459624979540111e-10,2.9965886439422683e-10,2.996588643954383e-10,2.9965887578338153e-10,0.000003230678554160387,0.000003230678554160387,4.5636831854973e-10,4.563683187441797e-10,2.996588793201635e-10,-1.3343797404267984e-10,-1.334379740426861e-10,-1.334379742371295e-10,-1.3459623840745784e-10,3.520139728655531e-12,3.5201397286557815e-12,2.2113192302146986e-11,2.2113192476527816e-11,-4.956474150900411e-19,-1.8841744097707515e-20,1.2302117452616999e-27,-1.3459624912415206e-10,2.996588643954288e-10,2.996588643954385e-10,0.0000032312474055203577,0.0000032308131504095113,0.000003230813150409491,4.5636831874417347e-10,4.342551257720044e-10,4.377752688442204e-10,1.1582750814721662e-12,1.1582750814721662e-12,-6.712490991512777e-19,-6.712490991470224e-19,3.52013972865578e-12,3.52013972865578e-12,1.2208527794536898e-21,1.756016840569814e-19,1.756016840569814e-19,-2.0053167676402093e-20,-2.0062595646947486e-20,-1.3459624912415123e-10,2.996588650666779e-10,0.0000032311128092598456,0.0000032312474055203374,0.0000032308131504095117,1.4039722311850523e-17,2.2113193166618658e-11,4.342551143840549e-10,4.3425512844431556e-10,4.354133892710836e-10,1.1582748870287381e-12,-6.712490991512777e-19,-3.3138350895364266e-35,3.5201403999048797e-12,3.5201403999143083e-12,1.2208527794536898e-21,1.956642809341426e-19,1.756016840569814e-19,-2.0062596877161205e-20,-2.006178954525658e-20,2.9965886504540393e-10,0.0000032311128092605156,0.0000032311349224528167,0.0000032312695187133284,0.0000032308352636017912,2.2113207011897544e-11,1.9444342881684102e-19,4.342551143840549e-10,4.3541338994232654e-10,4.575265827200645e-10,4.3541338974788926e-10,2.672317335132863e-18,6.238673201429322e-24,3.5201403999143083e-12,3.5201403999143083e-12,1.2208527794531175e-21,1.95664280934142e-19,1.9566428008848742e-19,1.743870691050765e-19,-2.005555143585944e-20,2.9965886504540393e-10,2.9965886504540393e-10,0.0000032311349224645727,0.0000032308352636021796,0.0000032308131504092077,1.442813036287857e-17,1.944434275866293e-19,-5.733799484414021e-34,4.3541338974788306e-10,4.3541338974788306e-10,4.3541338974788926e-10,4.3541338974788926e-10,1.5667028305891026e-23,3.520140399920547e-12,3.520140399920547e-12,1.2270906070004677e-21,1.2270906070024468e-21,1.2176614110791356e-21,4.342551141896185e-10,4.342551141896185e-10,2.9965886504540393e-10,2.9965887682175526e-10,0.0000032306785541600835,0.0000032308131504092276,0.0000032308131504092276,1.4448662453034636e-17,9.428636954790552e-24,9.42863695421823e-24,1.1582614980266326e-12,4.354133897478925e-10,4.354133897478925e-10,4.354133897478925e-10,4.3425512824988153e-10,4.377752572618431e-10,4.342551141896271e-10,4.342551141908386e-10,4.342551141908299e-10,4.342551141908299e-10,4.377752545895234e-10,4.377752659774604e-10,3.0317901685330844e-10,-1.3107609466399275e-10,0.000003230700667353747,0.0000032308131504092276,0.000003230813150409899,0.000003230813150409899,9.428636954791084e-24,9.428636954791084e-24,9.428636954791084e-24,1.1582614980266326e-12,1.1582755582810271e-12,1.406026463063739e-17,4.3425512824987605e-10,4.3425512824987615e-10,4.3425512824987615e-10,4.342551282510781e-10,4.342551282510781e-10,4.342551282510781e-10,3.5201544601600893e-12,3.5201544601600893e-12,3.5201544601592827e-12,3.5201544601592827e-12,0.00000323081667054989,0.00000323081667054989,0.0000032308166705385225,0.00000323081667053585,9.428636954791084e-24,9.428636954791084e-24,9.428636954791084e-24,9.428636954791084e-24,9.428636954791084e-24,1.406026463063739e-17,1.4060255202000433e-17,1.406025521018415e-17,1.406025521018415e-17,1.4061466633762845e-17,1.4061466633762845e-17,1.4061466633758593e-17,1.4060255210179897e-17,3.5201544601592827e-12,3.5201544601592827e-12,3.5201544601592742e-12,0.0000032308166705385022,0.0000032308166705385225,0.00000323081667053585,3.5201403999143083e-12,0.0000032311396008693382],[0,0,0,0,0,0,0,0,0,0,0,0,0,0,0,0,0,0,0,0,0,0,0,0,0,0,0,0,0,0,0,0,0,0,0,0,0,0,0,0,0,0,0,0,0,0,0,0,0,0,0,0,0,0,0,0,0,0,0,0,0,0,0,0,0,0,0,0,0,0,0,0,0,0,0,0,0,0,0,0,0,0,0,0,0,0,0,0,0,0,0,0,0,0,0,0,0,0,0,0,0,0,0,0,0,0,0,0,0,0,0,0,0,0,0,0,0,0,0,0,0,0,0,0,0,0,0,0,0,0,0,0,0,0,0,0,0,0,0,0,0,0,0,0,0,0,0,0,0,0,0,0,0,0,0,0,0,0,0,0,0,0,0,0,0,0,0,0,0,0,0,0,0,0,0,0,0,0,0,0,0,0,0,0,0,0,0,0,0,0,0,0,0,0,0,0,0,0,0,0,0,0,0,0,0,0,0,0,0,0,0,0,0,0,0,0,0,0,0,0,0,0,0,0,0,0,0,0,0,0,0,0,0,0,0,0,0,0,0,0,0,0,0,0,0,0,0,0,0,0,0,0,0,0,0,0,0,0,0,0,0,0,0,0,0,0,0,0,0,0,0,0,0,0,0,0,0,0,0,0,0,0,0,0,0,0,0,0,0,0,0,0,0,0,0,0,0,0,0,0,0,0,0,0,0,0,0,0,0,0,0,0,0,0,0,0,0,0,0,0,0,0,0,0,0,0,0,0,0,0,0,0,0,0,0,0,0,0,0,0,0,0,0,0,0,0,0,0,0,0,0,0,0,0,0,0,0,0,0,0,0,0,0,0,0,0,0,0,0,0,0,0,0,0,0,0,0,0,0,0,0,0,0,0,0,0,0,0,0,0,0,0,0,0,0,0,0,0,0,0,0,0,0,0,0,0,0,0,0,0,0,0,0,0,0,0,0,0,0,0,0,0,0,0,0,0,0,0,0,0,0,0,0,0,0,0,0,0,0,0,0,0,0,0,0,0,0,0,0,0,0,0,0,0,0,0,0,0,0,0,0,0,0,0,0,0,0,0,0,0,0,0,0,0,0,0,0,0,0,0,0,0,0,0,0,0,0,0,0,0,0,0,0,0,0,0,0,0,0,0,0,0,0,0,0,0,0,0,0,0,0,0,0,0,0,0,0,0,0,0,0,0,0,0,0,0,0,0,0,0,0,0,0,0,0,0,0,0,0,0,0]],"LastChangeOutput":[[-0.00024255018403730275,-0.0002489928453628053,-0.001332023105763329]],"Regression":false,"Rate1":0.65,"Rate2":0.1}
8924,-4.502829297258563e-7,-7.256860920446797e-7,-2.5238026672697037e-7,-2.522409348562678e-7,-2.522409302660835e-7,-2.522479927260363e-7,0.000004194084120421397,0.000004167586288739368,-4.5497768151871183e-7,2.2475593380529884e-8,0.000004987705820619607,0.0000048979556034482875,0.00000487094754851349,-2.6339835821255885e-8,-2.63398358206978e-8,-2.747237636288106e-7,-1.8509129297111544e-7,-1.8509835551451203e-7,0.000004712321292772946,0.000004172155662821121,-7.251386077552158e-7,-7.032030910067758e-7,-2.523800891721889e-7,-2.522407606143913e-7,0.00000464517182971926,0.000004920027682075626,0.0000044689401449335985,0.00000444244958927924,0.000004419973825027772,-4.5094799157765393e-7,0.0000049877128811615615,0.000004897948151085494,0.000004870947720753902,0.000004871079986704875,-2.6339661583176636e-8,2.2615089676571497e-8,-1.6260829524985644e-7,-1.6261535448034684e-7,0.000004234868017718514,0.000004145650594349456,0.000004145783031295955,0.000004618692454984338,0.0000046185490013969875,0.000004871054292887085,0.00000487105429747727,0.000004897552303396258,0.000004447000503008577,0.000004419973821560186,0.0000044199738248725845,-4.774459977152506e-7,0.00000498771288113659,0.000004510259606110342,0.000004443003958528641,0.000004443136219741753,-4.542834318580663e-7,-7.026673596650402e-7,-1.8857762580557725e-7,0.0000047088420224835574,0.0000042578795198832845,0.0000041681334211449595,0.000004168273311734732,0.000004596745754065458,0.000004596594850122228,0.000004596727112823132,0.000004596727117413314,-2.582961606761715e-8,0.000004420502497079815,0.000004420502497081495,0.000004419966371265729,-4.769246061508062e-7,-3.3817920747955565e-7,0.0000045327610659209905,0.000004443003958377208,0.0000041681481014561694,0.00000419475973889255,0.000004619209553826204,0.000004708842017892253,0.000004257886753357344,0.000004532735372155062,0.000004442970642202225,0.000004920582439057184,-2.7819106742650855e-7,-3.0082480148134814e-7,-3.006999858239613e-7,-3.0069292327998784e-7,-3.006929179693592e-7,0.000004871450313322778,0.000004420495044201457,0.000004145639191929696,-7.517804564168053e-7,1.1279469283619989e-7,0.000004983716335047207,0.000004618574699690263,0.000004618574695065969,0.000004596205499782399,0.000004596198051514843,0.000004685830515555379,-3.6119054366093365e-7,-3.387149503395021e-7,0.000004469468643536502,0.000004920574984107363,-3.871348912119661e-9,-4.022246291875378e-9,-3.012215967981253e-7,-3.0122159348577716e-7,-3.012215934857775e-7,-3.013538627528708e-7,0.000004145639191929694,0.000004168122018724588,0.000004168122018665543,1.1279469268476859e-7,8.576801124333634e-8,0.000004596091872984298,0.000004596205503069779,0.000004596205503069793,-2.63657445258073e-8,-3.6105827764824546e-7,-3.6105827764712505e-7,-3.610655065309968e-7,0.000004469600913992818,0.000004920556357532971,0.000004893529672775975,2.260802564639135e-8,2.2615088190366177e-8,-2.517120806549312e-7,-2.7873876541247025e-7,-2.7821008983320006e-7,0.000004168254289353046,0.000004443110137035178,0.000004443110136976097,1.1279469268590329e-7,-2.1157066982802817e-7,0.000004596073238479769,0.000004596205503070913,0.0000045962055050729474,1.3226139979001557e-10,-3.610582730569252e-7,-3.6105827305807593e-7,-3.6106550653099664e-7,9.041843814033709e-8,0.000004920556183295433,0.000004920027678675464,2.260803023657935e-8,2.260802564641205e-8,2.2615096096705925e-8,-2.522407594630044e-7,-2.782100898081978e-7,0.000004168254284762862,0.0000044206273102396915,0.0000044200986347195165,1.1277606152131639e-7,-3.013540310968508e-7,0.000004596073233889585,0.000004596205503130008,0.000004897559363269184,-4.5081555745630855e-7,-4.5095526915001403e-7,-3.6119053904691426e-7,8.976473339279878e-8,9.02934089129495e-8,0.000004898080593286366,0.000004920027678675467,2.2475764222806362e-8,2.247575963260679e-8,2.2615091506521865e-8,-2.747235829461275e-7,-3.0069292119386936e-7,0.000004145646642313204,0.000004420502494585486,0.000004419973823655499,-1.2176201072668155e-15,-3.0135386472823967e-7,0.000004596073233918312,0.000004596205503154977,0.000004897559363294155,-4.50815552841155e-7,-4.509552691250442e-7,-3.6119053904691426e-7,8.976473008043664e-8,9.029340891293689e-8,0.000004898080593286367,0.0000049200276819915895,0.000004919902862869901,2.248320999224574e-8,2.2622538574974265e-8,-2.741874570663522e-7,-3.0068546752190337e-7,-7.517730059742849e-7,0.000004419973819065315,0.000004419973819002478,-1.2778345375930963e-15,0.000004596065783558081,0.00000459606578355754,0.000004596205499841479,0.0000044466040954446254,-4.5081555284283105e-7,-4.5095526912618043e-7,-3.611905390469001e-7,8.976473008043664e-8,-3.6066186021326116e-7,0.000004536890054063031,0.000004446604098822081,0.000004468947593743652,-4.2847205913400286e-7,-4.2847205910903583e-7,-7.251427294458494e-7,-7.516407399642505e-7,-7.516407399642337e-7,0.000004419966368701919,0.0000044199663686428396,0.000004897419643697257,0.000004596065783558081,0.000004596198049571904,0.000004596205504431663,0.000004145250237307469,-4.5094781885663917e-7,-4.5095526912618043e-7,-4.5095526912618043e-7,-3.611905390457625e-7,-3.6066186352562517e-7,-3.605295942244236e-7,0.000004446596648462442,-4.2847205123144217e-7,-4.284720591339913e-7,-4.284795094686734e-7,-7.251572423494763e-7,-7.51648185733704e-7,-7.516481857299443e-7,0.000004419966373295859,0.000004509731103316061,0.000004897419643697257,0.000004897551912358324,0.0000045961980541620874,0.000004596205504431663,-7.521694109799857e-7,-4.5094781885663917e-7,-4.509552691267217e-7,-4.5095526912618043e-7,-4.509552691250416e-7,-3.611905390707677e-7,-3.610582697445966e-7,-3.6105826974949006e-7,-4.2847243904709067e-7,-4.284795061562955e-7,-7.033353617409755e-7,-7.251572423494741e-7,-7.516552482739359e-7,-7.516481857294031e-7,0.0000044200986392505744,0.000004536229109240508,0.0000048975519143012635,0.000004897551912299244,0.000004871053906433862,-3.012141438552514e-7,-7.523016769937943e-7,-7.258036710693346e-7,-7.258111213984967e-7,-4.509552691267217e-7,-4.5095526915001107e-7,8.97647300554457e-8,8.989699606925315e-8,1.1237982617221184e-7,-6.135635612395879e-7,-1.6260829208894624e-7,-2.5238008464937747e-7,-3.0083224516151766e-7,-3.006999791477206e-7,-3.8703466592233743e-7,-3.8703466598141793e-7,0.000004536750725529054,0.000004897551912299244,0.000004897551912299241,-2.6365741853595325e-8,-2.6490557597285068e-8,-3.013464078670396e-7,-3.0134640786758226e-7,-2.7485585221320344e-7,-2.7485585229725314e-7,-2.748558522961139e-7,-2.748558522961508e-7,-1.849588562068191e-7,-1.6247602941247067e-7,-6.135635612151596e-7,-1.6260829202986648e-7,-1.8509111882159806e-7,-2.1106044922588193e-7,6.39206065162538e-8,-3.8703466266903937e-7,-3.870346626690409e-7,0.000004536882991542875,0.0000048974196462854325,-2.002024133082709e-15,-2.002024133087095e-15,-2.64905575077679e-8,-4.0077287102575654e-9,-2.6490555530714352e-8,-3.0135385816263414e-7,-2.748558522381738e-7,-2.748558522370345e-7,-2.748558522999106e-7,-2.5237302550442214e-7,-2.523730254203729e-7,-1.626082953422291e-7,-1.626082953422291e-7,6.326672752625712e-8,6.379540304643305e-8,6.379540304643305e-8,-3.870276001250515e-7,-4.5029432427987086e-7,0.000004446596645175048,-2.005778728316547e-15,-2.030750889358441e-15,-2.873092109869977e-17,-2.4973722461920877e-17,-4.015179094866248e-9,-2.649800589035452e-8,-2.6498005890319277e-8,-2.6498005890319277e-8,-2.6498005894076477e-8,-4.015179097485615e-9,2.2482826851944988e-8,2.2482826851944988e-8,-4.015179073653883e-9,-2.649800586538514e-8,-2.649800586538253e-8,-2.6498005865383914e-8,-2.6498005924462246e-8,-4.5095526912621463e-7,-4.5095526912621463e-7,-4.5082300311240603e-7,-3.758760400051199e-18,-2.872831803462167e-17,2.2482826766760126e-8,2.2482826766759083e-8,2.2482826766759444e-8,-4.015179098623273e-9,-4.015179098588035e-9,-4.015179098588035e-9,-4.015179073618473e-9,-4.015179072516053e-9,-4.015179072516053e-9,-4.015179072516053e-9,-4.015179069892527e-9,-2.649800586538253e-8,-2.6498005924462246e-8,-2.6498005924462246e-8,-1.2006942161076056e-21,-4.5095526912621304e-7,-4.5095526912621304e-7,-4.5095526912621304e-7,0.000004258037860949547],[2.916797281278183e-12,2.9167754108882057e-12,2.9167352895704642e-12,-3.650905246176744e-17,-2.1870635907591295e-17,-1.8051236052482096e-17,-1.969759255533108e-17,2.770746896004684e-12,2.7711943589613453e-12,4.2878792243897756e-16,4.50657850746862e-16,2.25175830768893e-12,2.251754505791362e-12,2.853258313507802e-12,2.8459099199897552e-12,2.7970761922314673e-12,2.0293446345260185e-12,2.0781784064113923e-12,-1.7357667548353463e-13,-1.1739445039313645e-13,2.9167754107390542e-12,2.91677541073896e-12,2.916779090512326e-12,2.9167391085751425e-12,4.2885478677646894e-16,4.288552020798597e-16,4.2776538423603455e-16,2.6538008544300223e-12,2.6538008546759526e-12,2.203350136951236e-12,2.2033720068795437e-12,2.2029245357244858e-12,2.8532615679218615e-12,2.853261612532065e-12,2.7970745462111122e-12,2.797075102828927e-12,2.6796816580835473e-12,2.0781783618011844e-12,2.0781794911789173e-12,-1.174080438591545e-13,2.9172228734497872e-12,2.9172265927829474e-12,2.9172303723769815e-12,2.9171860151625217e-12,4.2885520207985974e-16,4.2885520207985974e-16,4.2770584423019424e-16,2.6538008544301055e-12,4.8567228002649554e-12,2.0859572883044774e-12,2.2033726625181774e-12,2.8532622191133494e-12,6.015065506285086e-13,5.453232357090958e-13,5.453232357090958e-13,5.452975102066952e-13,2.6796451048825473e-12,2.07814294344354e-12,2.0781429825881248e-12,2.134369008758461e-12,2.7998440758140243e-12,2.917252282052719e-12,2.9172522827420684e-12,2.9172516866435208e-12,4.507255920575545e-16,4.506577541560717e-16,-4.838744999504534e-14,4.856718959172401e-12,4.856719048586198e-12,4.85672012994573e-12,2.853258402664597e-12,6.014814254092752e-13,6.014841470057117e-13,5.941204986786099e-13,5.941204544725393e-13,5.941215442903903e-13,5.941177334167498e-13,2.0781867446137175e-12,2.0781867836792324e-12,2.134369008758461e-12,-1.169459345476009e-13,2.7998588377306253e-12,2.9168048111254385e-12,2.9168042065797466e-12,3.1952893527690802e-18,-4.8834387686206175e-14,-4.885678304939064e-14,2.085504953200039e-12,4.856271577094368e-12,5.5066315512503865e-12,6.507845249401051e-13,6.503370226694833e-13,5.941318824654683e-13,-5.6216012546330256e-14,5.941204540572455e-13,3.4211141638030794e-12,3.3649281273774625e-12,-1.7355373864018925e-13,2.0782013828146266e-12,2.134339845947333e-12,4.905132165116183e-12,2.7994113750198928e-12,2.9168042548378844e-12,2.9168041563408174e-12,-4.879058694823527e-14,-4.883383151262097e-14,-4.885563369971694e-14,2.7358419763422642e-12,5.50660860017819e-12,5.555465368305957e-12,6.503370978037732e-13,2.7707655030405856e-12,2.7145614080330455e-12,2.7145505803232763e-12,3.421106870425886e-12,3.4211506719322967e-12,3.316134674956523e-12,2.029389480778491e-12,2.0781794515727563e-12,2.1343617157965704e-12,4.905117526512104e-12,5.570134203676365e-12,5.687570848356591e-12,2.9168003449728026e-12,-4.879058694823527e-14,-4.885619843958607e-14,2.202899487834169e-12,5.55544234171696e-12,5.555464202590123e-12,3.3037102468511423e-12,2.7707666770478654e-12,2.714583277950183e-12,2.714579558628099e-12,2.7145795586281102e-12,2.7708125585569248e-12,3.4211495816991496e-12,5.453669917284297e-13,2.6796865137032496e-12,2.029345679608227e-12,2.1343617157964856e-12,4.905128445841334e-12,7.82190024446041e-12,7.939326466810062e-12,7.890487197976512e-12,4.973730038019918e-12,4.973664426607637e-12,4.973664991535035e-12,5.5554423326536434e-12,5.555464202590127e-12,3.3037091571235387e-12,2.770765587691598e-12,2.714583277950183e-12,-5.618703470308245e-14,-5.618703470307205e-14,4.5965225742595465e-17,6.503829883679678e-13,5.453669921900039e-13,2.679686514164827e-12,2.0293451235311434e-12,2.134361159719401e-12,2.784697229288468e-12,7.821898598096503e-12,7.939321101120306e-12,7.773090033897866e-12,4.856300084762806e-12,4.856314782957118e-12,4.905104762215431e-12,2.784697609250769e-12,5.555464202590127e-12,3.3037091569360013e-12,2.5972337189469172e-12,-1.735329590352803e-13,-1.7358047944846195e-13,-1.1735500980561406e-13,-1.173512904723584e-13,5.329895840631097e-13,4.772110296474836e-13,5.457707108755696e-13,-2.2196356796484397e-13,-1.169476104698895e-13,2.784697229288468e-12,8.472235621650267e-12,7.773050083805567e-12,7.7730905909309e-12,7.77306822400402e-12,2.0855482291940007e-12,2.134338208444138e-12,2.1343600691297773e-12,2.7846976488188357e-12,3.2475268723056003e-12,2.597233659406914e-12,-1.7353353555405396e-13,-1.1695135912212802e-13,-1.1690640866199753e-13,-1.1690268932497704e-13,-1.168999673132314e-13,4.772110296363186e-13,5.457707024172636e-13,-2.2195920049281187e-13,-1.1694324299785822e-13,2.784701505422678e-12,3.4497192130930937e-12,6.171633631834546e-12,5.52131472851021e-12,5.521314788050298e-12,-1.173757498909323e-13,2.134361168111139e-12,2.1343600095896892e-12,2.7846970327400788e-12,3.2475274145814426e-12,2.7146265476135594e-12,-5.5692619042861674e-14,4.420856232649668e-16,4.869765322159981e-16,6.508266296007468e-13,6.508310570936985e-13,5.945831609920598e-13,3.4625065489761192e-12,3.4620601754751365e-12,2.7431634795519662e-12,2.7846807248969068e-12,5.329255440512504e-13,6.289005206236322e-12,6.289045196248579e-12,5.638708223512139e-12,4.656544034299106e-16,2.2522020159252422e-12,2.2522009261280697e-12,2.679681035516647e-12,3.1986926121787428e-12,3.316129858135638e-12,3.3727594505483294e-12,3.518695225923752e-12,3.5182921122030284e-12,3.5182958315400474e-12,3.5671187761978936e-12,3.5108939440777597e-12,3.4620601273263493e-12,3.4620601353581907e-12,2.694325856596848e-12,2.784680715380186e-12,2.679664659246833e-12,6.2332742075911445e-12,6.233310438848334e-12,5.582973415706101e-12,-5.571712216414662e-14,2.203368249030457e-12,2.8537053317334276e-12,2.6801285718921885e-12,3.199140083936449e-12,6.233349127909875e-12,6.289083881421919e-12,3.5182478587427282e-12,3.5182916003049975e-12,3.5182953195880232e-12,2.8679491154049452e-12,3.462060112365665e-12,3.4620601716196646e-12,5.453029154871743e-13,-1.0504159331973892e-13,2.07863080884175e-12,5.45090055425074e-12,6.2332741680312575e-12,6.233266081210393e-12,3.511377060934842e-12,6.019902240435977e-13,2.8537016123944512e-12,2.7975231066541993e-12,2.680129128442103e-12,4.283740467017804e-13,6.3383656815228055e-12,5.63919433046905e-12,2.867910835459427e-12,-4.8817221448215925e-14,-4.8816131688774433e-14,-4.879426185131125e-14,6.015033272758694e-13,5.453211024137869e-13,5.453205458751271e-13,-1.0502028882781594e-13,4.90557962726333e-12,5.50708277934122e-12,6.2894557916412035e-12,6.289448261827981e-12,3.5182780068809305e-12,6.015427764007392e-13,2.853254095694867e-12,2.195569175974066e-12,2.0786221129891904e-12,4.772040993329705e-13,3.4215901639856914e-12,2.7224193248874033e-12,-4.83911095564361e-14,-4.879430633161175e-14,-4.8794315386754097e-14,-4.8794315802063104e-14,-4.883430594046315e-14,5.453205368199827e-13,5.457680680467948e-13,5.457642654828209e-13,4.905579596758589e-12,4.85674572077384e-12,6.289022967592953e-12,3.518278006423771e-12,3.518278006427534e-12,-4.879369066440203e-14,2.1956129770564444e-12,2.1956129770651734e-12,2.0782221618351993e-12,4.772515807620013e-13,6.508272903909368e-13,6.019934738441739e-13,4.864544439715392e-16,4.875442618145e-16,4.907514310733274e-16,-4.8343124702934393e-14,-4.833926912058916e-14,5.458155377815604e-13,5.458124345269687e-13,5.458086235741718e-13,4.905579596837657e-12,4.856275882010822e-12,3.518256374191591e-12,3.5182780065028415e-12,3.518299876434914e-12,4.008137911252052e-17,2.195616696468769e-12,2.19561669637776e-12,2.0782221713056487e-12,2.134404432852513e-12,5.334338458738658e-13,6.508272453469603e-13,4.901828324567977e-16,4.864624758081487e-16,4.912717873257341e-16,4.906561702353771e-16,-4.833926021194856e-14,5.458118184520703e-13,5.453649631801553e-13,5.453649276056704e-13,2.134813003968051e-12,-1.6624583277517776e-13,3.518252654866511e-12,3.5182818174555535e-12,3.5671342049380186e-12,2.860615007190246e-12,-5.6182226077153787e-14,2.195572896167295e-12,2.251755130329748e-12,2.251755166324638e-12,6.50380908671217e-13,6.508272453470452e-13,4.463897731845998e-16,4.4266138478354345e-16,4.875524540691789e-16,4.319346326922521e-17,-4.879044225217347e-14,3.462092353684693e-12,3.462092961316215e-12,3.4620966360783258e-12,9.167918862504081e-20,-4.8856106752228616e-14,3.5182526554885003e-12,3.5182818179171288e-12,3.5671342053958304e-12,2.8606187269850655e-12,-5.618222520027532e-14,2.195572896175469e-12,2.2517551303297526e-12,2.2517551663246357e-12,6.50380908671217e-13,6.508272450921576e-13,3.567555211534571e-12,2.917214469059092e-12,2.9172593519935623e-12,2.9168150282648367e-12,2.867981347919853e-12,2.811755321738425e-12,3.4620929167450706e-12,3.4620891056431147e-12,-3.71935259360698e-18,6.014809163109261e-13,6.014808567902685e-13,3.518281817838056e-12,3.5109556995596105e-12,2.860618667365992e-12,-5.6182225279347376e-14,2.195572896175469e-12,2.2517551303297514e-12,2.1955729414217653e-12,2.845953764598866e-12,3.510970397112997e-12,3.5113729778206753e-12,2.8610322355327222e-12,2.8610322359942143e-12,2.860636614127146e-12,2.8117991226764405e-12,2.811799122676524e-12,5.453211179729013e-13,5.45317306604886e-13,6.503333038007967e-13,6.014809163302694e-13,6.015247174213774e-13,3.5182855371713086e-12,3.4621251820092175e-12,2.860574866690188e-12,-5.618222527934734e-14,-5.6182225279347376e-14,2.195572905239354e-12,2.195572941006457e-12,2.1956167414566424e-12,5.941985984354338e-13,2.861035954678457e-12,2.8610322355326382e-12,-5.5739562624946976e-14,-5.613627431362303e-14,-1.0496895660946692e-13,-1.049689564601391e-13,5.453248370400971e-13,2.7970761475422015e-12,6.503333038007967e-13,6.503627652577346e-13,6.015284367546315e-13,3.5182855371713086e-12,2.8117881592822963e-12,2.860574866690188e-12,-5.6182284819346623e-14,-5.618222527934574e-14,-5.618221656042288e-14,2.1955728959235095e-12,2.1956166968270947e-12,2.1956166965987787e-12,-5.57347541228613e-14,-5.5739562624941454e-14,-5.574017870360849e-14,-5.6136274321796466e-14,-1.0497004628624148e-13,-1.0496889692830924e-13,5.453648271703156e-13,2.8459099194984705e-12,6.503808242333324e-13,6.503589543050228e-13,6.015289932932921e-13,2.8679485735690855e-12,2.8117443581911907e-12,2.8605781211004788e-12,-5.618284135800565e-14,-5.6182284819346623e-14,-5.61822170219955e-14,2.2517551210139076e-12,2.2517989219174884e-12,2.2522463934550596e-12,2.196019810793213e-12,2.2522019768051827e-12,4.495768220053707e-16,-4.883163134209737e-14,-4.878783025090597e-14,2.1467856821921754e-12,2.146781871239464e-12,2.845908865255033e-12,6.503589543050245e-13,6.503589543049394e-13,-4.880802984901806e-14,2.8679053290166374e-12,2.8679266428215897e-12,2.8679265742264334e-12,3.194685104286167e-18,-6.171444859764365e-19,-6.080102597282185e-19,-6.165195676659684e-19,2.25179830587711e-12,2.252245777376307e-12,2.1960197517147846e-12,2.252205787757895e-12,2.251758307273637e-12,2.2029245799388255e-12,2.202967907282578e-12,2.146781871239469e-12,2.146781871239469e-12,2.845952666346138e-12,6.503151532138322e-13,-2.186992839293695e-17,-2.1869928392938938e-17,2.867919967679037e-12,2.8683893097885275e-12,2.867941828506002e-12,-4.883057774091739e-14,3.1938044593072215e-18,3.20293868802924e-18,-6.166688979544014e-19,4.468550969814221e-16,4.506665112682931e-16,2.2522057879454143e-12,2.2522057879454143e-12,2.2029251513878554e-12,2.2029251964327915e-12,2.2029251964327915e-12,2.14678296148079e-12,-5.6138388009581594e-14,5.941985905030914e-13,-2.187007755305862e-17,-2.1870539213261882e-17,-6.109054233341788e-22,-4.616602012818728e-22,-4.838248929220977e-14,-4.8829970113235257e-14,-4.882996166609439e-14,-4.882996166609439e-14,-4.8829961815339646e-14,-4.838248936238457e-14,4.512830636346634e-16,4.512830636346634e-16,-4.838248897987988e-14,-4.8829960596514017e-14,-4.882996059642894e-14,-4.8829969651575086e-14,-4.8833771549140706e-14,-5.618222467509481e-14,-5.618222467509481e-14,-5.6138423583987595e-14,-1.4924525600760686e-22,-6.108203569630305e-22,4.474711550589856e-16,4.474711549739192e-16,4.474715702773458e-16,-4.838249849660114e-14,-4.838249004946027e-14,-4.838249004946027e-14,-4.838248958788521e-14,-4.838248890080948e-14,-4.838248890080948e-14,-4.838248890080945e-14,-4.8382488830549596e-14,-4.882996059642894e-14,-4.8833771549140706e-14,-4.8833771549140706e-14,4.153033927027226e-22,-5.618222467509481e-14,-5.618222467509481e-14,-5.618222467509481e-14,8.367674327939684e-12],[1.7590824823151343e-11,1.7590824762424356e-11,1.7592565474648638e-11,-1.0429733052601198e-16,-6.815842845209785e-20,7.133070753105953e-19,-1.8441319703269114e-17,6.870347410395565e-17,1.271344845716043e-16,3.999269782396631e-17,4.0052983815327726e-17,2.1833604017299017e-13,2.1833526090093853e-13,2.1836095182684346e-13,-6.1776560479042506e-12,-6.177659687775799e-12,-6.384753928258386e-12,-6.384750268737126e-12,-6.603099788441877e-12,-2.070791276677251e-13,1.759082476242435e-11,1.7590824762424347e-11,1.759256547705129e-11,1.7592566248682703e-11,3.998433375442082e-17,3.998705356256368e-17,3.9984979133005616e-17,-2.069569127522541e-13,-2.069569053208121e-13,2.1839074276109835e-13,2.183908030470899e-13,2.1833237990853676e-13,2.183425785472363e-13,2.183426016601866e-13,-6.177678840425717e-12,-6.177659687130421e-12,-6.384743726900568e-12,-6.384750291850241e-12,-6.384745398711586e-12,-2.0718338530969414e-13,1.7590883186003393e-11,1.7592628791694292e-11,1.7592624674664382e-11,1.7592605522429202e-11,3.998705356256369e-17,3.998705356256369e-17,3.9984943881441504e-17,-2.0695691275225736e-13,1.1417888799784363e-14,1.1330746607281486e-14,2.1841484669865672e-13,2.1836175380634802e-13,-1.1809073286930808e-17,-6.3960324719218735e-12,-6.396032471921865e-12,-6.396033334593803e-12,-6.3848480469032065e-12,-6.384854583945535e-12,-6.384849695601117e-12,1.1170967575686946e-14,1.7383903385029705e-11,1.7592629626125963e-11,1.759262962917516e-11,1.759260558555884e-11,4.0047780308703876e-17,4.0045552135644455e-17,5.475868595961037e-17,1.1412211473321278e-14,1.141710684265733e-14,1.1417106724159091e-14,2.1836583976490107e-13,6.500759686697373e-18,7.278398827549455e-18,-6.396133111266916e-12,-6.396133131660055e-12,-6.396133129585882e-12,-6.396133908115252e-12,-6.384854580799689e-12,-6.384849693198465e-12,1.1170967575686946e-14,-2.070207306950363e-13,1.7385545586685392e-11,1.759257120559578e-11,1.7592547159786363e-11,-1.8370595464770056e-17,-2.2817452483101197e-17,-3.727898879430337e-18,1.1266643135193892e-14,1.1358683592654606e-14,1.1368942068601267e-14,7.35128401857124e-17,1.0198197175089813e-17,-6.3960105018244464e-12,-6.396124180465533e-12,-6.396133134379864e-12,-2.5324335065022174e-17,-6.396046764079593e-12,-6.603104755405885e-12,-6.384750344636909e-12,1.1275202078758343e-14,1.1363199202265561e-14,1.7385487163106355e-11,1.7592552055451213e-11,1.759254716718307e-11,-2.2810363771897506e-17,-3.660300033011286e-18,-3.7257892915976656e-18,1.1276841773203456e-14,1.1368874910668741e-14,1.137262588726238e-14,1.511237366938913e-17,8.713955874095444e-17,-6.395933581501572e-12,-6.396037038832528e-12,7.896699124523101e-17,7.897211345782965e-17,-6.395945348181955e-12,-6.38475394461562e-12,-6.384750287496763e-12,1.1275261621556801e-14,1.1258969918729803e-14,1.7385574331043295e-11,1.7592639197636654e-11,1.7592546385190695e-11,-2.281036352320395e-17,-2.2873103128893045e-17,2.1835068572262917e-13,1.1367644854855105e-14,1.1367705140330196e-14,-2.0698178488146522e-13,9.205581018949253e-17,-6.395933521215576e-12,-6.397679126906491e-12,-6.397679126906498e-12,6.876868145910113e-17,7.896731922012502e-17,-6.3960324930735765e-12,-6.384742969850886e-12,-6.38475394776122e-12,1.1275261621553e-14,9.617600831344855e-15,1.7602287372724635e-11,1.7811012760922483e-11,1.7810984275694542e-11,2.1841874040477992e-13,2.184186784083673e-13,2.1843782583364827e-13,1.1367644854244213e-14,1.1367705140495627e-14,-2.069817862127014e-13,9.205417675946592e-17,-6.395933521215576e-12,-6.397766268980497e-12,-6.3977662689805025e-12,-1.8373392545883324e-17,-8.174754784859425e-18,-6.3960324926325826e-12,-6.384742969409879e-12,-6.3847730998725696e-12,1.1256109510203677e-14,9.52150285444137e-15,1.7602268218183727e-11,1.780924800060479e-11,1.7602154630233473e-11,1.1230404488302868e-14,1.1334641126743595e-14,1.1338293775605273e-14,1.1280563065981885e-14,1.1367705140495581e-14,-2.0698178632413952e-13,-6.603012643964879e-12,-6.603104700657325e-12,-6.6048503087508926e-12,-2.0884879812643733e-13,-2.0710319243551128e-13,-2.0708732021427722e-13,-6.6030495598115224e-12,-6.395969178112902e-12,-6.603064195793398e-12,-2.0704476581876476e-13,9.52150285444137e-15,1.760227841945568e-11,1.7602160301630463e-11,1.7602173786248834e-11,1.7602154573445747e-11,1.125239011681e-14,1.1256042765585429e-14,1.1256102939773881e-14,1.1285454130218691e-14,-6.6030024471337835e-12,-6.603012644000371e-12,-6.6031189621809325e-12,-2.0878548592079168e-13,-2.0878548140829864e-13,-2.070398756315047e-13,-2.0703909527256264e-13,-6.603049559811358e-12,-6.395969180305663e-12,-6.6030442639686504e-12,-2.0702483399402178e-13,1.1286263731645109e-14,1.738560162763859e-11,1.738383524404065e-11,1.7383824205612627e-11,1.7383824205647876e-11,-2.0884396474698202e-13,1.1256104382969441e-14,1.1256102904523565e-14,1.1266301542619352e-14,-6.603021604931183e-12,-6.395947756782582e-12,-6.395976498831236e-12,-1.7014461504841772e-15,-1.7014416734014692e-15,5.436338668717787e-17,7.429568785690308e-17,-6.3959464277748464e-12,1.1196615447250376e-11,1.1196557027938161e-11,1.0989466449794455e-11,1.128620280001391e-14,-2.0706820800394914e-13,1.7590919220804754e-11,1.7590918444020783e-11,1.759090824467429e-11,-1.6823488807077329e-15,2.183985750167302e-13,2.1839856636566162e-13,-6.384758019496079e-12,-6.603025267234831e-12,-6.395941218485471e-12,1.3784239079634244e-16,1.7590969912766555e-11,1.7590930646861803e-11,1.75926762526386e-11,1.7592576448692858e-11,1.1196555817972815e-11,1.1196552134595226e-11,1.1196552134068505e-11,1.0989457117130964e-11,1.1286202358489371e-14,-6.384738118274366e-12,1.1196702611670383e-11,1.1194951338131533e-11,1.1194941139493352e-11,-6.397727030158403e-12,2.183900468013339e-13,2.1840023889778733e-13,-6.384704463832209e-12,-6.602966843655103e-12,1.1196786976546799e-11,1.7592749213852814e-11,1.7590911515055095e-11,1.7590911517422337e-11,1.7592657115793353e-11,1.7592562614891914e-11,1.1196552150353116e-11,1.1196552155731653e-11,-6.396013400954139e-12,-6.397769961442692e-12,-6.384686173188116e-12,-6.384597383839778e-12,1.1196697720606408e-11,1.1194932183176692e-11,1.1194848703769633e-11,-1.6997707244454563e-15,2.1665463986955228e-13,-6.1776204218763636e-12,-6.384685311279856e-12,-6.603034833617669e-12,1.7592830450137846e-11,1.7592797441514263e-11,1.7590901316416996e-11,-1.7684531088837817e-15,-1.7684583544469145e-15,-1.768390748293502e-15,-1.7382654079922393e-15,-6.397758925438953e-12,-6.397778077991298e-12,-6.397789053709483e-12,1.1421629660289039e-14,1.1423276934625649e-14,1.7592699205274438e-11,1.759095282075194e-11,1.759080725758726e-11,-1.7582173811852594e-15,2.1659619273604366e-13,-6.179411860522082e-12,-6.386437478898365e-12,-6.604776779044132e-12,-1.5849247265620705e-15,-1.5988061898038288e-15,-1.6908421714420264e-15,-1.7684138615052578e-15,-1.7684138618701133e-15,-1.7684165816711938e-15,-1.7676397119203777e-15,-6.397778077991821e-12,-6.397719655120213e-12,-6.3977204395198504e-12,1.141673859683716e-14,1.1413055184104285e-14,1.759274501829893e-11,1.759080725706064e-11,1.7590807257146508e-11,-1.7492639078454856e-15,-6.179411851456662e-12,-6.179411858119429e-12,-6.384750294272916e-12,-6.6030360592949735e-12,7.353201135329906e-17,6.985595367851944e-17,-1.6871795048529035e-15,-1.687177430428824e-15,3.929610154411318e-17,3.5612688638168265e-17,3.641507425910287e-17,-6.39597405174795e-12,-6.397700504851276e-12,-6.397701284123849e-12,1.1416739340030337e-14,1.1335419544636838e-14,1.7592657876967948e-11,1.759080725780384e-11,1.7590807318175693e-11,-1.7456029001988254e-15,-6.177666245022304e-12,-6.177666245851711e-12,-6.384750291552583e-12,1.1270390471250556e-14,-2.0701050701558823e-13,7.351577713570812e-17,5.842618659167569e-17,-1.6871800317391278e-15,5.842773377814085e-17,3.9275587018850493e-17,3.6417708182427473e-17,-6.3977196573529964e-12,-6.397758925625153e-12,-6.397758948737676e-12,1.1329597707009199e-14,-2.071061332981049e-13,1.7590912271277117e-11,1.7590808037076415e-11,1.7590830130992508e-11,1.1194799271614895e-11,-6.396020658193686e-12,-6.177666245007685e-12,2.1835440910449224e-13,2.183544299131745e-13,1.511124942109616e-17,7.351577713748325e-17,5.842325704870389e-17,-1.6871824343975665e-15,-1.6871779571470505e-15,-1.9147905980981226e-17,-1.7676114758989757e-15,1.119489169127842e-11,1.1194910841673086e-11,1.1196656431570955e-11,-1.7448256750822839e-15,-1.767698778033341e-15,1.7590912271718124e-11,1.7590808037517415e-11,1.759083013134763e-11,1.1196544877746806e-11,-6.396020655032878e-12,-6.1776662450073496e-12,2.1835440910432677e-13,2.1835442991316908e-13,1.511124942110296e-17,7.351305749403486e-17,1.759273839378836e-11,1.7590982589459424e-11,1.7590982592184577e-11,1.7592650644907434e-11,1.7590902158224637e-11,1.1194881495047663e-11,1.1194910825880037e-11,1.1194910046607467e-11,-1.7456056908447929e-15,-1.7575008832169867e-15,-1.7575009183678023e-15,1.7590808036774054e-11,1.119655507552104e-11,1.1196544876968367e-11,-6.396020655776071e-12,-6.1776662450073456e-12,2.183544091045671e-13,-6.1776662307492996e-12,-6.177656032980795e-12,1.1196659311607534e-11,1.1196717730709839e-11,1.119496192649235e-11,1.119496192693335e-11,1.1196630763405686e-11,1.119488149736444e-11,1.119488149736444e-11,-6.3977589460991315e-12,-6.39775972809151e-12,-1.735407052991916e-15,-1.7575008831303696e-15,-1.757498480471715e-15,1.7592553642464973e-11,1.1196533041976805e-11,1.1196544877285531e-11,-6.39602065577607e-12,-6.396020655776071e-12,-6.1776662516695786e-12,-6.177666233469273e-12,-6.177666231618796e-12,-6.396010467605757e-12,1.1196707532072e-11,1.119496192649235e-11,-6.3977078449599475e-12,-6.396039010647912e-12,-6.396042668837941e-12,-6.396042668837939e-12,-6.3960133431280196e-12,-6.177659711631861e-12,-1.735407052989873e-15,1.092002724701402e-17,-1.189278955560397e-17,1.7592553642464973e-11,1.1196522846058607e-11,1.1196544877285531e-11,-6.396020655811307e-12,-6.39602065577607e-12,-6.396020657752163e-12,-6.177666257023221e-12,-6.177666254731838e-12,-6.177666255475045e-12,-6.395962237746871e-12,-6.3977078449597755e-12,-6.397726997547534e-12,-6.396039010647998e-12,-6.39604267091246e-12,-6.396042668802781e-12,-6.396014119998034e-12,-6.177656051367499e-12,1.0201040671089923e-17,1.0140754679731837e-17,7.259762793418078e-18,1.75925434438622e-11,1.1196522843655948e-11,1.119652650391988e-11,-6.396039808363656e-12,-6.396020655811307e-12,-6.396020658193155e-12,2.183544037509236e-13,2.1835440604214062e-13,2.1841282887867285e-13,-6.177626979530489e-12,2.1839368164941751e-13,4.0048190273663944e-17,-2.2012541479674437e-17,-2.2010139076911252e-17,-6.177669107556908e-12,-6.1776698868294774e-12,-6.177656030329496e-12,1.0140754679732223e-17,1.0140754675944232e-17,-2.9388752199346443e-18,1.759256259401189e-11,1.759254350446534e-11,1.759254350442958e-11,-1.8368316935542728e-17,-1.9150750312668552e-17,-1.9150006596929328e-17,-1.9159605390524368e-17,2.1833525356598644e-13,2.1839367629091005e-13,-6.177626979124734e-12,2.183944609219868e-13,2.183360374533488e-13,2.1833240030169273e-13,2.1835155321741526e-13,-6.177669886829307e-12,-6.1776698868293086e-12,-6.177656027926845e-12,1.0138352022794897e-17,-6.028598879317193e-20,-6.028599716903731e-20,1.7592666830615417e-11,1.7592725317200775e-11,1.7592666893179698e-11,-2.2029022395889427e-17,-1.837156362119864e-17,-1.8370819898393295e-17,-1.9159605400214905e-17,3.9263974160516715e-17,4.0043687729499687e-17,2.1839446103325248e-13,2.1839446103326084e-13,2.1835152977648876e-13,2.1835155560934302e-13,2.1835155560909438e-13,-6.1776698820349754e-12,-6.396020632539258e-12,-6.396010457014456e-12,-6.028598889115252e-20,-6.072700275579644e-20,-4.410113980965977e-22,-4.410054955604037e-22,5.55448664790813e-17,-2.8787136043076585e-18,-2.876520676909852e-18,-2.876520676909852e-18,-2.8765206848288957e-18,5.554560966423348e-17,5.92063151195306e-17,5.92063151195306e-17,5.554530747286302e-17,-2.878272071573658e-18,-2.8782720677856853e-18,-2.8782725924663682e-18,-3.657544637084418e-18,-6.396020658054336e-12,-6.396020658054336e-12,-6.396020655651684e-12,-7.925866838432866e-27,-4.410076100971526e-22,5.842313855110498e-17,5.842313854732377e-17,5.842585835748319e-17,5.55448659485049e-17,5.554705887590273e-17,5.554705887590273e-17,5.554749987357041e-17,5.554605066391771e-17,5.554605066391771e-17,5.554605066593426e-17,5.554530749093621e-17,-2.87827207616152e-18,-3.6575446454602515e-18,-3.657544645460266e-18,2.7198165119415596e-21,-6.396020658054336e-12,-6.396020658054336e-12,-6.396020658054336e-12,1.1206208222623296e-11],[-6.822577374852908e-10,-6.792400012606005e-10,-6.792229602791631e-10,3.0222176153499396e-12,3.0177362558523496e-12,-2.786337433388156e-10,-2.764628098208763e-10,-2.764635048226104e-10,-3.86105291242215e-8,-3.861342331921935e-8,-3.861354539941734e-8,-2.795912627065471e-10,2.0602168090552456e-12,-4.430938770820132e-9,1.980882425807754e-8,1.9809946163090195e-8,2.4241897495971017e-8,2.4240774968451245e-8,2.4240885791407167e-8,1.2486765896610418e-16,-6.792393454488904e-10,-6.792393454204096e-10,-6.792414081365684e-10,-9.608737840020418e-10,-3.861052777335088e-8,-3.861052777335102e-8,-3.861052777334862e-8,-3.861052826282395e-8,-3.861052826285508e-8,-3.860951596255757e-8,-3.860963804275556e-8,-2.7846873518657836e-10,-4.7104193168599155e-9,-4.710419939338856e-9,1.981211709663667e-8,1.9809946163092455e-8,1.9809946914337255e-8,2.4240775590930272e-8,2.424077558702735e-8,5.228734905181286e-15,-3.901330496481665e-8,-3.9013307031404814e-8,-3.929495850706733e-8,-3.929276846985491e-8,-3.861052777335102e-8,-3.861052777335102e-8,-3.861052766322649e-8,-3.861052826285193e-8,-3.861168749963558e-8,-3.8611686148756794e-8,-3.861180909032121e-8,-4.709695326938164e-9,-4.710309222632549e-9,1.9530576443909396e-8,1.9530576443909396e-8,1.981235062614168e-8,1.98100740984049e-8,2.424090215251635e-8,2.4240902148615968e-8,-2.6216211049932533e-15,-3.901330869500191e-8,-3.929508059117046e-8,-3.9297976247164735e-8,-3.9295805309748716e-8,-3.8613545509575744e-8,-3.8613546055254346e-8,-3.833294298173221e-8,-3.833293232802721e-8,-3.8330036786042483e-8,-3.833003678600545e-8,-4.428043228832815e-9,-4.4278109403964704e-9,-4.712358075947515e-9,1.952958047797827e-8,1.95295811004571e-8,1.9529581100455198e-8,1.9811232580009697e-8,2.424088304881858e-8,2.4240883044918403e-8,-2.6216211049932533e-15,-3.833116921603812e-8,-3.929797615176004e-8,-9.639112835975869e-10,-9.617403461420484e-10,-2.794804359177143e-10,3.293571183579299e-12,1.244717833715135e-12,1.1345321004536185e-12,1.1331773712226964e-12,-4.4280438284296806e-9,-4.2763120548903736e-8,-4.429054925635458e-9,1.981195219862551e-8,2.3959360748575335e-8,1.9529581100457236e-8,-4.711325020624127e-9,1.9814107781468636e-8,2.4243885050282653e-8,2.4243774223426214e-8,2.907656683884934e-12,-2.817635323611071e-10,-9.639105323922799e-10,-9.617403501087022e-10,-9.617402360911544e-10,3.274467445991942e-12,1.1226376415911531e-12,1.2446077096916008e-12,-4.43081604953317e-9,-4.430817404235809e-9,-4.432062634426963e-9,-4.42905555197532e-9,2.894305158818967e-12,2.4243902051896442e-8,2.396225505373183e-8,-4.708536822516791e-9,-4.708555926214492e-9,1.9533452267845263e-8,2.424477467074819e-8,2.4243671246925982e-8,2.7855764860884324e-12,-2.8175905099707433e-10,-9.63893401993565e-10,-9.61741700954988e-10,-6.800887565362853e-10,3.274467445991942e-12,3.415541233498805e-12,1.1337808530531621e-12,-4.4319399278950915e-9,-4.432062008053451e-9,-4.431951807570522e-9,2.8936787769214577e-12,2.4243779971698417e-8,2.4243782038315057e-8,2.4243782038315097e-8,-2.766053445783215e-10,-4.708555926211948e-9,1.9533453618689113e-8,1.9531191713257595e-8,2.424479377447443e-8,2.785576514568494e-12,-2.817614657710566e-10,-9.640066436239876e-10,-9.640233512053444e-10,-6.790784067121007e-10,3.162289750204679e-12,3.3033635375135324e-12,1.1324300091372178e-12,-4.431939927855459e-9,-4.432062008053536e-9,-4.431951807568316e-9,-1.977218923584975e-15,2.4243779971698417e-8,2.4243783389156813e-8,2.4243783389156842e-8,-2.766039937365706e-10,-4.708554575370197e-9,1.953055796269089e-8,1.952829605725884e-8,2.4244069051991714e-8,2.0608540318520128e-12,-4.711539763058566e-9,-9.61835710119621e-10,-9.618503510707616e-10,-6.790755888501544e-10,3.289602583422338e-12,3.285011071177421e-12,2.1815872494993007e-12,-4.4320606572117e-9,-4.432062008053536e-9,-4.431951807563781e-9,2.4240865336867824e-8,2.4243762970087404e-8,2.424378414040161e-8,5.050303680068398e-12,5.0482370629544794e-12,-4.711449484037883e-9,-1.8804610333208197e-8,-1.880348855697246e-8,-1.4089885744510325e-8,-3.833189393466932e-8,-4.711539763058566e-9,-5.393786291739815e-9,-9.60707968608768e-10,-6.812465223660278e-10,-6.789536188026341e-10,3.286358012406764e-12,2.1829341907286724e-12,2.06085403685332e-12,-4.432060661112305e-9,1.980893396909735e-8,2.4240865446989446e-8,2.424593400982404e-8,-3.832899610580866e-8,-3.832901531963033e-8,-3.832901738626105e-8,-3.861356452181173e-8,-1.8804610333208286e-8,-1.880348855693311e-8,-1.4373708157580676e-8,-3.861571634773964e-8,-4.7137121073376596e-9,-5.395847004054785e-9,-5.39471865689032e-9,-6.810136192144655e-10,-6.810137293645989e-10,2.2767239917084578e-12,2.0608540189605725e-12,2.060964186952874e-12,-4.42988961744667e-9,1.9811104902625954e-8,2.4243035629288694e-8,-1.4088132360799635e-8,-3.832899685705351e-8,-3.832901596075347e-8,-4.2760968609015046e-8,-4.304768678820569e-8,-1.8806659937770658e-8,-1.948777810674097e-8,1.884628751265357e-8,2.3277116318012023e-8,-4.713590027141393e-9,-4.7134797459755145e-9,-5.3945973279369874e-9,-5.112964296253236e-9,-6.81013824700897e-10,-3.8333959814174575e-8,-3.833200475065833e-8,-3.833200475062961e-8,1.981211923245297e-8,1.981222797586687e-8,1.981220746505804e-8,-4.2759847432294635e-8,-4.344194800492111e-8,-5.1100724227554366e-9,-5.1100744893856495e-9,-5.395739671041891e-9,1.8845164366579247e-8,1.8846288172418352e-8,1.8846288172378975e-8,2.3559890984840915e-8,-4.710694371103507e-9,1.9528418277107317e-8,-1.9487779314020496e-8,-1.920614486765974e-8,-1.4774194286025523e-8,-1.4090903832697896e-8,-3.833088284171681e-8,-4.2762833533474135e-8,-1.8521947115654496e-8,-1.8521837643540557e-8,-1.9201207020391998e-8,-5.1080270675286575e-9,-5.107883118114487e-9,-5.1079021116903454e-9,-5.107904178280394e-9,-9.626665285158612e-10,1.884628766008759e-8,1.8846287549939315e-8,1.9531424634989043e-8,2.424502814034402e-8,-1.4372045822535787e-8,-1.880287511344105e-8,-1.948777931011998e-8,-1.9203954830446646e-8,-1.9205095110850348e-8,-4.2762739633577564e-8,-4.27628314668975e-8,-1.852194786693463e-8,-1.8524118049198508e-8,-1.8521111570244566e-8,-4.3445386147995496e-8,-3.901014210530256e-8,-6.759318806406227e-10,6.293647824218494e-12,6.293647848443909e-12,6.1722234634275515e-12,-4.709581667542677e-9,1.953130334315648e-8,1.9533474276671976e-8,2.4247076337861034e-8,-3.861293283991705e-8,-4.304376078000904e-8,-4.372359842053537e-8,-4.344484053036225e-8,-5.110792663863312e-9,-4.428674157692608e-9,-4.425870224853038e-9,2.4243672562324597e-8,-1.409039230583114e-8,-1.8522232031147893e-8,-4.276313890349805e-8,-3.833296082786819e-8,-3.833004471340162e-8,6.172190102797305e-12,6.172190142381256e-12,6.172190142017046e-12,-2.7546018571506894e-10,1.9533474276711608e-8,-1.8800591452817196e-8,-1.8518939973275312e-8,-3.861293283605616e-8,-3.861181023177623e-8,-5.389537282558232e-9,-5.107897007852045e-9,-5.107897007865144e-9,4.001146423732135e-12,2.424365345858703e-8,2.424365345862704e-8,2.4243652143257508e-8,-1.852225385340188e-8,-4.27660352752446e-8,-4.276491212527217e-8,-3.833118634458003e-8,-3.83311863445824e-8,-3.832901875600258e-8,-3.832789549588193e-8,-3.8609547597944146e-8,-1.880350816904936e-8,-1.880567714606987e-8,-1.8524025666486663e-8,-3.861293283605636e-8,-2.7545105293697057e-10,-5.389535275876438e-9,-5.107897007852243e-9,-5.108019088063334e-9,2.8786189035624943e-12,2.4243651391970194e-8,2.424365139198399e-8,2.424365214321774e-8,-1.298017550684606e-13,-4.276603517984067e-8,-4.276313899676591e-8,-3.8331188411264785e-8,-3.833118634461929e-8,-3.8331189067078576e-8,-3.833191367943959e-8,-3.8612443253953356e-8,-1.8803506102446288e-8,1.9528388473323807e-8,1.9528389095791634e-8,-3.861582714121283e-8,-2.753388752382743e-10,-5.389533209259795e-9,-5.389548487407003e-9,-5.111312549099346e-9,2.3561523588992393e-8,2.424378132252419e-8,2.4240774839669593e-8,-1.1082686966878793e-13,-1.1144930470933535e-13,